FANN_FLO_2.1
num_layers=3
learning_rate=0.700000
connection_rate=1.000000
network_type=0
learning_momentum=0.000000
training_algorithm=2
train_error_function=1
train_stop_function=1
cascade_output_change_fraction=0.010000
quickprop_decay=-0.000100
quickprop_mu=1.750000
rprop_increase_factor=1.200000
rprop_decrease_factor=0.500000
rprop_delta_min=0.000000
rprop_delta_max=50.000000
rprop_delta_zero=0.100000
cascade_output_stagnation_epochs=12
cascade_candidate_change_fraction=0.010000
cascade_candidate_stagnation_epochs=12
cascade_max_out_epochs=150
cascade_min_out_epochs=50
cascade_max_cand_epochs=150
cascade_min_cand_epochs=50
cascade_num_candidate_groups=2
bit_fail_limit=1.00000000000000005551e-01
cascade_candidate_limit=1.00000000000000000000e+03
cascade_weight_multiplier=4.00000000000000022204e-01
cascade_activation_functions_count=10
cascade_activation_functions=3 5 7 8 10 11 14 15 16 17 
cascade_activation_steepnesses_count=4
cascade_activation_steepnesses=2.50000000000000000000e-01 5.00000000000000000000e-01 7.50000000000000000000e-01 1.00000000000000000000e+00 
layer_sizes=17 11 2 
scale_included=0
neurons (num_inputs, activation_function, activation_steepness)=(0, 0, 0.00000000000000000000e+00) (0, 0, 0.00000000000000000000e+00) (0, 0, 0.00000000000000000000e+00) (0, 0, 0.00000000000000000000e+00) (0, 0, 0.00000000000000000000e+00) (0, 0, 0.00000000000000000000e+00) (0, 0, 0.00000000000000000000e+00) (0, 0, 0.00000000000000000000e+00) (0, 0, 0.00000000000000000000e+00) (0, 0, 0.00000000000000000000e+00) (0, 0, 0.00000000000000000000e+00) (0, 0, 0.00000000000000000000e+00) (0, 0, 0.00000000000000000000e+00) (0, 0, 0.00000000000000000000e+00) (0, 0, 0.00000000000000000000e+00) (0, 0, 0.00000000000000000000e+00) (0, 0, 0.00000000000000000000e+00) (17, 6, 5.00000000000000000000e-01) (17, 6, 5.00000000000000000000e-01) (17, 6, 5.00000000000000000000e-01) (17, 6, 5.00000000000000000000e-01) (17, 6, 5.00000000000000000000e-01) (17, 6, 5.00000000000000000000e-01) (17, 6, 5.00000000000000000000e-01) (17, 6, 5.00000000000000000000e-01) (17, 6, 5.00000000000000000000e-01) (17, 6, 5.00000000000000000000e-01) (0, 6, 0.00000000000000000000e+00) (11, 6, 5.00000000000000000000e-01) (0, 6, 0.00000000000000000000e+00) 
connections (connected_to_neuron, weight)=(0, 1.66423903814143203661e+00) (1, 7.56309726221591760442e-01) (2, 8.66627656800777246282e-01) (3, 8.73965472860366632268e-01) (4, 8.33300025148422052190e-01) (5, 3.73476259163242843897e+02) (6, 2.09590177935268046072e-01) (7, 8.39748220773391285121e-01) (8, 8.64798590301918608247e+01) (9, 9.16621789599661951797e+02) (10, 1.05137360574106608624e-01) (11, 2.35298276427907626651e-01) (12, 2.54331163354547806765e-01) (13, 2.10490518438337659290e-01) (14, 4.06547111007756756251e-01) (15, 8.51661183540696975491e-01) (16, 9.89686084451815162311e-01) (0, 2.70906513254802572277e+00) (1, 2.62129995032611584627e-01) (2, 3.59365346833530163728e-01) (3, 2.87390778764548993074e-01) (4, 3.83447471066776013338e-01) (5, 9.12131962063848722444e-01) (6, 6.76984642073348852342e-01) (7, -3.75714504880358735051e-01) (8, 2.66775004322919243038e-02) (9, 1.33739125671542224971e+00) (10, 4.71648544476046316376e-01) (11, -4.08844838315078729085e-01) (12, 9.30384370395951676436e-01) (13, -8.48479586919141604007e-01) (14, -6.47271138736725371032e-01) (15, 6.31531567912926448116e+02) (16, 2.91262990069492189171e-01) (0, 3.91288452968886812933e-01) (1, 7.62136166484548627231e-01) (2, 8.38031259865953503940e-01) (3, 8.77483186812593518589e-01) (4, 7.84853187890245496128e-01) (5, 1.55998639546395196476e+02) (6, 1.77005429337785236132e-01) (7, 4.35416580064638310432e+02) (8, 6.68617090988934736906e-01) (9, -3.83820021893398388713e+00) (10, 6.58190508753298653133e-01) (11, 3.85331355048218138215e-01) (12, 7.82557379358568006023e-02) (13, 2.75177317629910378471e-01) (14, 5.34860251105951811645e-01) (15, 1.60998377955679727869e+00) (16, 3.31926777208280732179e-01) (0, 7.75662412034985176978e-02) (1, -5.64131771747798937966e-02) (2, -3.11504674677582395204e-02) (3, -6.71064143602582152681e-02) (4, -4.94701765224653082498e-03) (5, -3.56204728885830146368e+00) (6, 7.27354902982444095905e-01) (7, -7.29634453451116882228e-01) (8, 1.11285908056542828803e-01) (9, -5.69920895810167671414e+00) (10, 7.20836378187731385836e-02) (11, 3.57595716289496934337e-01) (12, 7.68994668966499761442e-02) (13, -5.19852974045562521432e-01) (14, -3.69831035089308979291e-01) (15, -9.87841652126925993116e+01) (16, -2.16334441917658687471e-03) (0, 4.09079139534612146178e+00) (1, 2.30151325721614619102e-01) (2, 1.27987515438668986167e-01) (3, 2.16621160764568110313e-01) (4, 1.60837680358760615196e-01) (5, 5.89257524539850918721e-01) (6, 8.62576603237444117234e-01) (7, 1.67135576982330474882e-01) (8, 2.52405415610929776543e-03) (9, 1.80156944634950044737e+00) (10, 5.38821574111081336156e-01) (11, 3.95420052377338293592e-01) (12, 4.41200230577531882226e-01) (13, 1.60669228592848767345e-01) (14, 2.60736316721682515052e-01) (15, -4.86261682409945827921e-02) (16, 9.42762383243920115694e-02) (0, 3.69135257389564319652e+00) (1, 3.93923453102488010935e-02) (2, 8.75237106392759839357e-02) (3, 1.63608536780871727245e-01) (4, 8.17910998175520459474e-02) (5, 1.31147744536449839536e-01) (6, 4.67982124807647559273e-01) (7, -1.82888191054022902771e-01) (8, -1.06663668891928936633e-01) (9, -1.14067028222323085807e+00) (10, -8.18081512269277361105e-02) (11, -6.60568733300848420775e-01) (12, 2.99359054093859787427e-02) (13, -4.29278195800976924978e-01) (14, -1.67705100980105958897e+00) (15, -1.09442082240823412853e+00) (16, 1.89314547152054854506e-02) (0, 5.79093402178757155063e-01) (1, 7.60865341294384212034e-01) (2, 7.92404248732900828855e-01) (3, 8.72716616261577815550e-01) (4, 7.51278150249099940794e-01) (5, 1.32051578080947482619e+01) (6, 1.15872093061969369532e-01) (7, 3.71950454236608933911e+01) (8, 9.97338217706329022150e-01) (9, 3.73803090385110081684e+01) (10, 5.37453891937165889603e-02) (11, 3.72957550088905132046e-01) (12, -2.44672221899890117783e-03) (13, 3.75672834625940421649e-01) (14, 3.23444058822697000366e-01) (15, 1.42114074646352150921e+00) (16, 5.27652434556978189306e-01) (0, -1.88492133762109270734e-01) (1, 7.04607204141204090941e-02) (2, -4.47760685739929664706e-02) (3, -4.79254438934738832834e-02) (4, -6.22092201767379948674e-02) (5, 8.55267484133994781992e-01) (6, 1.71091762506793976240e-01) (7, 1.07264859098010201244e+00) (8, 4.95067558112161798523e-01) (9, 3.10011460202758248883e+00) (10, 2.19413759921798390967e-03) (11, 6.01373159441750737564e-01) (12, -1.63909117165273350569e-02) (13, 7.79501027579220573394e-01) (14, 3.16384161593625368170e-01) (15, 1.20071065179657954225e+00) (16, 6.45506337479733321993e-02) (0, 2.78427520293062213952e+00) (1, 3.58211655383925464680e-01) (2, 3.31621308093886402180e-01) (3, 2.05763023560862484684e-01) (4, 1.98659215336661282292e-01) (5, 2.03616432244525746853e+00) (6, 2.04704017180470987380e-01) (7, -3.60154229141285475713e-01) (8, -6.18941560630407658361e-02) (9, 1.56480576869132947948e+00) (10, 3.02577250108732820344e-01) (11, 3.39910208650939071884e-01) (12, 2.00277314779641668618e-01) (13, -8.20665147604774380952e-01) (14, -5.97912033209324511596e-01) (15, 6.31570703592529071102e+02) (16, -6.01623278876561168316e-02) (0, 1.38600856227013208288e-01) (1, 2.56373899337297428414e-02) (2, 4.83544262405878541577e-02) (3, 1.39753380632067214506e-01) (4, 4.31481765862947938550e-02) (5, -1.60194448824718493896e+00) (6, 5.65532380685466407044e-01) (7, -5.14485058847167220364e-01) (8, 3.25619909458236378441e-01) (9, -2.57483625932487258936e+00) (10, 1.81259843391394309675e-01) (11, 5.52259691208908165549e-01) (12, 1.74462872249479039599e-01) (13, -3.10539982861685215365e-01) (14, 1.59452494904802871689e-01) (15, -2.77680515959133300541e+00) (16, -2.03115833055128487683e-02) (17, -3.72549206695236279074e-01) (18, 2.90719024325120478647e-01) (19, -2.32572485341361601119e-01) (20, -1.80476595479968471292e-01) (21, 7.41470194482606426156e-01) (22, -5.36248215059803245985e-01) (23, -2.86328120528270835266e-01) (24, 1.59492332249512092091e+00) (25, 2.80270304716432105963e-01) (26, -3.24500844708018154616e-01) (27, 1.68596507861352107316e-01) 
