FANN_FLO_2.1
num_layers=3
learning_rate=0.700000
connection_rate=1.000000
network_type=0
learning_momentum=0.000000
training_algorithm=2
train_error_function=1
train_stop_function=1
cascade_output_change_fraction=0.010000
quickprop_decay=-0.000100
quickprop_mu=1.750000
rprop_increase_factor=1.200000
rprop_decrease_factor=0.500000
rprop_delta_min=0.000000
rprop_delta_max=50.000000
rprop_delta_zero=0.100000
cascade_output_stagnation_epochs=12
cascade_candidate_change_fraction=0.010000
cascade_candidate_stagnation_epochs=12
cascade_max_out_epochs=150
cascade_min_out_epochs=50
cascade_max_cand_epochs=150
cascade_min_cand_epochs=50
cascade_num_candidate_groups=2
bit_fail_limit=1.00000000000000005551e-01
cascade_candidate_limit=1.00000000000000000000e+03
cascade_weight_multiplier=4.00000000000000022204e-01
cascade_activation_functions_count=10
cascade_activation_functions=3 5 7 8 10 11 14 15 16 17 
cascade_activation_steepnesses_count=4
cascade_activation_steepnesses=2.50000000000000000000e-01 5.00000000000000000000e-01 7.50000000000000000000e-01 1.00000000000000000000e+00 
layer_sizes=15 11 2 
scale_included=0
neurons (num_inputs, activation_function, activation_steepness)=(0, 0, 0.00000000000000000000e+00) (0, 0, 0.00000000000000000000e+00) (0, 0, 0.00000000000000000000e+00) (0, 0, 0.00000000000000000000e+00) (0, 0, 0.00000000000000000000e+00) (0, 0, 0.00000000000000000000e+00) (0, 0, 0.00000000000000000000e+00) (0, 0, 0.00000000000000000000e+00) (0, 0, 0.00000000000000000000e+00) (0, 0, 0.00000000000000000000e+00) (0, 0, 0.00000000000000000000e+00) (0, 0, 0.00000000000000000000e+00) (0, 0, 0.00000000000000000000e+00) (0, 0, 0.00000000000000000000e+00) (0, 0, 0.00000000000000000000e+00) (15, 6, 5.00000000000000000000e-01) (15, 6, 5.00000000000000000000e-01) (15, 6, 5.00000000000000000000e-01) (15, 6, 5.00000000000000000000e-01) (15, 6, 5.00000000000000000000e-01) (15, 6, 5.00000000000000000000e-01) (15, 6, 5.00000000000000000000e-01) (15, 6, 5.00000000000000000000e-01) (15, 6, 5.00000000000000000000e-01) (15, 6, 5.00000000000000000000e-01) (0, 6, 0.00000000000000000000e+00) (11, 6, 5.00000000000000000000e-01) (0, 6, 0.00000000000000000000e+00) 
connections (connected_to_neuron, weight)=(0, 1.57376061493156260696e+00) (1, 3.89916161512025627456e-01) (2, 4.45396373485215935073e-01) (3, 3.58598726307042869887e-01) (4, 2.63504649017938297195e-01) (5, 4.15880599935555650415e-01) (6, 8.55418856304572927662e-01) (7, 2.94648686405057105731e+02) (8, 1.12217231378340498438e+00) (9, 2.94647889856034908007e+02) (10, 7.60645518995912151006e-01) (11, 2.94771712299222144793e+02) (12, 2.57028637077915900200e-01) (13, 5.75384337848714233488e-01) (14, 1.45075753477520913437e-01) (0, 5.71145733469426541973e-01) (1, 6.39521496825557894672e-02) (2, 6.53923618131023592914e-02) (3, 1.86295533412013658570e-01) (4, 8.57304649882656144566e-02) (5, 8.93821775418407238334e-01) (6, 5.57288941849673036266e-01) (7, -2.94791387308174762438e+02) (8, 7.88794535353486495066e-03) (9, -2.94783779747569951724e+02) (10, 1.65919004318649654373e+00) (11, -2.94706507649058494280e+02) (12, 2.05737139725468060059e-01) (13, 1.02330699889583875972e-01) (14, 7.90630901168947075597e-01) (0, 6.59495172673165708233e-01) (1, 6.04509023037407347556e-02) (2, 1.18084104826733801707e-01) (3, 1.68752884587332951938e-01) (4, 1.66534615775630223666e-01) (5, 7.93622816817935894385e-01) (6, 4.66503132988417168470e-01) (7, -2.94750294599467906664e+02) (8, 7.05336712594301085133e-02) (9, -2.94803364898795280169e+02) (10, 1.68375928637916927322e+00) (11, -2.94742066774303111742e+02) (12, 2.08687629246494671387e-01) (13, 4.54130829544938774411e-01) (14, 7.20224184852008675328e-01) (0, 3.31728391602370686897e+00) (1, 4.21339210206947201165e-01) (2, 4.38198264772376777643e-01) (3, 5.74785366738519543084e-01) (4, 5.51094546998224132928e-01) (5, -5.03169954867325519565e-01) (6, -5.70962672080612687608e-01) (7, -4.75639022519556675661e+00) (8, -5.52250117266679496630e-01) (9, -1.38916665341951728330e+00) (10, -1.82373952228370495021e+00) (11, -4.21183832969971039262e+00) (12, 2.98985620016167408242e-01) (13, -4.19596839458642345555e-01) (14, 7.15968042811145344295e-01) (0, 2.87779679719957215411e-01) (1, 2.81550077938414855527e-01) (2, 2.72591604136802001523e-01) (3, 2.06045752608157412000e-01) (4, 3.91875839077807597288e-01) (5, 1.12471369945301491455e+00) (6, 1.10604166565179018455e-01) (7, -2.94767711695069465350e+02) (8, -1.16468347082693490790e-01) (9, -2.94678000431293639849e+02) (10, 1.72949676920932038371e+00) (11, -2.94677107225889358233e+02) (12, 2.13347351418573638604e-01) (13, 1.07609022735281278926e-01) (14, 4.09529761444465068010e-01) (0, 3.07852324908733487874e+00) (1, 4.32122815484485389703e-01) (2, 3.91998484814844005975e-01) (3, 5.38899034345826977166e-01) (4, 4.27971016699752682122e-01) (5, -3.99933127839668056680e-01) (6, -6.81816981837062741079e-01) (7, -4.56841908241478567021e+00) (8, -4.07616235928415560075e-01) (9, -1.30030404802658439145e+00) (10, -2.35956970938554766448e+00) (11, -3.46462107992079104690e+00) (12, 4.92137768025078081724e-01) (13, -5.50615276903806072362e-01) (14, 7.31248438557376423397e-01) (0, 1.48259524741766757217e+00) (1, 4.06768543626303602512e-01) (2, 3.94690854455466200168e-01) (3, 3.54938274229998518283e-01) (4, 4.07707301880354811008e-01) (5, 1.73430706688355051881e+00) (6, 1.24340060551960540636e+00) (7, 2.94676245551342162798e+02) (8, 7.93386314596601804894e-01) (9, 2.94787240188354644488e+02) (10, 2.56263338278741104048e+00) (11, 2.94743002529973182391e+02) (12, 2.51449768986809485405e-01) (13, 4.63024601733973917295e-01) (14, 6.01658700574424165630e-01) (0, 3.05861471658706784993e+00) (1, 5.16319089685425169911e-01) (2, 3.96439963136658246601e-01) (3, 4.62375127826675724751e-01) (4, 4.76280980859741520650e-01) (5, -3.38019536847841084448e-01) (6, -1.07737946023002417739e+00) (7, -4.34386845225994377984e+00) (8, -3.13498377104272585303e-01) (9, -1.53296616362728710392e+00) (10, -2.10158737775267789871e+00) (11, -3.67056179706317431410e+00) (12, -8.16721431895561789105e-03) (13, -4.57999776811299663670e-01) (14, 6.04484035470167713200e-01) (0, 9.52246392016842468919e-01) (1, 4.01501915066516668062e-01) (2, 2.31988011508262426119e-01) (3, 3.97840237825191289645e-01) (4, 3.18933642118251592379e-01) (5, 3.38581328717391771832e-01) (6, 6.69903482994635868231e-01) (7, 2.94815457816952857684e+02) (8, 4.29289422445649992977e-01) (9, 2.94755994591647777270e+02) (10, 8.86905635692270100101e-01) (11, 2.94645720358723792742e+02) (12, 1.49398879409947116237e-01) (13, 4.59839962816527780820e-01) (14, 1.84784814861721963242e-01) (0, 2.98263350194454313069e+00) (1, 5.03641508603772880548e-01) (2, 3.85092377746782177361e-01) (3, 4.11666579628667705926e-01) (4, 3.97495068693837994012e-01) (5, -4.62934738450969274215e-01) (6, -5.72876122664625397896e-01) (7, -5.06551254146405582901e+00) (8, -3.63072444192878374114e-01) (9, -1.22368884601066785223e+00) (10, -1.66038811746476899778e+00) (11, -4.21019108828611710038e+00) (12, 3.88260495835850316659e-01) (13, -5.44796567172704082616e-01) (14, 7.77299709817161121883e-01) (15, 3.66152900002129910728e-01) (16, -1.85685671910094773907e-01) (17, -1.31846137388991868633e-01) (18, -2.05815238819486101551e-01) (19, -2.83970972213722194777e-01) (20, -1.61602018342381914540e-01) (21, 3.38411505065091489097e-01) (22, -2.25700637266999681874e-01) (23, 3.92393442533143399498e-01) (24, -2.21569729910260637684e-01) (25, 2.59849955785925512686e-01) 
