FANN_FLO_2.1
num_layers=3
learning_rate=0.700000
connection_rate=1.000000
network_type=0
learning_momentum=0.000000
training_algorithm=2
train_error_function=1
train_stop_function=1
cascade_output_change_fraction=0.010000
quickprop_decay=-0.000100
quickprop_mu=1.750000
rprop_increase_factor=1.200000
rprop_decrease_factor=0.500000
rprop_delta_min=0.000000
rprop_delta_max=50.000000
rprop_delta_zero=0.100000
cascade_output_stagnation_epochs=12
cascade_candidate_change_fraction=0.010000
cascade_candidate_stagnation_epochs=12
cascade_max_out_epochs=150
cascade_min_out_epochs=50
cascade_max_cand_epochs=150
cascade_min_cand_epochs=50
cascade_num_candidate_groups=2
bit_fail_limit=1.00000000000000005551e-01
cascade_candidate_limit=1.00000000000000000000e+03
cascade_weight_multiplier=4.00000000000000022204e-01
cascade_activation_functions_count=10
cascade_activation_functions=3 5 7 8 10 11 14 15 16 17 
cascade_activation_steepnesses_count=4
cascade_activation_steepnesses=2.50000000000000000000e-01 5.00000000000000000000e-01 7.50000000000000000000e-01 1.00000000000000000000e+00 
layer_sizes=12 11 2 
scale_included=0
neurons (num_inputs, activation_function, activation_steepness)=(0, 0, 0.00000000000000000000e+00) (0, 0, 0.00000000000000000000e+00) (0, 0, 0.00000000000000000000e+00) (0, 0, 0.00000000000000000000e+00) (0, 0, 0.00000000000000000000e+00) (0, 0, 0.00000000000000000000e+00) (0, 0, 0.00000000000000000000e+00) (0, 0, 0.00000000000000000000e+00) (0, 0, 0.00000000000000000000e+00) (0, 0, 0.00000000000000000000e+00) (0, 0, 0.00000000000000000000e+00) (0, 0, 0.00000000000000000000e+00) (12, 6, 5.00000000000000000000e-01) (12, 6, 5.00000000000000000000e-01) (12, 6, 5.00000000000000000000e-01) (12, 6, 5.00000000000000000000e-01) (12, 6, 5.00000000000000000000e-01) (12, 6, 5.00000000000000000000e-01) (12, 6, 5.00000000000000000000e-01) (12, 6, 5.00000000000000000000e-01) (12, 6, 5.00000000000000000000e-01) (12, 6, 5.00000000000000000000e-01) (0, 6, 0.00000000000000000000e+00) (11, 6, 5.00000000000000000000e-01) (0, 6, 0.00000000000000000000e+00) 
connections (connected_to_neuron, weight)=(0, -7.73913976026610228587e+00) (1, -6.83462913578367969869e-01) (2, -6.93586710339403889058e-01) (3, -6.29205870872355466084e-01) (4, -6.74055132513857846455e-01) (5, 1.51935659984777804432e+00) (6, 2.08926904249676276271e-01) (7, 5.40712430669634258606e-01) (8, -8.96342476950854383233e+00) (9, 2.06232412081645843926e+00) (10, -2.60151650039131959735e-02) (11, 4.72334432655878821983e-01) (0, 1.17369515978727978478e+01) (1, 9.56428138747277417631e-02) (2, 1.66540627761131765361e-01) (3, 1.50059585852867660716e-01) (4, 1.80156884176975728984e-01) (5, -1.43145778621281904996e+00) (6, -4.22604901620750372793e-01) (7, -8.28175614029531881322e-01) (8, -1.77215004602378001231e+00) (9, -6.81711109524993030817e-01) (10, -8.72372600176559709340e-01) (11, 3.52682590437649934323e-01) (0, 1.28734346767969043412e+00) (1, 1.43542775298184793753e-01) (2, 2.03732137913531646811e-01) (3, 2.06722882921523437583e-01) (4, 1.23315324420756752821e-01) (5, -8.08757342413178537122e-01) (6, -4.05868236662651205027e-02) (7, -1.90456291243406217184e+00) (8, -1.18446566317540646907e+00) (9, -5.49188560611338361106e-01) (10, -2.92303068082559423801e-02) (11, 1.49328092619268604224e-01) (0, -4.74609740315991679438e+00) (1, -4.79688309522915523608e-01) (2, -5.89379348250675727527e-01) (3, -6.16417527588654312609e-01) (4, -5.40406555327225479601e-01) (5, 7.50132582183402951692e-01) (6, 6.07240023551564700455e-01) (7, 7.07847569092274198077e-01) (8, -8.56608301133208449585e+00) (9, 1.74449621861466130923e+00) (10, 4.52883966050171393736e-01) (11, 3.88819481486388007774e-01) (0, 9.79493284645558404122e+00) (1, 5.52076822354855695218e-02) (2, 1.83405933363682271953e-01) (3, 2.39208129627949322993e-01) (4, 1.04444151206261173770e-01) (5, -1.33491290544697283060e+00) (6, -4.74634227671538733162e-01) (7, -2.03262721299346305059e+00) (8, -1.80328650662606349009e+00) (9, -6.91858718341616718561e-01) (10, -6.08889594657681998413e-01) (11, 3.90411928236745753296e-01) (0, -1.10358381364717916817e+00) (1, -2.59445004804201018178e-01) (2, -2.02308774633474158788e-01) (3, -1.14510059995717852765e-01) (4, -1.52745687110490663274e-01) (5, -5.16908071069564112321e+00) (6, 1.60478671706617559423e+00) (7, 1.52889866987875544524e+00) (8, 1.69010380219043243599e+00) (9, -6.39220081370871895388e+00) (10, 1.54280756274870478606e+00) (11, -3.71370749826052559683e-01) (0, 8.01384456817015511376e+00) (1, 7.08042118773506201634e-01) (2, 7.45383236632392920384e-01) (3, 7.78583277092025793920e-01) (4, 6.03733699843929549900e-01) (5, 1.21824150486531870285e+01) (6, -9.96058816898272580964e-01) (7, 1.44456566584669552356e+01) (8, 2.32715847454682780437e+01) (9, 1.08969202402202220981e+01) (10, 5.66846356643922266727e+00) (11, -8.53496413877434245698e-01) (0, -8.06388394496189242489e+00) (1, -1.50509334842615055683e-01) (2, -3.31986255685739362065e-01) (3, -1.46900273601465153339e-01) (4, -3.11420485119276002628e-01) (5, 1.73431937928740209642e+00) (6, 6.73738052882045690417e-01) (7, 1.30861016869304780386e+00) (8, 1.69412667174845554818e+00) (9, 1.92503592326913142152e+00) (10, 6.01362921291745844421e-01) (11, -3.17442821907129468784e-01) (0, -8.86314658939079791367e+00) (1, -5.97900017362827454481e-02) (2, -1.94445805178284220061e-01) (3, -5.04761203390354171172e-02) (4, -8.07228698593372429038e-02) (5, 1.33695332213286355305e+00) (6, 5.84158030181129661607e-01) (7, 1.42939463098351193793e+00) (8, 1.21069160963787214591e+00) (9, 1.68204177886370809247e+00) (10, 4.02048034383714558704e-01) (11, -1.50703882512021547502e-01) (0, 5.83852020863813780949e+00) (1, 1.23711501641518159533e-01) (2, 5.30968582465710936535e-02) (3, 1.17562477870232134913e-01) (4, 1.34512638135201034739e-01) (5, -9.04728147674655591715e-01) (6, -5.70417923250113978462e-01) (7, -1.08516573523596471240e+00) (8, -8.56232659018366759618e-01) (9, -1.05687326619663313210e+00) (10, -2.79139789897089873882e-01) (11, 3.25092285824536531003e-01) (12, -2.10146647545052300821e-01) (13, -1.79989596155307657321e-01) (14, -2.70826113654468771108e-02) (15, -3.26332979489166619125e-01) (16, -2.79492592298105302362e-01) (17, -3.11110261638709806320e-01) (18, 5.25023709073786815082e-01) (19, 6.92937297720935818646e-01) (20, 4.62070777845313196419e-01) (21, -1.77657508192950508441e-01) (22, 4.43248893156772072466e-01) 
