FANN_FLO_2.1
num_layers=3
learning_rate=0.700000
connection_rate=1.000000
network_type=0
learning_momentum=0.000000
training_algorithm=2
train_error_function=1
train_stop_function=1
cascade_output_change_fraction=0.010000
quickprop_decay=-0.000100
quickprop_mu=1.750000
rprop_increase_factor=1.200000
rprop_decrease_factor=0.500000
rprop_delta_min=0.000000
rprop_delta_max=50.000000
rprop_delta_zero=0.100000
cascade_output_stagnation_epochs=12
cascade_candidate_change_fraction=0.010000
cascade_candidate_stagnation_epochs=12
cascade_max_out_epochs=150
cascade_min_out_epochs=50
cascade_max_cand_epochs=150
cascade_min_cand_epochs=50
cascade_num_candidate_groups=2
bit_fail_limit=1.00000000000000005551e-01
cascade_candidate_limit=1.00000000000000000000e+03
cascade_weight_multiplier=4.00000000000000022204e-01
cascade_activation_functions_count=10
cascade_activation_functions=3 5 7 8 10 11 14 15 16 17 
cascade_activation_steepnesses_count=4
cascade_activation_steepnesses=2.50000000000000000000e-01 5.00000000000000000000e-01 7.50000000000000000000e-01 1.00000000000000000000e+00 
layer_sizes=13 11 2 
scale_included=0
neurons (num_inputs, activation_function, activation_steepness)=(0, 0, 0.00000000000000000000e+00) (0, 0, 0.00000000000000000000e+00) (0, 0, 0.00000000000000000000e+00) (0, 0, 0.00000000000000000000e+00) (0, 0, 0.00000000000000000000e+00) (0, 0, 0.00000000000000000000e+00) (0, 0, 0.00000000000000000000e+00) (0, 0, 0.00000000000000000000e+00) (0, 0, 0.00000000000000000000e+00) (0, 0, 0.00000000000000000000e+00) (0, 0, 0.00000000000000000000e+00) (0, 0, 0.00000000000000000000e+00) (0, 0, 0.00000000000000000000e+00) (13, 6, 5.00000000000000000000e-01) (13, 6, 5.00000000000000000000e-01) (13, 6, 5.00000000000000000000e-01) (13, 6, 5.00000000000000000000e-01) (13, 6, 5.00000000000000000000e-01) (13, 6, 5.00000000000000000000e-01) (13, 6, 5.00000000000000000000e-01) (13, 6, 5.00000000000000000000e-01) (13, 6, 5.00000000000000000000e-01) (13, 6, 5.00000000000000000000e-01) (0, 6, 0.00000000000000000000e+00) (11, 6, 5.00000000000000000000e-01) (0, 6, 0.00000000000000000000e+00) 
connections (connected_to_neuron, weight)=(0, -2.38058353293776531201e-01) (1, -1.80644763745818642819e-01) (2, -2.03443406261954812253e-01) (3, -1.55059179403338937009e-01) (4, -2.33181921877418069089e-01) (5, 2.77412792452483714101e+00) (6, -1.21080130663244256439e+00) (7, -5.80917177457516281658e-02) (8, 1.92235569686761947894e-01) (9, 3.39399899470519128553e-01) (10, 5.91108555479002872879e-01) (11, 1.56543202947186399498e+00) (12, 1.53580502671058181929e-02) (0, 5.21453430270403028857e+00) (1, 7.73168376271139989875e-01) (2, 7.02952063266646276496e-01) (3, 7.32355854098212133430e-01) (4, 6.60381382886778722785e-01) (5, -4.18481100905227521025e+00) (6, 6.95371495284777463297e+00) (7, 1.00654818967027974708e+01) (8, 9.68620436836894072030e+00) (9, -1.19153311122656480059e+00) (10, -1.46448893500605503704e+00) (11, 1.01356684880910776769e+01) (12, -1.75645165589645513293e+00) (0, 1.17218003274956195092e+00) (1, -1.33730139830570943227e-01) (2, -1.26502383747559316030e-01) (3, -5.37534172324951250999e-02) (4, -1.50969494381409413686e-01) (5, -1.20066179622928292936e+00) (6, 3.63577366283120928525e-01) (7, 1.40712511317825561541e+00) (8, 2.34559978282054037990e+00) (9, -4.67192775441669927439e-02) (10, 8.01314208444475650772e-01) (11, -7.91127865248407236010e+00) (12, -1.57695420291816771480e-03) (0, 1.18300194146194903588e+00) (1, -8.67100099711235194899e-02) (2, -1.31051559248429067006e-01) (3, -1.84978891411286178181e-01) (4, -1.63224030533295455525e-01) (5, -2.08350313017029797891e+00) (6, 6.64753258249039857830e-01) (7, 1.36267678264204294969e+00) (8, 1.78395386047849857647e+00) (9, 3.28684891571910386965e-02) (10, 6.39522860659546776851e-01) (11, -7.99520377301658502489e+00) (12, -2.44876273742000091782e-02) (0, -3.07154773970313073050e+01) (1, -3.89780921814179337481e-01) (2, -3.98926524398064530352e-01) (3, -4.24711083945965683917e-01) (4, -3.92051754471993363360e-01) (5, 7.22484338908246814803e-01) (6, 2.05125065106206694310e+00) (7, 3.20135691503941366420e+00) (8, -3.04403196550034582657e+00) (9, 2.47733829200569077855e+00) (10, 4.37133422774624946783e+00) (11, 2.99395891813842363050e+00) (12, 1.00673057802253954063e-01) (0, 6.65373202992038503822e+00) (1, 7.64761840113396984542e-01) (2, 7.73488392242188793624e-01) (3, 7.68702675708527904952e-01) (4, 6.45255738058086003583e-01) (5, -3.23132231248557078018e+00) (6, 6.48267100021938968979e+00) (7, 9.98828549236491447516e+00) (8, 1.52265965500299333968e+01) (9, -9.17171664501971295458e-01) (10, -1.34005109621325368963e+00) (11, 9.99870471084698664299e+00) (12, -2.76073850605954573822e+00) (0, -2.92649845112204376463e-01) (1, -1.92171240209250943076e-01) (2, -2.49209815620093866340e-01) (3, -1.40961484967380090705e-01) (4, -1.34588005005031152717e-01) (5, 2.77248906501441538808e+00) (6, -6.61918721014790323309e-01) (7, -5.98345174697012399667e-02) (8, 1.24518744043230523977e-02) (9, 4.13118648263545940047e-01) (10, 4.19630053026629257218e-01) (11, 1.88933148907847980880e+00) (12, 8.54433671635444619286e-02) (0, 1.24294007422485797143e+00) (1, -1.66784972897129846192e-01) (2, -6.72077918558891679313e-02) (3, -1.89058945527630639649e-01) (4, -6.28124037891204939354e-02) (5, -1.97785896885845424720e+00) (6, 5.49124000886035745772e-01) (7, 1.33116817298952372361e+00) (8, 1.84417540587673389751e+00) (9, -6.00148925869970970015e-05) (10, 5.99664728058762475094e-01) (11, -7.94475224846090188890e+00) (12, 6.53874634930809439659e-02) (0, -8.96479850124525579069e-01) (1, 2.72614969656362393646e-01) (2, 3.36131929204358914642e-01) (3, 3.58163757965459683685e-01) (4, 3.26946883246793607025e-01) (5, -2.62455283944736716961e+00) (6, 5.76184176174293050110e+00) (7, 2.52002978897002316572e+00) (8, 1.32888224791647093781e+01) (9, -1.55730582581538357090e+00) (10, -1.04531199104136063305e+00) (11, 1.01339050995765589391e+01) (12, -1.34388739570231230402e-01) (0, -3.16028195477560451820e+01) (1, -3.79227710840439713458e-01) (2, -4.78435179171299851397e-01) (3, -5.03243690309262303728e-01) (4, -3.85656429407334244708e-01) (5, 2.91749656650560140747e+00) (6, -4.16527825096525750048e-01) (7, 3.67395926596388378016e+00) (8, 8.66927040025793016476e-01) (9, 7.68746364325734954370e-01) (10, 1.14463868554215730811e+00) (11, 3.82637257860287505196e+00) (12, -3.32718336024258251604e-02) (13, 5.74921276749270959705e-01) (14, 5.02894660591442166364e-01) (15, -1.12037312814181416742e-01) (16, -1.10876601764147847407e-01) (17, 7.51217395973527546360e-01) (18, 6.56588778250928206681e-01) (19, 6.16703991175788113210e-01) (20, -8.91106916751318867131e-02) (21, 3.60028285325532049210e-01) (22, 5.72252451084507285373e-01) (23, 7.50156922633678502343e-01) 
