FANN_FLO_2.1
num_layers=3
learning_rate=0.700000
connection_rate=1.000000
network_type=0
learning_momentum=0.000000
training_algorithm=2
train_error_function=1
train_stop_function=1
cascade_output_change_fraction=0.010000
quickprop_decay=-0.000100
quickprop_mu=1.750000
rprop_increase_factor=1.200000
rprop_decrease_factor=0.500000
rprop_delta_min=0.000000
rprop_delta_max=50.000000
rprop_delta_zero=0.100000
cascade_output_stagnation_epochs=12
cascade_candidate_change_fraction=0.010000
cascade_candidate_stagnation_epochs=12
cascade_max_out_epochs=150
cascade_min_out_epochs=50
cascade_max_cand_epochs=150
cascade_min_cand_epochs=50
cascade_num_candidate_groups=2
bit_fail_limit=1.00000000000000005551e-01
cascade_candidate_limit=1.00000000000000000000e+03
cascade_weight_multiplier=4.00000000000000022204e-01
cascade_activation_functions_count=10
cascade_activation_functions=3 5 7 8 10 11 14 15 16 17 
cascade_activation_steepnesses_count=4
cascade_activation_steepnesses=2.50000000000000000000e-01 5.00000000000000000000e-01 7.50000000000000000000e-01 1.00000000000000000000e+00 
layer_sizes=14 11 2 
scale_included=0
neurons (num_inputs, activation_function, activation_steepness)=(0, 0, 0.00000000000000000000e+00) (0, 0, 0.00000000000000000000e+00) (0, 0, 0.00000000000000000000e+00) (0, 0, 0.00000000000000000000e+00) (0, 0, 0.00000000000000000000e+00) (0, 0, 0.00000000000000000000e+00) (0, 0, 0.00000000000000000000e+00) (0, 0, 0.00000000000000000000e+00) (0, 0, 0.00000000000000000000e+00) (0, 0, 0.00000000000000000000e+00) (0, 0, 0.00000000000000000000e+00) (0, 0, 0.00000000000000000000e+00) (0, 0, 0.00000000000000000000e+00) (0, 0, 0.00000000000000000000e+00) (14, 6, 5.00000000000000000000e-01) (14, 6, 5.00000000000000000000e-01) (14, 6, 5.00000000000000000000e-01) (14, 6, 5.00000000000000000000e-01) (14, 6, 5.00000000000000000000e-01) (14, 6, 5.00000000000000000000e-01) (14, 6, 5.00000000000000000000e-01) (14, 6, 5.00000000000000000000e-01) (14, 6, 5.00000000000000000000e-01) (14, 6, 5.00000000000000000000e-01) (0, 6, 0.00000000000000000000e+00) (11, 6, 5.00000000000000000000e-01) (0, 6, 0.00000000000000000000e+00) 
connections (connected_to_neuron, weight)=(0, 7.10719092104164507084e-01) (1, 3.28369219931231859366e-01) (2, 4.18243688675032920798e-01) (3, 2.30550018282996593832e-01) (4, 3.68045446606742265860e-01) (5, -7.93007596408683707034e-02) (6, 1.12978703038050409813e-01) (7, -1.85694490402241196847e+00) (8, -2.52595727758723231915e+00) (9, -1.42289102703901298996e-01) (10, -1.34531935390815360343e+00) (11, -3.53374460060994932675e-01) (12, -1.05459365253380510374e+00) (13, 1.35655762624030423735e-01) (0, -9.38013852835115846673e-01) (1, -5.54691828170619724570e-02) (2, -1.23783653167804361117e-01) (3, -6.07968694845042803565e-02) (4, -8.05332041660152680995e-02) (5, -1.11133536522529746682e-01) (6, 2.57609740524167851738e-02) (7, 4.95550537723763416531e-03) (8, 8.02766805169341401971e-01) (9, -1.58547105335258953218e-01) (10, 1.35214816190495201731e+00) (11, 4.37685518291977548877e-01) (12, 1.42742162339894651524e+00) (13, -2.38811800124499901132e-01) (0, -1.40898466814830101157e+01) (1, -6.55510819034787334258e-02) (2, -1.91018665440580465154e-01) (3, -8.42973387317868666502e-02) (4, -1.65008845038911916570e-01) (5, 6.21865307400551015071e-01) (6, 2.41355623809304919991e-01) (7, 9.17291118156156715102e-01) (8, 1.67521924101521957340e+00) (9, 3.26534211083982853219e-02) (10, 1.68941135671771980320e+00) (11, 6.96598622981632997764e-01) (12, 2.23558297889966350880e+00) (13, -1.07785597651534725827e+00) (0, 3.77289483558903515625e-01) (1, -1.44075594835444326103e-01) (2, -4.72491532494267243991e-02) (3, 2.75126919220248511433e-02) (4, 4.46515455911913952680e-02) (5, 1.87952734733342036177e-01) (6, -8.64504046825476102356e-02) (7, -4.74070630213263477515e+00) (8, -9.27411894654138002636e+00) (9, 4.77798000341735432106e-03) (10, 4.24317339135463189592e+00) (11, 4.50593520013980800010e-02) (12, 3.41352149089061285281e+00) (13, -1.08215844394343157359e-02) (0, 2.43888403856017843552e+00) (1, 5.18783069680643693644e-01) (2, 4.32248584459734574992e-01) (3, 3.76876171211910859782e-01) (4, 4.99972186516237815379e-01) (5, 1.62613812024520343336e+00) (6, -2.49920428139150885283e-01) (7, 3.97434758716579628057e+00) (8, -1.60545512020132719044e+00) (9, -2.18155167837510294282e-01) (10, -1.43959847640069860120e-01) (11, 1.30939892120217282745e+00) (12, 2.02277702964233363492e-02) (13, -1.63576166427780500534e-01) (0, 5.73589794649395190440e-01) (1, 2.29711467926031975839e-01) (2, 3.85297062401301182444e-01) (3, 3.25159403090006682291e-01) (4, 2.30997017179257302377e-01) (5, -3.21366990946643851790e-02) (6, 3.20818218304602942315e-02) (7, -4.51236339996203739133e+00) (8, -3.23075459329028502609e+00) (9, -7.91888581911186772988e-02) (10, -7.48058539292777102681e-01) (11, 1.22044045943580689584e-01) (12, -8.86130264840246484326e-01) (13, 1.47292083125596329207e-01) (0, 6.09757651111400678090e-01) (1, 2.82882279644927570050e-01) (2, 3.44648531566581206587e-01) (3, 2.57471262405833845044e-01) (4, 2.76561616848430225080e-01) (5, -6.07560819959003378665e-02) (6, 4.23821024453210626337e-02) (7, -5.67556963427677807488e+00) (8, -4.75279884419712583821e+00) (9, 3.89722973996536794367e-03) (10, -5.56839031128911088331e-01) (11, 4.72440303428081853632e-01) (12, -6.51936917601533272304e-01) (13, 2.96289029727082542376e-01) (0, 3.54379156839619458008e-01) (1, -1.17455803151207169299e-01) (2, 8.56381625406247085075e-03) (3, -2.14559662295152608902e-02) (4, -7.84472416294385993529e-02) (5, 4.83661782030713249814e-01) (6, -1.96721009173781408164e-01) (7, -4.83155174745610338505e+00) (8, -9.59116005887755918025e+00) (9, -2.11017756127706949953e-02) (10, 4.02592956264504042707e+00) (11, 4.37003833882872311234e-02) (12, 4.52328583995086308533e+00) (13, 1.08491966365201041728e-02) (0, 2.13621412793240317285e+00) (1, 5.89765382656910586157e-01) (2, 7.02811697224238085546e-01) (3, 5.94543011585333625035e-01) (4, 6.79127583006479684791e-01) (5, -3.20366720683705530348e-01) (6, 1.37830628757128770268e+00) (7, -9.82031091810990375279e+00) (8, 9.86223362180335350047e-01) (9, 1.43028518202833199169e+00) (10, 8.72600775913519810523e-01) (11, 3.23130326197504813557e-01) (12, 1.11025274772654447553e+00) (13, 1.71019044465727199089e+00) (0, 1.41882130321224897429e+00) (1, 4.01188752778438018076e-01) (2, 5.15360131092932993724e-01) (3, 4.76224987932113097422e-01) (4, 4.16735089548495696299e-01) (5, 1.98485877800405802196e-01) (6, -4.67561636897317389749e-01) (7, 3.95683641985863454593e+00) (8, -4.54131674358907277966e-01) (9, -3.76480765627613067625e-01) (10, -1.74094790022644052563e-01) (11, 1.10374419678619961616e+00) (12, -1.66160436593605145839e-02) (13, -1.38512338793922773483e-01) (14, -1.98646692324661033879e-01) (15, 4.86240108569923390469e-01) (16, 4.82780490448601551368e-01) (17, -3.34367873658815373261e-01) (18, 4.75407175321625963260e-01) (19, -2.89224362314600524915e-01) (20, -2.82244664192844996187e-01) (21, -2.41131069650331597565e-01) (22, -6.16146859607688487936e-02) (23, 5.24297825593995403537e-01) (24, 4.57336226382733190832e-01) 
