FANN_FLO_2.1
num_layers=3
learning_rate=0.700000
connection_rate=1.000000
network_type=0
learning_momentum=0.000000
training_algorithm=2
train_error_function=1
train_stop_function=1
cascade_output_change_fraction=0.010000
quickprop_decay=-0.000100
quickprop_mu=1.750000
rprop_increase_factor=1.200000
rprop_decrease_factor=0.500000
rprop_delta_min=0.000000
rprop_delta_max=50.000000
rprop_delta_zero=0.100000
cascade_output_stagnation_epochs=12
cascade_candidate_change_fraction=0.010000
cascade_candidate_stagnation_epochs=12
cascade_max_out_epochs=150
cascade_min_out_epochs=50
cascade_max_cand_epochs=150
cascade_min_cand_epochs=50
cascade_num_candidate_groups=2
bit_fail_limit=1.00000000000000005551e-01
cascade_candidate_limit=1.00000000000000000000e+03
cascade_weight_multiplier=4.00000000000000022204e-01
cascade_activation_functions_count=10
cascade_activation_functions=3 5 7 8 10 11 14 15 16 17 
cascade_activation_steepnesses_count=4
cascade_activation_steepnesses=2.50000000000000000000e-01 5.00000000000000000000e-01 7.50000000000000000000e-01 1.00000000000000000000e+00 
layer_sizes=26 11 2 
scale_included=0
neurons (num_inputs, activation_function, activation_steepness)=(0, 0, 0.00000000000000000000e+00) (0, 0, 0.00000000000000000000e+00) (0, 0, 0.00000000000000000000e+00) (0, 0, 0.00000000000000000000e+00) (0, 0, 0.00000000000000000000e+00) (0, 0, 0.00000000000000000000e+00) (0, 0, 0.00000000000000000000e+00) (0, 0, 0.00000000000000000000e+00) (0, 0, 0.00000000000000000000e+00) (0, 0, 0.00000000000000000000e+00) (0, 0, 0.00000000000000000000e+00) (0, 0, 0.00000000000000000000e+00) (0, 0, 0.00000000000000000000e+00) (0, 0, 0.00000000000000000000e+00) (0, 0, 0.00000000000000000000e+00) (0, 0, 0.00000000000000000000e+00) (0, 0, 0.00000000000000000000e+00) (0, 0, 0.00000000000000000000e+00) (0, 0, 0.00000000000000000000e+00) (0, 0, 0.00000000000000000000e+00) (0, 0, 0.00000000000000000000e+00) (0, 0, 0.00000000000000000000e+00) (0, 0, 0.00000000000000000000e+00) (0, 0, 0.00000000000000000000e+00) (0, 0, 0.00000000000000000000e+00) (0, 0, 0.00000000000000000000e+00) (26, 6, 5.00000000000000000000e-01) (26, 6, 5.00000000000000000000e-01) (26, 6, 5.00000000000000000000e-01) (26, 6, 5.00000000000000000000e-01) (26, 6, 5.00000000000000000000e-01) (26, 6, 5.00000000000000000000e-01) (26, 6, 5.00000000000000000000e-01) (26, 6, 5.00000000000000000000e-01) (26, 6, 5.00000000000000000000e-01) (26, 6, 5.00000000000000000000e-01) (0, 6, 0.00000000000000000000e+00) (11, 6, 5.00000000000000000000e-01) (0, 6, 0.00000000000000000000e+00) 
connections (connected_to_neuron, weight)=(0, 3.54468908822162021011e+01) (1, 1.28180589618429902066e-01) (2, 9.18839649281358028521e-02) (3, 2.80397847386346821263e-01) (4, 1.78839467557415698895e-01) (5, -1.45266317318198900921e+00) (6, -1.77948102453287937408e+00) (7, -1.56046625842493735803e+00) (8, -1.08730210303490237855e+00) (9, -9.59273588967278767470e-01) (10, -1.04933719702062155932e+00) (11, -1.14449851622532094986e+00) (12, -1.14419357943324162541e+00) (13, -1.92390006332753671359e+00) (14, -5.11129667879983151657e-01) (15, -4.86323005209794489989e-01) (16, -9.32894331972388413110e-02) (17, -1.52117080347096561566e-03) (18, -4.58798235129669398913e-02) (19, -3.26894856531444288894e-01) (20, -1.29351473565208596739e+00) (21, -1.00115036786454325579e+00) (22, -1.72725813009268897025e-01) (23, 5.93419122237815767351e-03) (24, -1.02433122931090125896e+00) (25, 3.88867446912689418426e+00) (0, 3.72292254501892472263e+01) (1, 2.54107264587771330966e-01) (2, 1.24541623303780338294e-01) (3, 2.84337265202891209537e-01) (4, 2.09677850613484206832e-01) (5, -9.97746483085833357762e-01) (6, -1.47150968570071483121e-01) (7, -8.89398037463106128087e+00) (8, -7.36036921874751448591e-01) (9, -1.07186456392763460044e-01) (10, -6.58992748051159815681e-01) (11, -7.78471729230285736101e-01) (12, -1.81569381446640809585e-01) (13, -3.03064428886210268654e-01) (14, 1.38073836292096241429e-01) (15, -1.25340896560072967425e-01) (16, 2.70054716995603905083e-01) (17, 2.48432524147315175744e-01) (18, 5.10872799838275271078e-01) (19, -6.37603262127689585093e-01) (20, -1.31080804535213230055e-01) (21, -3.23181029025352950512e-01) (22, -3.06002370296142800488e-01) (23, -2.41594610294276951334e-01) (24, 1.73778026141100411239e-01) (25, 5.60075670607649178656e-01) (0, 3.73517459333111787601e+01) (1, 2.06173861592751112015e-01) (2, 1.62900330692272804489e-01) (3, 1.34693587392311714401e-01) (4, 3.04264741211874301108e-01) (5, -5.20225734829514507851e-01) (6, -5.27639442172083070193e-02) (7, -9.31246496451693595020e+00) (8, -3.76733490904383794273e-01) (9, -5.55835248223182198934e-01) (10, -4.02765890279340121882e-01) (11, -5.25649399050409082967e-01) (12, -2.83763460491805119545e-01) (13, 3.15351120976154197795e-01) (14, -1.15169514907565204154e-01) (15, -9.38749295237499142841e-02) (16, 1.42525352716351222382e-01) (17, 3.98659599973000988715e-01) (18, 3.20066839434161087841e-01) (19, -2.18197249508170904031e-01) (20, -1.28048246642495894276e-01) (21, -8.16926573114246545870e-01) (22, 3.24498583117319772118e-01) (23, -5.22841984275085255862e-02) (24, 2.70895916372944800532e-01) (25, 6.74104099922735011674e-01) (0, 5.00399981595643552623e+01) (1, 4.38009326105873841861e-01) (2, 3.62638693993847627262e-01) (3, 3.30834668820660260380e-01) (4, 2.63748769408027938788e-01) (5, 3.09748800347926305676e+02) (6, 1.06414411920361429154e+00) (7, -9.62327018917473075987e+00) (8, 9.05802040063666685787e-02) (9, 9.50252548425998599946e-01) (10, 2.04544638534139983088e-01) (11, 3.06278872877943253439e-01) (12, 6.75708970969123924988e+02) (13, 7.91457943733324675861e-01) (14, 6.74943835368831845933e-01) (15, 1.50000000000000000000e+03) (16, 5.85431235421544182707e-01) (17, 5.76056895132382673630e-01) (18, 2.09989681326556959506e-01) (19, 4.38039643065139261413e-01) (20, 4.28077282762078126233e-01) (21, 3.72143514418755483320e-01) (22, 2.85824124272745561104e-01) (23, 6.23161747555132872201e-01) (24, 6.25113209404668079827e+00) (25, 2.50334070570679889656e+00) (0, 2.81518530730984073429e+00) (1, 3.22428056315598732251e-01) (2, 2.81697267011819019178e-01) (3, 4.23195884839713265535e-01) (4, 3.24544304327187782544e-01) (5, 4.67320722354920903285e+00) (6, -1.69415387551917179243e-01) (7, -6.01773977026904383081e+00) (8, -7.27125678216601900594e-01) (9, -2.82269679603932621692e-01) (10, -5.71143732611691268275e-01) (11, -4.66140526563721624420e-01) (12, -3.36049188606214410679e-01) (13, -1.07482588482957441833e-01) (14, 1.27160771054410304259e+00) (15, -2.53581474643021294486e-04) (16, 1.50000000000000000000e+03) (17, 1.73524940963611413736e+02) (18, 1.10118670514950466099e+02) (19, 1.75366488280891685836e-01) (20, 2.40948213393082433242e+00) (21, -7.08179009922064728322e-01) (22, 2.46598786547231840771e+00) (23, 3.34499775595571924303e-01) (24, 7.32104861871938239481e-01) (25, 5.30588863542542865659e-01) (0, 2.79166760379628328792e+02) (1, 3.59301599372872981775e-01) (2, 2.68753702451237697080e-01) (3, 3.72079717625627193200e-01) (4, 2.90178480257043458490e-01) (5, 3.11663040199767067406e+02) (6, 2.19788381341272419725e-03) (7, -1.38006808046134867851e+01) (8, -5.20891497715457507667e-01) (9, 6.83042133781267858661e-03) (10, -1.62110439312488030517e-01) (11, -2.60039199981391466743e-01) (12, 2.46241804229150457184e-01) (13, 1.56474208045389417965e-01) (14, 4.19492540609429920284e-01) (15, -2.40565148357398395085e-01) (16, -1.37943944613930846721e+00) (17, -7.97610403687959296226e-02) (18, -1.53599347059692759032e+00) (19, -7.71627968014699461285e-01) (20, -2.54034896949264621391e-01) (21, 1.52293820973484816950e-01) (22, -6.28297634931880177867e-01) (23, -1.58963010661564402293e-01) (24, 9.24663774509132507795e-01) (25, -1.49128236947662218270e+00) (0, -1.90692889900380446733e+00) (1, -4.23960583725486242490e-02) (2, -1.88975316516450803084e-01) (3, -1.81070317558339993758e-01) (4, -1.80284437767557065291e-01) (5, 1.67565683483311661517e-01) (6, 3.36025168475683810865e-01) (7, 6.05390197030549614965e+00) (8, 2.04279682927627187494e-01) (9, 2.04903119547057116501e-01) (10, 1.58171230418848840493e-01) (11, 2.36105921314829658719e-01) (12, 3.02361888952101198758e-01) (13, 3.51176247498255711399e-01) (14, -2.42823527408015549245e-01) (15, 1.23477797671662767320e-01) (16, -1.59674132706232423107e-02) (17, -3.19940906665068691694e-01) (18, 1.02794968163970976138e-01) (19, 2.81737115982433949934e-01) (20, 3.49229548864004812891e-01) (21, 3.86310640703760588277e-01) (22, 2.79487793799656769611e-01) (23, -2.48960979981974195319e-01) (24, -1.99318596112933649200e-01) (25, -5.82734898305349191538e-01) (0, 6.46803638116851709050e-01) (1, 9.73232020433268119053e-02) (2, 2.14115247576983469546e-01) (3, 1.30349100082667757050e-01) (4, 2.86995102460703629954e-02) (5, -1.07953576039892543137e-01) (6, -1.97768625317488677684e-01) (7, -1.76659932421615417653e+00) (8, -1.41692836280373962721e-01) (9, -2.20983566284551971592e-02) (10, -2.29978172394153468350e-01) (11, -2.92687595691128399356e-01) (12, -4.23197067224100997862e-01) (13, -2.68234877768793955610e-01) (14, 2.36115768927138702793e-01) (15, -6.28795328115895751919e-02) (16, 5.52805054142189375432e-02) (17, 2.82529710796251276594e-01) (18, 1.21799160779993156933e-01) (19, -3.91687044688725505281e-01) (20, -3.89242877249262875239e-01) (21, -4.80965087651281042458e-01) (22, -2.60322255235784560945e-01) (23, 3.66491758221030583531e-01) (24, 3.24437608831550206023e-01) (25, -2.73040195972496402277e-01) (0, 1.53854764598633977357e+01) (1, 3.76594528245538961997e-01) (2, 3.25996689188093380363e-01) (3, 4.32254388618082352469e-01) (4, 3.72992023515314352622e-01) (5, 3.09791531387152360821e+02) (6, 9.50200053382997955609e-01) (7, -7.92522294383429493081e+00) (8, 1.96118645590090817654e-02) (9, 5.43521252221492057188e-01) (10, 3.07894555833870375849e-01) (11, 1.01171380102999197703e+00) (12, 6.75688276772899712341e+02) (13, 9.64265470665822133078e-02) (14, 6.95121902622161003116e-01) (15, 1.08540938800824091071e-01) (16, 1.37456873424956105278e-01) (17, 7.15765124129532526176e-01) (18, 2.94225542472656809156e-01) (19, 2.72997494191431322452e-01) (20, 3.99386818145173960737e-01) (21, 5.30321744687601959178e-01) (22, -1.41919558965016912033e+00) (23, 6.43029062899812320353e-01) (24, 6.33675594323000179742e+00) (25, 1.79104799863053609776e+00) (0, -9.66961307907454048483e-02) (1, -9.15612452379516439382e-02) (2, -1.23062732135419933277e-01) (3, -5.52463927022265391398e-02) (4, -1.85656885122423287449e-01) (5, 6.15563294435010344152e-02) (6, 1.22871862291223030161e-01) (7, 5.99667305521454707673e+00) (8, 3.95486645204228270956e-02) (9, 5.48857688597832529820e-02) (10, 9.95281941392039126715e-02) (11, 1.58724274329473780121e-01) (12, 3.04124429617191049946e-01) (13, 1.58830769838250202008e-01) (14, -1.60088522151331652532e-01) (15, 8.63734014330724830799e-02) (16, -6.36859605637169062797e-02) (17, -1.81943545876414841667e-01) (18, 8.93810707376542085134e-02) (19, 3.78703998098629535107e-01) (20, 3.06305455293449657717e-01) (21, 4.44370691130093031784e-01) (22, 1.93050613014731003991e-01) (23, -2.63750471907599204346e-01) (24, -2.71985497392669361982e-01) (25, -3.22174257029484212289e-01) (26, -1.67526223408279217875e-01) (27, -5.06194676008841049075e-01) (28, -9.85884022113971414392e-01) (29, 4.30421781555177851430e-01) (30, 6.39670200475632277914e-01) (31, 4.23224056435144990740e-01) (32, 5.11234798686319602545e-01) (33, 5.58743327453412597094e-01) (34, 3.84029985870384393820e-01) (35, 5.55037644057064460945e-01) (36, 2.39522473960828374828e-01) 
