FANN_FLO_2.1
num_layers=3
learning_rate=0.700000
connection_rate=1.000000
network_type=0
learning_momentum=0.000000
training_algorithm=2
train_error_function=1
train_stop_function=1
cascade_output_change_fraction=0.010000
quickprop_decay=-0.000100
quickprop_mu=1.750000
rprop_increase_factor=1.200000
rprop_decrease_factor=0.500000
rprop_delta_min=0.000000
rprop_delta_max=50.000000
rprop_delta_zero=0.100000
cascade_output_stagnation_epochs=12
cascade_candidate_change_fraction=0.010000
cascade_candidate_stagnation_epochs=12
cascade_max_out_epochs=150
cascade_min_out_epochs=50
cascade_max_cand_epochs=150
cascade_min_cand_epochs=50
cascade_num_candidate_groups=2
bit_fail_limit=1.00000000000000005551e-01
cascade_candidate_limit=1.00000000000000000000e+03
cascade_weight_multiplier=4.00000000000000022204e-01
cascade_activation_functions_count=10
cascade_activation_functions=3 5 7 8 10 11 14 15 16 17 
cascade_activation_steepnesses_count=4
cascade_activation_steepnesses=2.50000000000000000000e-01 5.00000000000000000000e-01 7.50000000000000000000e-01 1.00000000000000000000e+00 
layer_sizes=22 11 2 
scale_included=0
neurons (num_inputs, activation_function, activation_steepness)=(0, 0, 0.00000000000000000000e+00) (0, 0, 0.00000000000000000000e+00) (0, 0, 0.00000000000000000000e+00) (0, 0, 0.00000000000000000000e+00) (0, 0, 0.00000000000000000000e+00) (0, 0, 0.00000000000000000000e+00) (0, 0, 0.00000000000000000000e+00) (0, 0, 0.00000000000000000000e+00) (0, 0, 0.00000000000000000000e+00) (0, 0, 0.00000000000000000000e+00) (0, 0, 0.00000000000000000000e+00) (0, 0, 0.00000000000000000000e+00) (0, 0, 0.00000000000000000000e+00) (0, 0, 0.00000000000000000000e+00) (0, 0, 0.00000000000000000000e+00) (0, 0, 0.00000000000000000000e+00) (0, 0, 0.00000000000000000000e+00) (0, 0, 0.00000000000000000000e+00) (0, 0, 0.00000000000000000000e+00) (0, 0, 0.00000000000000000000e+00) (0, 0, 0.00000000000000000000e+00) (0, 0, 0.00000000000000000000e+00) (22, 6, 5.00000000000000000000e-01) (22, 6, 5.00000000000000000000e-01) (22, 6, 5.00000000000000000000e-01) (22, 6, 5.00000000000000000000e-01) (22, 6, 5.00000000000000000000e-01) (22, 6, 5.00000000000000000000e-01) (22, 6, 5.00000000000000000000e-01) (22, 6, 5.00000000000000000000e-01) (22, 6, 5.00000000000000000000e-01) (22, 6, 5.00000000000000000000e-01) (0, 6, 0.00000000000000000000e+00) (11, 6, 5.00000000000000000000e-01) (0, 6, 0.00000000000000000000e+00) 
connections (connected_to_neuron, weight)=(0, 9.34339840866385529239e+00) (1, 4.63394023129832854924e-01) (2, 5.71181729087721468119e-01) (3, 4.71537492821109405217e-01) (4, 5.88175221929442049174e-01) (5, 2.86220816099518344799e+02) (6, 2.97048208790247458833e-01) (7, 9.14628744060606235777e-01) (8, 8.17783875605842758283e-01) (9, -1.50000000000000000000e+03) (10, 1.50000000000000000000e+03) (11, 1.50000000000000000000e+03) (12, 3.83794858815129036334e-01) (13, 9.73846233844731123952e-01) (14, -2.78882649230033918819e-01) (15, -2.32346448502961849814e-01) (16, 7.25724516761047211411e-01) (17, -2.68788549373307372736e-01) (18, 2.77237748381649939944e-01) (19, 3.02730026227917725645e-01) (20, -8.63153321451833217826e-04) (21, 2.57264150548421577369e+00) (0, -2.65956351158848320893e+01) (1, -1.31752324530578668327e-01) (2, -5.69371183008919659607e-02) (3, -8.81637532801399920190e-02) (4, -1.34258141049839074821e-01) (5, 4.26755906220205982748e-01) (6, -1.60566805402709372741e-01) (7, -1.63209473359208823151e-01) (8, -3.58245113677032267496e-01) (9, 6.78027914064368797398e+00) (10, -8.39737698159098294726e-02) (11, -9.60443602632786025408e-02) (12, -1.19228606746178106279e-01) (13, 3.17672599964292645680e-01) (14, 2.08513904362312763041e-01) (15, 5.51745770551229974821e-01) (16, 3.23172631366178075840e-01) (17, 2.49981903984734687985e-01) (18, 2.45302304084353745006e-01) (19, 4.86360366580872394149e-01) (20, 6.58702814271575898264e-02) (21, -6.55075633304181170757e-01) (0, 1.94846297804653900698e+01) (1, 4.68888827727140800050e-01) (2, 5.11838399932681098470e-01) (3, 3.96272556052507662905e-01) (4, 3.78920757339300418032e-01) (5, 2.86319908006251864663e+02) (6, -1.71131088693820349045e-01) (7, -4.61581692567010926087e-01) (8, 8.42828744605931753919e-03) (9, -2.85897425156428369064e+02) (10, -1.28272108808908957833e+00) (11, 9.23769011536978990051e-02) (12, -3.50048139157852322700e-01) (13, -1.66599101966215190629e-01) (14, -8.72874138154260514888e-01) (15, -9.96547058431173415904e-01) (16, -1.01716358853412569552e+00) (17, -1.13483339981602449065e+00) (18, 1.93910826342631598118e-01) (19, 1.29628088797353685502e-01) (20, -4.11153340548130963317e-01) (21, -9.46015426272855508572e-01) (0, -2.23665351280730853034e+01) (1, -7.09498281235740740902e-02) (2, -1.08299573754792252678e-01) (3, -7.37562576485138211846e-03) (4, -1.00663928186421211541e-01) (5, 2.39669684786636832952e-01) (6, -8.34250337389122603726e-02) (7, 7.20288650691698478790e-02) (8, -1.22318866986756966120e-01) (9, 4.29812148248254022320e+00) (10, -3.15505946836919792808e-01) (11, -1.37485470875306076133e-01) (12, -1.01943754026841443272e-01) (13, 2.55312645199688492692e-01) (14, 3.86299427665727557191e-01) (15, 2.03368327790640679442e-01) (16, 4.64517001501911719341e-01) (17, 6.62141533962828487958e-01) (18, -1.56914348349518756320e-01) (19, 1.70337285997608445243e-01) (20, -1.12522525108438256614e-01) (21, -7.85592379313835409427e-01) (0, 2.33044971604524114861e-01) (1, 5.98719257061225196281e-01) (2, 5.86523513440829535881e-01) (3, 7.47659827713710090080e-01) (4, 6.82120162193519119498e-01) (5, 2.26879738969651828517e-01) (6, 1.10257112593651185328e+00) (7, 4.35920785855407499909e-01) (8, 1.92845738814551692641e-01) (9, -1.50000000000000000000e+03) (10, 1.50000000000000000000e+03) (11, 6.66124427772742251364e+02) (12, 7.12132995365306387114e-01) (13, 2.43620334282164314743e+01) (14, 7.60617759720034580795e+00) (15, 4.14058134008082501243e-01) (16, 2.63950153976697947655e+02) (17, 4.72620951831870972359e-01) (18, 3.29194322726417021308e-01) (19, 3.56747596865779448283e-01) (20, 5.09207035342033598191e-01) (21, 2.78109044090679047301e+00) (0, 1.18560184761331033343e+00) (1, 4.01222929975592002005e-01) (2, 4.06535089633070334525e-01) (3, 4.81263012311064108939e-01) (4, 4.54843730351530417533e-01) (5, -1.49461358062142113390e+00) (6, 4.22751347403471589015e-01) (7, 2.47232614904015352009e-01) (8, 6.84213385767886039801e-01) (9, -7.00833480440765654862e+00) (10, 1.87335248286791267169e-01) (11, 3.20908948363392676484e-01) (12, 5.21381675640414710138e-01) (13, 1.03779911373031712429e+01) (14, 3.59054918608652129386e-01) (15, 3.88025864434084100107e-01) (16, 6.50719728861991031366e-01) (17, 3.03015334041042527780e-01) (18, 4.30656381432720669622e-01) (19, 3.28723281631387587165e-01) (20, 4.91273139661443203341e-01) (21, 7.88483283506074883462e-01) (0, 1.30809450397834314828e+00) (1, 6.32020747903064838980e-02) (2, 1.23242422068424728465e-01) (3, 3.36139789465147026393e-02) (4, 1.09850562238998916698e-01) (5, 1.09969662572758375418e+00) (6, 1.16089703138774313906e+00) (7, 2.39987013944969573842e-01) (8, 4.19501111290157546740e-01) (9, -1.24261835946429393118e+01) (10, -3.46569131607692926256e-01) (11, 6.06680891472771599560e-01) (12, 1.53478056868347412234e+00) (13, 1.32236906678845023144e-01) (14, 8.20313458143036244863e-01) (15, 1.55560208725843696076e-01) (16, 8.69974650725055309586e-01) (17, 1.70213328521870085885e-02) (18, 7.91518132062400542326e-02) (19, -5.12899642789263143783e-01) (20, -4.75107867661638649803e-01) (21, 1.75965256930473135100e+00) (0, -3.41001927645294022895e-01) (1, 2.61578368644217358618e-02) (2, 1.01155894498328596809e-02) (3, -5.19640785952110439982e-02) (4, -5.67698073883552561947e-02) (5, 5.81087076050701531633e-04) (6, -2.75069827021667198674e-02) (7, -4.39175178611756894531e-02) (8, -1.49291864280606534354e-02) (9, 4.07765704016514174413e+00) (10, -4.34960680363029372764e-01) (11, -3.55496088246252187060e-02) (12, -2.53664361880846962738e-02) (13, -6.54293158174583250331e-02) (14, -4.53375476251186571020e-02) (15, -2.02443390887577512327e-02) (16, -5.43711997245754155572e-02) (17, 6.15692563166904266447e-02) (18, -1.01237577642278291784e-02) (19, 1.47883289770200793134e-02) (20, -4.10034844978686002781e-02) (21, -5.23596907964244184797e-01) (0, 5.72534110282551633730e+00) (1, 1.55062652027248504272e-01) (2, 1.39006516730426937789e-01) (3, 2.83156423663735667962e-01) (4, 1.82759764438509109130e-01) (5, -1.29082501627200940675e+00) (6, 1.72178908113166023730e-01) (7, 2.63378471429318583574e-01) (8, -8.44666888658104575427e-01) (9, -1.06726819747264869420e+01) (10, -7.70201590205590091998e-01) (11, 1.55339346345387568915e-01) (12, 9.63177978104964721551e-02) (13, 4.53023928594054742236e-03) (14, -1.57964573060845381303e-01) (15, 9.37278541912470591901e-02) (16, 1.19457579462707119689e+00) (17, 2.97209647997741299719e-01) (18, 4.41676563345793193882e-01) (19, 4.73878431297041657899e-01) (20, 2.69411192373267383005e-01) (21, 7.65320435570073120957e-01) (0, 9.31759198977447056222e+00) (1, 4.01226547284290691042e-01) (2, 4.99290858133003723207e-01) (3, 4.84833989961311828676e-01) (4, 4.68071077687904846254e-01) (5, 2.86315402263277576367e+02) (6, -1.78210124473606096318e-01) (7, 1.65092409624230967990e-01) (8, 4.03881362444503122511e-01) (9, -1.50000000000000000000e+03) (10, 1.50000000000000000000e+03) (11, 1.06214116430558350168e-01) (12, 1.87817585629855565710e-01) (13, -1.05927873416118267791e+00) (14, -8.91015019309625011523e-01) (15, -4.74950522364729621483e-01) (16, -2.98967929084094197201e-01) (17, -1.20449986642890438659e+00) (18, 5.31408589836578210130e-02) (19, -8.07764904659076465876e-01) (20, -4.49268131447565222114e-01) (21, -2.90781709784119268836e-01) (22, 5.02744902515053104786e-01) (23, 9.00360242034072388861e-01) (24, 4.55830007241451951039e-01) (25, 6.80461344511201771112e-01) (26, 4.70125892673358913854e-01) (27, 1.33226187692879222135e-01) (28, -1.15158344251098804234e-01) (29, 6.95605287306332087383e-01) (30, -1.69798307500215517329e-01) (31, 5.24235643101386372678e-01) (32, 5.73827020286844236008e-02) 
