FANN_FLO_2.1
num_layers=3
learning_rate=0.700000
connection_rate=1.000000
network_type=0
learning_momentum=0.000000
training_algorithm=2
train_error_function=1
train_stop_function=1
cascade_output_change_fraction=0.010000
quickprop_decay=-0.000100
quickprop_mu=1.750000
rprop_increase_factor=1.200000
rprop_decrease_factor=0.500000
rprop_delta_min=0.000000
rprop_delta_max=50.000000
rprop_delta_zero=0.100000
cascade_output_stagnation_epochs=12
cascade_candidate_change_fraction=0.010000
cascade_candidate_stagnation_epochs=12
cascade_max_out_epochs=150
cascade_min_out_epochs=50
cascade_max_cand_epochs=150
cascade_min_cand_epochs=50
cascade_num_candidate_groups=2
bit_fail_limit=1.00000000000000005551e-01
cascade_candidate_limit=1.00000000000000000000e+03
cascade_weight_multiplier=4.00000000000000022204e-01
cascade_activation_functions_count=10
cascade_activation_functions=3 5 7 8 10 11 14 15 16 17 
cascade_activation_steepnesses_count=4
cascade_activation_steepnesses=2.50000000000000000000e-01 5.00000000000000000000e-01 7.50000000000000000000e-01 1.00000000000000000000e+00 
layer_sizes=9 11 2 
scale_included=0
neurons (num_inputs, activation_function, activation_steepness)=(0, 0, 0.00000000000000000000e+00) (0, 0, 0.00000000000000000000e+00) (0, 0, 0.00000000000000000000e+00) (0, 0, 0.00000000000000000000e+00) (0, 0, 0.00000000000000000000e+00) (0, 0, 0.00000000000000000000e+00) (0, 0, 0.00000000000000000000e+00) (0, 0, 0.00000000000000000000e+00) (0, 0, 0.00000000000000000000e+00) (9, 6, 5.00000000000000000000e-01) (9, 6, 5.00000000000000000000e-01) (9, 6, 5.00000000000000000000e-01) (9, 6, 5.00000000000000000000e-01) (9, 6, 5.00000000000000000000e-01) (9, 6, 5.00000000000000000000e-01) (9, 6, 5.00000000000000000000e-01) (9, 6, 5.00000000000000000000e-01) (9, 6, 5.00000000000000000000e-01) (9, 6, 5.00000000000000000000e-01) (0, 6, 0.00000000000000000000e+00) (11, 6, 5.00000000000000000000e-01) (0, 6, 0.00000000000000000000e+00) 
connections (connected_to_neuron, weight)=(0, -8.28012745570330388478e-02) (1, 1.69452237299544637705e-02) (2, 2.67611326984030922782e-02) (3, 9.74202635100943625801e-02) (4, 1.00615921836243349397e-01) (5, -3.90024255766427918601e+00) (6, 1.81999297733650813313e+01) (7, 9.57994069243753298970e-01) (8, 5.06593186159082331521e-01) (0, 4.03047347363762409334e-01) (1, 1.41672932328318013084e-01) (2, 2.99800948025320423973e-01) (3, 1.39726244629953755272e-01) (4, 2.52931565763090504539e-01) (5, 3.37312057674282206321e+00) (6, 1.41626231850468076168e-01) (7, -1.83990210367088902199e-01) (8, -2.93579893430340299609e-01) (0, 8.87857367936366048689e-02) (1, 1.48288799988369718319e-01) (2, 3.24148224464463272088e-02) (3, 2.40643190060128202637e-03) (4, -8.18277282800207624025e-03) (5, -4.62833796452033752189e+00) (6, 4.38394615164337579927e+01) (7, -1.18812636190195641817e+00) (8, 3.89170241793637350369e-01) (0, -3.19081785178597018837e-02) (1, -4.15595765454391863347e-01) (2, -3.86992465002159446996e-01) (3, -4.53324879748443987371e-01) (4, -4.01271688980678886693e-01) (5, 3.17058361651228226563e+00) (6, 8.99751297633065577619e-02) (7, 3.48870389169056993595e-01) (8, 1.77197407106292864620e-01) (0, -1.86266419024120805092e-01) (1, -4.70958537955548095510e-02) (2, -2.78318561215664637964e-02) (3, -5.26515431304241943167e-02) (4, -2.90103889603878679904e-02) (5, 1.57356138424915692475e+00) (6, 7.68419744513796465490e-01) (7, 3.00724255073069268729e-01) (8, -3.05264917959749519649e-02) (0, -6.60020258767019196711e-01) (1, -1.49258065131465875175e-02) (2, -6.91155481246273351026e-02) (3, -1.85995771279648891561e-01) (4, -6.24854254630367242362e-02) (5, 8.52235101157153840390e-01) (6, 1.67035408797636719669e+00) (7, 9.10911344519142907039e-01) (8, -1.07749471623029435818e+00) (0, 2.74972335488214703059e-01) (1, 1.85017395265602069276e-01) (2, 1.89078282065891223329e-01) (3, 1.62239852793716388124e-01) (4, 1.20068225510620116281e-01) (5, 2.44504320561032173487e+00) (6, 4.21128815959370239597e-01) (7, -2.05384762721677577302e-01) (8, -4.08661777397263059619e-01) (0, 1.84151688577689220949e+01) (1, 5.90605004107360498367e-01) (2, 5.07558731710319177566e-01) (3, 5.04081761812572137771e-01) (4, 4.97068478142623559890e-01) (5, -1.98815582229324272490e+00) (6, 1.45133778391132728380e-01) (7, -4.57192616597345224960e+00) (8, 5.36671732768700171512e-01) (0, -5.55527224790500628870e+00) (1, 4.68191818455146124833e-01) (2, 5.02454058388160262894e-01) (3, 4.70062949815676978105e-01) (4, 5.34416318992065098037e-01) (5, 3.12876731777411354329e+00) (6, 2.30386187814105358740e+00) (7, 3.17902383715210756776e+00) (8, 3.85614163024434852822e-01) (0, 5.40719637569718081238e-01) (1, 1.94975725988506903841e-01) (2, 1.62999186346888175203e-01) (3, 2.29484840909599835390e-01) (4, 2.06316552738308484072e-01) (5, 2.04549097423933590179e+00) (6, 1.64879447222212566215e-01) (7, -6.05178678205473760676e-02) (8, -3.33996268232929716113e-01) (9, 5.62024200935201251328e-02) (10, 3.56572370240250402507e-01) (11, 1.00569964279697277032e-01) (12, 4.83935701663794737293e-01) (13, 5.35226037584819791526e-01) (14, 4.41553492855420615104e-01) (15, 3.17577035095338855442e-01) (16, -2.15203487291951434113e-01) (17, -8.84440093856113940252e-02) (18, 3.32128486791411214885e-01) (19, 3.87923685079243130147e-01) 
