FANN_FLO_2.1
num_layers=3
learning_rate=0.700000
connection_rate=1.000000
network_type=0
learning_momentum=0.000000
training_algorithm=2
train_error_function=1
train_stop_function=1
cascade_output_change_fraction=0.010000
quickprop_decay=-0.000100
quickprop_mu=1.750000
rprop_increase_factor=1.200000
rprop_decrease_factor=0.500000
rprop_delta_min=0.000000
rprop_delta_max=50.000000
rprop_delta_zero=0.100000
cascade_output_stagnation_epochs=12
cascade_candidate_change_fraction=0.010000
cascade_candidate_stagnation_epochs=12
cascade_max_out_epochs=150
cascade_min_out_epochs=50
cascade_max_cand_epochs=150
cascade_min_cand_epochs=50
cascade_num_candidate_groups=2
bit_fail_limit=1.00000000000000005551e-01
cascade_candidate_limit=1.00000000000000000000e+03
cascade_weight_multiplier=4.00000000000000022204e-01
cascade_activation_functions_count=10
cascade_activation_functions=3 5 7 8 10 11 14 15 16 17 
cascade_activation_steepnesses_count=4
cascade_activation_steepnesses=2.50000000000000000000e-01 5.00000000000000000000e-01 7.50000000000000000000e-01 1.00000000000000000000e+00 
layer_sizes=16 11 2 
scale_included=0
neurons (num_inputs, activation_function, activation_steepness)=(0, 0, 0.00000000000000000000e+00) (0, 0, 0.00000000000000000000e+00) (0, 0, 0.00000000000000000000e+00) (0, 0, 0.00000000000000000000e+00) (0, 0, 0.00000000000000000000e+00) (0, 0, 0.00000000000000000000e+00) (0, 0, 0.00000000000000000000e+00) (0, 0, 0.00000000000000000000e+00) (0, 0, 0.00000000000000000000e+00) (0, 0, 0.00000000000000000000e+00) (0, 0, 0.00000000000000000000e+00) (0, 0, 0.00000000000000000000e+00) (0, 0, 0.00000000000000000000e+00) (0, 0, 0.00000000000000000000e+00) (0, 0, 0.00000000000000000000e+00) (0, 0, 0.00000000000000000000e+00) (16, 6, 5.00000000000000000000e-01) (16, 6, 5.00000000000000000000e-01) (16, 6, 5.00000000000000000000e-01) (16, 6, 5.00000000000000000000e-01) (16, 6, 5.00000000000000000000e-01) (16, 6, 5.00000000000000000000e-01) (16, 6, 5.00000000000000000000e-01) (16, 6, 5.00000000000000000000e-01) (16, 6, 5.00000000000000000000e-01) (16, 6, 5.00000000000000000000e-01) (0, 6, 0.00000000000000000000e+00) (11, 6, 5.00000000000000000000e-01) (0, 6, 0.00000000000000000000e+00) 
connections (connected_to_neuron, weight)=(0, -1.06892565772589187567e+00) (1, 3.18454580846364032360e-04) (2, -1.84469124299940501199e-01) (3, -6.46959673590034867185e-02) (4, -1.61499341947493019189e-01) (5, 4.23980061852483602891e-01) (6, 5.97748260449133761441e-01) (7, 1.90837368504929327795e-01) (8, 2.48116784700694731347e-02) (9, -2.53790905818602370581e-02) (10, 6.49183534930402261764e-01) (11, 2.96320028503566201827e-01) (12, 3.74392034440186038946e-01) (13, -1.14267042616423994406e-01) (14, 6.36304239790885906025e-01) (15, -2.59291851096087044848e-01) (0, 4.47718933867787427516e+00) (1, 3.63515520324877716707e-01) (2, 3.07687701513937927889e-01) (3, 3.26830537846259094881e-01) (4, 3.49745729794672943758e-01) (5, 9.66365296695687980844e+00) (6, -6.12698120864638262617e+00) (7, 3.10014738975355840012e+02) (8, 8.10535506863241494102e+02) (9, 1.73309918166533072359e+00) (10, -9.12383342288056065073e-01) (11, -8.01749574544264653753e-01) (12, 1.94820601174780563269e+01) (13, -1.61317395077652421531e-02) (14, -2.28385687537461024021e+00) (15, 2.74607059445425571997e-01) (0, 7.69678051623682857318e-01) (1, -4.41280910595781769579e-02) (2, -8.78308201059229409768e-02) (3, -1.03888728640926603086e-01) (4, -5.61141827925569977586e-02) (5, 8.52951854254837771308e-01) (6, -6.03804366014383386840e+00) (7, -1.10534152047862818335e+02) (8, 1.67800886734025406222e-01) (9, 2.02950251426456701465e-01) (10, 4.11240972318922926032e-01) (11, -3.25120975672449148419e+01) (12, -1.06816201234788366037e+01) (13, 2.66128403957626158416e-01) (14, -6.55569232584946703923e+00) (15, -7.62671129744126874428e-02) (0, 3.56889432812988687260e+01) (1, 7.91317649996836069981e-02) (2, 1.54848457953985413349e-01) (3, 1.92049266479070862568e-01) (4, 1.38359108648355683124e-01) (5, 4.89037567179056997801e-02) (6, -5.77767665121451923227e+00) (7, -2.82273833412573882384e+00) (8, -1.13862504575567374809e-01) (9, 7.90221918483122509613e-01) (10, -2.81628062460585804061e+00) (11, -1.38071855685186424267e+01) (12, -2.21219943010846620268e+00) (13, 1.07319107625382784144e-01) (14, -5.99576645878567937586e+00) (15, 4.26370473088524004623e+00) (0, 9.28422666044954159048e-01) (1, -1.46095511599542045300e-02) (2, 1.26745359869384593976e-01) (3, 1.21955456109428220235e-01) (4, 4.92108556345938197296e-02) (5, 4.59509716157940784065e-01) (6, 9.80822188021753665899e-02) (7, -4.77598065835803566870e+01) (8, 1.76606864628973103670e+00) (9, 1.53723964871750551353e+00) (10, 1.60994009751716404821e+00) (11, -3.24360666646803892377e+01) (12, -8.64049884268038681512e+00) (13, 8.71417757913496959787e-01) (14, -8.38507303437310724803e+00) (15, 2.05017181139635074061e-01) (0, -2.22837488381038824059e+01) (1, -1.83154472761803327474e-01) (2, -1.09191527270727756216e-01) (3, -5.26696794266039089449e-02) (4, -6.08889811271959707772e-02) (5, 5.58229596056765281498e-02) (6, 1.91067998309338715757e+00) (7, 2.46989761324839696144e+00) (8, -3.25635063427610005338e-01) (9, -1.01990306505480604615e-01) (10, 1.88529085854819133949e+00) (11, 1.37711020715239484957e+00) (12, 2.68667218482374892119e+00) (13, 3.63515260832744033226e-02) (14, 3.20673201822761688717e+00) (15, -3.42343169882871667387e-01) (0, 1.00759591803145776012e+00) (1, 2.66613009289740007790e-02) (2, 4.06796577290533534210e-02) (3, 3.53686007575033725669e-02) (4, 1.38027431340598916165e-01) (5, 2.74871986486393549143e-01) (6, -6.94883402757655865845e-02) (7, -4.76105652776926575598e+01) (8, 2.35875145064746982726e+00) (9, 1.42164696050636174540e+00) (10, 1.38090983310825499153e+00) (11, -3.24654874055828130963e+01) (12, -9.81696199649914902352e+00) (13, 6.50673379721898426098e-01) (14, -8.58162778540900461621e+00) (15, 1.79922550643940581949e-01) (0, 1.29162898312818530400e+00) (1, 7.45211321095065715170e-01) (2, 8.61327055076198000449e-01) (3, 8.34069433787898439903e-01) (4, 9.08900129774646181602e-01) (5, 5.19252382394641553987e-01) (6, -6.96629025080464203690e-01) (7, 8.73874767820206166391e+00) (8, 3.63614715859652049001e-01) (9, 3.47085508077596416321e-01) (10, 1.60950969747384142750e+00) (11, 8.54201680016436704079e-01) (12, 8.66878142761088099633e-01) (13, 1.46652787806018802819e+00) (14, 2.18998435790208123564e+00) (15, 1.84851048905002679490e+00) (0, 4.49311064924768910345e+00) (1, 2.57320911607640812058e-01) (2, 2.86451050064462253708e-01) (3, 1.72407441756623758256e-01) (4, 3.29410188815492221970e-01) (5, 9.65913404453852386666e+00) (6, 9.80300953236850780570e+00) (7, 3.10076698741207337662e+02) (8, -8.16587215522605380791e-01) (9, -1.91894480842444231650e-01) (10, -8.91636125950906910376e-01) (11, -1.29848926410090603767e+00) (12, 1.96407272422858909522e+01) (13, -8.56534151378387925702e-02) (14, -1.37686403537752366510e+00) (15, -1.16797683469656854438e-02) (0, -5.51589310220611306335e-01) (1, 5.34203750741542721103e-02) (2, -1.11507800434821668922e-01) (3, -1.51325660097537968013e-02) (4, -1.71887250888286650941e-02) (5, 2.38324353249501297292e-01) (6, 5.58664661701185139009e+00) (7, 5.66703083438050683185e+01) (8, -3.46757263311714303278e-01) (9, -2.84361048496086121773e-01) (10, -1.15929558292896445204e-01) (11, 9.57207871123662235036e-01) (12, 1.25956302230599241909e+01) (13, 1.25780119932867445742e-01) (14, 2.08697417766482207213e+00) (15, -1.28389521164027298195e-01) (16, 7.05106730536561920886e-01) (17, 9.56497786831424612330e-01) (18, -6.17517192974680440010e-01) (19, -7.34392382182988273653e-02) (20, -5.98500564491925932803e-03) (21, 5.43219509016310886373e-01) (22, -5.86107213774938115569e-02) (23, -3.23653957261398728118e-01) (24, 3.95846578132521886850e-01) (25, 3.71446497653254492644e-01) (26, 2.58398071312619603823e-01) 
