FANN_FLO_2.1
num_layers=3
learning_rate=0.700000
connection_rate=1.000000
network_type=0
learning_momentum=0.000000
training_algorithm=2
train_error_function=1
train_stop_function=1
cascade_output_change_fraction=0.010000
quickprop_decay=-0.000100
quickprop_mu=1.750000
rprop_increase_factor=1.200000
rprop_decrease_factor=0.500000
rprop_delta_min=0.000000
rprop_delta_max=50.000000
rprop_delta_zero=0.100000
cascade_output_stagnation_epochs=12
cascade_candidate_change_fraction=0.010000
cascade_candidate_stagnation_epochs=12
cascade_max_out_epochs=150
cascade_min_out_epochs=50
cascade_max_cand_epochs=150
cascade_min_cand_epochs=50
cascade_num_candidate_groups=2
bit_fail_limit=1.00000000000000005551e-01
cascade_candidate_limit=1.00000000000000000000e+03
cascade_weight_multiplier=4.00000000000000022204e-01
cascade_activation_functions_count=10
cascade_activation_functions=3 5 7 8 10 11 14 15 16 17 
cascade_activation_steepnesses_count=4
cascade_activation_steepnesses=2.50000000000000000000e-01 5.00000000000000000000e-01 7.50000000000000000000e-01 1.00000000000000000000e+00 
layer_sizes=14 11 2 
scale_included=0
neurons (num_inputs, activation_function, activation_steepness)=(0, 0, 0.00000000000000000000e+00) (0, 0, 0.00000000000000000000e+00) (0, 0, 0.00000000000000000000e+00) (0, 0, 0.00000000000000000000e+00) (0, 0, 0.00000000000000000000e+00) (0, 0, 0.00000000000000000000e+00) (0, 0, 0.00000000000000000000e+00) (0, 0, 0.00000000000000000000e+00) (0, 0, 0.00000000000000000000e+00) (0, 0, 0.00000000000000000000e+00) (0, 0, 0.00000000000000000000e+00) (0, 0, 0.00000000000000000000e+00) (0, 0, 0.00000000000000000000e+00) (0, 0, 0.00000000000000000000e+00) (14, 6, 5.00000000000000000000e-01) (14, 6, 5.00000000000000000000e-01) (14, 6, 5.00000000000000000000e-01) (14, 6, 5.00000000000000000000e-01) (14, 6, 5.00000000000000000000e-01) (14, 6, 5.00000000000000000000e-01) (14, 6, 5.00000000000000000000e-01) (14, 6, 5.00000000000000000000e-01) (14, 6, 5.00000000000000000000e-01) (14, 6, 5.00000000000000000000e-01) (0, 6, 0.00000000000000000000e+00) (11, 6, 5.00000000000000000000e-01) (0, 6, 0.00000000000000000000e+00) 
connections (connected_to_neuron, weight)=(0, -2.98695159345618299618e-01) (1, -3.18220488104999976731e-01) (2, -1.70849456761062917787e-01) (3, -3.05013678345859962082e-01) (4, -2.35689363751591024476e-01) (5, 2.82941136164602724534e+00) (6, -9.80671128673180958479e-01) (7, 4.45817155405730646683e-03) (8, 3.49396891686946792221e-02) (9, 5.85067029867687882216e-01) (10, 3.15228067530946787222e-01) (11, -7.46932758052074596833e-02) (12, 7.08337372144304394661e-02) (13, 3.71284785805009343029e-01) (0, -7.56278581426999441106e-01) (1, -2.13384897949756485724e-01) (2, -2.22858422937454059287e-01) (3, -2.83406408073963222982e-01) (4, -2.30969564559520695868e-01) (5, 2.67910113838109698037e+00) (6, -6.27618938956623906300e-01) (7, -4.48904820367656887115e-01) (8, -6.87801111956102273481e-01) (9, 1.02398227723464643746e-01) (10, 2.49622335190786748260e-01) (11, -4.87129198159595155904e-02) (12, -2.18987103998030396834e-01) (13, 5.46701659023663188997e-01) (0, 3.43903448339213879681e-01) (1, 1.09701548593363215622e-01) (2, -2.46919236311106890525e-02) (3, -5.09542851874023178249e-02) (4, -7.02576964327484426720e-02) (5, 5.03924276306022655980e-01) (6, -5.85677423334327706961e-01) (7, -6.33079735798000031721e-01) (8, -6.89259277031029737870e-01) (9, -9.89143156999974793031e-03) (10, -7.86647084446948197112e-01) (11, -8.34265429380750128674e-02) (12, 3.36701924360240864575e-02) (13, -5.26753462925493229352e-02) (0, 8.15315909131526694864e+00) (1, 1.38704490262185758942e-01) (2, 2.97292385595952890487e-01) (3, 3.10253296393071920090e-01) (4, 2.38349881368791288727e-01) (5, 4.03040646641715655241e-02) (6, -3.95122048032486450353e+00) (7, -3.79646185956616877277e+00) (8, -3.47650604227514437028e+00) (9, 2.54431636135250272002e-01) (10, 2.82351690370828467547e-01) (11, 5.36860773950581515734e-01) (12, 1.52017521854044351803e-01) (13, 3.73036629091340055098e-01) (0, -7.15554928011671194099e+01) (1, -1.21344051403441760550e-01) (2, -1.41820511860289905082e-01) (3, -9.52777630514291262731e-02) (4, -1.39368749303260180961e-01) (5, 2.75499739791199627081e-01) (6, 9.36059830885212162954e-01) (7, 3.96493361533078569892e+00) (8, 3.58563217847926418713e+00) (9, 6.08061238908422785343e-01) (10, -1.45194179016393420945e-01) (11, 2.60820812804516133365e-01) (12, 6.16655322470633482368e-01) (13, -1.15565212071412815042e+00) (0, 2.06511334654833023095e+00) (1, 1.92058851150785969697e-01) (2, 2.32534387288605204347e-01) (3, 2.30317183909927836183e-01) (4, 2.11749442992722081147e-01) (5, -2.99548126647764023645e+00) (6, -3.17308675831932229805e-01) (7, -8.31889414400324989085e-02) (8, 5.05992336764344019517e-02) (9, 4.96486729724873523950e-02) (10, -5.72750722187189698076e-01) (11, 2.22064835670866461692e-01) (12, 9.72998272991546786503e-02) (13, -9.64507664755179905391e-01) (0, 9.65616486602587009713e+00) (1, 7.56627838732289115242e-01) (2, 6.12911987723397055916e-01) (3, 6.84400234045075217537e-01) (4, 7.06438358546780387215e-01) (5, 8.13308218623677348091e+00) (6, -4.88501313042507412376e+00) (7, -4.30456984341171366992e+00) (8, -2.74360267462827911444e+00) (9, 3.83005334559265349981e+02) (10, 9.88067768389514489158e-01) (11, 9.22716996279874690501e-01) (12, 4.52670204422766619956e-01) (13, -5.33587457184173885594e-01) (0, 8.29103806356414985146e+00) (1, 1.92374329763417423189e-01) (2, 3.22810370224481057999e-01) (3, 2.85283926623826455948e-01) (4, 2.13090579706196964205e-01) (5, 2.77374668629371649853e-02) (6, -2.98445406036980687148e+00) (7, -3.19812999215461779556e+00) (8, -3.63652735534240800774e+00) (9, 1.19805886667946878688e-01) (10, 2.70292035873450797734e-01) (11, 1.30483175947240986892e-01) (12, -1.62963247834843005801e-01) (13, 4.09178668847064053171e-01) (0, -6.46048254019977785667e-01) (1, -2.17440162897345939941e-01) (2, -2.65940097272632069991e-01) (3, -3.35843172967669911788e-01) (4, -2.39935298562285820312e-01) (5, 3.43651033994421251094e+00) (6, -5.45379168323592233847e-01) (7, -1.85418890624572341164e-01) (8, -2.23899288162572318583e-01) (9, -3.05645860462543272895e-01) (10, -3.11539055798886466153e-01) (11, -9.58585670196683142796e-02) (12, 2.10717738827417178094e-01) (13, 4.85244223545210184856e-01) (0, 9.15710430779787198929e-01) (1, 4.51710546806997959024e-01) (2, 5.63335689202494882544e-01) (3, 5.34298265770621449988e-01) (4, 5.20057233468241730812e-01) (5, -6.03450137066176672818e+00) (6, 2.25035423755134633694e+00) (7, 6.38040925455094054541e+00) (8, 6.74773196538857611415e+00) (9, 6.30371619287525408737e+00) (10, 5.43659206401141226195e+00) (11, 3.33574132171853010576e+00) (12, 9.94114631924232772242e-01) (13, -1.22882841890206950808e+00) (14, -1.08633930164962588805e-01) (15, -8.24715279973847609218e-02) (16, -1.72246831980395531669e-01) (17, -8.23069354680444065231e-01) (18, 6.42766982990380375540e-01) (19, 2.27802077312394102293e-01) (20, 1.45070646647694556641e+00) (21, -6.54085101297123050479e-01) (22, -1.42673693380446608980e-01) (23, -5.30761494593243510209e-01) (24, 7.22427635579265481347e-01) 
