FANN_FLO_2.1
num_layers=3
learning_rate=0.700000
connection_rate=1.000000
network_type=0
learning_momentum=0.000000
training_algorithm=2
train_error_function=1
train_stop_function=1
cascade_output_change_fraction=0.010000
quickprop_decay=-0.000100
quickprop_mu=1.750000
rprop_increase_factor=1.200000
rprop_decrease_factor=0.500000
rprop_delta_min=0.000000
rprop_delta_max=50.000000
rprop_delta_zero=0.100000
cascade_output_stagnation_epochs=12
cascade_candidate_change_fraction=0.010000
cascade_candidate_stagnation_epochs=12
cascade_max_out_epochs=150
cascade_min_out_epochs=50
cascade_max_cand_epochs=150
cascade_min_cand_epochs=50
cascade_num_candidate_groups=2
bit_fail_limit=1.00000000000000005551e-01
cascade_candidate_limit=1.00000000000000000000e+03
cascade_weight_multiplier=4.00000000000000022204e-01
cascade_activation_functions_count=10
cascade_activation_functions=3 5 7 8 10 11 14 15 16 17 
cascade_activation_steepnesses_count=4
cascade_activation_steepnesses=2.50000000000000000000e-01 5.00000000000000000000e-01 7.50000000000000000000e-01 1.00000000000000000000e+00 
layer_sizes=15 11 2 
scale_included=0
neurons (num_inputs, activation_function, activation_steepness)=(0, 0, 0.00000000000000000000e+00) (0, 0, 0.00000000000000000000e+00) (0, 0, 0.00000000000000000000e+00) (0, 0, 0.00000000000000000000e+00) (0, 0, 0.00000000000000000000e+00) (0, 0, 0.00000000000000000000e+00) (0, 0, 0.00000000000000000000e+00) (0, 0, 0.00000000000000000000e+00) (0, 0, 0.00000000000000000000e+00) (0, 0, 0.00000000000000000000e+00) (0, 0, 0.00000000000000000000e+00) (0, 0, 0.00000000000000000000e+00) (0, 0, 0.00000000000000000000e+00) (0, 0, 0.00000000000000000000e+00) (0, 0, 0.00000000000000000000e+00) (15, 6, 5.00000000000000000000e-01) (15, 6, 5.00000000000000000000e-01) (15, 6, 5.00000000000000000000e-01) (15, 6, 5.00000000000000000000e-01) (15, 6, 5.00000000000000000000e-01) (15, 6, 5.00000000000000000000e-01) (15, 6, 5.00000000000000000000e-01) (15, 6, 5.00000000000000000000e-01) (15, 6, 5.00000000000000000000e-01) (15, 6, 5.00000000000000000000e-01) (0, 6, 0.00000000000000000000e+00) (11, 6, 5.00000000000000000000e-01) (0, 6, 0.00000000000000000000e+00) 
connections (connected_to_neuron, weight)=(0, 2.56377711745968772661e+00) (1, 4.98484012809047416503e-01) (2, 4.87520759132156089599e-01) (3, 6.62958582070121371643e-01) (4, 5.58230091955909668577e-01) (5, 2.98610116135677028382e+00) (6, 9.03381407188497687066e-01) (7, -2.06787199529814641474e-01) (8, -1.38332418277616053803e-01) (9, -3.53843229873033493504e+00) (10, 3.11588713899116076522e-01) (11, 1.96004761026882534658e+00) (12, 4.44805876652608755961e+00) (13, 4.49293654721229351878e+00) (14, -7.48611576771268993902e-01) (0, 7.02564080287725878371e-02) (1, 5.91616034825258405722e-03) (2, 4.66046825083058433026e-02) (3, -6.42175890473562910321e-02) (4, -6.30397938160139892361e-02) (5, 4.62845702793744720460e-02) (6, 2.66818120328665864260e-01) (7, -7.68003383372056092071e-01) (8, 1.47383961527564832927e-01) (9, -5.58968531935647855446e-02) (10, -3.27800577160082262651e-02) (11, -1.09923479874574177018e+01) (12, -1.00821785357695903329e+00) (13, 2.17591935797732887181e+01) (14, 2.48377030762210876391e-01) (0, 4.69921745223308739980e+00) (1, 3.43133312496176845485e-01) (2, 3.63273476096621639186e-01) (3, 3.57468229564658290798e-01) (4, 3.37445829841128475124e-01) (5, 2.79587702684477523718e-01) (6, 9.03313200232159885239e-01) (7, -3.52064204534195235308e-01) (8, -3.74564170351806868808e+00) (9, -2.97367390761165006907e+00) (10, -9.55347159124858791301e-01) (11, -2.73469064322430455150e+00) (12, -1.92435250037328375861e+00) (13, -2.26738782719012332834e+00) (14, -2.99367643411946604548e-01) (0, 2.64665113988390876543e+00) (1, 4.73642219927558616455e-01) (2, 6.56889443423995578186e-01) (3, 5.96008260872611828063e-01) (4, 5.22291646477231807921e-01) (5, 2.95909434523781467163e+00) (6, 7.72694807427250052179e-01) (7, 2.09361802844904271170e-01) (8, -1.51605978371870592225e-01) (9, -3.25808596125775506991e+00) (10, 2.39658178761462808959e-01) (11, 2.33980709946498582896e-01) (12, 4.54951506967554841765e+00) (13, 4.51341640513389386058e+00) (14, -8.28942769288041225728e-01) (0, 1.69341961810556296264e+00) (1, 5.84033087533881389852e-01) (2, 6.69879317921568961935e-01) (3, 7.21531414133479098716e-01) (4, 6.87917911154200645285e-01) (5, 3.10352177512248683655e+00) (6, 8.68583023475729132379e-01) (7, -2.11615026745009343623e-01) (8, -1.87781209125381431946e-01) (9, -4.22425724405836078290e+00) (10, 3.42759558930854246750e-01) (11, 4.44291080785847586343e-03) (12, 4.69430625321930961036e+00) (13, 4.08698291645795741545e+00) (14, -1.13879739032778082297e+00) (0, 3.22479738395802462136e+00) (1, 4.29650018075402706508e-01) (2, 4.72488651135858028773e-01) (3, 3.36501998910602173609e-01) (4, 3.57012199321683487696e-01) (5, 1.54172671292001434162e-01) (6, 6.66892443565684001072e-01) (7, -4.33598275447541481320e-01) (8, -5.90598257008937377321e+00) (9, -7.43095755326733220514e-01) (10, -1.31017166083263680854e+00) (11, -1.88377760345155920163e+00) (12, -2.01808132091010117293e+00) (13, -2.21223769650247970020e+00) (14, -1.37029505920306104994e-01) (0, 4.02392590221129775596e-02) (1, 6.12748139048633205794e-02) (2, -1.12454754815000529389e-01) (3, 6.54804431344089554745e-02) (4, 1.15625136042651708440e-02) (5, -1.15951884203322939070e-03) (6, 2.95840222349419257331e-01) (7, 2.42555543067898587983e-01) (8, 8.16083074607476671725e-02) (9, 4.10066123058367537624e-01) (10, 1.33848270203506841680e-01) (11, 4.98149867748894870090e+00) (12, -1.04205576147160838829e+00) (13, -3.25592083202612958548e-01) (14, 2.77220169433550989169e-01) (0, 1.81169946750131782842e+00) (1, 6.56067602456317566784e-01) (2, 5.13444874555574193309e-01) (3, 5.58059610546336903880e-01) (4, 5.15232138455615773509e-01) (5, 1.80603946238196599872e+00) (6, 1.73793187980978225404e+00) (7, -3.65384658054072108957e-01) (8, -1.03895233411847165428e+00) (9, -2.94176867591362034560e+00) (10, 8.57963245830412613024e-01) (11, -1.97569896005396511418e-01) (12, 4.81623822934203182911e+00) (13, 4.25691313887772349034e+00) (14, -9.41242838286734939679e-01) (0, 1.77867491056648430181e+00) (1, 6.45088397086368225963e-01) (2, 6.23161904633746766002e-01) (3, 5.35699211180911794017e-01) (4, 6.28838934124217652233e-01) (5, 1.76591438292897473517e+00) (6, 6.72398998067450404115e-01) (7, -5.11048313771364504099e-01) (8, -7.49575310795886018411e-01) (9, -2.69148083293217954548e+00) (10, 9.86075763127680526843e-01) (11, -1.51156135373119837606e-01) (12, 4.66126734394171649001e+00) (13, 4.21675882334646967564e+00) (14, -1.01378330246932479852e+00) (0, 1.25306891403981213173e+00) (1, 6.64175482731741761988e-01) (2, 7.08754482012671216395e-01) (3, 5.69068217914980745142e-01) (4, 5.57244116705340242213e-01) (5, 1.60875150161526037085e-01) (6, 9.78339195346857759539e-01) (7, 3.97972727010827476146e-01) (8, 2.45963079052404909319e+00) (9, -1.35811485385833083939e+01) (10, -1.02457453832002859384e-01) (11, -1.24823045123797875533e+01) (12, -3.34393122269850051609e+00) (13, -2.33683675038502691734e+00) (14, -6.28756609114806130911e-01) (15, 2.74281487008629309976e-01) (16, -3.05391924813053217136e-02) (17, -5.04297981030805475555e-01) (18, 2.32452422520218332513e-01) (19, 2.10500635346470316156e-01) (20, -5.40450001127584567229e-01) (21, 3.77372309349828030656e-02) (22, 2.37426455551684095768e-01) (23, 2.25480537349283888249e-01) (24, -5.60045142580212540473e-01) (25, 4.21446699558157833465e-01) 
