FANN_FLO_2.1
num_layers=3
learning_rate=0.700000
connection_rate=1.000000
network_type=0
learning_momentum=0.000000
training_algorithm=2
train_error_function=1
train_stop_function=1
cascade_output_change_fraction=0.010000
quickprop_decay=-0.000100
quickprop_mu=1.750000
rprop_increase_factor=1.200000
rprop_decrease_factor=0.500000
rprop_delta_min=0.000000
rprop_delta_max=50.000000
rprop_delta_zero=0.100000
cascade_output_stagnation_epochs=12
cascade_candidate_change_fraction=0.010000
cascade_candidate_stagnation_epochs=12
cascade_max_out_epochs=150
cascade_min_out_epochs=50
cascade_max_cand_epochs=150
cascade_min_cand_epochs=50
cascade_num_candidate_groups=2
bit_fail_limit=1.00000000000000005551e-01
cascade_candidate_limit=1.00000000000000000000e+03
cascade_weight_multiplier=4.00000000000000022204e-01
cascade_activation_functions_count=10
cascade_activation_functions=3 5 7 8 10 11 14 15 16 17 
cascade_activation_steepnesses_count=4
cascade_activation_steepnesses=2.50000000000000000000e-01 5.00000000000000000000e-01 7.50000000000000000000e-01 1.00000000000000000000e+00 
layer_sizes=7 11 2 
scale_included=0
neurons (num_inputs, activation_function, activation_steepness)=(0, 0, 0.00000000000000000000e+00) (0, 0, 0.00000000000000000000e+00) (0, 0, 0.00000000000000000000e+00) (0, 0, 0.00000000000000000000e+00) (0, 0, 0.00000000000000000000e+00) (0, 0, 0.00000000000000000000e+00) (0, 0, 0.00000000000000000000e+00) (7, 6, 5.00000000000000000000e-01) (7, 6, 5.00000000000000000000e-01) (7, 6, 5.00000000000000000000e-01) (7, 6, 5.00000000000000000000e-01) (7, 6, 5.00000000000000000000e-01) (7, 6, 5.00000000000000000000e-01) (7, 6, 5.00000000000000000000e-01) (7, 6, 5.00000000000000000000e-01) (7, 6, 5.00000000000000000000e-01) (7, 6, 5.00000000000000000000e-01) (0, 6, 0.00000000000000000000e+00) (11, 6, 5.00000000000000000000e-01) (0, 6, 0.00000000000000000000e+00) 
connections (connected_to_neuron, weight)=(0, -8.59477709983364479562e-01) (1, -1.38814942032148336271e-01) (2, -2.04235697687167941372e-02) (3, -1.41750062406558810513e-02) (4, -2.18352461755771456997e-02) (5, 2.52308758897038210023e+00) (6, -1.18885711818983053067e-01) (0, 1.39753835714587926198e+00) (1, 4.67329967524927669675e-01) (2, 4.28822483625334316404e-01) (3, 5.08048515524786470365e-01) (4, 3.85960589852255397947e-01) (5, -1.95526141922346741175e+00) (6, 3.12386165275008342856e-01) (0, 4.20878657244857859454e-02) (1, 1.22556447648217506363e-02) (2, 7.73260727190186736291e-02) (3, -3.57776970005820038612e-02) (4, 8.74398633503129241173e-02) (5, -5.34716132386649611874e+00) (6, -4.88209776914904358680e-02) (0, -8.19852452729717628976e-01) (1, -1.12876766413499807218e-01) (2, -3.45524037778873194249e-02) (3, -5.02743507326144645209e-02) (4, -7.52768898904819239171e-02) (5, 2.52011705738754976380e+00) (6, -9.76216504872340767873e-02) (0, 8.14455368210319496924e-01) (1, 1.38103066607358104800e-01) (2, 2.45510014369132167911e-01) (3, 1.23140430673005230044e-01) (4, 2.08352419211508821384e-01) (5, -3.55824742845146813064e-01) (6, 3.07409764852725059248e-03) (0, -8.72509334240929024240e-01) (1, -1.05914467066575965215e-01) (2, -7.72109116018314112218e-02) (3, -1.32128001242925618985e-01) (4, -2.04455518215944265226e-01) (5, 2.57253844839783418763e+00) (6, -1.51642770465354903564e-01) (0, -4.28582242450532210909e-02) (1, 2.86407512605141245654e-01) (2, 3.96316067308138453296e-01) (3, 2.81450972884844385913e-01) (4, 4.00792197316835963061e-01) (5, 6.39539632823196235734e+00) (6, 2.51050811704627174770e-01) (0, 8.78687688389006293921e-02) (1, 4.13238109081934534839e-01) (2, 4.01110366910646998218e-01) (3, 3.62244532436083399585e-01) (4, 3.09425630599211298755e-01) (5, 6.39524737622466865616e+00) (6, 2.24282984134188789760e-01) (0, -5.92792815289315475069e-02) (1, 3.18005704313467585376e-01) (2, 4.32477132409761988452e-01) (3, 3.57740365892599665454e-01) (4, 3.79753873676012598803e-01) (5, 6.42125738289085212784e+00) (6, 3.07774398919573921596e-01) (0, -9.14920251821056740305e-01) (1, -8.45719585717220057042e-02) (2, -1.97799340874006246427e-01) (3, -1.30220735967655001919e-02) (4, -1.81422137707521413663e-01) (5, 2.52085193795414674867e+00) (6, -9.77780678829955895992e-02) (7, 3.98121941592615657957e-01) (8, -7.11410875022907007725e-02) (9, 6.53550165301712560062e-03) (10, 4.22820307072323375852e-01) (11, -1.96693027914066134731e-02) (12, 4.19343665000122600706e-01) (13, 3.38400275438974940112e-01) (14, 3.90187175005625330737e-01) (15, 4.29243818849276148608e-01) (16, 3.82202114667814785154e-01) (17, 3.45612519413183771899e-01) 
