FANN_FLO_2.1
num_layers=3
learning_rate=0.700000
connection_rate=1.000000
network_type=0
learning_momentum=0.000000
training_algorithm=2
train_error_function=1
train_stop_function=1
cascade_output_change_fraction=0.010000
quickprop_decay=-0.000100
quickprop_mu=1.750000
rprop_increase_factor=1.200000
rprop_decrease_factor=0.500000
rprop_delta_min=0.000000
rprop_delta_max=50.000000
rprop_delta_zero=0.100000
cascade_output_stagnation_epochs=12
cascade_candidate_change_fraction=0.010000
cascade_candidate_stagnation_epochs=12
cascade_max_out_epochs=150
cascade_min_out_epochs=50
cascade_max_cand_epochs=150
cascade_min_cand_epochs=50
cascade_num_candidate_groups=2
bit_fail_limit=1.00000000000000005551e-01
cascade_candidate_limit=1.00000000000000000000e+03
cascade_weight_multiplier=4.00000000000000022204e-01
cascade_activation_functions_count=10
cascade_activation_functions=3 5 7 8 10 11 14 15 16 17 
cascade_activation_steepnesses_count=4
cascade_activation_steepnesses=2.50000000000000000000e-01 5.00000000000000000000e-01 7.50000000000000000000e-01 1.00000000000000000000e+00 
layer_sizes=25 11 2 
scale_included=0
neurons (num_inputs, activation_function, activation_steepness)=(0, 0, 0.00000000000000000000e+00) (0, 0, 0.00000000000000000000e+00) (0, 0, 0.00000000000000000000e+00) (0, 0, 0.00000000000000000000e+00) (0, 0, 0.00000000000000000000e+00) (0, 0, 0.00000000000000000000e+00) (0, 0, 0.00000000000000000000e+00) (0, 0, 0.00000000000000000000e+00) (0, 0, 0.00000000000000000000e+00) (0, 0, 0.00000000000000000000e+00) (0, 0, 0.00000000000000000000e+00) (0, 0, 0.00000000000000000000e+00) (0, 0, 0.00000000000000000000e+00) (0, 0, 0.00000000000000000000e+00) (0, 0, 0.00000000000000000000e+00) (0, 0, 0.00000000000000000000e+00) (0, 0, 0.00000000000000000000e+00) (0, 0, 0.00000000000000000000e+00) (0, 0, 0.00000000000000000000e+00) (0, 0, 0.00000000000000000000e+00) (0, 0, 0.00000000000000000000e+00) (0, 0, 0.00000000000000000000e+00) (0, 0, 0.00000000000000000000e+00) (0, 0, 0.00000000000000000000e+00) (0, 0, 0.00000000000000000000e+00) (25, 6, 5.00000000000000000000e-01) (25, 6, 5.00000000000000000000e-01) (25, 6, 5.00000000000000000000e-01) (25, 6, 5.00000000000000000000e-01) (25, 6, 5.00000000000000000000e-01) (25, 6, 5.00000000000000000000e-01) (25, 6, 5.00000000000000000000e-01) (25, 6, 5.00000000000000000000e-01) (25, 6, 5.00000000000000000000e-01) (25, 6, 5.00000000000000000000e-01) (0, 6, 0.00000000000000000000e+00) (11, 6, 5.00000000000000000000e-01) (0, 6, 0.00000000000000000000e+00) 
connections (connected_to_neuron, weight)=(0, -1.85728733103513166114e+00) (1, -3.34489328773332691980e-02) (2, 2.53751443712400374941e-02) (3, -9.98363925130678342423e-02) (4, -1.00065993330032937392e-01) (5, 1.34005468450636405775e-01) (6, 3.95634198148150595387e-01) (7, 1.12362487942494304605e+00) (8, -2.07340482668811360023e-01) (9, -1.15824509270645609194e-01) (10, 8.05993387597553068158e-02) (11, 1.34175879853531743180e-01) (12, 1.07753874934867388546e+00) (13, 7.23185371382053743261e-01) (14, 1.35076035680731187938e+00) (15, 2.47676182946673009155e+01) (16, 1.16485412954813205566e+00) (17, -4.66430649202065783498e+00) (18, 2.71014163944837971343e+00) (19, 2.73304983895661424143e+00) (20, 2.19320455983458673099e-01) (21, 4.78058356270356865636e-01) (22, -1.08527023736648201013e-01) (23, -4.49939559986435888561e+00) (24, 8.16752259647142153653e-02) (0, 1.18833231920838020557e+01) (1, 3.40315440112199385503e-01) (2, 3.82782825642671187261e-01) (3, 3.12335321122254927495e-01) (4, 2.33661816829290186481e-01) (5, -2.07713390575812795191e+00) (6, 5.26802547455497105489e+00) (7, 1.56220944198803497471e+01) (8, 9.84477217984071062418e-01) (9, 1.59655083811682940720e+00) (10, -2.52387714998490286789e+00) (11, 2.31230659961900480992e-01) (12, -1.09518407393551009399e+00) (13, 6.70195934581907408756e+01) (14, -1.23060691921725195996e+00) (15, -1.07772734702803996143e+00) (16, 8.87697581475601904533e-02) (17, 1.83806978597247622220e-01) (18, 2.56886647584855687398e+01) (19, 5.15474389292174564048e+01) (20, 6.31126292477184858143e+00) (21, -6.05655558904728219538e-01) (22, -3.50533193247044849716e-01) (23, 5.31151831215991077073e+00) (24, -4.31982399513028081373e-01) (0, 2.36962224028263213071e+00) (1, 2.79903919745115858930e-01) (2, 3.15863748390106557906e-01) (3, 3.87944762904075979293e-01) (4, 2.67079116154341322797e-01) (5, -2.41800283094796876482e-02) (6, 6.53340139060214664113e+00) (7, 1.56569603207544876255e+01) (8, 4.62475362708982928872e-01) (9, -1.19524663219267024417e+00) (10, -1.78082909191991833886e+00) (11, -1.90296380076440146967e-01) (12, -1.01863663751936162072e+00) (13, -3.64193077174484347580e+00) (14, -1.38362779856579698468e+00) (15, 1.12220178946837756406e+00) (16, -3.53826878605670414046e+00) (17, 1.24752177494492100251e+00) (18, 2.57937027680695187826e+01) (19, 5.14889103345447765037e+01) (20, 9.04862387285093916489e+00) (21, -3.53909844678292850872e+00) (22, -2.17939466068669790433e-01) (23, 5.36888841605557498582e+00) (24, 1.70517237626405693263e-01) (0, 8.14894604174475212233e+00) (1, 4.06014224337277018773e-01) (2, 4.72206039177117065098e-01) (3, 3.26649298714337066318e-01) (4, 5.16033543096717783882e-01) (5, -1.47989131957358810432e+00) (6, 2.63426104385083847959e+00) (7, 1.55403211313323570408e+01) (8, 9.52062796544900225015e-01) (9, 8.15539507980249211982e+00) (10, -1.18024541292483253763e+00) (11, 4.44793843980505032576e-01) (12, 2.32417570786453947518e-01) (13, 6.69274006965907233280e+01) (14, -3.23416634802187796804e-01) (15, -6.92877457061627732848e-01) (16, -9.74031021444104139206e-01) (17, 4.06414274411561582401e-01) (18, 2.56540063860833775777e+01) (19, 5.13985408119732127830e+01) (20, 7.29857551935618165118e+00) (21, -3.61062209492482244499e+00) (22, -3.05377692329541317040e-01) (23, 5.34252012586964664109e+00) (24, 1.42171524727979364799e-01) (0, 1.26963256936203539027e+00) (1, 1.67425732154279055530e-01) (2, 1.25800180274873135700e-01) (3, 2.66946805900624799246e-02) (4, 1.34815144378571866168e-01) (5, -1.00883122899378188664e-01) (6, -8.58218435322256945064e-01) (7, -1.13708247831326381139e+00) (8, -1.46224285652351349007e-01) (9, -4.63538874951900589649e-02) (10, 2.66683131677529716708e-01) (11, 4.08601907223054977569e-02) (12, -3.12139100013779313691e-01) (13, -1.45023526965526583510e+00) (14, -1.17972070327085634678e-01) (15, -7.31255809568922998665e-01) (16, 1.65490942360123827193e+00) (17, -4.40644669492423179946e+00) (18, -2.97814421084102320947e+00) (19, -1.61498228818277178576e+00) (20, -1.37913466814619106726e-01) (21, -3.40260407993852986852e-01) (22, 3.43598677151775500072e-01) (23, 9.82948297996226072470e-01) (24, -1.26211190431119835154e-01) (0, 1.60747676165938564452e+01) (1, 4.06353682140095151532e-01) (2, 3.96769542107565320599e-01) (3, 4.98160414258224881756e-01) (4, 3.47374811629040269878e-01) (5, -1.93078120944462350295e+00) (6, -5.64947395251995576615e+00) (7, -4.17012022058595555052e+00) (8, 1.94329234983056306496e-02) (9, 1.32490253944510555373e-01) (10, -1.93385601365433879018e+00) (11, -1.47725454062961092383e+00) (12, -9.25398759810043713969e-01) (13, -1.26205772218871775658e-01) (14, -8.15573442486345667746e-01) (15, 5.67955800340023753137e+00) (16, -4.53542863402513063420e+00) (17, -7.56005994472070863566e+00) (18, -6.95670783293131833602e+00) (19, -6.63896063369841726853e+00) (20, -3.89580850719060745035e+00) (21, -3.79563786647015843911e+00) (22, 1.05621815410935404600e+00) (23, 1.37361347803682321000e+00) (24, 1.12765744428681743972e-01) (0, 5.17194040750632488823e+00) (1, 4.52506809181582425605e-01) (2, 3.38931007928263638984e-01) (3, 5.04332749790559642378e-01) (4, 4.32814760751139615547e-01) (5, -9.36378616891836990099e-01) (6, 3.46478252735370428894e+00) (7, 1.56706205132441116490e+01) (8, 1.07323843587624101481e+00) (9, 1.83172886637828780110e+00) (10, -8.22404742939406685487e-01) (11, 3.05502309571160146628e-01) (12, -6.06916101620926101701e-02) (13, 1.61746360947220892967e+01) (14, -4.95518814606251190025e-01) (15, 5.17378958391859877786e-01) (16, -2.16766313032353075130e+00) (17, 8.43951439799391689434e-01) (18, 2.57112735825598370809e+01) (19, 5.15260073043280826255e+01) (20, 7.22910376522248032671e+00) (21, -3.46575755678214791899e+00) (22, -3.92839050190175231858e-01) (23, 5.26887839353455600389e+00) (24, -3.21674116077522442847e-01) (0, 1.52355085359233086706e+01) (1, 2.42146063520468468599e-01) (2, 2.05168459488905663424e-01) (3, 1.75495583488501305514e-01) (4, 3.22134908213175696901e-01) (5, -1.46216871412492266380e+00) (6, -3.94301195953134264727e+00) (7, -3.04613241553201063994e+00) (8, 6.71959203298320817410e-01) (9, 6.71091853965207096877e-01) (10, -1.61640571843689917486e+00) (11, -1.91981556888193782839e+00) (12, -8.02932931752137313275e-01) (13, -1.06223404600065118863e+00) (14, -8.12837646475158659420e-01) (15, -1.05254288554718211657e+00) (16, 1.88831268493079074133e-01) (17, -4.15597787114129701980e-01) (18, -5.37391234793970618000e+00) (19, -5.22465894481216963641e+00) (20, -4.44493849969917054210e+00) (21, -8.33168740802939677970e-01) (22, -1.28928892930012661822e+00) (23, -3.44035854547567865325e+00) (24, 2.36484490474430791851e-01) (0, 1.42513955480045400037e+01) (1, 4.60018917903461166397e-01) (2, 4.75174196049727992630e-01) (3, 4.76805068537749843216e-01) (4, 5.27398325488128483229e-01) (5, -1.63756806955494771394e+00) (6, -5.62909499097855103855e+00) (7, -4.53615353526788922522e+00) (8, 1.78328024254066519472e-01) (9, 2.09278039912448671211e-01) (10, -2.10923319146416021752e+00) (11, -1.62010324622978463260e+00) (12, -8.61606827836522537467e-01) (13, -8.16693515547289639045e-01) (14, -8.47579931845569456428e-01) (15, 2.87098381570823402154e-01) (16, -1.88961981749134338981e-01) (17, 3.69389530538134502891e+00) (18, -6.38638960843135627954e+00) (19, -6.95766877714336118288e+00) (20, -3.85884085402669407827e+00) (21, -3.94170568705753376904e+00) (22, 5.41972183620018865824e-01) (23, -1.90142224628977452028e+01) (24, 1.62407257355184020398e-01) (0, 6.29531164403642762295e-01) (1, 3.90525234958043268585e-02) (2, 8.89503060003628970298e-02) (3, 1.28177179118504677019e-02) (4, 6.88601432463040591392e-02) (5, 5.86723213148004490991e-02) (6, -3.37061862915066789981e-01) (7, 2.69652410529610975232e+00) (8, -3.94125948302341752583e-02) (9, 1.28367937423855521528e-01) (10, -2.95635087312296596096e-01) (11, 5.05284299658447857984e-02) (12, 1.44587602197251241520e+00) (13, 1.67150520544018665881e+00) (14, 1.14654096978357000758e+00) (15, 1.60157069808114940201e+01) (16, 4.38371825632928402428e+00) (17, -4.21018627020451952081e-01) (18, 4.19140701044502872463e+00) (19, 8.38791493995853087995e+00) (20, -3.94748497867375702786e-01) (21, 2.64836443342511482224e-02) (22, 1.26951369006197384293e-01) (23, 1.99048228284168321478e-01) (24, 1.28609424939905764296e-01) (25, 6.09778820225392870213e-01) (26, 4.75147057273082984441e-01) (27, 4.68043018080883277410e-01) (28, 4.28883794643574012273e-01) (29, -1.60395069636987575024e-01) (30, -5.90707940918094531746e-01) (31, 4.84895098902874244207e-01) (32, -8.07468109035948344854e-01) (33, -5.39590973435823961779e-01) (34, 7.20301580293264187560e-01) (35, 2.49746891270299725685e-01) 
