FANN_FLO_2.1
num_layers=3
learning_rate=0.700000
connection_rate=1.000000
network_type=0
learning_momentum=0.000000
training_algorithm=2
train_error_function=1
train_stop_function=1
cascade_output_change_fraction=0.010000
quickprop_decay=-0.000100
quickprop_mu=1.750000
rprop_increase_factor=1.200000
rprop_decrease_factor=0.500000
rprop_delta_min=0.000000
rprop_delta_max=50.000000
rprop_delta_zero=0.100000
cascade_output_stagnation_epochs=12
cascade_candidate_change_fraction=0.010000
cascade_candidate_stagnation_epochs=12
cascade_max_out_epochs=150
cascade_min_out_epochs=50
cascade_max_cand_epochs=150
cascade_min_cand_epochs=50
cascade_num_candidate_groups=2
bit_fail_limit=1.00000000000000005551e-01
cascade_candidate_limit=1.00000000000000000000e+03
cascade_weight_multiplier=4.00000000000000022204e-01
cascade_activation_functions_count=10
cascade_activation_functions=3 5 7 8 10 11 14 15 16 17 
cascade_activation_steepnesses_count=4
cascade_activation_steepnesses=2.50000000000000000000e-01 5.00000000000000000000e-01 7.50000000000000000000e-01 1.00000000000000000000e+00 
layer_sizes=18 11 2 
scale_included=0
neurons (num_inputs, activation_function, activation_steepness)=(0, 0, 0.00000000000000000000e+00) (0, 0, 0.00000000000000000000e+00) (0, 0, 0.00000000000000000000e+00) (0, 0, 0.00000000000000000000e+00) (0, 0, 0.00000000000000000000e+00) (0, 0, 0.00000000000000000000e+00) (0, 0, 0.00000000000000000000e+00) (0, 0, 0.00000000000000000000e+00) (0, 0, 0.00000000000000000000e+00) (0, 0, 0.00000000000000000000e+00) (0, 0, 0.00000000000000000000e+00) (0, 0, 0.00000000000000000000e+00) (0, 0, 0.00000000000000000000e+00) (0, 0, 0.00000000000000000000e+00) (0, 0, 0.00000000000000000000e+00) (0, 0, 0.00000000000000000000e+00) (0, 0, 0.00000000000000000000e+00) (0, 0, 0.00000000000000000000e+00) (18, 6, 5.00000000000000000000e-01) (18, 6, 5.00000000000000000000e-01) (18, 6, 5.00000000000000000000e-01) (18, 6, 5.00000000000000000000e-01) (18, 6, 5.00000000000000000000e-01) (18, 6, 5.00000000000000000000e-01) (18, 6, 5.00000000000000000000e-01) (18, 6, 5.00000000000000000000e-01) (18, 6, 5.00000000000000000000e-01) (18, 6, 5.00000000000000000000e-01) (0, 6, 0.00000000000000000000e+00) (11, 6, 5.00000000000000000000e-01) (0, 6, 0.00000000000000000000e+00) 
connections (connected_to_neuron, weight)=(0, 8.78275853875370415835e+00) (1, 6.71633931704020571002e-03) (2, 1.24065263596253069767e-01) (3, 6.65242880851790313601e-02) (4, 9.02609735996290768467e-02) (5, -7.88693642118799442819e-01) (6, 1.60292676762704477955e-01) (7, -9.53229599436195562667e-01) (8, 8.68844772638607043547e-01) (9, -2.45105773114049491079e-01) (10, -4.68393390162060829773e-01) (11, -8.51652805647711841353e-01) (12, -1.97514656423780354810e-01) (13, -5.20456086066696105297e-02) (14, -4.00416827052949508836e-01) (15, -1.77024731987461803051e+00) (16, -5.97921944011147843412e-01) (17, 1.34958983393104331450e-01) (0, 5.53968566027339903712e+00) (1, 3.26566986336923492651e-01) (2, 1.97824664011216705406e-01) (3, 1.60854637220120971763e-01) (4, 1.73603757813191955650e-01) (5, -1.93654114543166322449e+00) (6, 2.05121856586472445239e-01) (7, 5.81271504348492484837e+00) (8, -2.99354886282726107005e-01) (9, -4.24493927129540371546e-01) (10, -2.60674374274018294528e-01) (11, -1.70444778973781713161e-01) (12, -4.96401810678927468690e-01) (13, -8.84334565708301822973e-01) (14, -2.04220286481656065902e+00) (15, -2.02327099046684555361e+00) (16, 3.09074687208684338202e+02) (17, -1.18057778663376167216e+00) (0, 8.63062591595681283252e+00) (1, -1.31919736380329711417e-02) (2, 9.64986255054720853952e-02) (3, 8.88609235768565153268e-02) (4, 5.48295175318965558042e-02) (5, -1.40679968410761757625e+00) (6, -4.65070446751129386309e-03) (7, -9.46109074579421949203e-01) (8, 7.98624777025765508753e-01) (9, -1.48280420594400288992e-02) (10, -4.32434119110989945156e-01) (11, -7.93294934745742308380e-01) (12, 2.37269905270096809202e-01) (13, 3.26233463498558529103e-01) (14, -4.39597914629545394316e-01) (15, -1.83395496958241199792e+00) (16, -7.10592442357039999479e-01) (17, 1.75947667093665799376e-01) (0, 7.67166787366661218073e+00) (1, 4.95907884719123531747e-02) (2, 1.85021452295993871218e-01) (3, 1.60894758689617223268e-01) (4, 5.16130474092712093759e-02) (5, -4.25042000798764441072e+00) (6, -1.17645859714309919397e+00) (7, -1.47911514028103985297e+00) (8, -2.90632685765210352358e+00) (9, -4.16094418844981717154e-01) (10, -1.87449955682000402035e-01) (11, 4.29441276357002910125e-01) (12, -1.20851088327854538917e+00) (13, -7.15344840625644406984e-01) (14, -3.85946350231501122963e+00) (15, -3.58102969597459619422e+00) (16, -1.16638325935087578955e+02) (17, 1.48529019478002594079e-01) (0, 6.40206997496336871478e+00) (1, 1.56954969647842335068e-01) (2, -2.20361916389886676459e-02) (3, 3.64666761788901144792e-02) (4, -1.38992412057344135595e-02) (5, -2.07503082749340750368e+00) (6, -6.93207462720735051454e-02) (7, -3.41667551842594618972e-01) (8, -4.33528276384416988432e-01) (9, -1.95373070524010150617e-01) (10, -1.90444163542530769950e-01) (11, -1.32626323654848436717e-02) (12, -5.97745692555791616196e-02) (13, -1.11885173048170402654e-01) (14, -5.46592143472336555732e+00) (15, -1.48070932058555415622e+00) (16, -9.23082836876476964250e-01) (17, -1.58917077822151614486e-01) (0, 2.75548022985124099193e+01) (1, 1.47954477853636523488e-01) (2, 2.55104421563009942098e-01) (3, 1.67512885219912283086e-01) (4, 2.93719156570296013875e-01) (5, -5.65675135536708451056e-01) (6, -6.10852819624341569771e-01) (7, -2.94192249854523479868e+00) (8, -4.16711724701792129988e-01) (9, -5.15566295500392568485e-01) (10, -5.58962004785921062755e-01) (11, -4.95123257004732142406e-01) (12, -8.52579750313645523541e-01) (13, -7.09877898274158147807e-01) (14, -9.14311692039920131947e-01) (15, -6.09991287239440294066e-01) (16, -2.70581957156972585654e-02) (17, 1.15184295518840587591e-01) (0, 8.63663719376662797345e+00) (1, 3.13942710318955209292e-01) (2, 1.84317106762322296953e-01) (3, 3.39072803416641976870e-01) (4, 2.93353895106705453433e-01) (5, 8.33889836502980374977e-02) (6, 3.39168862363934231485e-01) (7, 4.74224748076220325999e+00) (8, -6.13892839398445966381e-01) (9, 1.55994714740037617590e-02) (10, -3.93506685607412476369e-01) (11, 1.45817733116272524319e-01) (12, -9.70291718443759942936e-01) (13, -9.59660746021173571840e-01) (14, -8.93855502350052955052e-01) (15, 8.56373603340737782341e-02) (16, 3.09047057669313801398e+02) (17, -1.14506487082674124345e+00) (0, 6.29928849128088153009e+00) (1, 3.86830314982122697165e-02) (2, 2.00670097767133098765e-01) (3, 1.36046570538300853892e-01) (4, 9.88336585450357019145e-02) (5, -2.24573287848054325977e+00) (6, -1.90160501360918166025e-01) (7, -1.85785343429440419349e+00) (8, -6.58284661457179814947e-02) (9, -1.92862092676513940948e-01) (10, -7.29750483575407477010e-02) (11, 1.03303651176868765971e-01) (12, -3.99444301812986790612e-01) (13, -5.13808586669358358101e-01) (14, -6.95581661170568521513e-01) (15, -2.78904899835620412318e+00) (16, -1.88844069971117960449e+01) (17, 1.03880571810358174334e-02) (0, 3.19110418285860433230e+01) (1, 1.42581967565036854539e-01) (2, 4.37445621218451874412e-02) (3, 5.34118953373202837165e-02) (4, 1.77523938867069325243e-01) (5, -4.76219133566590568929e-01) (6, -1.02380079044912072894e-01) (7, -3.37629294335012231087e+00) (8, -6.13767538727369652007e-02) (9, -3.23880660618458993127e-01) (10, -3.46055559680028101965e-01) (11, -1.68221640485107098995e-01) (12, -9.88339059828849841871e-01) (13, -8.90194562026621172279e-01) (14, -4.93798754275994677965e-01) (15, -2.80036687981348619836e-01) (16, 6.23677183984644889492e-01) (17, 1.56670373870429098517e-02) (0, 2.71015372074226235100e+01) (1, 2.06797042982715534309e-01) (2, 3.23292007790941082757e-01) (3, 2.49790160106557662667e-01) (4, 1.72092614816564459801e-01) (5, -2.21371868720297626520e-01) (6, -5.96906022007304026822e-01) (7, -3.85049020837790267890e+00) (8, -4.51488229205955104995e-01) (9, -3.84359266205972993635e-01) (10, -4.70273414627279062739e-01) (11, -3.47471458706337055222e-01) (12, -7.84411776278549410790e-01) (13, -7.85589288069610480747e-01) (14, -2.69224402925486105964e-01) (15, -2.84619774394092028835e-01) (16, 2.52177106372961035152e-01) (17, 1.52420952694593742072e-01) (18, -1.21600635228986966863e-01) (19, 9.39128274818208375052e-01) (20, -8.00251045250910814088e-02) (21, -3.33282657443666030517e-01) (22, -2.75445360190652910326e-01) (23, -5.31717431195103062969e-01) (24, 8.86573513709102201119e-01) (25, -3.33516609494662996660e-01) (26, -4.59302035089687421543e-01) (27, -5.24812052274768903182e-01) (28, 8.32361138556893198626e-01) 
