FANN_FLO_2.1
num_layers=3
learning_rate=0.700000
connection_rate=1.000000
network_type=0
learning_momentum=0.000000
training_algorithm=2
train_error_function=1
train_stop_function=1
cascade_output_change_fraction=0.010000
quickprop_decay=-0.000100
quickprop_mu=1.750000
rprop_increase_factor=1.200000
rprop_decrease_factor=0.500000
rprop_delta_min=0.000000
rprop_delta_max=50.000000
rprop_delta_zero=0.100000
cascade_output_stagnation_epochs=12
cascade_candidate_change_fraction=0.010000
cascade_candidate_stagnation_epochs=12
cascade_max_out_epochs=150
cascade_min_out_epochs=50
cascade_max_cand_epochs=150
cascade_min_cand_epochs=50
cascade_num_candidate_groups=2
bit_fail_limit=1.00000000000000005551e-01
cascade_candidate_limit=1.00000000000000000000e+03
cascade_weight_multiplier=4.00000000000000022204e-01
cascade_activation_functions_count=10
cascade_activation_functions=3 5 7 8 10 11 14 15 16 17 
cascade_activation_steepnesses_count=4
cascade_activation_steepnesses=2.50000000000000000000e-01 5.00000000000000000000e-01 7.50000000000000000000e-01 1.00000000000000000000e+00 
layer_sizes=14 11 2 
scale_included=0
neurons (num_inputs, activation_function, activation_steepness)=(0, 0, 0.00000000000000000000e+00) (0, 0, 0.00000000000000000000e+00) (0, 0, 0.00000000000000000000e+00) (0, 0, 0.00000000000000000000e+00) (0, 0, 0.00000000000000000000e+00) (0, 0, 0.00000000000000000000e+00) (0, 0, 0.00000000000000000000e+00) (0, 0, 0.00000000000000000000e+00) (0, 0, 0.00000000000000000000e+00) (0, 0, 0.00000000000000000000e+00) (0, 0, 0.00000000000000000000e+00) (0, 0, 0.00000000000000000000e+00) (0, 0, 0.00000000000000000000e+00) (0, 0, 0.00000000000000000000e+00) (14, 6, 5.00000000000000000000e-01) (14, 6, 5.00000000000000000000e-01) (14, 6, 5.00000000000000000000e-01) (14, 6, 5.00000000000000000000e-01) (14, 6, 5.00000000000000000000e-01) (14, 6, 5.00000000000000000000e-01) (14, 6, 5.00000000000000000000e-01) (14, 6, 5.00000000000000000000e-01) (14, 6, 5.00000000000000000000e-01) (14, 6, 5.00000000000000000000e-01) (0, 6, 0.00000000000000000000e+00) (11, 6, 5.00000000000000000000e-01) (0, 6, 0.00000000000000000000e+00) 
connections (connected_to_neuron, weight)=(0, 1.31765338532030540364e+01) (1, 3.20712469801230748434e-01) (2, 2.80583050385041554708e-01) (3, 3.17715004369540532370e-01) (4, 4.15028903916402180929e-01) (5, -1.07974023376890104764e-01) (6, -6.95939109455564963724e+00) (7, -6.50487662235266217436e+00) (8, -3.58437439529747325917e-01) (9, 1.87626915676422534318e+00) (10, 5.15719314888780644424e-01) (11, 2.67220703337232556862e+00) (12, -1.11565122051828824468e+00) (13, 7.69882835567676893085e-01) (0, -7.68901120411961791490e-01) (1, -2.44234544326480604304e-02) (2, -1.07204299895924018426e-01) (3, -1.64921317725342131411e-01) (4, -1.05825867979687113229e-01) (5, 1.69104150368437650132e-01) (6, 7.12296082676545760926e-01) (7, 5.69493747837812147594e-01) (8, 1.59033693166575562650e-01) (9, -4.05811448049830825191e-01) (10, 5.24596992364137548748e+00) (11, -2.22813444884397604540e+00) (12, 5.20149231284746882409e-01) (13, -2.36079515498226422121e-01) (0, 9.87539640906872762116e+00) (1, 3.51101465192591222220e-01) (2, 3.97618151870523961477e-01) (3, 3.59100915160929234915e-01) (4, 4.01356339123999150686e-01) (5, -7.96505527828234693999e-01) (6, -5.40557959510255603419e+00) (7, -4.90225002302840273671e+00) (8, -8.10409325550576764563e-01) (9, 1.40009071086081959834e-01) (10, 5.33660787670080960510e-01) (11, 2.59689001679727926586e+00) (12, -1.33437580658889598517e+00) (13, 5.32561403615505968290e-01) (0, 5.36896136493758824315e+00) (1, 5.97362725115462511738e-01) (2, 5.65157240307971320270e-01) (3, 6.40259532309218615254e-01) (4, 5.84355598366900763629e-01) (5, -9.78578192968216631353e-02) (6, 4.47008825783587138147e+00) (7, 4.57917302293522165968e+00) (8, -8.80028765400785006889e-01) (9, 5.01236978071148886471e+00) (10, -6.24205301226328046482e+00) (11, 6.50579997129584253202e+00) (12, 1.93982533569998949474e-01) (13, -5.88003327662607766513e-01) (0, -7.18202634610074830412e-01) (1, -2.32579890618536504199e-02) (2, -2.82032821307394397647e-02) (3, -1.56513206286213180096e-01) (4, -1.58612619710943481000e-01) (5, 6.65003169858831982841e-02) (6, -6.32316976289781507159e-02) (7, -2.73956130835657840628e-01) (8, 4.75536930133043031499e-02) (9, 9.90841437147776671335e-02) (10, 1.95220279030256382846e+00) (11, 3.74061907271638766082e-02) (12, 2.65187784299448559011e-01) (13, -1.28251994556700998906e-01) (0, -3.82827214046093233790e+00) (1, -5.58978349368520893714e-02) (2, -2.08160127739185990547e-01) (3, -4.12877232234426516655e-02) (4, -1.74040268401379288887e-01) (5, 9.43262169755369056512e-02) (6, 9.20122148710203369149e-01) (7, 8.86385248899184685634e-01) (8, 3.61944514131791739153e-01) (9, -1.25240415368927493489e-01) (10, 3.77344378322039286644e+00) (11, -2.09099896551944874901e+00) (12, 5.46245029642240531587e-01) (13, -2.09004528633754155242e-01) (0, 1.96421979133407980100e+01) (1, 3.11379907249781873180e-01) (2, 3.22193895994994428111e-01) (3, 5.05635877668234701154e-01) (4, 4.91933499991271283580e-01) (5, 6.88647092856434439589e-01) (6, -6.99191140026446156241e+00) (7, -6.84692815983327740526e+00) (8, 6.17198866737795892590e-02) (9, -5.27970143534913557287e-03) (10, 9.70924517845263679305e-01) (11, 7.37792983597269413920e-01) (12, -7.25307873094418686932e-01) (13, 6.08860368933144546766e-01) (0, 2.32496310142055906400e-01) (1, -1.60026032821507485648e-01) (2, -6.18963356774760511958e-02) (3, -1.20355796412797075301e-01) (4, -1.97587382392258675834e-01) (5, 1.28809685805102269729e-01) (6, 8.82563972026296994500e-01) (7, -1.84084931555573483308e-01) (8, 1.97157210457401976811e-01) (9, 2.37066279808592517142e+00) (10, -1.13844507559338858904e+00) (11, -1.70452923814110118839e-01) (12, 8.73637546098877670886e-01) (13, 1.23962940157151275261e-02) (0, 1.30062525900564773806e-01) (1, -1.18482241657792794487e-01) (2, -2.73321590099923246442e-02) (3, -9.36213156853310940475e-02) (4, -1.15067648020803200981e-01) (5, -9.43735378847029293681e-02) (6, 3.74519331169030578188e-01) (7, 5.65888027331545973020e-01) (8, 1.32137732569871546584e-01) (9, 4.14212342688133006163e-01) (10, 5.58209389683544277005e-01) (11, 2.59647438685945905479e-03) (12, 1.65564112856098455406e-01) (13, -4.31133584441581396707e-01) (0, 1.85424449705037450165e-02) (1, -2.93716060116554975035e-02) (2, -5.18883371844555546515e-02) (3, 5.63014915094111750848e-02) (4, 9.60607285353881970580e-03) (5, 5.20738382758287321472e-01) (6, 2.70801611051680157782e-01) (7, 7.31239632750737833522e-02) (8, 4.74370347701897454584e-01) (9, 2.84415386595891328536e-01) (10, -2.74403565455083930935e-01) (11, 6.22229169245144930755e-01) (12, 3.58615660930671154016e-01) (13, -1.25059657436384141782e-01) (14, -5.92650922066103147401e-01) (15, 4.48261522982832061324e-01) (16, -1.80247759290055542536e-01) (17, 9.53439773349217811749e-01) (18, 4.43807613605348205699e-01) (19, 4.59360621267892343944e-01) (20, -2.44375536458079467561e-01) (21, -4.66238896264062452346e-01) (22, -3.07163842018014054958e-01) (23, 1.21021543241494750065e-01) (24, 6.40571983043307091599e-01) 
