FANN_FLO_2.1
num_layers=3
learning_rate=0.700000
connection_rate=1.000000
network_type=0
learning_momentum=0.000000
training_algorithm=2
train_error_function=1
train_stop_function=1
cascade_output_change_fraction=0.010000
quickprop_decay=-0.000100
quickprop_mu=1.750000
rprop_increase_factor=1.200000
rprop_decrease_factor=0.500000
rprop_delta_min=0.000000
rprop_delta_max=50.000000
rprop_delta_zero=0.100000
cascade_output_stagnation_epochs=12
cascade_candidate_change_fraction=0.010000
cascade_candidate_stagnation_epochs=12
cascade_max_out_epochs=150
cascade_min_out_epochs=50
cascade_max_cand_epochs=150
cascade_min_cand_epochs=50
cascade_num_candidate_groups=2
bit_fail_limit=1.00000000000000005551e-01
cascade_candidate_limit=1.00000000000000000000e+03
cascade_weight_multiplier=4.00000000000000022204e-01
cascade_activation_functions_count=10
cascade_activation_functions=3 5 7 8 10 11 14 15 16 17 
cascade_activation_steepnesses_count=4
cascade_activation_steepnesses=2.50000000000000000000e-01 5.00000000000000000000e-01 7.50000000000000000000e-01 1.00000000000000000000e+00 
layer_sizes=9 4 2 
scale_included=0
neurons (num_inputs, activation_function, activation_steepness)=(0, 0, 0.00000000000000000000e+00) (0, 0, 0.00000000000000000000e+00) (0, 0, 0.00000000000000000000e+00) (0, 0, 0.00000000000000000000e+00) (0, 0, 0.00000000000000000000e+00) (0, 0, 0.00000000000000000000e+00) (0, 0, 0.00000000000000000000e+00) (0, 0, 0.00000000000000000000e+00) (0, 0, 0.00000000000000000000e+00) (9, 6, 5.00000000000000000000e-01) (9, 6, 5.00000000000000000000e-01) (9, 6, 5.00000000000000000000e-01) (0, 6, 0.00000000000000000000e+00) (4, 4, 5.00000000000000000000e-01) (0, 4, 0.00000000000000000000e+00) 
connections (connected_to_neuron, weight)=(0, -2.70420872423064784229e-01) (1, 1.80335042729528050032e+00) (2, 6.87635099560321316758e-01) (3, 1.25157073460270107379e-01) (4, -3.14203112061056666349e-03) (5, 1.13756162834810867213e-01) (6, 2.32406237847086194481e-02) (7, 2.31399340010759541064e-01) (8, -1.12298885902598843956e-01) (0, -2.24173851620959174724e+00) (1, 1.05153975731894941958e+01) (2, -3.63750028432497818365e-01) (3, -1.42113533042645956428e+00) (4, -1.50306170605397726447e+00) (5, -1.41769250653958822639e+00) (6, -1.00180539189037109971e+00) (7, -6.11684931065537562667e-01) (8, -1.95855153661614744820e+00) (0, -5.37514984719295041415e-02) (1, 8.92883382738191233585e-01) (2, 5.79223504294260616021e-01) (3, -5.18820914876876038146e-03) (4, 1.86860323272396267047e-01) (5, 5.11419254762422378913e-02) (6, 8.21280408126603966856e-02) (7, 3.64923578177649005072e-02) (8, 3.00575271137219247886e-02) (9, 7.02067107008057300632e-01) (10, 5.27969369897431395344e+00) (11, 3.91597129687172806900e-01) (12, -1.58710432941805668072e+00) 
