FANN_FLO_2.1
num_layers=3
learning_rate=0.700000
connection_rate=1.000000
network_type=0
learning_momentum=0.000000
training_algorithm=2
train_error_function=1
train_stop_function=1
cascade_output_change_fraction=0.010000
quickprop_decay=-0.000100
quickprop_mu=1.750000
rprop_increase_factor=1.200000
rprop_decrease_factor=0.500000
rprop_delta_min=0.000000
rprop_delta_max=50.000000
rprop_delta_zero=0.100000
cascade_output_stagnation_epochs=12
cascade_candidate_change_fraction=0.010000
cascade_candidate_stagnation_epochs=12
cascade_max_out_epochs=150
cascade_min_out_epochs=50
cascade_max_cand_epochs=150
cascade_min_cand_epochs=50
cascade_num_candidate_groups=2
bit_fail_limit=1.00000000000000005551e-01
cascade_candidate_limit=1.00000000000000000000e+03
cascade_weight_multiplier=4.00000000000000022204e-01
cascade_activation_functions_count=10
cascade_activation_functions=3 5 7 8 10 11 14 15 16 17 
cascade_activation_steepnesses_count=4
cascade_activation_steepnesses=2.50000000000000000000e-01 5.00000000000000000000e-01 7.50000000000000000000e-01 1.00000000000000000000e+00 
layer_sizes=9 11 2 
scale_included=0
neurons (num_inputs, activation_function, activation_steepness)=(0, 0, 0.00000000000000000000e+00) (0, 0, 0.00000000000000000000e+00) (0, 0, 0.00000000000000000000e+00) (0, 0, 0.00000000000000000000e+00) (0, 0, 0.00000000000000000000e+00) (0, 0, 0.00000000000000000000e+00) (0, 0, 0.00000000000000000000e+00) (0, 0, 0.00000000000000000000e+00) (0, 0, 0.00000000000000000000e+00) (9, 6, 5.00000000000000000000e-01) (9, 6, 5.00000000000000000000e-01) (9, 6, 5.00000000000000000000e-01) (9, 6, 5.00000000000000000000e-01) (9, 6, 5.00000000000000000000e-01) (9, 6, 5.00000000000000000000e-01) (9, 6, 5.00000000000000000000e-01) (9, 6, 5.00000000000000000000e-01) (9, 6, 5.00000000000000000000e-01) (9, 6, 5.00000000000000000000e-01) (0, 6, 0.00000000000000000000e+00) (11, 6, 5.00000000000000000000e-01) (0, 6, 0.00000000000000000000e+00) 
connections (connected_to_neuron, weight)=(0, 1.21893554115836341700e-01) (1, 9.80552031008614793928e-02) (2, 9.36519397704018846662e-02) (3, 2.15792731037558416229e-01) (4, 1.00223906925143171898e-01) (5, -2.40145934014871109685e-01) (6, -2.23945961822324346446e-01) (7, -3.12649365055567562965e-01) (8, 7.28901838135602997415e-02) (0, 6.32748611898652555396e+01) (1, 5.81256532949550930311e-01) (2, 4.61919860822303518511e-01) (3, 5.24461107236488421890e-01) (4, 6.02665284556492153456e-01) (5, 9.41395920167303401627e+00) (6, -4.77306607002062577294e+00) (7, -9.00257960280439507861e-03) (8, 2.27087298331715092825e-01) (0, 2.19982626400202274652e-01) (1, -6.21776714362386115353e-02) (2, -1.39447672609258027654e-01) (3, -7.68365248479131179860e-02) (4, -1.20556785110402478467e-01) (5, -1.72782825691280284008e-02) (6, 1.14704066157559445016e-01) (7, 1.70044207922250806275e-01) (8, 2.68818659307445528839e-01) (0, 8.62356816896902067526e+00) (1, 5.08738691995639813470e-01) (2, 5.58392996976871502923e-01) (3, 5.39113882074852113213e-01) (4, 6.17694872508545156364e-01) (5, -2.61794048870664619599e+00) (6, -3.50256490951409871215e+00) (7, -3.08794860539977733538e+00) (8, 2.95124219551013178275e+00) (0, 8.61644221798286125136e+00) (1, 5.06458851615166127935e-01) (2, 5.82532725403284490362e-01) (3, 5.93608304033255151921e-01) (4, 6.42521678576444932318e-01) (5, -2.95483311493389688707e+00) (6, -2.60907596491301552177e+00) (7, -1.84634014931106182900e+00) (8, 8.23627686845369910706e-01) (0, -8.53742333195506519772e-01) (1, -2.42968374521096819318e-01) (2, -2.57677310735543840803e-01) (3, -1.60380573601087261792e-01) (4, -1.58995734185537057614e-01) (5, -4.09151098817458591661e-01) (6, -1.28702127019692837140e-02) (7, -1.38987263853493164811e-01) (8, -6.56690089596320275556e-02) (0, 1.09184416614457617811e+01) (1, 6.75230140612874119022e-01) (2, 6.30755173788819401004e-01) (3, 5.88466337697062802370e-01) (4, 5.79907393829379502748e-01) (5, -5.61023333974688043213e+00) (6, -2.75053354479815759248e+00) (7, -8.87691036463359006703e-01) (8, 6.28331360683158424152e-01) (0, -2.74962956815340442418e-01) (1, -2.26445250793317204296e-01) (2, -6.31247913678677774474e-02) (3, -1.78836666627744028668e-01) (4, -5.85180824836285945478e-02) (5, -4.07265160066808740158e-01) (6, 1.30437020454438973305e-01) (7, -1.06407518762179839622e-01) (8, 1.60947530791953480334e-02) (0, -8.38480388812123722531e-01) (1, -2.27744804353078506010e-01) (2, -2.33123318881353042142e-01) (3, -2.20788748592694927808e-01) (4, -2.02281945974191357251e-01) (5, -3.21973643476996140844e-01) (6, 4.17721002229385976467e-02) (7, -2.12177660216617242073e-01) (8, -1.76062685559565029747e-01) (0, 2.52373271572443051980e+01) (1, 2.23180407339521336141e+00) (2, 2.31497784012742924276e+00) (3, 2.24694570207782673421e+00) (4, 2.32128597849794315877e+00) (5, 1.26730383000804591731e+00) (6, -4.40441809230170022715e+00) (7, -2.65090278485090102834e+00) (8, 2.55456109853454993441e+00) (9, 2.03492541296577733601e-01) (10, 4.07348198239384451380e-01) (11, 2.64828646194214534226e-01) (12, -4.42123340629641981003e-01) (13, -4.30530358245934274830e-01) (14, -9.88068635535420680682e-02) (15, -4.93863064935768814046e-01) (16, -7.40608925891102914951e-02) (17, -1.14504752583521746123e-01) (18, 3.98970911304865838432e-01) (19, 2.65773209350564532105e-01) 
