FANN_FLO_2.1
num_layers=3
learning_rate=0.700000
connection_rate=1.000000
network_type=0
learning_momentum=0.000000
training_algorithm=2
train_error_function=1
train_stop_function=1
cascade_output_change_fraction=0.010000
quickprop_decay=-0.000100
quickprop_mu=1.750000
rprop_increase_factor=1.200000
rprop_decrease_factor=0.500000
rprop_delta_min=0.000000
rprop_delta_max=50.000000
rprop_delta_zero=0.100000
cascade_output_stagnation_epochs=12
cascade_candidate_change_fraction=0.010000
cascade_candidate_stagnation_epochs=12
cascade_max_out_epochs=150
cascade_min_out_epochs=50
cascade_max_cand_epochs=150
cascade_min_cand_epochs=50
cascade_num_candidate_groups=2
bit_fail_limit=1.00000000000000005551e-01
cascade_candidate_limit=1.00000000000000000000e+03
cascade_weight_multiplier=4.00000000000000022204e-01
cascade_activation_functions_count=10
cascade_activation_functions=3 5 7 8 10 11 14 15 16 17 
cascade_activation_steepnesses_count=4
cascade_activation_steepnesses=2.50000000000000000000e-01 5.00000000000000000000e-01 7.50000000000000000000e-01 1.00000000000000000000e+00 
layer_sizes=13 11 2 
scale_included=0
neurons (num_inputs, activation_function, activation_steepness)=(0, 0, 0.00000000000000000000e+00) (0, 0, 0.00000000000000000000e+00) (0, 0, 0.00000000000000000000e+00) (0, 0, 0.00000000000000000000e+00) (0, 0, 0.00000000000000000000e+00) (0, 0, 0.00000000000000000000e+00) (0, 0, 0.00000000000000000000e+00) (0, 0, 0.00000000000000000000e+00) (0, 0, 0.00000000000000000000e+00) (0, 0, 0.00000000000000000000e+00) (0, 0, 0.00000000000000000000e+00) (0, 0, 0.00000000000000000000e+00) (0, 0, 0.00000000000000000000e+00) (13, 6, 5.00000000000000000000e-01) (13, 6, 5.00000000000000000000e-01) (13, 6, 5.00000000000000000000e-01) (13, 6, 5.00000000000000000000e-01) (13, 6, 5.00000000000000000000e-01) (13, 6, 5.00000000000000000000e-01) (13, 6, 5.00000000000000000000e-01) (13, 6, 5.00000000000000000000e-01) (13, 6, 5.00000000000000000000e-01) (13, 6, 5.00000000000000000000e-01) (0, 6, 0.00000000000000000000e+00) (11, 6, 5.00000000000000000000e-01) (0, 6, 0.00000000000000000000e+00) 
connections (connected_to_neuron, weight)=(0, 7.16944405395599648756e+00) (1, 4.16113884318765114845e-01) (2, 2.87075691986974190772e-01) (3, 3.32310506273206185401e-01) (4, 2.98338272739346932472e-01) (5, -3.49921135030429342194e+00) (6, 5.34691449475252333912e+00) (7, 3.19566008471838491900e+00) (8, -2.50304776692898878210e+00) (9, 5.78913127576764097171e+00) (10, 5.36021762565080495122e-01) (11, 6.03593993836027298272e-01) (12, 1.03073848452406337250e-02) (0, -6.32124950544222663495e+00) (1, -1.79765392515419203390e-01) (2, -3.31327613863704850683e-01) (3, -2.35304687592743061453e-01) (4, -2.03169603321312147726e-01) (5, 1.29861684310572600420e-01) (6, 2.15493757680448538849e+00) (7, 2.09740254303321815854e+00) (8, 4.69967565096618522524e-01) (9, 1.62466904097909226046e+00) (10, 6.24079418469048533002e-02) (11, 1.21326444279932124659e-01) (12, -9.23107415398070840773e-01) (0, -6.50952933487798784951e-02) (1, -1.01385283819397348237e-01) (2, -1.54254305711944955659e-01) (3, -1.38332325569351571870e-01) (4, -1.72343074879606622529e-01) (5, 1.30450150749226390090e-01) (6, -9.27191617922887290071e-01) (7, -7.62027651202373701445e-01) (8, 1.52227493770537097850e-01) (9, -6.41254724045210555694e-01) (10, 1.13983068898367484456e-01) (11, -7.10425844805325112929e-01) (12, 1.65501523788993798458e-01) (0, -2.92051765264014162593e-01) (1, 3.31741033948802055420e-01) (2, 3.97130987502478660645e-01) (3, 3.35649936355494560303e-01) (4, 3.31737129844569267334e-01) (5, -1.52687537798287298330e+00) (6, 4.65656344933226851168e+00) (7, 4.46826252764836340248e+00) (8, -2.08352486303820505498e+00) (9, 7.56921259254198108835e+00) (10, 4.77658340833198913344e-01) (11, 6.88751963910731457297e-01) (12, -4.85424221359535668086e-01) (0, 7.80488735584553561253e-01) (1, 3.21157787691463414426e-01) (2, 3.73696510444988194699e-01) (3, 2.96365585874427739377e-01) (4, 1.96575899373401891124e-01) (5, 1.53674038257997591650e+00) (6, -1.03308340588573326357e+01) (7, 9.13111452635662175226e+01) (8, 1.36558728153343289513e+00) (9, 2.42594341781684335047e+01) (10, 1.56330195733717453033e-01) (11, -3.59828094972734657819e-01) (12, 8.79634075611864463262e-01) (0, -5.95437890747295250904e-01) (1, -2.36612955358731572031e-02) (2, -8.82745260623204325290e-02) (3, -1.97133222845303907045e-02) (4, -1.24754110601651493906e-02) (5, 4.63747956401823313577e-01) (6, 1.30269013891114777692e+01) (7, -2.63288904864623063418e+00) (8, 3.38575819357690363520e-02) (9, -1.68578333136477409582e+00) (10, -5.86438868813663333190e-02) (11, -3.07768810816744300962e-02) (12, -1.92546715616058239373e-01) (0, -4.51557405737670961021e-02) (1, -2.97125676317139597593e-01) (2, -1.35661692960187096890e-01) (3, -1.33757205350323815640e-01) (4, -2.42046946329995293912e-01) (5, 1.37931211134930098439e+00) (6, -1.08668308304814065224e+00) (7, -1.82367279814264238169e+00) (8, 3.71774008007219380900e-01) (9, -6.21844620928815650096e-01) (10, 1.18538629614581524085e-02) (11, 1.34192067532699743637e-01) (12, 3.50162881046986118605e-01) (0, 1.20176854834928956706e+01) (1, 2.49686848507233771777e-01) (2, 3.31789758191414874133e-01) (3, 1.96202296898671635361e-01) (4, 1.89387917653628834458e-01) (5, 7.78779235488511689667e-01) (6, -4.16417346062600035594e+00) (7, 9.13915870737568951654e+01) (8, -2.21182742143586935635e-01) (9, 8.33631752963214722740e+00) (10, -1.08517538209832439811e-01) (11, -5.46562866495061833172e-02) (12, 3.91016155579727575642e-01) (0, -7.03269833905253971551e+00) (1, -1.53624689331112701529e-01) (2, -1.37682294597683746451e-01) (3, -3.03371420254765378210e-01) (4, -2.69922031214295143897e-01) (5, -1.77580479839669833075e-03) (6, 3.23955186926919225243e+00) (7, 5.35262516263142362760e-01) (8, 2.87758594911963816454e-01) (9, 1.39934251529611208831e+00) (10, 4.28543389056808110560e-01) (11, 2.10733783868290336372e-01) (12, -1.72881244069885009473e+00) (0, 7.23408992577014742231e-01) (1, 3.16415897921416888749e-01) (2, 2.90785930470321363206e-01) (3, 4.37109186664912774400e-01) (4, 3.09913239792678540940e-01) (5, -1.65825697291392271104e+00) (6, 4.67387357796963254231e+00) (7, 4.00752986241653186283e+00) (8, -1.80814439066220011831e+00) (9, 7.37948511720363864441e+00) (10, 5.55320443711293076916e-01) (11, 4.00645312965436650732e-01) (12, -4.68403241852158425118e-01) (13, -1.26984539733843854181e-01) (14, 5.16518508684626787009e-01) (15, -2.16658419828505144356e-01) (16, -1.00541409333366679735e-01) (17, 6.98270372986140919203e-01) (18, 7.80986401840821575782e-01) (19, -1.48014854305628607012e-01) (20, 5.76753836030581057415e-01) (21, 5.66161187474858995650e-01) (22, -7.21052850085681096282e-02) (23, 2.75870146898564760907e-01) 
