FANN_FLO_2.1
num_layers=3
learning_rate=0.700000
connection_rate=1.000000
network_type=0
learning_momentum=0.000000
training_algorithm=2
train_error_function=1
train_stop_function=1
cascade_output_change_fraction=0.010000
quickprop_decay=-0.000100
quickprop_mu=1.750000
rprop_increase_factor=1.200000
rprop_decrease_factor=0.500000
rprop_delta_min=0.000000
rprop_delta_max=50.000000
rprop_delta_zero=0.100000
cascade_output_stagnation_epochs=12
cascade_candidate_change_fraction=0.010000
cascade_candidate_stagnation_epochs=12
cascade_max_out_epochs=150
cascade_min_out_epochs=50
cascade_max_cand_epochs=150
cascade_min_cand_epochs=50
cascade_num_candidate_groups=2
bit_fail_limit=1.00000000000000005551e-01
cascade_candidate_limit=1.00000000000000000000e+03
cascade_weight_multiplier=4.00000000000000022204e-01
cascade_activation_functions_count=10
cascade_activation_functions=3 5 7 8 10 11 14 15 16 17 
cascade_activation_steepnesses_count=4
cascade_activation_steepnesses=2.50000000000000000000e-01 5.00000000000000000000e-01 7.50000000000000000000e-01 1.00000000000000000000e+00 
layer_sizes=13 11 2 
scale_included=0
neurons (num_inputs, activation_function, activation_steepness)=(0, 0, 0.00000000000000000000e+00) (0, 0, 0.00000000000000000000e+00) (0, 0, 0.00000000000000000000e+00) (0, 0, 0.00000000000000000000e+00) (0, 0, 0.00000000000000000000e+00) (0, 0, 0.00000000000000000000e+00) (0, 0, 0.00000000000000000000e+00) (0, 0, 0.00000000000000000000e+00) (0, 0, 0.00000000000000000000e+00) (0, 0, 0.00000000000000000000e+00) (0, 0, 0.00000000000000000000e+00) (0, 0, 0.00000000000000000000e+00) (0, 0, 0.00000000000000000000e+00) (13, 6, 5.00000000000000000000e-01) (13, 6, 5.00000000000000000000e-01) (13, 6, 5.00000000000000000000e-01) (13, 6, 5.00000000000000000000e-01) (13, 6, 5.00000000000000000000e-01) (13, 6, 5.00000000000000000000e-01) (13, 6, 5.00000000000000000000e-01) (13, 6, 5.00000000000000000000e-01) (13, 6, 5.00000000000000000000e-01) (13, 6, 5.00000000000000000000e-01) (0, 6, 0.00000000000000000000e+00) (11, 6, 5.00000000000000000000e-01) (0, 6, 0.00000000000000000000e+00) 
connections (connected_to_neuron, weight)=(0, -3.61144443688971428230e+00) (1, -2.05949505764756540804e-01) (2, -2.66841249514136735765e-01) (3, -1.88644802171502395938e-01) (4, -3.02181882757459108202e-01) (5, 7.39873176249441710794e-01) (6, 1.21403751077616306464e-01) (7, 6.26418634310070276960e-01) (8, 2.15515109697344175999e+00) (9, 4.11994342664518564678e-01) (10, 8.64057255127268830641e-01) (11, 5.65425699793045799524e-01) (12, -1.72053300777196993554e-01) (0, 1.31251018532269003725e-01) (1, 7.22569656776864549519e-02) (2, -1.18105286617330787480e-01) (3, -9.85603573513548075757e-02) (4, -7.70625824821512400709e-02) (5, 2.69377845743043886628e+00) (6, -8.34910215541167510800e-02) (7, 3.81909283400406618370e+00) (8, -1.08061158514306150380e+01) (9, 5.95213607467870775558e-01) (10, 2.23371320805929851616e+00) (11, 3.23420532167975616211e-01) (12, 1.04134788701391395316e-01) (0, -3.61301750777346519783e+00) (1, -1.73288216788087229281e-01) (2, -2.81450757730517808763e-01) (3, -1.80046116906914993594e-01) (4, -2.53068296212468624162e-01) (5, 7.19808780631378541948e-01) (6, -3.19560451662903935444e-02) (7, 3.79030483494951220269e-02) (8, 2.89736262255473997485e+00) (9, 4.15353003655945740569e-01) (10, 5.14589247928961324163e-01) (11, 5.07871015213673393518e-01) (12, -2.30819285266103374488e-01) (0, -3.48726584104878334358e+00) (1, -1.94132467705521866153e-01) (2, -2.36103830832753519564e-01) (3, -2.22989110249791483431e-01) (4, -2.35493971008572916537e-01) (5, 8.06415485027012435282e-01) (6, 9.33613981340622733907e-02) (7, 6.26978113308254481062e-01) (8, 2.10988499024870268528e+00) (9, 5.47084831300873264404e-01) (10, 7.53230323233443299635e-01) (11, 5.74714651547615917870e-01) (12, -3.07237477043390605491e-01) (0, -3.57949746115190414741e+00) (1, -1.27809768516335825472e-01) (2, -2.44815839428220133334e-01) (3, -1.72101875740800241976e-01) (4, -2.54207333523545742082e-01) (5, 7.72873824073108228738e-01) (6, -8.98465259147073758150e-02) (7, 3.94705097994148046414e-01) (8, 2.01827704334618962534e+00) (9, 5.29627092545639444054e-01) (10, 7.30826505772488199675e-01) (11, 1.22838272288295802248e+00) (12, -3.19980566533570598420e-01) (0, 3.43400921732610742154e+00) (1, 3.64620752133694103758e-01) (2, 2.47863236315813723065e-01) (3, 2.52289011575546950894e-01) (4, 3.24642456569042614500e-01) (5, 5.51288615869391218638e+00) (6, 2.53312045330787771746e-01) (7, 1.28825935562822135871e+00) (8, -4.09793761956389435142e+00) (9, 6.49216860882211754813e-01) (10, 4.95445124570996320301e+00) (11, -1.02688985367301033325e-01) (12, -1.63544376643741801169e-01) (0, 3.85782130210165430384e+00) (1, 3.14890563286872759985e-01) (2, 3.62193032898040667700e-01) (3, 2.13748447395892965384e-01) (4, 3.38344886697860613989e-01) (5, 2.35004989283239851261e+00) (6, -2.67681368906499406179e-01) (7, -1.47742702995100927410e+00) (8, 8.27209256479758892056e+00) (9, 1.52753738169769809341e-01) (10, 4.31423726039139809885e-01) (11, -2.37067525133353029787e+00) (12, -1.71070013790438318901e-01) (0, 4.89377998585260343134e+00) (1, 2.15223261877683647025e-01) (2, 3.37011130317834695092e-01) (3, 2.44703920349267911583e-01) (4, 3.01920966967729520469e-01) (5, -1.33279674036838535756e+00) (6, -1.20410328728844118196e+00) (7, 1.70351787699584061864e-01) (8, -1.03588846517546140369e+00) (9, -1.92178932567600629922e-01) (10, -5.00408658966197794626e-01) (11, -4.18541366388776303609e+00) (12, 3.07029695683931291850e-01) (0, 2.24441035321885955511e+01) (1, 3.41445335521549209190e-01) (2, 4.12813150658458694053e-01) (3, 3.80202190353721602989e-01) (4, 3.02401245906204207969e-01) (5, -3.51884099103420044941e+00) (6, -2.72899014023886854474e+00) (7, -6.41625490220958938359e-01) (8, -6.12538349559384132093e-01) (9, -1.82121794069397391347e+00) (10, -3.24183028593390742955e+00) (11, -4.44121560077989863125e-01) (12, 8.28306725811562838402e-01) (0, 3.32064689624356779163e+00) (1, 2.78132080611807719350e-01) (2, 2.77393236336333171010e-01) (3, 2.39089645025355207464e-01) (4, 2.71081387576681986928e-01) (5, 1.00734670256930169963e+00) (6, 2.30397658911729058540e-01) (7, 2.32593453972977437516e+00) (8, -1.92565233973603500139e+00) (9, 2.68752156010686860110e-01) (10, 3.42458024031157037825e+00) (11, 1.32528348218194258479e-01) (12, -5.02071674885697483148e-01) (13, 3.95831982976000307239e-01) (14, -2.49634065336523824907e-01) (15, 4.12330843581315220625e-01) (16, 3.91181729173462389149e-01) (17, 3.78117534702818391956e-01) (18, 4.99488334515873211306e-01) (19, 4.06331629633891577846e-01) (20, -1.24172594855259145474e-02) (21, -1.60052827658002827516e-01) (22, 4.62195824244800823610e-01) (23, 3.56242019211556848468e-01) 
