FANN_FLO_2.1
num_layers=3
learning_rate=0.700000
connection_rate=1.000000
network_type=0
learning_momentum=0.000000
training_algorithm=2
train_error_function=1
train_stop_function=1
cascade_output_change_fraction=0.010000
quickprop_decay=-0.000100
quickprop_mu=1.750000
rprop_increase_factor=1.200000
rprop_decrease_factor=0.500000
rprop_delta_min=0.000000
rprop_delta_max=50.000000
rprop_delta_zero=0.100000
cascade_output_stagnation_epochs=12
cascade_candidate_change_fraction=0.010000
cascade_candidate_stagnation_epochs=12
cascade_max_out_epochs=150
cascade_min_out_epochs=50
cascade_max_cand_epochs=150
cascade_min_cand_epochs=50
cascade_num_candidate_groups=2
bit_fail_limit=1.00000000000000005551e-01
cascade_candidate_limit=1.00000000000000000000e+03
cascade_weight_multiplier=4.00000000000000022204e-01
cascade_activation_functions_count=10
cascade_activation_functions=3 5 7 8 10 11 14 15 16 17 
cascade_activation_steepnesses_count=4
cascade_activation_steepnesses=2.50000000000000000000e-01 5.00000000000000000000e-01 7.50000000000000000000e-01 1.00000000000000000000e+00 
layer_sizes=8 11 2 
scale_included=0
neurons (num_inputs, activation_function, activation_steepness)=(0, 0, 0.00000000000000000000e+00) (0, 0, 0.00000000000000000000e+00) (0, 0, 0.00000000000000000000e+00) (0, 0, 0.00000000000000000000e+00) (0, 0, 0.00000000000000000000e+00) (0, 0, 0.00000000000000000000e+00) (0, 0, 0.00000000000000000000e+00) (0, 0, 0.00000000000000000000e+00) (8, 6, 5.00000000000000000000e-01) (8, 6, 5.00000000000000000000e-01) (8, 6, 5.00000000000000000000e-01) (8, 6, 5.00000000000000000000e-01) (8, 6, 5.00000000000000000000e-01) (8, 6, 5.00000000000000000000e-01) (8, 6, 5.00000000000000000000e-01) (8, 6, 5.00000000000000000000e-01) (8, 6, 5.00000000000000000000e-01) (8, 6, 5.00000000000000000000e-01) (0, 6, 0.00000000000000000000e+00) (11, 6, 5.00000000000000000000e-01) (0, 6, 0.00000000000000000000e+00) 
connections (connected_to_neuron, weight)=(0, -1.37443926204726146745e-01) (1, -3.34132731138388539005e-01) (2, -3.36355775772253895450e-01) (3, -2.53052383838812788852e-01) (4, -3.14708844004790211368e-01) (5, 7.20802804397444263351e-01) (6, 7.58685307519535556686e-01) (7, -3.40806129248401701304e-01) (0, -2.38269197459479109558e-01) (1, 1.78760510600886213251e-01) (2, 2.13065628625235509164e-01) (3, 7.25588395369862054762e-02) (4, 1.79811206377825605340e-01) (5, 7.31981759833197132004e-01) (6, 7.88576660620073810470e-01) (7, -2.24168854625484526011e-01) (0, -2.84682903613136528698e-01) (1, 5.56514020408381160365e-01) (2, 4.19589314008940228451e-01) (3, 4.40682611758697995175e-01) (4, 5.33894832576502498256e-01) (5, 2.92018409892434593900e+00) (6, 4.66336053738080380526e+00) (7, -3.30683719349083693473e-01) (0, -1.37929687352651386689e+00) (1, -1.63763836861609834994e-01) (2, -1.59167633296012300814e-01) (3, -1.31668464184760469760e-01) (4, -1.20864742339610448107e-01) (5, 1.70728154777308605006e+00) (6, 1.35624647765862071935e+00) (7, -4.60524279606518538444e-01) (0, -1.76019656176825328719e-01) (1, 1.66255895711264478631e-01) (2, 2.15763841487250279672e-01) (3, 1.20659355737051818269e-01) (4, 1.84854094601950513788e-01) (5, 7.17159544991354480636e-01) (6, 8.28156074451307788742e-01) (7, -3.51504719676038801524e-01) (0, -2.11236324335621061810e-01) (1, 4.75333038116682538021e-01) (2, 4.60757914329756268490e-01) (3, 4.52552995975006588925e-01) (4, 5.05110192443121497341e-01) (5, 3.02813280075306412442e+00) (6, 5.06469675082790704579e+00) (7, -3.06056525540528145957e-01) (0, -7.93976263738014886862e-01) (1, -7.00025959016506715837e-02) (2, -1.12591813326043371779e-01) (3, -7.74306124152367158953e-02) (4, -2.44268728496258129279e-02) (5, 1.97424969056420218649e+00) (6, 2.70006406671177634493e+00) (7, -5.50737147131669546596e-01) (0, -9.05073003506996820455e-01) (1, -1.15278820514840368849e-01) (2, -3.97986425162975623882e-02) (3, -7.82186938525860353533e-02) (4, 1.39116169808681106046e-02) (5, 1.92477814832501303854e+00) (6, 1.53158285134685945295e+00) (7, -4.70664509484279125484e-01) (0, -2.90530093188570259777e-01) (1, 4.28030054415453442562e-01) (2, 5.91607864345301326381e-01) (3, 5.78302140678156550990e-01) (4, 4.42984993900049695004e-01) (5, 2.99856215416903015836e+00) (6, 5.06311002675521226735e+00) (7, -2.94735144806084481406e-01) (0, -3.41980893339203118053e-01) (1, 4.97337612653959759701e-01) (2, 4.38358298833359250057e-01) (3, 5.10791468764532630153e-01) (4, 4.50862038279760846127e-01) (5, 2.95752755999083039029e+00) (6, 5.11820017103183122487e+00) (7, -3.06851040554222909140e-01) (8, 1.48135586175268424425e-01) (9, 2.60064137229266634233e-01) (10, 1.36258804082709211736e-01) (11, 6.07354251260981969907e-01) (12, 2.89305130653854880585e-01) (13, 1.42837726354437727361e-01) (14, 6.61914186145291738583e-01) (15, 6.66763254965768270566e-01) (16, 1.61711704760628599553e-01) (17, 1.11556612729864973454e-01) (18, 8.57633489212669242185e-01) 
