FANN_FLO_2.1
num_layers=3
learning_rate=0.700000
connection_rate=1.000000
network_type=0
learning_momentum=0.000000
training_algorithm=2
train_error_function=1
train_stop_function=1
cascade_output_change_fraction=0.010000
quickprop_decay=-0.000100
quickprop_mu=1.750000
rprop_increase_factor=1.200000
rprop_decrease_factor=0.500000
rprop_delta_min=0.000000
rprop_delta_max=50.000000
rprop_delta_zero=0.100000
cascade_output_stagnation_epochs=12
cascade_candidate_change_fraction=0.010000
cascade_candidate_stagnation_epochs=12
cascade_max_out_epochs=150
cascade_min_out_epochs=50
cascade_max_cand_epochs=150
cascade_min_cand_epochs=50
cascade_num_candidate_groups=2
bit_fail_limit=1.00000000000000005551e-01
cascade_candidate_limit=1.00000000000000000000e+03
cascade_weight_multiplier=4.00000000000000022204e-01
cascade_activation_functions_count=10
cascade_activation_functions=3 5 7 8 10 11 14 15 16 17 
cascade_activation_steepnesses_count=4
cascade_activation_steepnesses=2.50000000000000000000e-01 5.00000000000000000000e-01 7.50000000000000000000e-01 1.00000000000000000000e+00 
layer_sizes=18 4 2 
scale_included=0
neurons (num_inputs, activation_function, activation_steepness)=(0, 0, 0.00000000000000000000e+00) (0, 0, 0.00000000000000000000e+00) (0, 0, 0.00000000000000000000e+00) (0, 0, 0.00000000000000000000e+00) (0, 0, 0.00000000000000000000e+00) (0, 0, 0.00000000000000000000e+00) (0, 0, 0.00000000000000000000e+00) (0, 0, 0.00000000000000000000e+00) (0, 0, 0.00000000000000000000e+00) (0, 0, 0.00000000000000000000e+00) (0, 0, 0.00000000000000000000e+00) (0, 0, 0.00000000000000000000e+00) (0, 0, 0.00000000000000000000e+00) (0, 0, 0.00000000000000000000e+00) (0, 0, 0.00000000000000000000e+00) (0, 0, 0.00000000000000000000e+00) (0, 0, 0.00000000000000000000e+00) (0, 0, 0.00000000000000000000e+00) (18, 6, 5.00000000000000000000e-01) (18, 6, 5.00000000000000000000e-01) (18, 6, 5.00000000000000000000e-01) (0, 6, 0.00000000000000000000e+00) (4, 4, 5.00000000000000000000e-01) (0, 4, 0.00000000000000000000e+00) 
connections (connected_to_neuron, weight)=(0, -9.34897190973742464593e-01) (1, 1.77268221702274542118e+00) (2, -1.62871581558151484748e-01) (3, -6.04511272315270353772e-01) (4, 1.99204601382882739991e+00) (5, 1.85546181078848104740e+00) (6, -9.78722733502320529908e-01) (7, 1.41711174038967024913e+00) (8, -5.53060418615306637058e-01) (9, -3.65792729371887725964e-01) (10, -1.72631470443220313982e+00) (11, -1.46015976837548988598e+00) (12, -1.89276057296931021767e+00) (13, -6.28414402457583176620e-01) (14, -1.01199256774898826983e+00) (15, -1.96452417798299416862e-01) (16, -1.07917873825535326482e+00) (17, -6.77434188134648174184e-01) (0, -2.13445498288737089965e+00) (1, 1.94642485406097631717e+00) (2, -2.31652838233871671836e-01) (3, -4.72503404835626195091e-01) (4, 1.95173639839561174902e+00) (5, 1.83495680715736608768e+00) (6, -9.13115755711726651001e-01) (7, 1.42141635803302657237e+00) (8, -5.60103661069835445652e-01) (9, -3.32393311375481170789e-01) (10, -1.86412630559416037102e+00) (11, -1.43711475006017463940e+00) (12, -1.60142534441721107186e+00) (13, -6.81932101699221360214e-01) (14, -1.02645041939731895830e+00) (15, -2.17447364158887490593e-01) (16, -1.00759703930124766558e+00) (17, -5.89962971217610210317e-01) (0, -6.36923803347194006363e-01) (1, 6.47630166677370056050e-01) (2, 2.15392352392005242967e-01) (3, 1.90721376073356235770e-01) (4, 5.63193690506566091436e-01) (5, 7.62661037004249808824e-01) (6, 1.64726277666621157003e+00) (7, 4.56143041912220437162e-01) (8, -2.31015102927653509512e-01) (9, 9.89910810152972026055e-02) (10, -1.17826138288707715773e+00) (11, -1.00716052195224325949e+00) (12, -3.75774517998021306830e-01) (13, 6.49285048298308825609e-02) (14, 2.56344908697871076697e-01) (15, 1.91451358184640180182e-01) (16, -5.25900503351538484154e-01) (17, -5.63638238566958937881e-01) (18, 1.86462959749163807999e+01) (19, 1.85898383063735188614e+01) (20, 3.20609685330866200914e+00) (21, -2.06348371745215164452e+00) 
