FANN_FLO_2.1
num_layers=3
learning_rate=0.700000
connection_rate=1.000000
network_type=0
learning_momentum=0.000000
training_algorithm=2
train_error_function=1
train_stop_function=1
cascade_output_change_fraction=0.010000
quickprop_decay=-0.000100
quickprop_mu=1.750000
rprop_increase_factor=1.200000
rprop_decrease_factor=0.500000
rprop_delta_min=0.000000
rprop_delta_max=50.000000
rprop_delta_zero=0.100000
cascade_output_stagnation_epochs=12
cascade_candidate_change_fraction=0.010000
cascade_candidate_stagnation_epochs=12
cascade_max_out_epochs=150
cascade_min_out_epochs=50
cascade_max_cand_epochs=150
cascade_min_cand_epochs=50
cascade_num_candidate_groups=2
bit_fail_limit=1.00000000000000005551e-01
cascade_candidate_limit=1.00000000000000000000e+03
cascade_weight_multiplier=4.00000000000000022204e-01
cascade_activation_functions_count=10
cascade_activation_functions=3 5 7 8 10 11 14 15 16 17 
cascade_activation_steepnesses_count=4
cascade_activation_steepnesses=2.50000000000000000000e-01 5.00000000000000000000e-01 7.50000000000000000000e-01 1.00000000000000000000e+00 
layer_sizes=24 11 2 
scale_included=0
neurons (num_inputs, activation_function, activation_steepness)=(0, 0, 0.00000000000000000000e+00) (0, 0, 0.00000000000000000000e+00) (0, 0, 0.00000000000000000000e+00) (0, 0, 0.00000000000000000000e+00) (0, 0, 0.00000000000000000000e+00) (0, 0, 0.00000000000000000000e+00) (0, 0, 0.00000000000000000000e+00) (0, 0, 0.00000000000000000000e+00) (0, 0, 0.00000000000000000000e+00) (0, 0, 0.00000000000000000000e+00) (0, 0, 0.00000000000000000000e+00) (0, 0, 0.00000000000000000000e+00) (0, 0, 0.00000000000000000000e+00) (0, 0, 0.00000000000000000000e+00) (0, 0, 0.00000000000000000000e+00) (0, 0, 0.00000000000000000000e+00) (0, 0, 0.00000000000000000000e+00) (0, 0, 0.00000000000000000000e+00) (0, 0, 0.00000000000000000000e+00) (0, 0, 0.00000000000000000000e+00) (0, 0, 0.00000000000000000000e+00) (0, 0, 0.00000000000000000000e+00) (0, 0, 0.00000000000000000000e+00) (0, 0, 0.00000000000000000000e+00) (24, 6, 5.00000000000000000000e-01) (24, 6, 5.00000000000000000000e-01) (24, 6, 5.00000000000000000000e-01) (24, 6, 5.00000000000000000000e-01) (24, 6, 5.00000000000000000000e-01) (24, 6, 5.00000000000000000000e-01) (24, 6, 5.00000000000000000000e-01) (24, 6, 5.00000000000000000000e-01) (24, 6, 5.00000000000000000000e-01) (24, 6, 5.00000000000000000000e-01) (0, 6, 0.00000000000000000000e+00) (11, 6, 5.00000000000000000000e-01) (0, 6, 0.00000000000000000000e+00) 
connections (connected_to_neuron, weight)=(0, 4.26348646191436202457e+01) (1, 1.64085968678888194372e-01) (2, 2.80476226752695345645e-01) (3, 1.32267027443345841498e-01) (4, 1.26031286364492234320e-01) (5, -2.59628058090357027865e+00) (6, -1.89343811248469173769e+00) (7, -1.35745120428105647825e+00) (8, -1.92204188642512985297e+00) (9, -1.38595455594300709379e+00) (10, -2.32483611660298100654e-02) (11, -1.87453500652845783669e+00) (12, -1.37013471487470589461e-01) (13, 6.30532348557504618292e-01) (14, 1.19204548276537924956e+00) (15, -6.94261448265933389656e-01) (16, -5.81115373835837623062e+00) (17, 1.31174643654504041734e+00) (18, -2.10599004244794185681e+00) (19, -6.45518113883562438815e+00) (20, 6.01747994301709976384e+00) (21, 1.73553367887808174252e-01) (22, -5.60212810545883765911e+00) (23, 1.87444198265394512681e+00) (0, 1.05632346368483109877e+00) (1, -9.87514230352189853468e-02) (2, -2.41241638634755811710e-01) (3, -6.92483159642961337843e-02) (4, -1.21946823869302473087e-01) (5, -3.28989147670952286617e+00) (6, 1.89112306633127336131e-01) (7, 3.83176632255891158607e-01) (8, 6.08954978417965890003e+02) (9, 9.18223092614646319021e+00) (10, -1.72218889551541895488e-02) (11, -2.35664843607433782680e-01) (12, -1.98362861750604735356e+00) (13, -5.61883548929221432466e-01) (14, -9.40995552619396935512e-02) (15, -2.97695216952513153075e+00) (16, -2.00057588907108785392e-01) (17, -7.66146884763340974001e-02) (18, 1.88179035534530370022e+00) (19, 6.17022066142816627554e-01) (20, 1.11792020156712967882e+00) (21, 3.18857552372834640586e-01) (22, 1.21726613824679152920e+00) (23, -4.94015005485394842477e-01) (0, 1.99366923317350375200e+00) (1, 5.58007955928715437821e-01) (2, 4.13484719028148595132e-01) (3, 4.95009094854267972519e-01) (4, 4.40247439225587788858e-01) (5, -1.01845838423192591726e+00) (6, -3.33978165548419836384e+00) (7, 1.30494318371415261026e+03) (8, -4.28978565780468912294e+00) (9, 5.40745500466480564228e+01) (10, -4.10399953347071910770e-01) (11, 5.06960329561590672398e+00) (12, -2.03404458388818332182e+00) (13, -1.16263195192152779534e+00) (14, 4.27018490579071929858e-01) (15, -3.88585249537004973064e+00) (16, 1.50000000000000000000e+03) (17, 1.50000000000000000000e+03) (18, -5.52478661571605744740e+00) (19, -4.95492484519375420149e+00) (20, 9.03434193408565647587e+02) (21, 2.06071101307504811473e+00) (22, -5.10233786375422315729e+00) (23, 4.17102762609831589913e-01) (0, -3.48287170486833597138e+00) (1, -9.99022830796462424363e-02) (2, -1.49339358932993993001e-01) (3, -1.99833403952143717763e-01) (4, -2.12844762630484629629e-01) (5, 2.35596217839546406836e+00) (6, 1.63840869939977795688e+00) (7, -1.50786468966652087431e+00) (8, 1.29490150153050342929e+00) (9, 9.81723561932166921551e-01) (10, 2.39395285609113550596e-01) (11, -1.96970214113112301879e-01) (12, 1.56587528122312780177e+00) (13, 9.66906990515445929901e-01) (14, 2.45299218480579755974e-01) (15, 7.85422022885989390417e-01) (16, 1.57028494524073969352e+00) (17, 3.77722633130102916632e-02) (18, 2.60115399336748698289e+00) (19, 4.45130063118152174972e-01) (20, -2.34667490583496757273e-01) (21, -1.05266846762735288845e-01) (22, 6.97157511877667945832e-02) (23, -6.33437658453758323240e-01) (0, 4.17109130834663659471e+01) (1, 1.77271228207441622349e-01) (2, 1.29655077977272353840e-01) (3, 2.42976378573271090122e-01) (4, 1.79423142148348147007e-01) (5, -1.34849478435380354391e+00) (6, -1.29195086205724196660e+00) (7, -1.35024024072743764613e+00) (8, -5.60883406024523889499e+00) (9, -3.88269800980683799096e+00) (10, 5.52928584099688036346e-01) (11, -2.38473431067929597660e+00) (12, -1.19947358050388905304e-01) (13, -5.03868954635593446767e-02) (14, -2.03309548645411175549e-02) (15, -1.22467359208022985584e+00) (16, -6.64378703848863327863e+00) (17, 2.84866854745597253284e-01) (18, -3.64143416186444524030e+00) (19, -3.37239305668533484450e+00) (20, 5.32686336602733589984e+00) (21, 6.84336141990751212205e-01) (22, -2.98453510952016376478e+00) (23, 3.29778304023913992893e+00) (0, -1.13213946322709008152e-01) (1, -1.57318108546793289371e-01) (2, -1.20375715959131671107e-01) (3, -9.60926787859181161244e-03) (4, -7.78262473822233236120e-02) (5, -1.13955069863193925173e+00) (6, 1.22565711252512463125e-01) (7, 4.17070158303624038965e-01) (8, -9.99479133439035161146e-01) (9, -3.58402040142820688118e+00) (10, 3.75815833920018632641e-02) (11, 1.35444270748298745133e+00) (12, 4.93291800148434711470e-01) (13, -3.75161073014408444348e-02) (14, -6.96326397850217382324e-02) (15, 1.98363444077709928648e-02) (16, -5.47609510816146893841e-02) (17, -4.87423293546989933045e-02) (18, -1.01123332797677694117e+01) (19, 1.45964936335781270138e+00) (20, 1.04657454889746759363e+00) (21, -6.54745791484705463859e-01) (22, 4.47406046735298534855e+00) (23, -8.33599948685154190642e-03) (0, 1.00748268683789969913e+01) (1, 4.08594673678504105574e-01) (2, 3.18455351695643540388e-01) (3, 2.58029012188540463058e-01) (4, 2.91708560839520569807e-01) (5, -6.68709828906461201115e+00) (6, 1.22626140552955303065e+03) (7, 1.30494318371415261026e+03) (8, -4.54396830764673609337e+00) (9, 5.40929123005523990741e+01) (10, -8.95099874683024321342e-01) (11, 1.05005407538032233816e+01) (12, -1.41753763852250469490e-01) (13, 1.09697710439897311296e+00) (14, -3.52911737491553023638e-01) (15, 1.50000000000000000000e+03) (16, -3.14680566969814634604e+00) (17, -1.99986105513131479094e-01) (18, -8.82285571992371409067e+00) (19, 1.13384828902096632675e+01) (20, -9.01881352032249394846e-01) (21, 2.68647265124051459750e-01) (22, 1.50000000000000000000e+03) (23, 2.39758899829885185895e+00) (0, -5.97326816795644255365e-01) (1, -1.71559460219848913809e-01) (2, -1.46921545025814281882e-01) (3, -3.15672135065888726305e-03) (4, -6.17208701939472859088e-02) (5, -1.61003691999199660678e+00) (6, 3.96764527178446013700e-01) (7, 2.36795621774146786143e-01) (8, -8.99068930538846289302e-01) (9, -3.65124135751531930794e+00) (10, -9.72968382083142235839e-02) (11, 8.46341190594518066881e-01) (12, 5.85721533423892437575e-01) (13, -1.20568843976826489683e-01) (14, 1.12543736741762545606e-02) (15, -1.33523892143869084975e-03) (16, 7.82524136003322490218e-01) (17, 1.87719264183610873298e-01) (18, -2.62460633712827184905e-01) (19, -7.97176668066616911368e-01) (20, 1.31447893350188804718e-01) (21, -9.57490192612259871652e-01) (22, -1.82800241179458855534e+00) (23, -1.81773541175975286710e-02) (0, 8.16447159925535459468e-02) (1, -1.20040288355965571454e-01) (2, -1.35617470529694417181e-01) (3, -1.24254660841841654828e-01) (4, 2.84324677914191241423e-02) (5, -3.21775597677345537306e-01) (6, 9.26868083009305121500e-01) (7, -4.75977293627804998177e-01) (8, -7.35563731343073290425e-01) (9, -3.59319698352621408333e+00) (10, -7.07154307973732881853e-02) (11, 4.55837383221428110724e-02) (12, -4.85081427833336520372e-01) (13, -6.21673288013615210623e-01) (14, -5.62163672515354137516e-02) (15, -4.79906192621778637797e-01) (16, 2.65113259028565972919e-01) (17, -1.09258855531873810829e-01) (18, -4.41284998282815255077e-01) (19, -7.03951033854754437691e-01) (20, 2.62488615682032022658e-01) (21, -2.11335804619396716575e+00) (22, -1.16505957584859087817e+00) (23, 3.22274247592238827220e-02) (0, -4.03815286513793481049e+01) (1, -7.65170239901994397869e-02) (2, -1.48949519643828715010e-01) (3, -1.62663900206134165449e-01) (4, -1.54567585239455546064e-01) (5, 3.10427690750448048718e+00) (6, 3.23951941316533753579e+00) (7, -6.96753711531235775389e-01) (8, 3.29258454803699907032e+00) (9, 5.65100744329451010195e-01) (10, 1.14177928656169283550e-01) (11, 4.54780480993249802690e-01) (12, 1.37912340064013339003e+00) (13, -7.22102172405232889396e-02) (14, -9.26886308410741266428e-01) (15, 7.67733240019635587714e+00) (16, 6.43747373968995617588e-01) (17, -9.01099800401024109142e-01) (18, 6.99216642964191059662e+00) (19, -2.39808638244188965238e-01) (20, -6.62092674995381047509e-01) (21, 8.98255960657865726304e-01) (22, 4.32215938320704040621e-01) (23, -6.19819838023370262015e-01) (24, -5.36973927644647908153e-01) (25, 4.24532754580597526672e-01) (26, 8.52409918659895016191e-01) (27, 7.32855374530176906234e-01) (28, -5.48208591071524420357e-01) (29, -2.66188988641322510365e-01) (30, 7.70464718547544169525e-01) (31, -1.76344154597388114158e-01) (32, -1.91444005296139113659e-01) (33, 5.21596349618816623739e-01) (34, 5.18139090380699607330e-01) 
