FANN_FLO_2.1
num_layers=3
learning_rate=0.700000
connection_rate=1.000000
network_type=0
learning_momentum=0.000000
training_algorithm=2
train_error_function=1
train_stop_function=1
cascade_output_change_fraction=0.010000
quickprop_decay=-0.000100
quickprop_mu=1.750000
rprop_increase_factor=1.200000
rprop_decrease_factor=0.500000
rprop_delta_min=0.000000
rprop_delta_max=50.000000
rprop_delta_zero=0.100000
cascade_output_stagnation_epochs=12
cascade_candidate_change_fraction=0.010000
cascade_candidate_stagnation_epochs=12
cascade_max_out_epochs=150
cascade_min_out_epochs=50
cascade_max_cand_epochs=150
cascade_min_cand_epochs=50
cascade_num_candidate_groups=2
bit_fail_limit=1.00000000000000005551e-01
cascade_candidate_limit=1.00000000000000000000e+03
cascade_weight_multiplier=4.00000000000000022204e-01
cascade_activation_functions_count=10
cascade_activation_functions=3 5 7 8 10 11 14 15 16 17 
cascade_activation_steepnesses_count=4
cascade_activation_steepnesses=2.50000000000000000000e-01 5.00000000000000000000e-01 7.50000000000000000000e-01 1.00000000000000000000e+00 
layer_sizes=26 11 2 
scale_included=0
neurons (num_inputs, activation_function, activation_steepness)=(0, 0, 0.00000000000000000000e+00) (0, 0, 0.00000000000000000000e+00) (0, 0, 0.00000000000000000000e+00) (0, 0, 0.00000000000000000000e+00) (0, 0, 0.00000000000000000000e+00) (0, 0, 0.00000000000000000000e+00) (0, 0, 0.00000000000000000000e+00) (0, 0, 0.00000000000000000000e+00) (0, 0, 0.00000000000000000000e+00) (0, 0, 0.00000000000000000000e+00) (0, 0, 0.00000000000000000000e+00) (0, 0, 0.00000000000000000000e+00) (0, 0, 0.00000000000000000000e+00) (0, 0, 0.00000000000000000000e+00) (0, 0, 0.00000000000000000000e+00) (0, 0, 0.00000000000000000000e+00) (0, 0, 0.00000000000000000000e+00) (0, 0, 0.00000000000000000000e+00) (0, 0, 0.00000000000000000000e+00) (0, 0, 0.00000000000000000000e+00) (0, 0, 0.00000000000000000000e+00) (0, 0, 0.00000000000000000000e+00) (0, 0, 0.00000000000000000000e+00) (0, 0, 0.00000000000000000000e+00) (0, 0, 0.00000000000000000000e+00) (0, 0, 0.00000000000000000000e+00) (26, 6, 5.00000000000000000000e-01) (26, 6, 5.00000000000000000000e-01) (26, 6, 5.00000000000000000000e-01) (26, 6, 5.00000000000000000000e-01) (26, 6, 5.00000000000000000000e-01) (26, 6, 5.00000000000000000000e-01) (26, 6, 5.00000000000000000000e-01) (26, 6, 5.00000000000000000000e-01) (26, 6, 5.00000000000000000000e-01) (26, 6, 5.00000000000000000000e-01) (0, 6, 0.00000000000000000000e+00) (11, 6, 5.00000000000000000000e-01) (0, 6, 0.00000000000000000000e+00) 
connections (connected_to_neuron, weight)=(0, -2.53771677673205298120e-01) (1, -1.58876847099610404856e-02) (2, -1.08137946199723319896e-02) (3, -2.48584184419461326487e-02) (4, -6.94463993977852273032e-02) (5, -1.79853481182034813379e+00) (6, 9.85934043771207302420e-01) (7, 8.03634091356669699735e+00) (8, 1.21245128440859661900e-01) (9, -1.35878487732002088961e+01) (10, 1.25649721807581116195e+00) (11, 5.30787238670362038206e-01) (12, 1.25835152563205943110e+00) (13, 1.52270698191288023082e+00) (14, -1.95447564244544764733e+01) (15, -1.01744801197108838409e+01) (16, 4.94597683130517751238e+00) (17, -6.86064728853980621004e-02) (18, -9.71659641573196231068e-02) (19, -1.35037007434248207405e-01) (20, 1.80738136396389609262e-01) (21, -5.88650022961690125300e-02) (22, 6.18390539639065095479e-01) (23, 2.14731261953292840161e+00) (24, -7.26460307839856245238e+00) (25, -2.43884318262228200203e-01) (0, 4.14533472450912121587e+00) (1, 5.75530351232942716244e-01) (2, 5.24093301128801591915e-01) (3, 6.09444701206144467953e-01) (4, 5.84958546888288632992e-01) (5, -4.98038704399193488115e+00) (6, -7.51292546250088300042e+00) (7, -7.08278502853948110918e-01) (8, 2.15004070588239937223e+00) (9, -2.96646798538624212327e+00) (10, 2.38457172266340888811e+00) (11, -1.20750089266340876470e+00) (12, 2.30039979708987774032e+00) (13, 2.55290128492864587528e+00) (14, -7.96476754288071076004e-01) (15, -4.54314355040029127508e+00) (16, -3.42923542597820540934e+00) (17, 6.58980137929359388593e-01) (18, 3.26078295682786456489e-01) (19, 5.60223776312929966359e-01) (20, 1.02447689009957532136e+00) (21, 1.79967881794245299076e+00) (22, 1.09794972498266130145e+00) (23, 9.63415366719188107081e-03) (24, 4.81395865015704771395e+00) (25, 4.42390876148645340038e+00) (0, -7.71213287503148547941e-01) (1, -5.33358964580869787664e-02) (2, -1.20058758880553340109e-01) (3, -1.29742874528823104452e-01) (4, -3.80930516380643888197e-02) (5, 7.93460371209264825332e-01) (6, 8.61691964728403370088e-01) (7, -7.39018440380785679444e-01) (8, -7.39978926149839399962e-01) (9, 2.36552655389322730173e+00) (10, 3.72524579318792903315e-01) (11, 8.23035564883070891451e-02) (12, 3.70609750986832520159e-01) (13, 3.17107306328767601933e-01) (14, 8.70805975007755250772e-01) (15, 9.45734575417530587416e-01) (16, 1.18827825731493752492e+00) (17, 3.98907171000383253823e-01) (18, -2.82300479148898442183e-01) (19, 4.17820280297679147452e-01) (20, 3.75601128680346230126e-01) (21, 3.73477337309663148801e-01) (22, 2.41836522090468630797e-02) (23, 1.02449132570671919140e+00) (24, 1.40409213428552770431e+00) (25, -3.75010372301385841443e-01) (0, 2.71493312632443084542e-01) (1, -9.29835644893844438796e-03) (2, -6.25116696708698793561e-02) (3, -5.99200448148746456223e-02) (4, -4.39079349988002465288e-02) (5, -6.06087892782991022322e-01) (6, -4.43241121200797172364e-01) (7, 2.26559101164400755746e-01) (8, 7.76260743362416349989e-02) (9, -4.12688546783309639920e+00) (10, 1.38128091485467985322e+00) (11, 2.13011137528942517960e-01) (12, 1.31479567936212027313e+00) (13, 8.38789469572579493573e-01) (14, -1.94092712931609412408e+01) (15, -1.07428021293264830405e+00) (16, -6.46793424691403662230e-01) (17, 4.62212792391393581526e-02) (18, -4.89219665563858985280e-01) (19, 3.35411941119788115095e-02) (20, -2.10892986338796217805e-02) (21, 3.42830635492905808070e-02) (22, 6.66152206191857193529e-02) (23, 2.39687848324231422836e+00) (24, -7.11812289390297259217e+00) (25, 9.60898658972016844748e-02) (0, -4.17968416241997289262e+01) (1, -1.71354718681960033200e-01) (2, -1.24595098373083995602e-01) (3, -1.79742805835394786618e-01) (4, -2.36373022374300773008e-01) (5, 6.23337074061632545607e+00) (6, -8.36235445539117577818e-02) (7, 2.46804078101788421096e-01) (8, -7.21454314852448264084e-01) (9, 6.97490522816840763376e-01) (10, 1.20412554862878651285e+00) (11, 5.97124080574082949369e-01) (12, 1.29533994199158031257e+00) (13, 1.25404858705024135901e+00) (14, 7.64017870290370915143e+00) (15, 1.83547136584642012203e+00) (16, 2.77991559743820104700e+00) (17, 1.73713895692980235808e+00) (18, 1.94693926728847066521e+00) (19, 1.55702007293799193910e+00) (20, 2.11250655091729599988e+00) (21, 5.60788145177173458222e-01) (22, 1.29807782873690369385e+00) (23, 3.46184081274957611285e+00) (24, 7.38196731076052325982e-02) (25, -1.87162874950220015080e+00) (0, 1.43260204737398879615e+01) (1, 4.34388860242775010079e-01) (2, 3.52870448606422471016e-01) (3, 4.06869604366233872383e-01) (4, 3.85777614193370865792e-01) (5, 4.62461963430713964840e+01) (6, 6.14791976473456571739e+01) (7, -1.82970462202608000202e-02) (8, 2.36066481163168973012e-01) (9, 2.30268027442489220391e+00) (10, 8.65298113307485827761e+00) (11, -8.66227437078018636107e-01) (12, 3.87698823107875911731e+00) (13, -2.76688923134610742505e-01) (14, -6.26255910721045960798e+00) (15, -6.03416414245486354417e+00) (16, 5.83836314251523958774e+02) (17, -7.83534303355867378649e-01) (18, -3.21806604761599224229e-01) (19, -1.56144499363369093636e+00) (20, -1.04097535260942564150e+00) (21, -3.49313831148252429415e-01) (22, -1.59602583744224846285e+00) (23, -2.17052427339741615953e-01) (24, -1.67041298806104132613e-01) (25, 9.57845991238712446414e-02) (0, 8.10118363904303168122e-02) (1, -6.74886993924870975947e-02) (2, 5.89547015865549625668e-02) (3, -5.25057680765881398810e-02) (4, 1.10180140300582388169e-01) (5, -2.00627939842252711600e+00) (6, 1.81406095782567766683e+00) (7, 6.78894947628572786869e+00) (8, 2.42521132864672112062e-01) (9, -1.35040062324278586914e+01) (10, 1.43618319922651016540e+00) (11, 1.90681195977637135686e-01) (12, 1.29996080467006436265e+00) (13, 1.58537413452439301942e+00) (14, -1.94255881838774939752e+01) (15, -1.01984276864585492461e+01) (16, 4.85467499103398125726e+00) (17, -8.50826028578733489782e-02) (18, 2.41247663046568305845e-01) (19, 3.21174030610678340469e-02) (20, -3.55190119971735204785e-02) (21, 6.46421891223187550235e-02) (22, 4.29421121283737550200e-01) (23, 1.94188011906964907993e+00) (24, -8.36329582594443365906e+00) (25, 5.47801017943807116994e-02) (0, 4.60462243858229813842e-01) (1, -3.08985020337568701276e-02) (2, -6.17154631135926612373e-02) (3, -1.19903291879164125566e-02) (4, 1.17127282607747323917e-01) (5, -4.47255251101467976582e+00) (6, 1.17191996544235377264e+00) (7, -2.05129570442955433407e+00) (8, -2.24903272966968659219e-01) (9, -1.47967546193040906388e+01) (10, 6.03925085222854018951e+00) (11, 7.53257496375888124795e-02) (12, 6.09693735675830428278e+00) (13, 6.25841897856671280920e+00) (14, -1.03261057864362122416e+01) (15, -9.59541825354229516165e+00) (16, 4.86292425209738077285e+00) (17, 2.59236571499514134587e+00) (18, 3.00488535905661713343e-01) (19, 2.64194559606864709522e+00) (20, 2.53365298272027761328e+00) (21, 1.04955661683429690711e+00) (22, -1.11073420543301382146e-01) (23, 2.31747240467981230339e+00) (24, -8.05346668645938379427e+00) (25, 2.18567000450375810428e-02) (0, 7.26653076740638415032e+00) (1, 4.14737876644724334785e-01) (2, 5.01703027775876608807e-01) (3, 5.38899202039830327315e-01) (4, 5.45746941259495854659e-01) (5, 4.62230334118675543209e+01) (6, 2.06678497236931697500e+01) (7, 2.51217775225303308062e-01) (8, 9.27181148202721017171e-01) (9, -2.91401435302446749631e+01) (10, 8.85783226584077567622e+01) (11, 1.26673852182358714913e-01) (12, 4.05136086796411873934e+01) (13, 5.14060049455662024798e+01) (14, -4.77280177377348469037e+00) (15, 4.08915957452240341752e+00) (16, -2.06698900795750706294e+00) (17, -1.24325263656953954872e+00) (18, -1.09411815701699288716e+00) (19, -1.44345479031288892457e+00) (20, -2.07845346209600112530e+00) (21, -8.63169225709465970375e-01) (22, -3.90129171448087397334e-01) (23, -6.91940055126905928518e-01) (24, 6.99900573282907334516e-01) (25, 9.13368307449985206148e-01) (0, 2.87017658887981994553e+01) (1, 3.91678855253710822559e-01) (2, 4.60999768657937014638e-01) (3, 5.19280147238028955137e-01) (4, 5.07023971958411645566e-01) (5, -7.85630455743816913383e+00) (6, 1.44210266213147891845e-01) (7, -3.92638303334834681824e-01) (8, 4.61486472000263214799e-01) (9, -4.79549061424901945649e-01) (10, -3.45139707497877090692e-01) (11, -1.56851755333014125648e-02) (12, -2.72087913757849020335e-01) (13, -3.42736739346937935302e-01) (14, -8.24400595943204095306e+00) (15, 4.04654507199893753722e+00) (16, -1.11665871278504287289e+01) (17, -1.85031059203273517966e+00) (18, 1.82505431109282245661e-01) (19, -7.50128172820307970170e+00) (20, -7.90314144553102160273e+00) (21, -9.71044086746186030368e-01) (22, -5.67755947969260654773e-01) (23, 1.75047145539618109744e+00) (24, -9.36839880432190597048e+00) (25, 1.19619880709850093248e-01) (26, -1.23473413554645930490e-01) (27, -2.73871632204545190081e-01) (28, 5.04179521146897346995e-01) (29, -2.25118623124396510793e-01) (30, 9.62543853639599156224e-01) (31, 5.70973898030275317517e-01) (32, -1.38710756239260296629e-01) (33, -4.48554094971855721319e-01) (34, 1.23680245103921770955e+00) (35, -6.25884840412990084424e-01) (36, 4.32611626130455451111e-01) 
