FANN_FLO_2.1
num_layers=3
learning_rate=0.700000
connection_rate=1.000000
network_type=0
learning_momentum=0.000000
training_algorithm=2
train_error_function=1
train_stop_function=1
cascade_output_change_fraction=0.010000
quickprop_decay=-0.000100
quickprop_mu=1.750000
rprop_increase_factor=1.200000
rprop_decrease_factor=0.500000
rprop_delta_min=0.000000
rprop_delta_max=50.000000
rprop_delta_zero=0.100000
cascade_output_stagnation_epochs=12
cascade_candidate_change_fraction=0.010000
cascade_candidate_stagnation_epochs=12
cascade_max_out_epochs=150
cascade_min_out_epochs=50
cascade_max_cand_epochs=150
cascade_min_cand_epochs=50
cascade_num_candidate_groups=2
bit_fail_limit=1.00000000000000005551e-01
cascade_candidate_limit=1.00000000000000000000e+03
cascade_weight_multiplier=4.00000000000000022204e-01
cascade_activation_functions_count=10
cascade_activation_functions=3 5 7 8 10 11 14 15 16 17 
cascade_activation_steepnesses_count=4
cascade_activation_steepnesses=2.50000000000000000000e-01 5.00000000000000000000e-01 7.50000000000000000000e-01 1.00000000000000000000e+00 
layer_sizes=23 4 2 
scale_included=0
neurons (num_inputs, activation_function, activation_steepness)=(0, 0, 0.00000000000000000000e+00) (0, 0, 0.00000000000000000000e+00) (0, 0, 0.00000000000000000000e+00) (0, 0, 0.00000000000000000000e+00) (0, 0, 0.00000000000000000000e+00) (0, 0, 0.00000000000000000000e+00) (0, 0, 0.00000000000000000000e+00) (0, 0, 0.00000000000000000000e+00) (0, 0, 0.00000000000000000000e+00) (0, 0, 0.00000000000000000000e+00) (0, 0, 0.00000000000000000000e+00) (0, 0, 0.00000000000000000000e+00) (0, 0, 0.00000000000000000000e+00) (0, 0, 0.00000000000000000000e+00) (0, 0, 0.00000000000000000000e+00) (0, 0, 0.00000000000000000000e+00) (0, 0, 0.00000000000000000000e+00) (0, 0, 0.00000000000000000000e+00) (0, 0, 0.00000000000000000000e+00) (0, 0, 0.00000000000000000000e+00) (0, 0, 0.00000000000000000000e+00) (0, 0, 0.00000000000000000000e+00) (0, 0, 0.00000000000000000000e+00) (23, 6, 5.00000000000000000000e-01) (23, 6, 5.00000000000000000000e-01) (23, 6, 5.00000000000000000000e-01) (0, 6, 0.00000000000000000000e+00) (4, 4, 5.00000000000000000000e-01) (0, 4, 0.00000000000000000000e+00) 
connections (connected_to_neuron, weight)=(0, 4.91622036406971485434e+00) (1, 6.28339758211964083401e-01) (2, 2.30526528550009146556e+01) (3, -1.56148823006740027353e+01) (4, 3.21370243996675313269e+01) (5, -6.73496416854754720305e+00) (6, 8.61559819037448093582e+00) (7, -5.54030283995343708625e-01) (8, 5.04580383996382053624e+00) (9, 2.65711137921188811362e+00) (10, 3.20554429380477330369e+01) (11, 3.20761695788799485740e+01) (12, 3.57845337831017751284e+00) (13, -4.50142827951934165753e+00) (14, -5.09753213776331204343e+00) (15, -4.75950048042114026714e+00) (16, -1.39388438403915504438e+01) (17, 9.31172008794400651865e-01) (18, 1.01287555738393042493e-01) (19, 1.00166968555895175008e+00) (20, 8.05659678530635470217e-01) (21, 1.50000000000000000000e+03) (22, -4.03102831386594839813e+00) (0, 1.03667601591770903724e+01) (1, 4.53617882501027569475e+00) (2, 1.62319250465883579970e+00) (3, -7.79033665717210221935e-01) (4, 8.48458705300351861966e-02) (5, -2.02313739051638380451e-01) (6, -3.27365724417385595135e-01) (7, 1.58065821848952514639e-01) (8, 6.75920173494139686632e-01) (9, -3.72747479833134998106e-01) (10, 2.93116619604674610855e-01) (11, 1.81910572339718190626e-01) (12, 2.54922276760821109320e+00) (13, -2.63194187186816508373e+00) (14, 5.19870450835345465634e+00) (15, 3.99991349035943288825e+00) (16, -1.39390245317718752815e+00) (17, 3.73099150633689324863e+00) (18, 7.27473901727562388686e+00) (19, 1.50000000000000000000e+03) (20, 1.50000000000000000000e+03) (21, 1.92789400669177339864e+01) (22, -9.64523320634736558432e-01) (0, 7.84997457108126406311e-01) (1, -3.25478972184315162863e+00) (2, 2.40303698960051903555e+00) (3, -1.38858334786814174855e+00) (4, 2.80634960460094573520e+00) (5, -6.49679029939846830466e-01) (6, 2.39775806921720269216e+00) (7, 9.37435807105634566483e-01) (8, 1.41768127494804918598e+00) (9, 2.09219308058529041006e+00) (10, 2.76871107762101864580e+00) (11, 2.82312667670322969826e+00) (12, 7.12190508630995755546e-01) (13, 1.08973153416297763307e+00) (14, -1.61190555184610895267e+00) (15, -3.52158672341435718955e-01) (16, 1.05399679977074489656e+00) (17, -6.01169859970966835583e-01) (18, -1.36188579253153796422e+00) (19, -1.90793694166401128776e+00) (20, -2.26004047314332989771e+00) (21, 1.66379670961386310069e+01) (22, -8.51334077597004745819e-01) (23, 2.00658107123675080175e+01) (24, -1.14235077354730361066e+01) (25, -2.52860454331985700094e+01) (26, -5.26907405536056083761e-01) 
