FANN_FLO_2.1
num_layers=3
learning_rate=0.700000
connection_rate=1.000000
network_type=0
learning_momentum=0.000000
training_algorithm=2
train_error_function=1
train_stop_function=1
cascade_output_change_fraction=0.010000
quickprop_decay=-0.000100
quickprop_mu=1.750000
rprop_increase_factor=1.200000
rprop_decrease_factor=0.500000
rprop_delta_min=0.000000
rprop_delta_max=50.000000
rprop_delta_zero=0.100000
cascade_output_stagnation_epochs=12
cascade_candidate_change_fraction=0.010000
cascade_candidate_stagnation_epochs=12
cascade_max_out_epochs=150
cascade_min_out_epochs=50
cascade_max_cand_epochs=150
cascade_min_cand_epochs=50
cascade_num_candidate_groups=2
bit_fail_limit=1.00000000000000005551e-01
cascade_candidate_limit=1.00000000000000000000e+03
cascade_weight_multiplier=4.00000000000000022204e-01
cascade_activation_functions_count=10
cascade_activation_functions=3 5 7 8 10 11 14 15 16 17 
cascade_activation_steepnesses_count=4
cascade_activation_steepnesses=2.50000000000000000000e-01 5.00000000000000000000e-01 7.50000000000000000000e-01 1.00000000000000000000e+00 
layer_sizes=20 11 2 
scale_included=0
neurons (num_inputs, activation_function, activation_steepness)=(0, 0, 0.00000000000000000000e+00) (0, 0, 0.00000000000000000000e+00) (0, 0, 0.00000000000000000000e+00) (0, 0, 0.00000000000000000000e+00) (0, 0, 0.00000000000000000000e+00) (0, 0, 0.00000000000000000000e+00) (0, 0, 0.00000000000000000000e+00) (0, 0, 0.00000000000000000000e+00) (0, 0, 0.00000000000000000000e+00) (0, 0, 0.00000000000000000000e+00) (0, 0, 0.00000000000000000000e+00) (0, 0, 0.00000000000000000000e+00) (0, 0, 0.00000000000000000000e+00) (0, 0, 0.00000000000000000000e+00) (0, 0, 0.00000000000000000000e+00) (0, 0, 0.00000000000000000000e+00) (0, 0, 0.00000000000000000000e+00) (0, 0, 0.00000000000000000000e+00) (0, 0, 0.00000000000000000000e+00) (0, 0, 0.00000000000000000000e+00) (20, 6, 5.00000000000000000000e-01) (20, 6, 5.00000000000000000000e-01) (20, 6, 5.00000000000000000000e-01) (20, 6, 5.00000000000000000000e-01) (20, 6, 5.00000000000000000000e-01) (20, 6, 5.00000000000000000000e-01) (20, 6, 5.00000000000000000000e-01) (20, 6, 5.00000000000000000000e-01) (20, 6, 5.00000000000000000000e-01) (20, 6, 5.00000000000000000000e-01) (0, 6, 0.00000000000000000000e+00) (11, 6, 5.00000000000000000000e-01) (0, 6, 0.00000000000000000000e+00) 
connections (connected_to_neuron, weight)=(0, -7.92147704119910844867e+00) (1, -1.12745198798869836199e-01) (2, -2.99329522443507967111e-01) (3, -2.92728330386375357186e-01) (4, -1.59871998620723376749e-01) (5, 1.64920528446407832490e+00) (6, -2.47558690696316618940e+00) (7, 4.22427937936116104645e-01) (8, -4.04988540555943687949e-01) (9, 5.60164085547475565363e+00) (10, -7.73591879433775497787e-01) (11, -5.86920618290696360919e-02) (12, 2.88439931274478034151e-01) (13, -1.41345681937620148982e-01) (14, -1.49079420125696540667e-02) (15, -9.10461545004173644635e-02) (16, 1.15242235883300833676e-01) (17, 8.16061039255075865162e-02) (18, -1.41779753352592213789e-01) (19, -6.74271344923462190302e-01) (0, 2.88487286922437791148e+00) (1, 2.56641216203127964235e-01) (2, 2.05471932515059629853e-01) (3, 1.52843594178115049775e-01) (4, 1.22381053491984442827e-01) (5, -1.88678363536454689608e+01) (6, 6.42739525733380556716e+00) (7, 1.16177551716821471928e+03) (8, 1.23708868716792141917e+00) (9, -3.86106606116920803018e+00) (10, 1.57739786053395836252e-01) (11, 1.04734995960922352976e-02) (12, -6.90179684002421578448e-01) (13, -5.48124722603310909896e-01) (14, 2.08080427736441253561e-01) (15, 1.22736173512050017465e-01) (16, -1.27633124733625025193e+00) (17, -1.16783127285964427600e+00) (18, -2.13813125694153033374e-01) (19, 3.05707855296262043243e-01) (0, 3.75636479673413825608e+00) (1, 9.90019662732625205237e-01) (2, 9.62345859462762187597e-01) (3, 8.59710557813191389442e-01) (4, 9.06672211790823912025e-01) (5, -7.22536438991835705536e+00) (6, -5.16662303010466139597e+00) (7, -6.08710714368486272008e+00) (8, 3.07589137060146400326e-01) (9, 8.48458133942168180042e-01) (10, 6.82547567369028840290e+00) (11, 1.50050954344279730002e-01) (12, 7.88367930702541241939e-02) (13, 8.14553161136077341631e-01) (14, 3.95024532589814070249e-01) (15, 2.41572762707680604999e-01) (16, 3.83361374261051712775e-01) (17, 2.03510484872551883351e-01) (18, 2.75533882833544463420e-01) (19, 7.89380175508615500313e-01) (0, 2.30412063838992864362e+00) (1, 1.16064351136813059817e+00) (2, 1.25639079595932856570e+00) (3, 1.20376647348532594961e+00) (4, 1.23857758278975382815e+00) (5, 3.71865961436772209936e+01) (6, 4.18943481011196006136e+00) (7, -6.85015845710193982399e+00) (8, 9.54174243958752360539e-02) (9, 1.42703624880400470332e+00) (10, 6.43946722766579160435e-01) (11, -1.80087228189138637280e-01) (12, 3.01679123214525328478e-02) (13, 3.63437603395523167737e-01) (14, -6.16007292184026500337e-01) (15, -2.02291113060663357848e-01) (16, -4.32565352680994053003e-01) (17, -1.33579180676696585017e+00) (18, 5.49575229451212066145e-01) (19, 7.02239618743800364520e-01) (0, -1.19367884418401581925e+00) (1, -1.73198641487947307960e-01) (2, -1.63327434310308272636e-01) (3, -2.03060121485582167900e-01) (4, -1.55137502798429277595e-01) (5, 1.39166587077844683407e+00) (6, -1.83105419252708112587e+00) (7, 3.88139909139911143399e-01) (8, -8.13049442894257068382e-01) (9, 5.30074006814448495106e+00) (10, -1.87990802862161604514e-01) (11, 2.06503569941780262820e-01) (12, 2.71768472898190338594e-01) (13, 8.29093452170063735518e-03) (14, 1.24705675930612630564e-01) (15, -1.67673859493030708023e-01) (16, 1.02792285879986761143e-01) (17, 1.78954442776646766022e-01) (18, 1.41224807747589164997e-01) (19, -6.45256514890527266282e-01) (0, 1.71633063009117243780e+01) (1, 1.01977783997710957919e+00) (2, 1.03622072001155651755e+00) (3, 9.33948723573052586033e-01) (4, 1.10340817828830517477e+00) (5, -4.59736169291337404275e+00) (6, -3.36230617726568370429e+00) (7, -5.82788080818196796429e+00) (8, 2.45637980224226448733e-01) (9, 2.26200969300224347114e-01) (10, 6.89467383505389008747e+00) (11, 1.21070401194102450493e-01) (12, 6.15703003469341703102e-02) (13, 8.86901144853995848649e-01) (14, 3.82089460406205061460e-01) (15, 2.69918090532034582463e-01) (16, 3.60360882333924492649e-01) (17, 7.20958079789250638747e-02) (18, 9.79104519644148796331e-01) (19, 6.64472226274124389001e-01) (0, 2.30232297039982647391e+00) (1, 2.52740827322411654166e-01) (2, 1.87585127473282931021e-01) (3, 2.36544770121979830435e-01) (4, 1.41769253582167742422e-01) (5, -3.78919937370908925800e+01) (6, 4.21352404248561818179e+00) (7, 2.26809188079075624955e+02) (8, 8.16155314034659684630e-01) (9, -4.54370748629492737791e+00) (10, 1.42864930299852338491e-01) (11, 1.81794464497053581686e-01) (12, -8.21595990766647576997e-01) (13, -5.59900453850781798515e-01) (14, -2.63839783312798892290e-01) (15, 1.68485455335338124572e-01) (16, 3.85444056670245005503e-01) (17, 4.36770671400906029813e-01) (18, 1.27633464747207631129e-01) (19, 3.29206083548367889335e-01) (0, 3.02257894717256458961e+00) (1, 2.46592447980219564574e-01) (2, 2.12234676702791835723e-01) (3, 1.16534591539675366767e-01) (4, 1.37001559956843044219e-01) (5, 7.56593107123694519345e+00) (6, -2.33368383281947755492e-01) (7, 2.31381228308423070317e+00) (8, 8.83018444218355430531e-02) (9, -7.17598179503954547442e+00) (10, 2.55333889900806365603e+00) (11, 1.20950400363325427655e+00) (12, 4.34020203805135622588e+02) (13, 2.17423656176628298908e+02) (14, 3.38508717027420802381e-01) (15, 2.95821861289820242646e-01) (16, 4.32792672486513936292e+01) (17, 6.73879854954761640329e+02) (18, 1.58514264425114875801e-01) (19, 3.45880653466121734674e-01) (0, -7.75658468679527501877e+00) (1, -2.04529205503852146153e-01) (2, -2.00370440426261176015e-01) (3, -1.44962268116862469380e-01) (4, -2.50938320699126471425e-01) (5, 1.46376912874975961820e+00) (6, -2.07497965296048070272e+00) (7, 4.40001504633170614778e-01) (8, -6.80680264539206492103e-01) (9, 5.18642198695638345640e+00) (10, -4.52303860149749326069e-01) (11, 5.19925480754215331436e-03) (12, 4.29041261905494741846e-01) (13, -1.95378810323364737744e-02) (14, -4.80780712512806282510e-02) (15, -5.11685906658485567533e-02) (16, 4.77728514340781951208e-02) (17, 1.96732835169654507457e-01) (18, 3.27753543922403078881e-01) (19, -5.49587700183915894847e-01) (0, -1.49983655053747250152e-01) (1, -2.52574259878518107836e-02) (2, 5.25052820800421746195e-02) (3, -2.34107547415513504718e-03) (4, 3.71813749431250464839e-02) (5, -8.83018971168306734398e+01) (6, 2.15511134455598912796e-01) (7, -8.69361656509383573521e-01) (8, -5.74366558210010966223e-04) (9, -4.18217502246988193093e+00) (10, 6.81957439996928732606e-02) (11, -1.44841834759383780717e-01) (12, -2.49489153807202594659e-02) (13, 2.36882266939373670178e-01) (14, 1.13512517450934779378e-03) (15, -4.28042337639282649553e-02) (16, 2.52509104232499892451e-01) (17, -1.86598576061993903785e+00) (18, 2.71566135014623746824e-02) (19, 2.29144434999344094595e-02) (20, 5.76039736825232684403e-01) (21, 4.62477514792251520603e-01) (22, -6.14485830308250866039e-02) (23, -2.17312647431282014721e-02) (24, 5.10138750361584625281e-01) (25, -6.37262423566511970741e-02) (26, 4.60929522562789850681e-01) (27, 4.76023118121006783010e-01) (28, 5.07039118843459202246e-01) (29, 1.85267974054160178277e-01) (30, 3.37059947403984094816e-01) 
