FANN_FLO_2.1
num_layers=3
learning_rate=0.700000
connection_rate=1.000000
network_type=0
learning_momentum=0.000000
training_algorithm=2
train_error_function=1
train_stop_function=1
cascade_output_change_fraction=0.010000
quickprop_decay=-0.000100
quickprop_mu=1.750000
rprop_increase_factor=1.200000
rprop_decrease_factor=0.500000
rprop_delta_min=0.000000
rprop_delta_max=50.000000
rprop_delta_zero=0.100000
cascade_output_stagnation_epochs=12
cascade_candidate_change_fraction=0.010000
cascade_candidate_stagnation_epochs=12
cascade_max_out_epochs=150
cascade_min_out_epochs=50
cascade_max_cand_epochs=150
cascade_min_cand_epochs=50
cascade_num_candidate_groups=2
bit_fail_limit=1.00000000000000005551e-01
cascade_candidate_limit=1.00000000000000000000e+03
cascade_weight_multiplier=4.00000000000000022204e-01
cascade_activation_functions_count=10
cascade_activation_functions=3 5 7 8 10 11 14 15 16 17 
cascade_activation_steepnesses_count=4
cascade_activation_steepnesses=2.50000000000000000000e-01 5.00000000000000000000e-01 7.50000000000000000000e-01 1.00000000000000000000e+00 
layer_sizes=10 4 2 
scale_included=0
neurons (num_inputs, activation_function, activation_steepness)=(0, 0, 0.00000000000000000000e+00) (0, 0, 0.00000000000000000000e+00) (0, 0, 0.00000000000000000000e+00) (0, 0, 0.00000000000000000000e+00) (0, 0, 0.00000000000000000000e+00) (0, 0, 0.00000000000000000000e+00) (0, 0, 0.00000000000000000000e+00) (0, 0, 0.00000000000000000000e+00) (0, 0, 0.00000000000000000000e+00) (0, 0, 0.00000000000000000000e+00) (10, 6, 5.00000000000000000000e-01) (10, 6, 5.00000000000000000000e-01) (10, 6, 5.00000000000000000000e-01) (0, 6, 0.00000000000000000000e+00) (4, 4, 5.00000000000000000000e-01) (0, 4, 0.00000000000000000000e+00) 
connections (connected_to_neuron, weight)=(0, 3.31989117365918229297e+00) (1, -2.09412354953683887970e+00) (2, -2.75518044778248105686e+00) (3, -1.82969479191150519171e+00) (4, 6.99944244343852162160e-01) (5, 5.70043103004663986866e-01) (6, -1.78990155137564843635e+00) (7, -2.51365514691522351498e+00) (8, -3.23644353575437027093e-01) (9, 3.48578431111416886523e+00) (0, -3.23795428266419715868e-01) (1, 4.77343373610264976037e+00) (2, 3.33480242333891174766e-01) (3, 3.22530105007693967956e-01) (4, -3.37282155989981402566e-01) (5, 5.65358156415256773997e-01) (6, 9.81686850757288176350e-02) (7, 2.60620923549529426300e-01) (8, -3.70535966594996768464e-01) (9, -2.66993657349519164512e+00) (0, -5.08285721878396268281e-01) (1, 1.38475964743917878685e+00) (2, 1.74346214473912186627e+00) (3, 1.35178129495960575035e+00) (4, -2.82265085154758677000e-02) (5, 7.50974674861851543284e-01) (6, 1.45384966687074657088e+00) (7, 1.51696139558434817118e+00) (8, 2.94523278360676599164e-01) (9, -2.42805197411867279556e+00) (10, -1.26221084077478251650e+00) (11, 3.48877822417552208023e+00) (12, 2.43778690375979252281e+01) (13, -1.02238871708589562637e+00) 
