FANN_FLO_2.1
num_layers=3
learning_rate=0.700000
connection_rate=1.000000
network_type=0
learning_momentum=0.000000
training_algorithm=2
train_error_function=1
train_stop_function=1
cascade_output_change_fraction=0.010000
quickprop_decay=-0.000100
quickprop_mu=1.750000
rprop_increase_factor=1.200000
rprop_decrease_factor=0.500000
rprop_delta_min=0.000000
rprop_delta_max=50.000000
rprop_delta_zero=0.100000
cascade_output_stagnation_epochs=12
cascade_candidate_change_fraction=0.010000
cascade_candidate_stagnation_epochs=12
cascade_max_out_epochs=150
cascade_min_out_epochs=50
cascade_max_cand_epochs=150
cascade_min_cand_epochs=50
cascade_num_candidate_groups=2
bit_fail_limit=1.00000000000000005551e-01
cascade_candidate_limit=1.00000000000000000000e+03
cascade_weight_multiplier=4.00000000000000022204e-01
cascade_activation_functions_count=10
cascade_activation_functions=3 5 7 8 10 11 14 15 16 17 
cascade_activation_steepnesses_count=4
cascade_activation_steepnesses=2.50000000000000000000e-01 5.00000000000000000000e-01 7.50000000000000000000e-01 1.00000000000000000000e+00 
layer_sizes=26 11 2 
scale_included=0
neurons (num_inputs, activation_function, activation_steepness)=(0, 0, 0.00000000000000000000e+00) (0, 0, 0.00000000000000000000e+00) (0, 0, 0.00000000000000000000e+00) (0, 0, 0.00000000000000000000e+00) (0, 0, 0.00000000000000000000e+00) (0, 0, 0.00000000000000000000e+00) (0, 0, 0.00000000000000000000e+00) (0, 0, 0.00000000000000000000e+00) (0, 0, 0.00000000000000000000e+00) (0, 0, 0.00000000000000000000e+00) (0, 0, 0.00000000000000000000e+00) (0, 0, 0.00000000000000000000e+00) (0, 0, 0.00000000000000000000e+00) (0, 0, 0.00000000000000000000e+00) (0, 0, 0.00000000000000000000e+00) (0, 0, 0.00000000000000000000e+00) (0, 0, 0.00000000000000000000e+00) (0, 0, 0.00000000000000000000e+00) (0, 0, 0.00000000000000000000e+00) (0, 0, 0.00000000000000000000e+00) (0, 0, 0.00000000000000000000e+00) (0, 0, 0.00000000000000000000e+00) (0, 0, 0.00000000000000000000e+00) (0, 0, 0.00000000000000000000e+00) (0, 0, 0.00000000000000000000e+00) (0, 0, 0.00000000000000000000e+00) (26, 6, 5.00000000000000000000e-01) (26, 6, 5.00000000000000000000e-01) (26, 6, 5.00000000000000000000e-01) (26, 6, 5.00000000000000000000e-01) (26, 6, 5.00000000000000000000e-01) (26, 6, 5.00000000000000000000e-01) (26, 6, 5.00000000000000000000e-01) (26, 6, 5.00000000000000000000e-01) (26, 6, 5.00000000000000000000e-01) (26, 6, 5.00000000000000000000e-01) (0, 6, 0.00000000000000000000e+00) (11, 6, 5.00000000000000000000e-01) (0, 6, 0.00000000000000000000e+00) 
connections (connected_to_neuron, weight)=(0, 4.03197231716341786267e+00) (1, 4.01129928034310412333e-01) (2, 4.50303186279301714823e-01) (3, 4.65245921712880206034e-01) (4, 4.93610505562787127420e-01) (5, 2.57149165139217350529e+00) (6, 8.19861463680194013648e+00) (7, -1.08824875133645648795e+00) (8, 5.38097116100121183990e+02) (9, -1.67161052395245302016e+00) (10, 2.14315195526625534850e-01) (11, 6.30747720083523422119e+00) (12, 5.88417802103604392627e-01) (13, 1.26452250371455798827e+00) (14, -1.23040416899513685434e-01) (15, -9.23072682128181720707e-01) (16, 1.12334610438438353697e+00) (17, 1.35084023027667021744e+00) (18, -8.68648262417144989556e-01) (19, -3.08572282754735249810e-01) (20, -1.09365999701004779077e+00) (21, 7.95616749224775048788e+02) (22, 4.56647524922068086539e+01) (23, -1.54669091236057276717e+01) (24, 5.39933004930105539643e+02) (25, -5.07352094665004305085e-01) (0, -4.88983495668941059442e-01) (1, 8.99718315010254038322e-03) (2, -8.53867196976643427764e-02) (3, 4.49127814233798369759e-02) (4, -1.38768602305601174152e-01) (5, 4.18255536566376429075e-01) (6, 5.81747056571473408759e-01) (7, 2.01808583389847164824e+01) (8, -8.07543828825661780257e-01) (9, 3.60800868042544131686e-01) (10, -2.02484832379592416540e-01) (11, -4.16274446810924403373e-01) (12, 4.80549985163953793932e-02) (13, 2.88123698575778131037e-01) (14, 3.58917790188082230785e-01) (15, -1.81305970362724527822e-01) (16, -5.94353884241190399962e-01) (17, -3.88009572977441818953e-01) (18, 1.33913917897256151690e-01) (19, 4.83279926245281515884e-02) (20, 1.82944024598573756757e-01) (21, 1.20411792824416136183e-01) (22, -8.78765699751262840955e-01) (23, 1.95538852083020797679e+00) (24, -6.30939293212762652985e-01) (25, 4.92521666609061839481e-02) (0, -5.34768417884850588706e+00) (1, 1.11076149970061099914e-01) (2, 1.08575668066508090881e-01) (3, 1.34069796532160501190e-01) (4, 1.74043249219423989960e-01) (5, 7.51232596550488285203e+00) (6, 1.33985476697194960671e+00) (7, -4.36787062117220334367e-04) (8, 1.42900498069272252621e+01) (9, 4.32821344559975451638e-01) (10, 6.91980725741092150827e-01) (11, 6.12375069785260528477e+00) (12, 6.73438697705702260521e+00) (13, 5.04023089479955821446e+00) (14, 5.87442685467764391660e+00) (15, -2.62315825539830393964e+00) (16, 2.08345337332311419942e+00) (17, 6.03076795066309068183e-01) (18, 1.90188368148736741681e+00) (19, -2.35913006377594186569e-01) (20, 5.54556779469612415312e+00) (21, 1.31836007123394671758e+00) (22, 1.98122911363409648366e+00) (23, -2.95841584985897654292e+00) (24, 3.50554297931789626830e+00) (25, 2.07265740882886323471e-01) (0, 3.39428137972392143795e-02) (1, -7.11625110126215681960e-02) (2, -1.71079274616308840695e-01) (3, -1.39021877548762023968e-01) (4, -1.70653920970030459348e-01) (5, 9.47444425799886191797e-01) (6, -5.30064008093244720676e-01) (7, -5.82408457792477740611e+00) (8, 1.46509304016557462269e+00) (9, 7.87177880258301598815e-01) (10, 1.15679457006718933165e+00) (11, -5.16945652149256792973e-02) (12, 3.60370122821797589374e-01) (13, 1.60139576124109828115e+00) (14, 2.24733288846594225774e+00) (15, 2.19997382409326558417e+00) (16, -2.22807825681053284228e-01) (17, 2.43758168925460261267e-01) (18, 3.49514710985303955759e-01) (19, 5.54473058088253090148e-01) (20, -8.82384786700244061475e-02) (21, 8.57834432542132541144e-01) (22, 5.91876019505654049624e+00) (23, -8.97690161738474401432e+00) (24, 6.86631074470941360488e+00) (25, -9.42516010339180948518e-02) (0, -3.62474275122732834120e+01) (1, -2.63744210211734442240e-01) (2, -3.02111034600238415049e-01) (3, -3.26823373643855663584e-01) (4, -3.34307086972694011973e-01) (5, 8.54035863530262395749e-01) (6, 7.30854553326928790824e+00) (7, 3.15044296650455607489e-02) (8, -4.36628610109206283241e-01) (9, 1.06825341064936196744e+00) (10, 1.74790639963216642983e-01) (11, -3.13567794387722087457e-01) (12, 7.74378991167916863603e-01) (13, 7.55336972400396544636e-01) (14, 7.82188201571097585507e-01) (15, -1.67823216951777132167e+00) (16, -6.72864392344796224954e-01) (17, -2.59031762324532355279e+00) (18, 1.57361133242777312402e-01) (19, -1.29616220647230176444e-02) (20, 7.87896613781455701364e-01) (21, 4.12859643731057768257e-01) (22, -7.11291898333712979685e-02) (23, 1.81418371318571569617e+00) (24, 1.96038907835870274132e-01) (25, -1.64109685149419282091e+00) (0, -9.59998659989173219742e+00) (1, -1.20859651739550738592e-01) (2, -2.56764804076682999490e-02) (3, -4.73699485015403529142e-02) (4, -5.16178225230705042814e-02) (5, 1.98536340946896694426e+00) (6, 4.93039480392329654279e+00) (7, 4.20284432748204892505e+01) (8, -8.92666181181817997015e+00) (9, 1.93140729651840481473e+00) (10, -6.95293614530251430361e-02) (11, 2.53549193619096024932e+00) (12, 2.39555932561233220213e+00) (13, 2.38987520694806176991e+00) (14, 1.95896960154336063908e+00) (15, -2.14741397474207484919e+00) (16, -2.21474119674162395199e+01) (17, -1.35326669231252383341e+00) (18, 1.16962915118074950449e+00) (19, 1.30576338350484766337e-01) (20, 9.10526837349298845403e-01) (21, 9.36256515616030737803e-01) (22, -8.49204658185112570834e+00) (23, 1.15856749534025933457e+01) (24, -8.72107588417782686463e+00) (25, 8.83659629494506493330e-01) (0, 4.33786937298290098397e+00) (1, 5.19772756357266052518e-01) (2, 4.05041705329491130705e-01) (3, 3.43719195087029083524e-01) (4, 4.25536792237831584806e-01) (5, 2.50517983005065891788e+00) (6, 8.15290574952290647559e+00) (7, -1.41710716745856735166e+00) (8, 5.38095727177787466644e+02) (9, -1.72180439998051348915e+00) (10, 1.53434782611874598324e-01) (11, 6.27564182361889510986e+00) (12, -4.72110431591832968579e-01) (13, 1.49337651215319477949e+00) (14, -1.13066138389896833627e-01) (15, -9.97648989080944570418e-01) (16, 1.31729357910211763993e+00) (17, 1.40099658015007411116e+00) (18, -4.26940335231721923570e-01) (19, -2.65260607942011172877e-01) (20, 6.67611231606726085452e-01) (21, 5.51949884723164586831e+02) (22, 4.54981004460628000174e+01) (23, -1.55235569756689066878e+01) (24, 5.39916623789307209336e+02) (25, -6.66613508516392228032e-01) (0, -5.17603606758391121545e-01) (1, -1.59424517651290675868e-01) (2, 9.39074556141152472916e-04) (3, -2.48002668210958385209e-03) (4, -1.55445490380019923915e-01) (5, 3.52854241170575608222e-02) (6, -2.94826996623656412133e-01) (7, 7.34838569360209170611e+00) (8, 3.80041717057303385374e+00) (9, -1.79780660314260165578e+00) (10, 2.59594121595454696561e+00) (11, -4.17362291629802872883e-01) (12, -1.75350098946802063216e-01) (13, -5.68603922039463416382e-02) (14, -2.29814765350822847179e-01) (15, 2.72375000654173415882e+00) (16, -5.21304324634282514883e-02) (17, 2.12953576268167299457e-01) (18, 2.79099246625529484600e-01) (19, 5.65833142000764954815e-01) (20, 9.94463463794937885254e-02) (21, 2.89712321776151027208e-01) (22, 4.26141995439092191589e+00) (23, -8.56414394170272075257e+00) (24, 5.47550678767271570280e+00) (25, -1.08919604805625319655e-01) (0, -4.85618516748332424982e+01) (1, -2.91750383136395285977e-01) (2, -2.24640351293210027706e-01) (3, -2.54485097286824335505e-01) (4, -2.27021690962437627803e-01) (5, 4.54564203032146063599e-01) (6, 7.89752855200636627586e+00) (7, 1.26799177899535708836e-01) (8, -1.72587908334241491026e+00) (9, 1.13432775938652596892e+00) (10, 6.03988868511612264633e-01) (11, -7.81765562194854823908e-01) (12, 5.27879386376473691556e-01) (13, 3.39558949757122308100e-01) (14, 7.96771973846579606438e-01) (15, 1.49185999041665553477e+01) (16, -1.80898201827759286253e-01) (17, -2.76629679974294173661e+00) (18, 4.86554563408016393922e-01) (19, -2.96227304256181822595e-01) (20, 1.20048125441105324462e+00) (21, -1.73346002766213425073e-01) (22, -2.32951849621182288663e-01) (23, 1.40653131481698845384e+00) (24, 3.02313458455744366038e-01) (25, -4.24500855205624472166e-01) (0, 6.13881479402044849536e-01) (1, -8.27028919936898115894e-02) (2, -2.30659367458847797128e-03) (3, 6.34431856690165357771e-02) (4, -1.22487005771878161575e-02) (5, -5.82376814635512163321e-01) (6, -2.24300864746370232083e+00) (7, 3.00193898204904918714e+00) (8, 9.62461002582916114179e-01) (9, -9.51827793177419723136e-01) (10, 5.36070251180685364290e+00) (11, -3.54515657248120230616e-01) (12, -2.12997454334364677564e+00) (13, -2.68028694356340357885e+00) (14, -4.46348422294899016549e-01) (15, 1.09698806769761025848e+00) (16, -4.51623548041551248211e-01) (17, -4.64281107513654645036e-02) (18, 3.91904169519843637026e-01) (19, 5.67489161324930213581e-01) (20, -2.72184428582378179495e-01) (21, 2.73503947983038786518e-01) (22, 2.94095345740840263815e+00) (23, -7.35282386383902508697e+00) (24, 1.58500222785888733590e+00) (25, -1.21101306784770254565e-01) (26, 7.54095732388572859151e-01) (27, 1.72537914976367695585e-01) (28, 9.61124537994460931278e-02) (29, -3.00076924675265165054e-02) (30, 5.47098734223808502719e-01) (31, 6.42201532264061847322e-01) (32, 7.66029196119232813622e-01) (33, -6.64980242651109637597e-02) (34, 9.50081060439331714917e-01) (35, 1.99005936527274010506e-02) (36, 6.56183855856380060523e-01) 
