FANN_FLO_2.1
num_layers=3
learning_rate=0.700000
connection_rate=1.000000
network_type=0
learning_momentum=0.000000
training_algorithm=2
train_error_function=1
train_stop_function=1
cascade_output_change_fraction=0.010000
quickprop_decay=-0.000100
quickprop_mu=1.750000
rprop_increase_factor=1.200000
rprop_decrease_factor=0.500000
rprop_delta_min=0.000000
rprop_delta_max=50.000000
rprop_delta_zero=0.100000
cascade_output_stagnation_epochs=12
cascade_candidate_change_fraction=0.010000
cascade_candidate_stagnation_epochs=12
cascade_max_out_epochs=150
cascade_min_out_epochs=50
cascade_max_cand_epochs=150
cascade_min_cand_epochs=50
cascade_num_candidate_groups=2
bit_fail_limit=1.00000000000000005551e-01
cascade_candidate_limit=1.00000000000000000000e+03
cascade_weight_multiplier=4.00000000000000022204e-01
cascade_activation_functions_count=10
cascade_activation_functions=3 5 7 8 10 11 14 15 16 17 
cascade_activation_steepnesses_count=4
cascade_activation_steepnesses=2.50000000000000000000e-01 5.00000000000000000000e-01 7.50000000000000000000e-01 1.00000000000000000000e+00 
layer_sizes=6 4 2 
scale_included=0
neurons (num_inputs, activation_function, activation_steepness)=(0, 0, 0.00000000000000000000e+00) (0, 0, 0.00000000000000000000e+00) (0, 0, 0.00000000000000000000e+00) (0, 0, 0.00000000000000000000e+00) (0, 0, 0.00000000000000000000e+00) (0, 0, 0.00000000000000000000e+00) (6, 6, 5.00000000000000000000e-01) (6, 6, 5.00000000000000000000e-01) (6, 6, 5.00000000000000000000e-01) (0, 6, 0.00000000000000000000e+00) (4, 4, 5.00000000000000000000e-01) (0, 4, 0.00000000000000000000e+00) 
connections (connected_to_neuron, weight)=(0, 3.21253515353925322984e+00) (1, -3.66937909531176531530e+00) (2, -1.34855162027151962434e+01) (3, 1.83297701384541533720e+00) (4, 3.80514238361273182676e+00) (5, 3.09754766720261542901e+00) (0, -2.26872654923570282737e-01) (1, 1.85521232078382869446e+00) (2, -2.74305161850184608952e+00) (3, 9.00073719830927987395e-01) (4, 1.14589029696315125584e+00) (5, -1.75391818067696603212e-01) (0, 6.32684626126675109248e+00) (1, -1.83726449692928328616e+00) (2, -1.42171406370165147592e+01) (3, 2.29956918462391435298e+00) (4, 1.74685727981153049448e+00) (5, 2.90419909099200257430e+00) (6, -1.66445029003402851231e+01) (7, 3.06785026808993208647e+01) (8, -3.24025823685262936991e+00) (9, -2.32217412929049915604e+00) 
