FANN_FLO_2.1
num_layers=3
learning_rate=0.700000
connection_rate=1.000000
network_type=0
learning_momentum=0.000000
training_algorithm=2
train_error_function=1
train_stop_function=1
cascade_output_change_fraction=0.010000
quickprop_decay=-0.000100
quickprop_mu=1.750000
rprop_increase_factor=1.200000
rprop_decrease_factor=0.500000
rprop_delta_min=0.000000
rprop_delta_max=50.000000
rprop_delta_zero=0.100000
cascade_output_stagnation_epochs=12
cascade_candidate_change_fraction=0.010000
cascade_candidate_stagnation_epochs=12
cascade_max_out_epochs=150
cascade_min_out_epochs=50
cascade_max_cand_epochs=150
cascade_min_cand_epochs=50
cascade_num_candidate_groups=2
bit_fail_limit=1.00000000000000005551e-01
cascade_candidate_limit=1.00000000000000000000e+03
cascade_weight_multiplier=4.00000000000000022204e-01
cascade_activation_functions_count=10
cascade_activation_functions=3 5 7 8 10 11 14 15 16 17 
cascade_activation_steepnesses_count=4
cascade_activation_steepnesses=2.50000000000000000000e-01 5.00000000000000000000e-01 7.50000000000000000000e-01 1.00000000000000000000e+00 
layer_sizes=8 4 2 
scale_included=0
neurons (num_inputs, activation_function, activation_steepness)=(0, 0, 0.00000000000000000000e+00) (0, 0, 0.00000000000000000000e+00) (0, 0, 0.00000000000000000000e+00) (0, 0, 0.00000000000000000000e+00) (0, 0, 0.00000000000000000000e+00) (0, 0, 0.00000000000000000000e+00) (0, 0, 0.00000000000000000000e+00) (0, 0, 0.00000000000000000000e+00) (8, 6, 5.00000000000000000000e-01) (8, 6, 5.00000000000000000000e-01) (8, 6, 5.00000000000000000000e-01) (0, 6, 0.00000000000000000000e+00) (4, 4, 5.00000000000000000000e-01) (0, 4, 0.00000000000000000000e+00) 
connections (connected_to_neuron, weight)=(0, -4.49953667587307259979e-01) (1, 1.10258091893446485976e+00) (2, 8.67310900035010989839e-01) (3, 2.51007639322652076341e-01) (4, 1.98660107649670814034e+00) (5, 2.05246274120913740902e+00) (6, 2.76449779148558816289e+00) (7, -1.50579250265847375267e+00) (0, -4.53604571085710706058e+00) (1, 3.40991197396145562237e+00) (2, 2.13713712997616234190e+00) (3, 2.07057516933421359440e+00) (4, 4.95314666724565899614e+00) (5, 4.98077609485748684648e+00) (6, 6.10671209771064305016e+00) (7, -4.56703092094798268619e+00) (0, -1.42687671517098602081e+00) (1, 1.53094046747306955503e+00) (2, -3.93049799670781574434e-02) (3, 9.45926464216421347686e-01) (4, 3.15094779945562697421e+00) (5, 3.05973880134175635348e+00) (6, 1.27797739337812021887e+00) (7, -1.36011736725533660675e+00) (8, 1.48994476853610446909e+00) (9, 1.43210166895044146429e+01) (10, 8.10553052508557358991e-01) (11, -1.32714332300684323407e+00) 
