FANN_FLO_2.1
num_layers=3
learning_rate=0.700000
connection_rate=1.000000
network_type=0
learning_momentum=0.000000
training_algorithm=2
train_error_function=1
train_stop_function=1
cascade_output_change_fraction=0.010000
quickprop_decay=-0.000100
quickprop_mu=1.750000
rprop_increase_factor=1.200000
rprop_decrease_factor=0.500000
rprop_delta_min=0.000000
rprop_delta_max=50.000000
rprop_delta_zero=0.100000
cascade_output_stagnation_epochs=12
cascade_candidate_change_fraction=0.010000
cascade_candidate_stagnation_epochs=12
cascade_max_out_epochs=150
cascade_min_out_epochs=50
cascade_max_cand_epochs=150
cascade_min_cand_epochs=50
cascade_num_candidate_groups=2
bit_fail_limit=1.00000000000000005551e-01
cascade_candidate_limit=1.00000000000000000000e+03
cascade_weight_multiplier=4.00000000000000022204e-01
cascade_activation_functions_count=10
cascade_activation_functions=3 5 7 8 10 11 14 15 16 17 
cascade_activation_steepnesses_count=4
cascade_activation_steepnesses=2.50000000000000000000e-01 5.00000000000000000000e-01 7.50000000000000000000e-01 1.00000000000000000000e+00 
layer_sizes=27 11 2 
scale_included=0
neurons (num_inputs, activation_function, activation_steepness)=(0, 0, 0.00000000000000000000e+00) (0, 0, 0.00000000000000000000e+00) (0, 0, 0.00000000000000000000e+00) (0, 0, 0.00000000000000000000e+00) (0, 0, 0.00000000000000000000e+00) (0, 0, 0.00000000000000000000e+00) (0, 0, 0.00000000000000000000e+00) (0, 0, 0.00000000000000000000e+00) (0, 0, 0.00000000000000000000e+00) (0, 0, 0.00000000000000000000e+00) (0, 0, 0.00000000000000000000e+00) (0, 0, 0.00000000000000000000e+00) (0, 0, 0.00000000000000000000e+00) (0, 0, 0.00000000000000000000e+00) (0, 0, 0.00000000000000000000e+00) (0, 0, 0.00000000000000000000e+00) (0, 0, 0.00000000000000000000e+00) (0, 0, 0.00000000000000000000e+00) (0, 0, 0.00000000000000000000e+00) (0, 0, 0.00000000000000000000e+00) (0, 0, 0.00000000000000000000e+00) (0, 0, 0.00000000000000000000e+00) (0, 0, 0.00000000000000000000e+00) (0, 0, 0.00000000000000000000e+00) (0, 0, 0.00000000000000000000e+00) (0, 0, 0.00000000000000000000e+00) (0, 0, 0.00000000000000000000e+00) (27, 6, 5.00000000000000000000e-01) (27, 6, 5.00000000000000000000e-01) (27, 6, 5.00000000000000000000e-01) (27, 6, 5.00000000000000000000e-01) (27, 6, 5.00000000000000000000e-01) (27, 6, 5.00000000000000000000e-01) (27, 6, 5.00000000000000000000e-01) (27, 6, 5.00000000000000000000e-01) (27, 6, 5.00000000000000000000e-01) (27, 6, 5.00000000000000000000e-01) (0, 6, 0.00000000000000000000e+00) (11, 6, 5.00000000000000000000e-01) (0, 6, 0.00000000000000000000e+00) 
connections (connected_to_neuron, weight)=(0, -1.53323491641957521114e-01) (1, 1.75429981530683259949e-01) (2, 1.97982222170608263001e-01) (3, 3.18571731776969735428e-01) (4, 2.95863002867477242752e-01) (5, 1.12922020191844030279e+00) (6, 1.65928164605800776421e+00) (7, 1.72797862921659617363e+00) (8, 1.12272596294577642340e+00) (9, 1.64223541800682215630e+00) (10, 1.20852415990774431087e+00) (11, 8.91040380075993843079e-01) (12, 1.15169607983280375407e+00) (13, 2.49871932460951917676e+00) (14, 1.24724963863040927414e+00) (15, 1.08448334718640371221e+00) (16, 1.35904929910641603108e+00) (17, 9.11126994882926144470e-01) (18, 1.08627458597119375128e+00) (19, 1.43168167893629960652e+00) (20, 8.26278866623744168152e-01) (21, 1.35917937879305772420e+00) (22, 1.09195586974318548101e+00) (23, 1.37837541972142152424e+00) (24, 1.42628787105564192039e+00) (25, 1.05004091696191981242e+00) (26, 3.33253707770265195087e-01) (0, 5.33130567365816876446e+00) (1, 1.51251796781780223355e+00) (2, 1.41607629656555134012e+00) (3, 1.49640908241035441861e+00) (4, 1.41279234140874820902e+00) (5, 1.41356191573121812155e+01) (6, 2.07078322685312130602e+01) (7, 2.07448050483118393572e+01) (8, 1.23541500924115936755e+01) (9, 2.07605418703507282885e+01) (10, 6.28230775509873140550e+00) (11, 9.55067931507136336222e+00) (12, 4.00296836379877785106e+00) (13, 2.07284098147403099688e+01) (14, 4.06897953186146477123e+00) (15, 7.46355334402429626550e+00) (16, 7.40848734372270900650e+00) (17, 8.47144966282881028974e+00) (18, 7.46958735318290756311e+00) (19, 1.65677807919624164867e+01) (20, 1.06486129564059943675e+01) (21, 1.66715344592871979046e+01) (22, 1.40765466888823773672e+01) (23, 1.65985097244324997234e+01) (24, 6.93630964826573670479e+00) (25, 6.94295471679200471016e+00) (26, -2.44848412238862023216e+00) (0, -9.14214445564020650181e-01) (1, -2.07009531641701632898e-01) (2, -1.17784366095761219850e-01) (3, -1.44819855774144079508e-01) (4, -2.07236372018555575769e-01) (5, 9.02916312840869483836e-01) (6, 1.26188470286466469794e+00) (7, 1.27980097246505608588e+00) (8, 1.16918736898045172445e+00) (9, 1.01589412800273870552e+00) (10, 8.14377711313743812838e-01) (11, 1.00450208720742928392e+00) (12, 6.56084223479851846861e-01) (13, 1.01255547813377355659e+00) (14, 9.64950806768529290025e-01) (15, 8.30571815994670448191e-01) (16, 9.99358425561338914456e-01) (17, 1.18922994140842974709e+00) (18, 8.18658389774253425486e-01) (19, 1.06254194927588119235e+00) (20, 1.23268613819340289162e+00) (21, 1.00585775328055038180e+00) (22, 7.50842393067767677195e-01) (23, 9.19776010040194047512e-01) (24, 8.97183638457590637572e-01) (25, 7.81482289374693994688e-01) (26, 1.27968816902836152183e-01) (0, -1.27420593442560181607e-01) (1, 2.66773671240585152908e-01) (2, 1.67445607812183122620e-01) (3, 3.17054689259307687088e-01) (4, 1.44021012217776994691e-01) (5, 1.21520124311144872564e+00) (6, 1.73648102317754893242e+00) (7, 1.73641185198728709160e+00) (8, 1.12142545665200277227e+00) (9, 1.70864037905637888848e+00) (10, 1.09652035665457048275e+00) (11, 8.61445601061406440735e-01) (12, 1.15056897090126231120e+00) (13, 2.67560916884827726392e+00) (14, 1.24247787703420642380e+00) (15, 1.18415180529053731817e+00) (16, 1.30238321547251634236e+00) (17, 1.58863796766823628381e+00) (18, 1.25364062125380537616e+00) (19, 2.15565800387630979174e+00) (20, 8.79717496578797497619e-01) (21, 1.34777451430302552815e+00) (22, 1.10918242419655843634e+00) (23, 1.26285117243271760579e+00) (24, 1.32980131378058485936e+00) (25, 1.07882341132808878825e+00) (26, 2.67369236830628964618e-01) (0, 2.41952913152272852670e+00) (1, 1.44808221350884758216e+00) (2, 1.31991605948186241370e+00) (3, 1.44355582933402382118e+00) (4, 1.33232770602679573280e+00) (5, 5.17586081011612009206e+00) (6, 7.76755184487524807935e+00) (7, 7.80593279556456387525e+00) (8, 4.45878996950064365734e+00) (9, 7.91774973601456988348e+00) (10, 8.23649204888648966971e+00) (11, 1.05441435257184572549e+01) (12, 7.35298700512774860982e+00) (13, 7.94464916319009173407e+00) (14, 5.54880476576169545666e+00) (15, 5.09529133795220445791e+00) (16, 6.20644618384578894421e+00) (17, 6.01393020936057709491e+00) (18, 5.09655358551461290517e+00) (19, 6.11408739350774954602e+00) (20, 6.27039298228958319470e+00) (21, 6.10550728999117087170e+00) (22, 5.04913492037374567190e+00) (23, 6.21516337804535101697e+00) (24, 5.11798037870246957937e+00) (25, 7.30869075538047230367e+00) (26, -2.27275797884133823334e-01) (0, -9.11574071559179799351e-01) (1, -1.70475140298108035486e-01) (2, -2.24368482912281924646e-01) (3, -2.08063960159520083826e-01) (4, -1.15353316152790943971e-01) (5, 1.39483284139653540556e+00) (6, 1.31937613201476922065e+00) (7, 1.33572652799226632148e+00) (8, 1.15149438955525984518e+00) (9, 1.25172076610066285163e+00) (10, 8.03809152143974525728e-01) (11, 9.21723186345689171617e-01) (12, 7.85892109216078882383e-01) (13, 1.02147383800945257271e+00) (14, 1.09428536829530442809e+00) (15, 8.29050176468780097849e-01) (16, 1.02646322054043426242e+00) (17, 1.19708290551165164040e+00) (18, 7.73803424713304099924e-01) (19, 1.07823840034380569186e+00) (20, 1.11793042946914233937e+00) (21, 1.09455929947271979330e+00) (22, 1.50317010603587042361e+00) (23, 9.82080082122236741604e-01) (24, 1.06277563089543014563e+00) (25, 1.31120519918003264337e+00) (26, 1.34698680486877747642e-01) (0, -2.69843147983026909742e+00) (1, -2.13243882788119731853e-01) (2, -1.55228111577926070064e-01) (3, -2.67737652791438462963e-01) (4, -1.33356187177596452464e-01) (5, 2.11733969375850206163e+00) (6, 2.15093682781220918443e+00) (7, 2.10162281319858079698e+00) (8, 2.15561312662100057480e+00) (9, 2.07800895175300492923e+00) (10, 1.78392377831740689409e+00) (11, 1.96385468968785370514e+00) (12, 2.45644574638491519636e+00) (13, 2.04631469846130853441e+00) (14, 2.29186709522403342376e+00) (15, 2.96470037376425210596e+00) (16, 2.10787247720534853812e+00) (17, 1.84287943852336133510e+00) (18, 2.96352374082348291040e+00) (19, 2.12428579554320817735e+00) (20, 1.93235156366265381500e+00) (21, 2.14635031000138765123e+00) (22, 2.11450155902041014855e+00) (23, 2.34774796216882331024e+00) (24, 2.44451739665156253523e+00) (25, 2.40646729644423373884e+00) (26, -6.79781376185552010938e-02) (0, -7.08169360632910360742e-02) (1, 5.97338490645770991971e-02) (2, -2.60188541848773713383e-02) (3, 7.65351914327030147245e-02) (4, -4.30218614180202310604e-02) (5, 3.73148972177133442241e-01) (6, 5.34737750150663604387e-01) (7, 5.02671166517240752825e-01) (8, 3.14502193158955500873e-01) (9, 4.49713587023718164293e-01) (10, 1.72492570700252395577e-01) (11, 4.81915682999584371604e-01) (12, 1.65630572602202180699e-01) (13, 6.17852336921198119768e-01) (14, 3.64803423778233493202e-01) (15, 1.82990316634144278840e-01) (16, 4.11102908838618552601e-01) (17, 3.12091085303652981953e-01) (18, 9.77778102802891735390e-02) (19, 3.14140883245599578100e-01) (20, 3.35719797004092435078e-01) (21, 4.76869282283914397436e-01) (22, 2.61675434195623224376e-01) (23, 3.36586412944925139623e-01) (24, 2.04101642034099611811e-01) (25, 2.09514730736662657673e-01) (26, 3.10905730345699682360e-01) (0, 1.24019300713168001415e+00) (1, 1.97395850747196122121e-01) (2, 1.79856587975589676809e-01) (3, 1.72359873383609696340e-01) (4, 5.37056520872993201077e-02) (5, -5.80321026307160092728e-01) (6, -8.18174375210950377557e-01) (7, -8.34274543439099791620e-01) (8, -5.67543489199692441360e-01) (9, -8.74419217919061186883e-01) (10, -5.42756499655469570875e-01) (11, -1.35196531045803669535e+00) (12, -8.83288032194632810601e-01) (13, -9.10648768757531645868e-01) (14, -5.53888305730856567166e-01) (15, -5.55321363073403184707e-01) (16, -7.62887391261584557611e-01) (17, -1.34369440603623035990e+00) (18, -5.13012347084099595840e-01) (19, -1.20496503508466390464e+00) (20, -1.35842275846371296488e+00) (21, -1.36604768282550459446e+00) (22, -5.82891338777357770340e-01) (23, -6.21604057960040479180e-01) (24, -6.34249013942209671768e-01) (25, -1.06906518892016211275e+00) (26, 1.25408044280453712105e-01) (0, 7.07764560299855194359e+00) (1, -7.14573047403379429943e-03) (2, 1.43627027354201824982e-01) (3, 1.39180327138862164338e-01) (4, 1.39719987592658551057e-01) (5, -1.98428388726946969278e+00) (6, -1.31526067869028340240e+00) (7, -1.32221774027904759308e+00) (8, -1.96580226761338372476e+00) (9, -1.43813043245396698921e+00) (10, -2.56251139649376380447e+00) (11, -2.22612765373051946227e+00) (12, -2.37758790372767148114e+00) (13, -1.93563899439808984049e+00) (14, -1.83963917141354182938e+00) (15, -1.92795902532574792154e+00) (16, -2.08664490847210171154e+00) (17, -1.88185640956404376389e+00) (18, -1.96192593914506097086e+00) (19, -1.49421090045294846504e+00) (20, -1.87503050054552722337e+00) (21, -1.50047969230733002632e+00) (22, -2.07471007150647324124e+00) (23, -1.90305494336704539293e+00) (24, -1.71215197346903780229e+00) (25, -1.45901629068095983754e+00) (26, -6.19242443353257010497e-02) (27, 1.85388039862606768260e-01) (28, 8.16215913852957442032e-01) (29, 5.91990859260686175247e-01) (30, 1.65778916394207720408e-01) (31, 6.84388748407306235499e-01) (32, 6.23391088594366316045e-01) (33, 6.37017768728626254671e-01) (34, 7.06711621267688550052e-02) (35, -2.13901860814502381425e-01) (36, -1.22438221071110153737e+00) (37, 7.27547787893821906735e-01) 
