FANN_FLO_2.1
num_layers=3
learning_rate=0.700000
connection_rate=1.000000
network_type=0
learning_momentum=0.000000
training_algorithm=2
train_error_function=1
train_stop_function=1
cascade_output_change_fraction=0.010000
quickprop_decay=-0.000100
quickprop_mu=1.750000
rprop_increase_factor=1.200000
rprop_decrease_factor=0.500000
rprop_delta_min=0.000000
rprop_delta_max=50.000000
rprop_delta_zero=0.100000
cascade_output_stagnation_epochs=12
cascade_candidate_change_fraction=0.010000
cascade_candidate_stagnation_epochs=12
cascade_max_out_epochs=150
cascade_min_out_epochs=50
cascade_max_cand_epochs=150
cascade_min_cand_epochs=50
cascade_num_candidate_groups=2
bit_fail_limit=1.00000000000000005551e-01
cascade_candidate_limit=1.00000000000000000000e+03
cascade_weight_multiplier=4.00000000000000022204e-01
cascade_activation_functions_count=10
cascade_activation_functions=3 5 7 8 10 11 14 15 16 17 
cascade_activation_steepnesses_count=4
cascade_activation_steepnesses=2.50000000000000000000e-01 5.00000000000000000000e-01 7.50000000000000000000e-01 1.00000000000000000000e+00 
layer_sizes=12 11 2 
scale_included=0
neurons (num_inputs, activation_function, activation_steepness)=(0, 0, 0.00000000000000000000e+00) (0, 0, 0.00000000000000000000e+00) (0, 0, 0.00000000000000000000e+00) (0, 0, 0.00000000000000000000e+00) (0, 0, 0.00000000000000000000e+00) (0, 0, 0.00000000000000000000e+00) (0, 0, 0.00000000000000000000e+00) (0, 0, 0.00000000000000000000e+00) (0, 0, 0.00000000000000000000e+00) (0, 0, 0.00000000000000000000e+00) (0, 0, 0.00000000000000000000e+00) (0, 0, 0.00000000000000000000e+00) (12, 6, 5.00000000000000000000e-01) (12, 6, 5.00000000000000000000e-01) (12, 6, 5.00000000000000000000e-01) (12, 6, 5.00000000000000000000e-01) (12, 6, 5.00000000000000000000e-01) (12, 6, 5.00000000000000000000e-01) (12, 6, 5.00000000000000000000e-01) (12, 6, 5.00000000000000000000e-01) (12, 6, 5.00000000000000000000e-01) (12, 6, 5.00000000000000000000e-01) (0, 6, 0.00000000000000000000e+00) (11, 6, 5.00000000000000000000e-01) (0, 6, 0.00000000000000000000e+00) 
connections (connected_to_neuron, weight)=(0, 1.72354877939284278909e+01) (1, 4.07373739584741545450e-01) (2, 4.60338508888540220987e-01) (3, 3.91556455000696135293e-01) (4, 4.65095369323549223672e-01) (5, -5.43501043038952857955e+00) (6, -7.51355645882834810578e+00) (7, -2.47520838670716281094e-01) (8, -4.12000026876194791470e+00) (9, -1.34806244060845537014e+00) (10, -8.38919876469616454528e+00) (11, -6.05709366540608477175e-03) (0, -2.00457703176139256929e-01) (1, -1.57708084786676028255e-01) (2, -8.27193098314034230834e-02) (3, -1.56205734813951113704e-01) (4, -2.61801352574699301365e-03) (5, -1.47816886702253058594e+00) (6, 1.52713513094288400040e+00) (7, -6.87134225667107045865e+00) (8, -6.94946905573051498806e+00) (9, 2.88479749399574902924e+00) (10, 2.59168240304314689837e+00) (11, 2.86005932666283768651e-01) (0, -5.35560806928111343694e+00) (1, -1.85567271167857705816e-01) (2, -1.48991015011890021169e-01) (3, -2.24778656119926034673e-01) (4, -2.30651218647582589849e-01) (5, 1.38361625006503130564e+00) (6, 3.88152155136096799204e-01) (7, 7.43512909144504852144e-01) (8, 5.70140827878712563859e-01) (9, 1.07144009680271889984e+00) (10, 1.14086974967222842814e+00) (11, -1.68855232105708935597e-01) (0, -8.08089635551801133140e-01) (1, 1.85942348672945012567e-02) (2, -8.10832086370389948371e-02) (3, 1.78660598232347478387e-02) (4, -8.66770970986288080695e-02) (5, 1.36956983824917544190e+00) (6, 3.67547155890842081050e-01) (7, 3.71105470721610986029e-01) (8, 7.52426185214004616952e-01) (9, -6.13393975033154001397e-02) (10, 1.93110892525574673328e-01) (11, -1.13384059257689170930e-01) (0, -5.19873865126784462376e+00) (1, -7.54790638396860336101e-01) (2, -6.23122257003904556072e-01) (3, -6.23752203593374465740e-01) (4, -7.43435923764826034343e-01) (5, -2.04802534391187549545e+01) (6, 3.68132731398297874392e+00) (7, -6.59361943741903022698e+00) (8, -3.34842485284285196201e+00) (9, 1.33234327158622223308e+00) (10, -3.98984497021874728873e+00) (11, 8.42317237602458690482e-01) (0, -1.61393900312412563736e+00) (1, -1.26684549912644384140e-01) (2, -2.51723040787706041355e-02) (3, -2.07815486654473302597e-01) (4, -4.62206114975938289757e-02) (5, 1.28382122898162354119e+00) (6, 2.79879528140056565988e-01) (7, 5.05012588281680274704e-01) (8, 4.21974331897089161014e-01) (9, 5.10605210916851404157e-01) (10, 5.15788109616058920714e-01) (11, -1.28784166443200009944e-01) (0, 2.29135953340523847999e+01) (1, 1.26462460417439831462e-01) (2, 2.57760782648017050533e-01) (3, 9.51675818452142469051e-02) (4, 1.97013405073573316661e-01) (5, -7.17183349060516928120e+00) (6, 5.85302918946392414234e-01) (7, -3.56691957673116544214e+00) (8, -1.69112107795973687363e-02) (9, -3.53946787943530960519e+00) (10, -6.91042715075130242752e+00) (11, 3.58687702102761934997e-02) (0, 1.22575019558433204736e+01) (1, 3.46575579016465684656e-01) (2, 3.91586037694472810511e-01) (3, 3.65051137625236055140e-01) (4, 4.44327170371074220423e-01) (5, -3.99312070258126272648e+00) (6, -4.50918008565146788413e+00) (7, -3.34637431108544602942e-01) (8, -2.84679842169097918614e+00) (9, -1.61456829834256399003e+00) (10, -4.93216193608750597122e+00) (11, 1.64301897254443551866e-02) (0, 7.71771612728137501591e+00) (1, 9.88899708253555997928e-01) (2, 1.05648084030788491638e+00) (3, 1.04625727282207559021e+00) (4, 9.53281030518227101567e-01) (5, 8.37786170238586080927e+00) (6, 1.87945661766350582411e+01) (7, -3.41947145797788554233e+00) (8, 5.50405020113303855567e+00) (9, -1.12838528232304402543e+00) (10, 1.74295305543213396859e+00) (11, -7.36526782378709388155e-01) (0, -1.21380933490958220489e+00) (1, -1.23207314973176093598e-01) (2, -4.13856423547869431423e-02) (3, -4.86205733469134079860e-02) (4, -7.13885939767962551805e-02) (5, 1.27132318550408807134e+00) (6, 2.21227134620178206292e-01) (7, 4.81543243315753322076e-01) (8, 6.13574871991959480688e-01) (9, 3.79056622703037526811e-01) (10, 4.27946083892188078313e-01) (11, -1.85309449004979032161e-01) (12, -1.56073312873403702294e-01) (13, -4.86949001917781010285e-01) (14, 4.52311357654610279866e-01) (15, 5.33560366093226767781e-01) (16, -3.73270070162690870141e-01) (17, 7.04362832761877055709e-01) (18, -2.94439154424373517038e-01) (19, -1.69972885067026291406e-01) (20, 9.90637780322830008295e-01) (21, 3.80893225413295899440e-01) (22, 6.45213724184360182257e-01) 
