FANN_FLO_2.1
num_layers=3
learning_rate=0.700000
connection_rate=1.000000
network_type=0
learning_momentum=0.000000
training_algorithm=2
train_error_function=1
train_stop_function=1
cascade_output_change_fraction=0.010000
quickprop_decay=-0.000100
quickprop_mu=1.750000
rprop_increase_factor=1.200000
rprop_decrease_factor=0.500000
rprop_delta_min=0.000000
rprop_delta_max=50.000000
rprop_delta_zero=0.100000
cascade_output_stagnation_epochs=12
cascade_candidate_change_fraction=0.010000
cascade_candidate_stagnation_epochs=12
cascade_max_out_epochs=150
cascade_min_out_epochs=50
cascade_max_cand_epochs=150
cascade_min_cand_epochs=50
cascade_num_candidate_groups=2
bit_fail_limit=1.00000000000000005551e-01
cascade_candidate_limit=1.00000000000000000000e+03
cascade_weight_multiplier=4.00000000000000022204e-01
cascade_activation_functions_count=10
cascade_activation_functions=3 5 7 8 10 11 14 15 16 17 
cascade_activation_steepnesses_count=4
cascade_activation_steepnesses=2.50000000000000000000e-01 5.00000000000000000000e-01 7.50000000000000000000e-01 1.00000000000000000000e+00 
layer_sizes=9 11 2 
scale_included=0
neurons (num_inputs, activation_function, activation_steepness)=(0, 0, 0.00000000000000000000e+00) (0, 0, 0.00000000000000000000e+00) (0, 0, 0.00000000000000000000e+00) (0, 0, 0.00000000000000000000e+00) (0, 0, 0.00000000000000000000e+00) (0, 0, 0.00000000000000000000e+00) (0, 0, 0.00000000000000000000e+00) (0, 0, 0.00000000000000000000e+00) (0, 0, 0.00000000000000000000e+00) (9, 6, 5.00000000000000000000e-01) (9, 6, 5.00000000000000000000e-01) (9, 6, 5.00000000000000000000e-01) (9, 6, 5.00000000000000000000e-01) (9, 6, 5.00000000000000000000e-01) (9, 6, 5.00000000000000000000e-01) (9, 6, 5.00000000000000000000e-01) (9, 6, 5.00000000000000000000e-01) (9, 6, 5.00000000000000000000e-01) (9, 6, 5.00000000000000000000e-01) (0, 6, 0.00000000000000000000e+00) (11, 6, 5.00000000000000000000e-01) (0, 6, 0.00000000000000000000e+00) 
connections (connected_to_neuron, weight)=(0, 1.89674224510000151156e+01) (1, 6.14516184103049645238e-01) (2, 6.52408484738625893407e-01) (3, 7.60575309764899620824e-01) (4, 7.56392345201529869847e-01) (5, 3.50169440800937092906e-01) (6, -1.60722620123274939630e+00) (7, -7.11603787450933911174e+00) (8, 7.00136308442321331214e-01) (0, -3.02186653851179820585e-01) (1, 6.16679522226119825046e-02) (2, -4.81448513438438863155e-02) (3, -4.05738842656349629756e-02) (4, -1.06033836024019612054e-01) (5, 4.67294948946134214296e-03) (6, 1.42638457996734402400e+00) (7, -2.58707413381707440614e-01) (8, -7.39979706499657580165e-02) (0, 3.50094901819995585335e-01) (1, 1.30817220554559687784e-01) (2, 1.43421993599145786158e-01) (3, 5.06359869696787062709e-02) (4, 5.65473968245676361644e-02) (5, 3.41128476695370330685e-01) (6, -3.66649940780078242852e+00) (7, 8.73682400950946735918e+00) (8, 3.61835531371667962208e-01) (0, 2.72416903500971863128e-01) (1, 6.77547998591137151658e-02) (2, 1.92899214462823903604e-01) (3, 2.17555450634546371225e-01) (4, 2.04072462753839528604e-01) (5, 3.46099031194953665747e+00) (6, -3.09568156925891591058e+00) (7, 6.74884643721567911712e+00) (8, 1.52387069955619014472e-01) (0, 5.71731652729182027173e-01) (1, 1.37003311318981579880e-01) (2, 9.27309332319377621623e-02) (3, 1.45787367028820447068e-01) (4, -1.80359618834378190866e-02) (5, 4.15705741183113541837e-01) (6, -4.21077731105357333519e+00) (7, 1.35367584534553433429e+01) (8, 1.49687308485910830491e-01) (0, -1.52855977585285351950e-01) (1, -2.33515962631206858147e-01) (2, -1.51888675660591471184e-01) (3, -2.21103354961376535881e-01) (4, -1.98477565915088999260e-01) (5, -3.56430966385687142406e+00) (6, 7.53994003089753928037e+00) (7, 1.39979339400717872621e+00) (8, -8.44714963296288728900e-02) (0, 4.69972453075550511414e+00) (1, 4.96235280909860576593e-01) (2, 3.35267133691633190118e-01) (3, 3.59077438392961467706e-01) (4, 4.14424843767011608087e-01) (5, 8.09931562675822336317e-01) (6, -1.73625679215142469936e+00) (7, 7.88871401570877317511e+00) (8, 6.36674654890208996383e-02) (0, -2.15032387304390559812e-01) (1, -4.07026180209817123323e-02) (2, -8.07824667117016358142e-03) (3, -8.33922096671761425846e-02) (4, -9.99243104042710217350e-02) (5, -4.14632017445320077975e-01) (6, 1.46573640091308377009e+00) (7, 1.29046562274758386257e-01) (8, -1.21348955120294449417e-01) (0, 4.73785621482037022645e+00) (1, 3.88571850636327709161e-01) (2, 3.31221669593179668389e-01) (3, 3.35845112481439556085e-01) (4, 4.90317538061464275323e-01) (5, 8.28593426777709085584e-01) (6, -1.82517587849879436845e+00) (7, 7.84992599137267355047e+00) (8, 1.46570906686676716291e-01) (0, 1.15842464264070174607e-01) (1, 9.90492769099384495757e-02) (2, 1.45707532069793310736e-01) (3, 3.72748069978862950347e-02) (4, 1.66566699049583072378e-01) (5, 1.77085322303074743644e+00) (6, -2.13987555716960597962e+00) (7, -1.16770895827468601524e+00) (8, 1.02587672994833664641e-01) (9, -5.29593400224521171360e-01) (10, 6.67148980243718381367e-01) (11, 2.71614453860812399277e-01) (12, 2.91577614018016073594e-01) (13, 3.32546374866061367204e-01) (14, 1.64935064489270033494e-01) (15, 1.95031328500195805242e-01) (16, 6.90239758072333953187e-01) (17, 8.33091855552962612386e-02) (18, -1.47672218166056429950e-02) (19, 1.38891055515976941104e-01) 
