FANN_FLO_2.1
num_layers=3
learning_rate=0.700000
connection_rate=1.000000
network_type=0
learning_momentum=0.000000
training_algorithm=2
train_error_function=1
train_stop_function=1
cascade_output_change_fraction=0.010000
quickprop_decay=-0.000100
quickprop_mu=1.750000
rprop_increase_factor=1.200000
rprop_decrease_factor=0.500000
rprop_delta_min=0.000000
rprop_delta_max=50.000000
rprop_delta_zero=0.100000
cascade_output_stagnation_epochs=12
cascade_candidate_change_fraction=0.010000
cascade_candidate_stagnation_epochs=12
cascade_max_out_epochs=150
cascade_min_out_epochs=50
cascade_max_cand_epochs=150
cascade_min_cand_epochs=50
cascade_num_candidate_groups=2
bit_fail_limit=1.00000000000000005551e-01
cascade_candidate_limit=1.00000000000000000000e+03
cascade_weight_multiplier=4.00000000000000022204e-01
cascade_activation_functions_count=10
cascade_activation_functions=3 5 7 8 10 11 14 15 16 17 
cascade_activation_steepnesses_count=4
cascade_activation_steepnesses=2.50000000000000000000e-01 5.00000000000000000000e-01 7.50000000000000000000e-01 1.00000000000000000000e+00 
layer_sizes=18 11 2 
scale_included=0
neurons (num_inputs, activation_function, activation_steepness)=(0, 0, 0.00000000000000000000e+00) (0, 0, 0.00000000000000000000e+00) (0, 0, 0.00000000000000000000e+00) (0, 0, 0.00000000000000000000e+00) (0, 0, 0.00000000000000000000e+00) (0, 0, 0.00000000000000000000e+00) (0, 0, 0.00000000000000000000e+00) (0, 0, 0.00000000000000000000e+00) (0, 0, 0.00000000000000000000e+00) (0, 0, 0.00000000000000000000e+00) (0, 0, 0.00000000000000000000e+00) (0, 0, 0.00000000000000000000e+00) (0, 0, 0.00000000000000000000e+00) (0, 0, 0.00000000000000000000e+00) (0, 0, 0.00000000000000000000e+00) (0, 0, 0.00000000000000000000e+00) (0, 0, 0.00000000000000000000e+00) (0, 0, 0.00000000000000000000e+00) (18, 6, 5.00000000000000000000e-01) (18, 6, 5.00000000000000000000e-01) (18, 6, 5.00000000000000000000e-01) (18, 6, 5.00000000000000000000e-01) (18, 6, 5.00000000000000000000e-01) (18, 6, 5.00000000000000000000e-01) (18, 6, 5.00000000000000000000e-01) (18, 6, 5.00000000000000000000e-01) (18, 6, 5.00000000000000000000e-01) (18, 6, 5.00000000000000000000e-01) (0, 6, 0.00000000000000000000e+00) (11, 6, 5.00000000000000000000e-01) (0, 6, 0.00000000000000000000e+00) 
connections (connected_to_neuron, weight)=(0, 2.39329466432932980169e+00) (1, 2.11503647442822323432e-01) (2, 2.46903956111435646248e-01) (3, 1.39179542835717123817e-01) (4, 2.14113719936375485053e-01) (5, -1.16304630839209784121e-02) (6, -1.02941242848962644096e+00) (7, 1.84312701748577445482e-01) (8, -2.45115889035974421351e-01) (9, -1.72612719063175878986e-01) (10, -1.84148198047705258240e+00) (11, -1.16556097298370198168e+00) (12, -1.76892982654750219318e+00) (13, -4.85223684070393068701e-01) (14, -1.92190549365903629031e-01) (15, -6.56944172178569929521e-01) (16, 7.65769962567476036863e-02) (17, 7.28464076570240148811e-01) (0, -9.47224734717712557597e+00) (1, -1.62377555347911040062e-01) (2, -3.17735042943870157894e-02) (3, -3.28053203963394246143e-03) (4, -7.02429231777107199175e-02) (5, 1.54438797083040979530e-01) (6, 7.91664071619077480690e-01) (7, -3.53536748846843273952e-01) (8, 4.90687433273832740444e-01) (9, -2.08993216968314278470e-02) (10, 2.44026539857551139079e+00) (11, 1.59891069788974493626e+00) (12, 1.58124173679231372347e+00) (13, 8.80613748584593070134e-01) (14, -1.01324525356707384471e-01) (15, 1.05631966037509861245e+00) (16, 1.77500465732895768012e-01) (17, -6.64777494367480459303e-01) (0, 3.64886986011504355076e+00) (1, 4.05513901052288405769e-01) (2, 4.32322207627109877937e-01) (3, 4.89669840571693770759e-01) (4, 4.81724183795265548103e-01) (5, -3.03479446607138270142e-01) (6, -1.23397273631605242095e+00) (7, 1.67566444459164631819e-01) (8, -2.82526104961948021366e-01) (9, -5.21676800312540975280e-02) (10, -4.15309475684710438514e+00) (11, 2.68448875820243992862e+00) (12, -1.74665640817227152404e+00) (13, -9.26302281809539773683e-01) (14, -6.78537804884024930985e-01) (15, -7.95591825530174490133e-01) (16, 3.06908328738709657024e-01) (17, 2.33466241037823457605e-01) (0, -1.01158461603048639432e+01) (1, -2.75701455857971927665e-03) (2, -6.65302144744656376307e-02) (3, -7.67266245939991764491e-02) (4, -1.33223889247443522121e-01) (5, 1.01065917608829908270e-01) (6, 1.49092651688864963333e+00) (7, -2.32685972679285951736e-01) (8, 4.02941177308934028733e-01) (9, 3.41271255247426342355e-03) (10, 1.21446191474699349833e+00) (11, 1.52948066213117894740e+00) (12, 1.83980354893947217754e+00) (13, 7.32777853165472281560e-01) (14, -5.26276847116602108922e-02) (15, 1.02504917941455797603e+00) (16, 1.93314701696719659640e-01) (17, -7.61864397426642803168e-01) (0, 6.24281884601579584171e+00) (1, 4.46950045760433345432e-01) (2, 5.05729643042843179934e-01) (3, 3.99464634593288570041e-01) (4, 4.09347375269691615696e-01) (5, 2.56614395674995110497e-01) (6, -1.37530923131871207765e+00) (7, 1.20774695310038496232e-01) (8, -4.61943228807613515130e-01) (9, -1.38740401631786636205e-01) (10, -9.96554676298817221358e-01) (11, 2.58691463057291848315e+00) (12, -1.85802139119448450622e+00) (13, -1.01232745651671396381e+00) (14, -8.18974040631452598893e-02) (15, -7.83254868161651685021e-01) (16, 3.17579097044246805304e-01) (17, -2.04303080664120055576e-02) (0, 2.46685554296378262151e+00) (1, 1.61142468862532250995e-01) (2, 1.69246733598707788104e-01) (3, 2.55330425165890106953e-01) (4, 2.54987638853786835469e-01) (5, 4.30306916630883509733e-02) (6, -1.03307587896913388725e+00) (7, 4.04513657975605345207e-01) (8, -4.27812787872235422704e-01) (9, -1.07602938835037881260e-01) (10, -1.89587004909344281067e+00) (11, -1.25615811824308232225e+00) (12, -1.65602042757451406452e+00) (13, -5.50195980427548025915e-01) (14, -1.86581051937963260379e-01) (15, -5.68949287478986875932e-01) (16, 9.83977861228407107985e-02) (17, 7.65969759440163988629e-01) (0, -1.01194840254906015531e+01) (1, -1.78218450918113772985e-02) (2, -6.21097352876578967518e-02) (3, -6.46438714637672384722e-02) (4, -1.41997218556634163811e-01) (5, 1.19481905100437574285e-01) (6, 7.81147565930648601906e-01) (7, -2.98309906275332659131e-01) (8, 3.16386106133835498522e-01) (9, 5.05243131899101860505e-02) (10, 1.17692013040089005216e+00) (11, 1.43989798792587575527e+00) (12, 1.85619858121614056401e+00) (13, 8.65875322972143535161e-01) (14, 1.60144621737347975232e-02) (15, 1.05486550075767460122e+00) (16, -4.34008258973897637079e-02) (17, -7.17362545182504085517e-01) (0, 6.12045387795434869815e+00) (1, 5.33682469353742749973e-01) (2, 5.45364875421590955540e-01) (3, 4.90247879252500629033e-01) (4, 4.74902506992883777226e-01) (5, 1.23823908198230400735e-01) (6, -1.40947941932845055568e+00) (7, 1.72013515266818045601e-01) (8, -5.39756928649112621699e-01) (9, -1.63063231772377303930e-01) (10, -1.09665586412402005223e+00) (11, 2.48223253522408349170e+00) (12, -1.70241109059395578917e+00) (13, -9.16066495371551492433e-01) (14, 4.03810822946463754413e-02) (15, -1.72305143799662396908e+00) (16, 2.27406850945728239433e-01) (17, -1.82642826694753124261e-01) (0, 1.49868696480353102984e+00) (1, 5.21030772427314325945e-01) (2, 4.90587133864158086993e-01) (3, 4.20221965709918487963e-01) (4, 4.61987543801062938709e-01) (5, 5.98043808789603059672e-01) (6, 2.43338735578858905706e-01) (7, 6.35292219575103067619e-01) (8, 6.20750369900541443258e+01) (9, 4.23681573001252198551e-01) (10, 2.59754160837872394296e-01) (11, -1.44246478747471013060e-01) (12, 3.06240056820538730786e-01) (13, 8.45411362675827282587e-01) (14, 5.98565898666403306549e-01) (15, 1.84535512011428903811e+00) (16, 5.49416848741660324151e+00) (17, 1.55333956971744702180e+00) (0, 4.85311875806156045599e+00) (1, 5.01021632050086096477e-01) (2, 4.90382940565157909862e-01) (3, 3.93619538341570873730e-01) (4, 5.52523427699614710917e-01) (5, -7.24387632865870934040e-01) (6, -1.44350560911579384182e+00) (7, 1.20668124141896246360e-01) (8, -5.62140119340583721552e-01) (9, -2.10477013057663087103e-01) (10, -2.62213585111090718982e+00) (11, 2.63559021238577706470e+00) (12, -1.83083885685744074401e+00) (13, -9.02705473495216348390e-01) (14, -6.02569993835994077713e-01) (15, -7.84386834871742322228e-01) (16, 3.38717809808033121222e-01) (17, 2.82788761863549009679e-01) (18, -2.49041187634548549790e-01) (19, 5.61984128288249840111e-01) (20, 4.19586931902839299635e-01) (21, 5.08986848436113303862e-01) (22, 4.06293673057033177809e-01) (23, -2.40632887831214198338e-01) (24, 4.45904958091493552885e-01) (25, 4.66544082004500981764e-01) (26, -7.50325208597655696208e-02) (27, 4.34710671741439458327e-01) (28, 3.21638865012599584059e-01) 
