FANN_FLO_2.1
num_layers=3
learning_rate=0.700000
connection_rate=1.000000
network_type=0
learning_momentum=0.000000
training_algorithm=2
train_error_function=1
train_stop_function=1
cascade_output_change_fraction=0.010000
quickprop_decay=-0.000100
quickprop_mu=1.750000
rprop_increase_factor=1.200000
rprop_decrease_factor=0.500000
rprop_delta_min=0.000000
rprop_delta_max=50.000000
rprop_delta_zero=0.100000
cascade_output_stagnation_epochs=12
cascade_candidate_change_fraction=0.010000
cascade_candidate_stagnation_epochs=12
cascade_max_out_epochs=150
cascade_min_out_epochs=50
cascade_max_cand_epochs=150
cascade_min_cand_epochs=50
cascade_num_candidate_groups=2
bit_fail_limit=1.00000000000000005551e-01
cascade_candidate_limit=1.00000000000000000000e+03
cascade_weight_multiplier=4.00000000000000022204e-01
cascade_activation_functions_count=10
cascade_activation_functions=3 5 7 8 10 11 14 15 16 17 
cascade_activation_steepnesses_count=4
cascade_activation_steepnesses=2.50000000000000000000e-01 5.00000000000000000000e-01 7.50000000000000000000e-01 1.00000000000000000000e+00 
layer_sizes=9 4 2 
scale_included=0
neurons (num_inputs, activation_function, activation_steepness)=(0, 0, 0.00000000000000000000e+00) (0, 0, 0.00000000000000000000e+00) (0, 0, 0.00000000000000000000e+00) (0, 0, 0.00000000000000000000e+00) (0, 0, 0.00000000000000000000e+00) (0, 0, 0.00000000000000000000e+00) (0, 0, 0.00000000000000000000e+00) (0, 0, 0.00000000000000000000e+00) (0, 0, 0.00000000000000000000e+00) (9, 6, 5.00000000000000000000e-01) (9, 6, 5.00000000000000000000e-01) (9, 6, 5.00000000000000000000e-01) (0, 6, 0.00000000000000000000e+00) (4, 4, 5.00000000000000000000e-01) (0, 4, 0.00000000000000000000e+00) 
connections (connected_to_neuron, weight)=(0, 1.78088768547905695883e+00) (1, 9.70796601734876531964e+01) (2, -6.39300862373277323236e-01) (3, -1.92145865300504614659e+00) (4, -1.88439381021855045795e+00) (5, -6.69584392834320030197e-01) (6, 3.83579027304053632452e-01) (7, -3.37367018201951751610e-01) (8, 2.61861179054449211279e+00) (0, -7.76492272943641426153e-01) (1, 1.18091308571979510589e+02) (2, 7.59244567833853745142e-01) (3, 1.74316665636676715323e+00) (4, 1.46981198568106408153e+00) (5, 1.68190826923230418721e+00) (6, 7.04218804055073643866e-01) (7, 7.10410791344254444191e-01) (8, -1.71431343624975607298e+00) (0, -1.36760416697780007311e+00) (1, 1.18037059285327899261e+02) (2, 7.59786929531003796257e-01) (3, 3.15276206982100815068e+00) (4, 1.46073489118576760326e+00) (5, 1.68303548247197398702e+00) (6, 5.59700085931637669745e-01) (7, 8.76129175431340168068e-01) (8, -1.68611871818687841795e+00) (9, -2.13333918737706618174e+00) (10, 2.13969691660735925609e+01) (11, 4.38653597111844195666e+00) (12, -1.77787061403181478880e+00) 
