FANN_FLO_2.1
num_layers=3
learning_rate=0.700000
connection_rate=1.000000
network_type=0
learning_momentum=0.000000
training_algorithm=2
train_error_function=1
train_stop_function=1
cascade_output_change_fraction=0.010000
quickprop_decay=-0.000100
quickprop_mu=1.750000
rprop_increase_factor=1.200000
rprop_decrease_factor=0.500000
rprop_delta_min=0.000000
rprop_delta_max=50.000000
rprop_delta_zero=0.100000
cascade_output_stagnation_epochs=12
cascade_candidate_change_fraction=0.010000
cascade_candidate_stagnation_epochs=12
cascade_max_out_epochs=150
cascade_min_out_epochs=50
cascade_max_cand_epochs=150
cascade_min_cand_epochs=50
cascade_num_candidate_groups=2
bit_fail_limit=1.00000000000000005551e-01
cascade_candidate_limit=1.00000000000000000000e+03
cascade_weight_multiplier=4.00000000000000022204e-01
cascade_activation_functions_count=10
cascade_activation_functions=3 5 7 8 10 11 14 15 16 17 
cascade_activation_steepnesses_count=4
cascade_activation_steepnesses=2.50000000000000000000e-01 5.00000000000000000000e-01 7.50000000000000000000e-01 1.00000000000000000000e+00 
layer_sizes=15 4 2 
scale_included=0
neurons (num_inputs, activation_function, activation_steepness)=(0, 0, 0.00000000000000000000e+00) (0, 0, 0.00000000000000000000e+00) (0, 0, 0.00000000000000000000e+00) (0, 0, 0.00000000000000000000e+00) (0, 0, 0.00000000000000000000e+00) (0, 0, 0.00000000000000000000e+00) (0, 0, 0.00000000000000000000e+00) (0, 0, 0.00000000000000000000e+00) (0, 0, 0.00000000000000000000e+00) (0, 0, 0.00000000000000000000e+00) (0, 0, 0.00000000000000000000e+00) (0, 0, 0.00000000000000000000e+00) (0, 0, 0.00000000000000000000e+00) (0, 0, 0.00000000000000000000e+00) (0, 0, 0.00000000000000000000e+00) (15, 6, 5.00000000000000000000e-01) (15, 6, 5.00000000000000000000e-01) (15, 6, 5.00000000000000000000e-01) (0, 6, 0.00000000000000000000e+00) (4, 4, 5.00000000000000000000e-01) (0, 4, 0.00000000000000000000e+00) 
connections (connected_to_neuron, weight)=(0, -2.23773886109725728133e+00) (1, 2.18303963718403037930e+00) (2, 3.83971867633882624204e+00) (3, -3.32293792111892560825e+00) (4, 9.42273154086935171847e+00) (5, -1.31291727234589217232e+00) (6, 1.93436372789083232959e+00) (7, 1.10188034360205389106e+01) (8, -1.89649241772164645070e+00) (9, 1.75068259336120402025e+00) (10, 2.35968350519379865826e-01) (11, 8.56071091861036914672e-01) (12, 1.29086820102305033231e+00) (13, 4.28423551472855201894e+00) (14, -2.83006988961044081421e+00) (0, 1.90002408051975035796e+00) (1, -5.36381080500304197045e-01) (2, -3.01118882276059496306e+00) (3, 2.17552271876697922437e+00) (4, -8.46935505141067523915e-01) (5, 9.81620966459832988704e-01) (6, 1.87782896296929346924e+00) (7, -2.73595766528632045045e-02) (8, -4.86248259991802322943e-01) (9, -2.22631482326835206109e+00) (10, -1.01873586130229920599e+00) (11, -1.12442949991256613274e+00) (12, -1.15688791703016224943e+00) (13, -2.05462781253020221328e+00) (14, 3.73103398673749087067e+00) (0, 2.30916269399112472627e+00) (1, -2.71067968835590100696e+00) (2, -2.03673520142734076899e+00) (3, 2.17464900408153916089e+00) (4, -1.99869187647949475561e+00) (5, 6.91016384872976230369e-01) (6, 3.38618390381105194287e-01) (7, -1.65618397400632888505e+00) (8, 1.83034644317426042903e+00) (9, -2.16909087741225770074e+00) (10, -4.69176135908243696626e-01) (11, -5.91826520811197798189e-01) (12, -5.14679104040739465731e-01) (13, -1.30773036167848122346e+00) (14, 2.65301753616786761825e+00) (15, 3.01988233199745037538e+00) (16, -1.07286552061363749111e+00) (17, -1.81607137839326284734e+01) (18, -1.45701586314632747232e+00) 
