FANN_FLO_2.1
num_layers=3
learning_rate=0.700000
connection_rate=1.000000
network_type=0
learning_momentum=0.000000
training_algorithm=2
train_error_function=1
train_stop_function=1
cascade_output_change_fraction=0.010000
quickprop_decay=-0.000100
quickprop_mu=1.750000
rprop_increase_factor=1.200000
rprop_decrease_factor=0.500000
rprop_delta_min=0.000000
rprop_delta_max=50.000000
rprop_delta_zero=0.100000
cascade_output_stagnation_epochs=12
cascade_candidate_change_fraction=0.010000
cascade_candidate_stagnation_epochs=12
cascade_max_out_epochs=150
cascade_min_out_epochs=50
cascade_max_cand_epochs=150
cascade_min_cand_epochs=50
cascade_num_candidate_groups=2
bit_fail_limit=1.00000000000000005551e-01
cascade_candidate_limit=1.00000000000000000000e+03
cascade_weight_multiplier=4.00000000000000022204e-01
cascade_activation_functions_count=10
cascade_activation_functions=3 5 7 8 10 11 14 15 16 17 
cascade_activation_steepnesses_count=4
cascade_activation_steepnesses=2.50000000000000000000e-01 5.00000000000000000000e-01 7.50000000000000000000e-01 1.00000000000000000000e+00 
layer_sizes=20 4 2 
scale_included=0
neurons (num_inputs, activation_function, activation_steepness)=(0, 0, 0.00000000000000000000e+00) (0, 0, 0.00000000000000000000e+00) (0, 0, 0.00000000000000000000e+00) (0, 0, 0.00000000000000000000e+00) (0, 0, 0.00000000000000000000e+00) (0, 0, 0.00000000000000000000e+00) (0, 0, 0.00000000000000000000e+00) (0, 0, 0.00000000000000000000e+00) (0, 0, 0.00000000000000000000e+00) (0, 0, 0.00000000000000000000e+00) (0, 0, 0.00000000000000000000e+00) (0, 0, 0.00000000000000000000e+00) (0, 0, 0.00000000000000000000e+00) (0, 0, 0.00000000000000000000e+00) (0, 0, 0.00000000000000000000e+00) (0, 0, 0.00000000000000000000e+00) (0, 0, 0.00000000000000000000e+00) (0, 0, 0.00000000000000000000e+00) (0, 0, 0.00000000000000000000e+00) (0, 0, 0.00000000000000000000e+00) (20, 6, 5.00000000000000000000e-01) (20, 6, 5.00000000000000000000e-01) (20, 6, 5.00000000000000000000e-01) (0, 6, 0.00000000000000000000e+00) (4, 4, 5.00000000000000000000e-01) (0, 4, 0.00000000000000000000e+00) 
connections (connected_to_neuron, weight)=(0, -1.00884576788285915683e+01) (1, 5.65786579976077348419e+01) (2, -9.57532889051852542650e+00) (3, 3.82688223631597468355e+00) (4, -5.61639722180938427698e+00) (5, 3.27137718873628813299e+01) (6, 7.72983165936405569596e+00) (7, -4.36777484407767602193e+00) (8, -2.36510602702692942501e+01) (9, 5.86579193004449805926e+00) (10, 3.92025892609109893883e+00) (11, -1.59820409114972250553e-01) (12, 1.01238392268663659479e+01) (13, 1.03426424191687509335e+01) (14, 4.30541290774013596376e+00) (15, 1.13916333038445287684e+01) (16, 1.12113634394143257822e+01) (17, -2.98559421645682085966e+01) (18, -3.39520160407406450531e+01) (19, -4.97298934970163664104e+00) (0, 1.14151252103264440052e+01) (1, -1.71503461296364645428e+00) (2, 3.51065568008710755521e+01) (3, 1.42151318495885736759e+00) (4, 1.03852339770221169601e+03) (5, 1.31112267711474805765e+03) (6, 1.32218399234676371634e+03) (7, 3.64663372268040575364e-01) (8, 7.95700542645755461990e+01) (9, -9.44627857780535595822e-02) (10, -5.51264279954718176668e+02) (11, 1.69413048565923077149e+02) (12, 1.41438923878962896197e+03) (13, -9.31033225141340153863e-02) (14, 1.69574372714612042756e+00) (15, -8.66149889516681786850e-02) (16, -1.14813865836334100257e-01) (17, -1.54824287175175112630e+00) (18, 3.04537289044607639710e+00) (19, -2.29679780719969439673e+00) (0, -1.18495799001184778376e+01) (1, -1.34014551818828611118e+01) (2, 2.71712679208602594372e+02) (3, -6.43391979447611639387e+00) (4, -1.32269362335081890336e+01) (5, 2.72976357948908621154e+01) (6, 5.92902326534651180623e+00) (7, 9.42072475670673270542e+01) (8, 4.05728913594004779952e+02) (9, 4.69857943845422369122e+02) (10, 5.35399159328904339361e+00) (11, -9.70027304367938292273e+00) (12, -3.23314800417303205293e+00) (13, 5.49307176095033700136e+00) (14, -8.02117893634480938481e-01) (15, 5.41144863092155858908e+00) (16, 5.46944860286010392514e+00) (17, 2.97329724499903349511e+01) (18, 2.15814531884731870548e+01) (19, 6.70743699117073965965e+00) (20, 1.08185183793789967410e+01) (21, 8.14463362836704085623e+00) (22, 5.59792459380662865698e+00) (23, -8.41032343254077652261e+00) 
