FANN_FLO_2.1
num_layers=3
learning_rate=0.700000
connection_rate=1.000000
network_type=0
learning_momentum=0.000000
training_algorithm=2
train_error_function=1
train_stop_function=1
cascade_output_change_fraction=0.010000
quickprop_decay=-0.000100
quickprop_mu=1.750000
rprop_increase_factor=1.200000
rprop_decrease_factor=0.500000
rprop_delta_min=0.000000
rprop_delta_max=50.000000
rprop_delta_zero=0.100000
cascade_output_stagnation_epochs=12
cascade_candidate_change_fraction=0.010000
cascade_candidate_stagnation_epochs=12
cascade_max_out_epochs=150
cascade_min_out_epochs=50
cascade_max_cand_epochs=150
cascade_min_cand_epochs=50
cascade_num_candidate_groups=2
bit_fail_limit=1.00000000000000005551e-01
cascade_candidate_limit=1.00000000000000000000e+03
cascade_weight_multiplier=4.00000000000000022204e-01
cascade_activation_functions_count=10
cascade_activation_functions=3 5 7 8 10 11 14 15 16 17 
cascade_activation_steepnesses_count=4
cascade_activation_steepnesses=2.50000000000000000000e-01 5.00000000000000000000e-01 7.50000000000000000000e-01 1.00000000000000000000e+00 
layer_sizes=8 4 2 
scale_included=0
neurons (num_inputs, activation_function, activation_steepness)=(0, 0, 0.00000000000000000000e+00) (0, 0, 0.00000000000000000000e+00) (0, 0, 0.00000000000000000000e+00) (0, 0, 0.00000000000000000000e+00) (0, 0, 0.00000000000000000000e+00) (0, 0, 0.00000000000000000000e+00) (0, 0, 0.00000000000000000000e+00) (0, 0, 0.00000000000000000000e+00) (8, 6, 5.00000000000000000000e-01) (8, 6, 5.00000000000000000000e-01) (8, 6, 5.00000000000000000000e-01) (0, 6, 0.00000000000000000000e+00) (4, 4, 5.00000000000000000000e-01) (0, 4, 0.00000000000000000000e+00) 
connections (connected_to_neuron, weight)=(0, 2.18781340378070010555e-01) (1, 9.29318773495845640298e+00) (2, 1.68337753520600474921e+00) (3, -2.28757279291896153950e+00) (4, 3.30754067398978435222e+00) (5, 1.69577279560583127349e+00) (6, -2.27101911487432772674e+00) (7, -1.55768683783236738805e+00) (0, 3.67394017215902202178e-01) (1, 7.90197613125610587304e+00) (2, 1.65383927629582561103e+00) (3, -2.14101223369394588758e+00) (4, 6.80072865691669292687e+00) (5, 1.70386309795396817535e+00) (6, -2.15766653054649504284e+00) (7, -1.13928251374625078007e+00) (0, -2.27058335174741887652e-01) (1, 4.44828918947218543423e+00) (2, 1.22604640028196709700e-01) (3, 1.47375475687849597506e+01) (4, -1.21100352588764725859e+00) (5, 3.72860225406830114725e-01) (6, 1.16748274136510428178e+01) (7, -3.73910499278990071659e+00) (8, 3.59587713787945162380e+00) (9, 4.22051298583627509942e+00) (10, 6.03010833132182000327e+00) (11, -6.42625421556607179241e+00) 
