FANN_FLO_2.1
num_layers=3
learning_rate=0.700000
connection_rate=1.000000
network_type=0
learning_momentum=0.000000
training_algorithm=2
train_error_function=1
train_stop_function=1
cascade_output_change_fraction=0.010000
quickprop_decay=-0.000100
quickprop_mu=1.750000
rprop_increase_factor=1.200000
rprop_decrease_factor=0.500000
rprop_delta_min=0.000000
rprop_delta_max=50.000000
rprop_delta_zero=0.100000
cascade_output_stagnation_epochs=12
cascade_candidate_change_fraction=0.010000
cascade_candidate_stagnation_epochs=12
cascade_max_out_epochs=150
cascade_min_out_epochs=50
cascade_max_cand_epochs=150
cascade_min_cand_epochs=50
cascade_num_candidate_groups=2
bit_fail_limit=1.00000000000000005551e-01
cascade_candidate_limit=1.00000000000000000000e+03
cascade_weight_multiplier=4.00000000000000022204e-01
cascade_activation_functions_count=10
cascade_activation_functions=3 5 7 8 10 11 14 15 16 17 
cascade_activation_steepnesses_count=4
cascade_activation_steepnesses=2.50000000000000000000e-01 5.00000000000000000000e-01 7.50000000000000000000e-01 1.00000000000000000000e+00 
layer_sizes=9 11 2 
scale_included=0
neurons (num_inputs, activation_function, activation_steepness)=(0, 0, 0.00000000000000000000e+00) (0, 0, 0.00000000000000000000e+00) (0, 0, 0.00000000000000000000e+00) (0, 0, 0.00000000000000000000e+00) (0, 0, 0.00000000000000000000e+00) (0, 0, 0.00000000000000000000e+00) (0, 0, 0.00000000000000000000e+00) (0, 0, 0.00000000000000000000e+00) (0, 0, 0.00000000000000000000e+00) (9, 6, 5.00000000000000000000e-01) (9, 6, 5.00000000000000000000e-01) (9, 6, 5.00000000000000000000e-01) (9, 6, 5.00000000000000000000e-01) (9, 6, 5.00000000000000000000e-01) (9, 6, 5.00000000000000000000e-01) (9, 6, 5.00000000000000000000e-01) (9, 6, 5.00000000000000000000e-01) (9, 6, 5.00000000000000000000e-01) (9, 6, 5.00000000000000000000e-01) (0, 6, 0.00000000000000000000e+00) (11, 6, 5.00000000000000000000e-01) (0, 6, 0.00000000000000000000e+00) 
connections (connected_to_neuron, weight)=(0, 1.20560263790059596367e+00) (1, 4.20713394735883705611e-01) (2, 4.09820198868345253462e-01) (3, 3.90958789591621391768e-01) (4, 4.77014370118211739058e-01) (5, 3.53943159946689078765e+00) (6, -1.25237682192991717223e+00) (7, 7.71981212039737685338e-01) (8, 2.43599368112748987381e-01) (0, -1.07264696290738936746e+00) (1, -3.50008649490439749385e-01) (2, -3.06516883633696834988e-01) (3, -4.25841515622699118282e-01) (4, -4.41261997185313559200e-01) (5, 8.94236535310296343226e-01) (6, 2.93982812676590743450e+00) (7, 2.77338593860142923475e-01) (8, -5.63589182148787393167e-01) (0, 1.20648731984067469902e+00) (1, 4.76302720461915962691e-01) (2, 3.55885103200506203169e-01) (3, 4.61498804246019356246e-01) (4, 3.93829449866842262740e-01) (5, 3.49859279164561698394e+00) (6, -1.96945280996682092756e+00) (7, 1.35674302755199427395e+00) (8, 1.97048627788973723662e-01) (0, 7.46879065077365678071e-01) (1, -2.04452711589680619086e-01) (2, -2.05879810698376602973e-01) (3, -2.16067689903126664008e-01) (4, -1.13083239145623098976e-01) (5, 3.32417252276298746949e+00) (6, -2.92218316633160113405e-01) (7, 1.20290920630993825036e+00) (8, 3.93749517152409356235e-01) (0, -1.24492364092754409510e-01) (1, 5.81682017293042363804e-01) (2, 6.16044236567086400669e-01) (3, 7.30244761552876542332e-01) (4, 5.60775904204911412876e-01) (5, 2.09516461959380617674e-02) (6, 7.46742230179241461840e-01) (7, 2.21280712494750497754e+00) (8, 6.22102015322448465007e-01) (0, -1.25641403242261695539e-01) (1, -2.73965590292353622370e-01) (2, -3.18455927664179849756e-01) (3, -2.90389903479952804499e-01) (4, -3.81711438888449716700e-01) (5, 1.08730315622175743862e+00) (6, 1.74751439471879432830e+00) (7, 2.82379363001860506088e-01) (8, -8.55233570379248186910e-01) (0, 1.25782066252917235083e+00) (1, 5.11241962183296982936e-01) (2, 5.67063619364083115748e-01) (3, 4.39139452744305214260e-01) (4, 5.19144718516648229212e-01) (5, 6.86566773128101814905e+00) (6, -4.91116622412813086385e+00) (7, 1.94314252551516519762e-01) (8, 1.29069469644553902477e-01) (0, -1.05429367950208541238e+00) (1, -4.12159068248832083370e-01) (2, -3.55040421448314047481e-01) (3, -4.03294356278741217281e-01) (4, -3.31942019723021786159e-01) (5, 8.78395629354063789407e-01) (6, 2.93686011347931685833e+00) (7, 3.89146165783190278731e-01) (8, -5.29585909496161355570e-01) (0, 1.47192640119449151825e+01) (1, 5.21482332255709835067e-01) (2, 4.86594362761843535203e-01) (3, 5.84486587550509417710e-01) (4, 5.60638597812521899399e-01) (5, -5.51303881836384590542e+00) (6, -1.63944891558032512791e+00) (7, -9.70736233792963809641e-01) (8, 1.41281149401832295531e+00) (0, 3.70668894986377950307e-01) (1, 7.05456050803760170709e-01) (2, 7.51301335861781716119e-01) (3, 7.55358385613063454400e-01) (4, 6.60916491171220421563e-01) (5, -1.41277022075344826924e+00) (6, 2.08864248238011807057e-01) (7, 9.14513409525582798842e-01) (8, 1.18213379928364759053e+00) (9, 4.96665700594399017742e-01) (10, 5.30772941731362468687e-01) (11, 5.23057758132431716014e-01) (12, -1.69985049272548788268e-01) (13, -1.60788902363408342522e-01) (14, 5.36058268392035963679e-01) (15, 5.72019847757824329015e-01) (16, 5.83268276028781063047e-01) (17, -2.41056802404355091651e-01) (18, -2.24164181670773704491e-01) (19, 5.40484946610917837972e-01) 
