FANN_FLO_2.1
num_layers=3
learning_rate=0.700000
connection_rate=1.000000
network_type=0
learning_momentum=0.000000
training_algorithm=2
train_error_function=1
train_stop_function=1
cascade_output_change_fraction=0.010000
quickprop_decay=-0.000100
quickprop_mu=1.750000
rprop_increase_factor=1.200000
rprop_decrease_factor=0.500000
rprop_delta_min=0.000000
rprop_delta_max=50.000000
rprop_delta_zero=0.100000
cascade_output_stagnation_epochs=12
cascade_candidate_change_fraction=0.010000
cascade_candidate_stagnation_epochs=12
cascade_max_out_epochs=150
cascade_min_out_epochs=50
cascade_max_cand_epochs=150
cascade_min_cand_epochs=50
cascade_num_candidate_groups=2
bit_fail_limit=1.00000000000000005551e-01
cascade_candidate_limit=1.00000000000000000000e+03
cascade_weight_multiplier=4.00000000000000022204e-01
cascade_activation_functions_count=10
cascade_activation_functions=3 5 7 8 10 11 14 15 16 17 
cascade_activation_steepnesses_count=4
cascade_activation_steepnesses=2.50000000000000000000e-01 5.00000000000000000000e-01 7.50000000000000000000e-01 1.00000000000000000000e+00 
layer_sizes=16 11 2 
scale_included=0
neurons (num_inputs, activation_function, activation_steepness)=(0, 0, 0.00000000000000000000e+00) (0, 0, 0.00000000000000000000e+00) (0, 0, 0.00000000000000000000e+00) (0, 0, 0.00000000000000000000e+00) (0, 0, 0.00000000000000000000e+00) (0, 0, 0.00000000000000000000e+00) (0, 0, 0.00000000000000000000e+00) (0, 0, 0.00000000000000000000e+00) (0, 0, 0.00000000000000000000e+00) (0, 0, 0.00000000000000000000e+00) (0, 0, 0.00000000000000000000e+00) (0, 0, 0.00000000000000000000e+00) (0, 0, 0.00000000000000000000e+00) (0, 0, 0.00000000000000000000e+00) (0, 0, 0.00000000000000000000e+00) (0, 0, 0.00000000000000000000e+00) (16, 6, 5.00000000000000000000e-01) (16, 6, 5.00000000000000000000e-01) (16, 6, 5.00000000000000000000e-01) (16, 6, 5.00000000000000000000e-01) (16, 6, 5.00000000000000000000e-01) (16, 6, 5.00000000000000000000e-01) (16, 6, 5.00000000000000000000e-01) (16, 6, 5.00000000000000000000e-01) (16, 6, 5.00000000000000000000e-01) (16, 6, 5.00000000000000000000e-01) (0, 6, 0.00000000000000000000e+00) (11, 6, 5.00000000000000000000e-01) (0, 6, 0.00000000000000000000e+00) 
connections (connected_to_neuron, weight)=(0, -2.41729124373473602816e-01) (1, -8.74804661197641220127e-02) (2, -8.67339775485971298252e-02) (3, -1.88539485685346369648e-01) (4, -8.98216993136384811436e-02) (5, 6.48014706822447439372e-01) (6, 6.35468741218475630106e-01) (7, -1.56423845475951756034e-01) (8, 2.07772835021016705204e-01) (9, 8.50742271017997153670e-01) (10, 7.30448841120577063712e-01) (11, 7.01058968109493974019e-01) (12, 3.15742161252470177057e-01) (13, 2.65029290795699612460e+00) (14, 6.39997604306484890735e-01) (15, 2.30235326382222188490e-01) (0, 4.19790730375970089217e-01) (1, -1.52314366289456104564e-01) (2, -1.83954899647314706890e-01) (3, -5.26681146407915398711e-02) (4, -1.90258344152052560894e-01) (5, 5.34907797849251409605e-02) (6, -1.15849975605547703128e-01) (7, 3.00628105094971453948e-01) (8, -1.92742260570402756947e+00) (9, 9.64011213449487563976e-02) (10, 8.42235290662923935523e-02) (11, -7.57533792821001195072e-01) (12, 6.34923726929893100790e-02) (13, -1.86322343573064097555e-01) (14, -1.45219084576178464330e-01) (15, -3.89274051907057661026e-01) (0, 9.74519215195371479865e+00) (1, 3.18377078826038051318e-01) (2, 4.43322458619682002734e-01) (3, 4.47689810151664424609e-01) (4, 4.49180090183822322558e-01) (5, -2.65252749416914390679e+00) (6, -1.52396057739628232319e+00) (7, 3.04128481864919697486e-01) (8, 1.55671366057623855594e-01) (9, -6.07073112003366599509e+00) (10, 2.77597499835860239692e-01) (11, -8.89058796974050769002e-01) (12, -5.52966308610540213664e+00) (13, -1.22117266490285358849e+00) (14, -1.61651557629826703177e+00) (15, 2.01598364752558190105e+00) (0, 9.83996767221881718513e+00) (1, 4.41964935899952393594e-01) (2, 3.29876970888355713907e-01) (3, 4.14091777445057374063e-01) (4, 4.20409631372669678750e-01) (5, -9.81801752362876256619e-01) (6, -1.19397171780997379820e+00) (7, 2.83623878944959495474e-01) (8, -3.06312746549268588581e+00) (9, -5.36654490330797351305e+00) (10, -6.87820715616957178984e-02) (11, -7.92776805112988758317e-01) (12, -4.84497798086050579514e+00) (13, -9.47879263507865776894e-01) (14, -6.30041947469819230143e-01) (15, 7.01113153587559545521e-01) (0, -5.80550478526243030064e-02) (1, -2.13623863692620874488e-01) (2, -2.69576386596301786902e-01) (3, -1.78943065042832971656e-01) (4, -2.66055272008517973426e-01) (5, 3.42625335283869070224e-01) (6, 3.07554544615955438580e-01) (7, 1.64996028306085562587e-01) (8, -1.01399939374036076600e+01) (9, 8.74740241555976738574e-01) (10, 5.65315372372744540108e-01) (11, 3.05956349804655559910e-02) (12, -1.35150547227594497457e+00) (13, 4.94845029727898677585e-01) (14, 5.43433847749806409055e-01) (15, 5.71310557555500864169e-01) (0, 7.76353813928211788919e-01) (1, -2.04081194703532281531e-01) (2, -5.76121902513037284499e-02) (3, -1.82630973164988580359e-01) (4, -1.28686407809210839881e-01) (5, -9.48302784207768062474e-02) (6, -7.95086431747542010662e-01) (7, 4.18377139918836460364e-01) (8, -2.95212750299690318556e+00) (9, -1.46191412419357236185e-01) (10, -1.96606856087183812232e-01) (11, -6.76298758488970142011e-01) (12, 3.40964050206180174785e-02) (13, -7.58954398563094545516e-01) (14, -1.94794610843468579686e-01) (15, 1.64252045859150846985e-01) (0, 9.74837474196149678107e+00) (1, 3.60937841272655490776e-01) (2, 4.70124416089359287163e-01) (3, 3.49617518520656589409e-01) (4, 4.27687861061397556206e-01) (5, -1.30235431718705529924e+00) (6, -1.39590713671239474714e+00) (7, 3.75167861366799748613e-01) (8, -7.53509126620548030928e-01) (9, -5.47322528535109587011e+00) (10, -1.20028522263260925551e-01) (11, -8.08649814194902227804e-01) (12, -5.06456345123017914744e+00) (13, -1.22741213885214905943e+00) (14, -1.41948083270105351872e+00) (15, 1.29014167971884474717e+00) (0, -3.82168731743340317486e-01) (1, 2.15296886524372177441e-01) (2, 1.88665948471241073925e-01) (3, 1.70600443741493301708e-01) (4, 1.55965901574306564648e-01) (5, 9.26350631870292290371e-02) (6, 5.26665018680882890401e-01) (7, -2.00803030255448461405e-01) (8, -2.48532910994050254549e-01) (9, 1.36620525764148709191e-01) (10, 1.77149310802872750337e+00) (11, -2.00542038970700151057e-02) (12, 4.48784628546547104122e-01) (13, 6.58978441752729043879e-02) (14, 3.02355443991207561982e-01) (15, -1.02811472987106633514e-01) (0, -1.43143263620961608273e-01) (1, -1.95471471607483598953e-01) (2, -1.84206782340801927811e-01) (3, -2.37919697969950466598e-01) (4, -1.79635478615559313065e-01) (5, 5.75884436700989543745e-01) (6, 4.02463958068461247208e-01) (7, 1.39234345918375745921e-01) (8, -2.30625998221513057729e+01) (9, 8.81767186177123796220e-01) (10, 8.87561284096758940088e-01) (11, 5.15801390241591994901e-01) (12, 1.54625462201636776349e+00) (13, 7.61805941708222800202e-01) (14, 4.63176230812645972623e-01) (15, 5.95775997412684943377e-01) (0, -7.78450519488868786233e-01) (1, -3.59235682425143698637e-01) (2, -2.19258398649337299391e-01) (3, -2.12393806216361474837e-01) (4, -3.51156302628161887114e-01) (5, 1.76720776666120626963e-01) (6, -9.61094435795937646061e-02) (7, -1.79253698804529210120e-01) (8, 2.07928831622542942270e-01) (9, 3.88369782825416787198e-01) (10, 1.71264139870001774746e-01) (11, -3.46943290093585099410e-01) (12, -1.66686151669416489085e+01) (13, 4.04576914305078805256e-01) (14, 5.41382563027920316046e-01) (15, 4.94298786533139355992e-01) (16, 4.93932779433992275031e-01) (17, 3.00045662627464959638e-01) (18, -4.41805021144954623846e-01) (19, -2.90914659080806214941e-01) (20, -2.99613987477761245515e-01) (21, 3.62374597296959588544e-01) (22, -3.27560329637789748869e-01) (23, 2.76923791442239386473e-01) (24, -3.86456997636196453172e-01) (25, -3.09478273066025766358e-01) (26, 7.53243047786549824174e-01) 
