FANN_FLO_2.1
num_layers=3
learning_rate=0.700000
connection_rate=1.000000
network_type=0
learning_momentum=0.000000
training_algorithm=2
train_error_function=1
train_stop_function=1
cascade_output_change_fraction=0.010000
quickprop_decay=-0.000100
quickprop_mu=1.750000
rprop_increase_factor=1.200000
rprop_decrease_factor=0.500000
rprop_delta_min=0.000000
rprop_delta_max=50.000000
rprop_delta_zero=0.100000
cascade_output_stagnation_epochs=12
cascade_candidate_change_fraction=0.010000
cascade_candidate_stagnation_epochs=12
cascade_max_out_epochs=150
cascade_min_out_epochs=50
cascade_max_cand_epochs=150
cascade_min_cand_epochs=50
cascade_num_candidate_groups=2
bit_fail_limit=1.00000000000000005551e-01
cascade_candidate_limit=1.00000000000000000000e+03
cascade_weight_multiplier=4.00000000000000022204e-01
cascade_activation_functions_count=10
cascade_activation_functions=3 5 7 8 10 11 14 15 16 17 
cascade_activation_steepnesses_count=4
cascade_activation_steepnesses=2.50000000000000000000e-01 5.00000000000000000000e-01 7.50000000000000000000e-01 1.00000000000000000000e+00 
layer_sizes=16 11 2 
scale_included=0
neurons (num_inputs, activation_function, activation_steepness)=(0, 0, 0.00000000000000000000e+00) (0, 0, 0.00000000000000000000e+00) (0, 0, 0.00000000000000000000e+00) (0, 0, 0.00000000000000000000e+00) (0, 0, 0.00000000000000000000e+00) (0, 0, 0.00000000000000000000e+00) (0, 0, 0.00000000000000000000e+00) (0, 0, 0.00000000000000000000e+00) (0, 0, 0.00000000000000000000e+00) (0, 0, 0.00000000000000000000e+00) (0, 0, 0.00000000000000000000e+00) (0, 0, 0.00000000000000000000e+00) (0, 0, 0.00000000000000000000e+00) (0, 0, 0.00000000000000000000e+00) (0, 0, 0.00000000000000000000e+00) (0, 0, 0.00000000000000000000e+00) (16, 6, 5.00000000000000000000e-01) (16, 6, 5.00000000000000000000e-01) (16, 6, 5.00000000000000000000e-01) (16, 6, 5.00000000000000000000e-01) (16, 6, 5.00000000000000000000e-01) (16, 6, 5.00000000000000000000e-01) (16, 6, 5.00000000000000000000e-01) (16, 6, 5.00000000000000000000e-01) (16, 6, 5.00000000000000000000e-01) (16, 6, 5.00000000000000000000e-01) (0, 6, 0.00000000000000000000e+00) (11, 6, 5.00000000000000000000e-01) (0, 6, 0.00000000000000000000e+00) 
connections (connected_to_neuron, weight)=(0, 2.98249768274718185523e+00) (1, 3.21446181050680790392e-01) (2, 2.74352171234034158953e-01) (3, 3.43931392542265568224e-01) (4, 3.63306292108439121691e-01) (5, 4.34140301039072973310e+00) (6, 1.27064574866451707180e+01) (7, 3.07014185335838840629e+00) (8, -5.86304999693156747576e-01) (9, 4.83849651890288114942e+01) (10, -7.55706799507332771526e-01) (11, -1.18698167980159086099e+00) (12, -4.15008966111333407745e-02) (13, -3.28393890668597865368e-01) (14, 1.55069932063017063228e+02) (15, -2.27765428444580031453e-01) (0, 1.26157288606671293962e+01) (1, 3.62640711044798780271e-01) (2, 3.82007437324057508299e-01) (3, 4.90283700203429040343e-01) (4, 3.59680349504481244871e-01) (5, -2.88549507457185727688e+00) (6, -7.29236549238742925994e-01) (7, -6.78456617039539855440e-01) (8, -1.10986435483182588335e+00) (9, -2.14458205430037818218e+00) (10, -1.00045239770608618279e+00) (11, -5.80794405531485202765e-01) (12, -9.88202600355830962364e-01) (13, -1.42522421532153309442e+00) (14, -8.96066260549742699126e-01) (15, -2.40713772436274370259e-01) (0, 1.25917938108948668230e+01) (1, 4.37102854390243877880e-01) (2, 4.73288670320610393993e-01) (3, 4.86516595025162090771e-01) (4, 5.25846012075046775891e-01) (5, -4.11109591298826870798e+00) (6, -6.55894483648133075349e-01) (7, -7.38490996316206294026e-01) (8, -1.20338119288580758237e+00) (9, -3.07658763126006284949e+00) (10, -1.21862492791216703303e+00) (11, -6.02780093037489916874e-01) (12, 4.19039322200707775590e-01) (13, -6.52765296095960789735e-01) (14, -1.91482088453409593498e+00) (15, 1.20423794594622421417e-01) (0, 4.11372397461631678084e+00) (1, 4.06807769653492135031e-01) (2, 4.07105591711692971213e-01) (3, 3.85281008300476346395e-01) (4, 3.25621206876926694296e-01) (5, -3.58983581789129990725e+00) (6, -5.96728144900082413393e-01) (7, -9.68687824361647131788e-01) (8, -5.94203232854650709172e-01) (9, -2.53305041478067671790e+00) (10, -1.46652740695952932271e+00) (11, -8.84892394169440987817e-01) (12, -2.59047913262182905036e-01) (13, -1.62734707679773804578e+00) (14, 3.24665545356432883040e-01) (15, -8.83169089119892336548e-02) (0, -2.53259018619081066603e-01) (1, -2.52334327482513331997e-01) (2, -1.66278624021343107708e-01) (3, -1.96325649552873487957e-01) (4, -1.29109279298118467816e-01) (5, -4.35984468580767003942e+00) (6, -9.97707986260769175146e+00) (7, 3.85933231186455394379e+00) (8, -1.18918513683600596265e-01) (9, -4.65480231555114656317e+01) (10, -4.82257235135216885680e-02) (11, 6.02257515449916569494e-01) (12, 5.73810363779503229686e-01) (13, 7.36909229890299055654e-01) (14, -6.11939756362479343466e+01) (15, -1.42408304933195756226e-01) (0, -8.56656589109677513161e-02) (1, -1.91385318269934517899e-01) (2, -9.27449881341122217560e-02) (3, -1.64439563384260994949e-01) (4, -1.81881242176499230423e-01) (5, -1.69357510056081750349e+00) (6, -1.12055110087098324101e+01) (7, 2.47571024015167351351e+00) (8, -2.46839623015309284071e+00) (9, -1.07777191458244075761e+02) (10, -4.29594659898570319090e-01) (11, 3.00057077459844279144e-01) (12, 3.37691216058846055414e-01) (13, 2.38393262878643291680e-01) (14, -1.40996144371096818304e+02) (15, -3.42356597321801167655e-02) (0, 4.13775774458148770663e+00) (1, 4.79651896317676296189e-01) (2, 3.91875231673196655624e-01) (3, 3.66508072276786667221e-01) (4, 3.66905642708019119613e-01) (5, -4.58101686468950841657e+00) (6, -6.57889397641830409036e-01) (7, -1.07788710986884916920e+00) (8, -6.06944155125360929048e-01) (9, -2.61174782310717290557e+00) (10, -8.40078246387931049100e-01) (11, -6.92348880096546159812e-01) (12, 3.16379316893414641587e-01) (13, -2.27221275748118856086e+00) (14, -9.89130961538950748135e-01) (15, 8.76216912882591264511e-02) (0, 2.80981402112015610228e+00) (1, 4.11692468564034297351e-01) (2, 2.28799378613949555561e-01) (3, 2.38545915226460236713e-01) (4, 3.13971800844193293933e-01) (5, 4.44719051858040881342e+00) (6, 1.28181122711755719479e+01) (7, 2.99861075874769733574e+00) (8, -5.07935032053710378008e-01) (9, 4.83373351695428610242e+01) (10, -7.76615654409123390423e-01) (11, -1.77322027615264010691e+00) (12, -2.19235018291393080059e-01) (13, -9.72974485554714774160e-01) (14, 1.55070718263182811825e+02) (15, -2.38092166155236345526e-01) (0, 2.99956087204509636024e+00) (1, 4.09864582828425083605e-01) (2, 3.41343656889341984240e-01) (3, 2.95090489796541843859e-01) (4, 2.70079944989822962054e-01) (5, 3.75817179855784289089e+00) (6, 1.27251472568966832455e+01) (7, 2.99372904520833538200e+00) (8, -5.36163277729274190264e-01) (9, 4.82873344870696783460e+01) (10, -8.17301915317965477215e-01) (11, -1.16702589571917814126e+00) (12, -2.20692500867763319317e-01) (13, -3.34961979796138453747e-01) (14, 1.55059817497525386898e+02) (15, -2.35163333436683608113e-01) (0, -1.50391017021852957392e+00) (1, -9.08362098585579480492e-02) (2, -2.31085827256343218084e-01) (3, -4.26751055370781715026e-02) (4, -9.63055469643089856469e-02) (5, 1.73699337225888122971e-01) (6, 1.44139132914310774680e+00) (7, 9.42931121527305404761e-01) (8, 3.24038972128790014882e-01) (9, 2.53733613730807272546e+00) (10, 3.26553395509421306997e-01) (11, 7.54373418709442411512e-01) (12, 1.30809507936387792171e-01) (13, 2.92409680441419572716e-01) (14, 1.84043285195276995481e+00) (15, 3.16445410362255319381e-01) (16, 4.03732368215698578240e-01) (17, -3.85487361794479344024e-01) (18, -3.40019076114662144317e-01) (19, -3.65856434816619280337e-01) (20, -1.28807167623617102592e-01) (21, -9.41083149481336256326e-02) (22, -1.61236833967030840364e-01) (23, 4.28092488512176849724e-01) (24, 3.74270187183994629265e-01) (25, 6.82580665114187468134e-01) (26, 3.95343763648249801879e-01) 
