FANN_FLO_2.1
num_layers=3
learning_rate=0.700000
connection_rate=1.000000
network_type=0
learning_momentum=0.000000
training_algorithm=2
train_error_function=1
train_stop_function=1
cascade_output_change_fraction=0.010000
quickprop_decay=-0.000100
quickprop_mu=1.750000
rprop_increase_factor=1.200000
rprop_decrease_factor=0.500000
rprop_delta_min=0.000000
rprop_delta_max=50.000000
rprop_delta_zero=0.100000
cascade_output_stagnation_epochs=12
cascade_candidate_change_fraction=0.010000
cascade_candidate_stagnation_epochs=12
cascade_max_out_epochs=150
cascade_min_out_epochs=50
cascade_max_cand_epochs=150
cascade_min_cand_epochs=50
cascade_num_candidate_groups=2
bit_fail_limit=1.00000000000000005551e-01
cascade_candidate_limit=1.00000000000000000000e+03
cascade_weight_multiplier=4.00000000000000022204e-01
cascade_activation_functions_count=10
cascade_activation_functions=3 5 7 8 10 11 14 15 16 17 
cascade_activation_steepnesses_count=4
cascade_activation_steepnesses=2.50000000000000000000e-01 5.00000000000000000000e-01 7.50000000000000000000e-01 1.00000000000000000000e+00 
layer_sizes=25 11 2 
scale_included=0
neurons (num_inputs, activation_function, activation_steepness)=(0, 0, 0.00000000000000000000e+00) (0, 0, 0.00000000000000000000e+00) (0, 0, 0.00000000000000000000e+00) (0, 0, 0.00000000000000000000e+00) (0, 0, 0.00000000000000000000e+00) (0, 0, 0.00000000000000000000e+00) (0, 0, 0.00000000000000000000e+00) (0, 0, 0.00000000000000000000e+00) (0, 0, 0.00000000000000000000e+00) (0, 0, 0.00000000000000000000e+00) (0, 0, 0.00000000000000000000e+00) (0, 0, 0.00000000000000000000e+00) (0, 0, 0.00000000000000000000e+00) (0, 0, 0.00000000000000000000e+00) (0, 0, 0.00000000000000000000e+00) (0, 0, 0.00000000000000000000e+00) (0, 0, 0.00000000000000000000e+00) (0, 0, 0.00000000000000000000e+00) (0, 0, 0.00000000000000000000e+00) (0, 0, 0.00000000000000000000e+00) (0, 0, 0.00000000000000000000e+00) (0, 0, 0.00000000000000000000e+00) (0, 0, 0.00000000000000000000e+00) (0, 0, 0.00000000000000000000e+00) (0, 0, 0.00000000000000000000e+00) (25, 6, 5.00000000000000000000e-01) (25, 6, 5.00000000000000000000e-01) (25, 6, 5.00000000000000000000e-01) (25, 6, 5.00000000000000000000e-01) (25, 6, 5.00000000000000000000e-01) (25, 6, 5.00000000000000000000e-01) (25, 6, 5.00000000000000000000e-01) (25, 6, 5.00000000000000000000e-01) (25, 6, 5.00000000000000000000e-01) (25, 6, 5.00000000000000000000e-01) (0, 6, 0.00000000000000000000e+00) (11, 6, 5.00000000000000000000e-01) (0, 6, 0.00000000000000000000e+00) 
connections (connected_to_neuron, weight)=(0, 3.63250236863708955704e-02) (1, -4.95751871364271748388e-02) (2, -9.48278530137693920210e-02) (3, -1.36344060172334913261e-01) (4, -7.83795564072287120894e-02) (5, 1.05163355720107581232e-02) (6, 5.56835546927917784954e-02) (7, -6.22567934955643442763e-01) (8, -5.56611798111578681691e-01) (9, -3.48898558183626084084e-01) (10, 1.26075210430881301527e+00) (11, 1.43259059126247895177e-01) (12, 1.33804316440668191746e+00) (13, 1.99808783846885731905e-02) (14, 2.57399101719661405063e-01) (15, -5.36012585270308816732e-01) (16, 5.14577759110386168118e-01) (17, -5.06341432433648486189e-01) (18, 5.30119779377853150848e-01) (19, -6.99803344686723671764e-01) (20, 8.61426653123313346150e-02) (21, 1.03338763647873838059e-01) (22, -1.06335275295224351844e+00) (23, -4.36657862701619950418e-02) (24, -3.45636979437146663052e-02) (0, -1.75585841882395654601e+00) (1, -1.34167871118660742003e-01) (2, -6.87353002439697602366e-02) (3, -1.09432874859448275862e-01) (4, -1.95254797727938522733e-01) (5, -5.70229385529839039037e-01) (6, -3.90475435487680710978e-01) (7, 3.86604610955454508492e-01) (8, 2.64200232139683865995e+00) (9, 1.14487273713260950814e-01) (10, 1.99645721528265296385e+00) (11, -4.76772109340992344961e-01) (12, 9.75620561977123434971e-01) (13, -2.40363869386007150686e-01) (14, 2.86156076705236572799e-01) (15, 6.56609677815057635186e-01) (16, 1.59938851953969729536e+00) (17, -2.69280750306269744954e-01) (18, -1.90017871960418027744e-01) (19, -8.65063190863787564999e-03) (20, 9.72777738932994323617e-03) (21, -3.97357764519366551959e-01) (22, 2.07161587595100019077e-02) (23, 5.70936739311202409719e-02) (24, -5.82006718533033318153e-01) (0, 5.97499548484600850884e-01) (1, 6.06024006044512564273e-01) (2, 5.45930334961062246890e-01) (3, 5.81692846154814535709e-01) (4, 5.49868615007048422427e-01) (5, 2.09769938491438212580e+00) (6, 3.16461043286820620235e-01) (7, -8.19290385644317331604e-02) (8, 1.12734638641704929540e+01) (9, -1.17040548211972295078e+00) (10, -5.26391916599594988924e+00) (11, 5.17985958708831972785e+00) (12, -1.28789094495153033648e+01) (13, 5.04805332842123588577e-01) (14, 5.47844653860103281140e-01) (15, -1.73497927044773375682e-01) (16, 2.91753857478112166302e-01) (17, -7.99560371704782918423e-02) (18, 5.76731744709292337703e-01) (19, -3.50680951719271216671e-01) (20, 2.05542179428930138485e+00) (21, 1.76087018963869978982e+00) (22, -9.90359403481574224193e-02) (23, 5.00205935014249924997e-01) (24, 8.39598490671489616766e-01) (0, 1.17716584708268334758e+00) (1, 2.33885097709262690380e-01) (2, 3.49968838897312062297e-01) (3, 3.05649388042056935344e-01) (4, 3.42015120592677968059e-01) (5, 1.01875397140523773487e+01) (6, 1.51375223584064300120e+00) (7, -5.52915255417887774314e-01) (8, -1.24616006687503766415e+00) (9, -1.06254819184702986590e+00) (10, -3.73299342722235971692e+00) (11, 5.38984082598361280425e-01) (12, -7.16554892155271128118e-01) (13, 4.86653949426507415055e-01) (14, 2.23692193233416200537e-02) (15, -2.10897257989737507700e+00) (16, -3.79186613432730101891e+00) (17, 4.06067380184993265146e+00) (18, 6.32169720897387654723e-01) (19, 2.73393978888483935030e-01) (20, 6.22454603090289815270e+00) (21, 1.45696107601419733157e+00) (22, 1.41910060879351167529e+01) (23, 2.23428348852680008774e-01) (24, 4.24486285738332136397e-01) (0, 1.51225689128847795573e+00) (1, 4.02005809780752232374e-01) (2, 2.78040889140760472120e-01) (3, 3.41520171102678349317e-01) (4, 4.04164913531934677504e-01) (5, -2.27458589044102488241e-01) (6, 2.14914531419189425154e-01) (7, -1.52809895450150889928e-01) (8, -4.80230219019705728556e+00) (9, 6.26190367414954884850e+00) (10, 3.47974871040628297436e-01) (11, 6.28237580862774258605e+00) (12, 5.73726784786546417649e+00) (13, 7.13373339169582898478e-01) (14, 2.35686033933716093669e-01) (15, 2.02487998826280124476e+00) (16, -6.06736003018410352539e-01) (17, 5.42655183988838452080e+00) (18, 6.60122550682840447678e+00) (19, 1.19064057743817675039e-01) (20, 6.24985749348405583703e+00) (21, 6.26045897114833604924e-01) (22, -3.93407052230903664380e-01) (23, 1.55521568487958905536e+00) (24, 6.68885181365554193356e-01) (0, 1.29584164890496188888e-02) (1, -3.01151256098175328091e-02) (2, 8.63560532198523883585e-02) (3, 1.30033204423007947570e-01) (4, 8.67251102791404132608e-02) (5, 1.04942006708269719439e+00) (6, 1.56789745831006105403e-01) (7, -1.19289047083136612315e+00) (8, -7.96911315561763866633e-01) (9, -3.95882714117536893550e-01) (10, -7.37412734000715541782e+00) (11, 3.67512814001152710031e-01) (12, -2.31692671256471721675e-01) (13, 1.83656811445488843404e-01) (14, 1.09399527965730880563e-01) (15, -6.44346903631923040301e-01) (16, -2.12432873296372753957e-02) (17, -4.18703919942961189093e+00) (18, -5.78212292192276322567e-01) (19, -3.81703962954906217409e-01) (20, 1.87433955491126957860e-01) (21, 2.79146899980607221536e+00) (22, -2.05450033248847585554e+00) (23, 2.25067460066318725254e-01) (24, -6.79777303919528314013e-02) (0, 7.13642870914418525619e-02) (1, 8.59853688804806670642e-02) (2, 1.90690918657034691464e-01) (3, 2.08886294457167442928e-01) (4, 3.06469638077915551566e-02) (5, 1.40071600621367275963e+00) (6, 9.11428981415714489778e-02) (7, -5.10365446115671472782e-01) (8, -2.14467718444871380257e+00) (9, 2.57647757512890596132e-01) (10, -3.40661079330676042076e+00) (11, 9.92249416444413334659e-01) (12, -1.36092682349235327699e+00) (13, -2.43776957025375190513e-02) (14, 3.28177017890906794206e-02) (15, -1.29553444329493960829e+00) (16, -1.30664403795962913435e+00) (17, 1.59010095633875581100e+00) (18, 8.66734480439182219946e-01) (19, 1.04777284901686529306e-01) (20, 3.92761179593879072858e-01) (21, 3.38716129727579806641e-01) (22, -1.78616422965639176645e-01) (23, 1.01971542837402368020e-01) (24, 2.69411776642050404540e-01) (0, 9.45252912189071703430e-01) (1, 4.75993036390779777900e-01) (2, 6.03309876383779530862e-01) (3, 5.82653931440351491311e-01) (4, 4.42909746529100589729e-01) (5, 1.20162710106413550548e+00) (6, 2.84690057564051635097e-01) (7, 8.63695757974905636845e-02) (8, 1.85650331797984124993e-01) (9, 1.92837627924259485956e-01) (10, -5.38371559871902216621e-01) (11, -3.85256530975876643197e+00) (12, 7.98883358502938567547e-01) (13, -3.90552361960509186734e-01) (14, 9.53798488586545922807e-01) (15, 1.94891486292751492382e-01) (16, 6.03307918108071605801e-01) (17, 1.96089997992059290877e-03) (18, -3.91266084520193346830e-01) (19, 4.79609892672702597949e-01) (20, -1.64338052343109408682e+00) (21, -4.00894811216913815599e+00) (22, -2.23478128068789549943e+00) (23, 1.67712550887986616699e-01) (24, 8.88844226515631552488e-01) (0, 6.59835531403339947687e-01) (1, 4.98435401951914602847e-01) (2, 6.21893504297381216617e-01) (3, 5.77590958809500509830e-01) (4, 6.30192303692942434878e-01) (5, 2.48338271142436495253e+00) (6, 3.15942348766823977169e-01) (7, 1.22070987733576136192e-01) (8, 1.12710233743419063757e+01) (9, -1.17159484065215169224e+00) (10, -5.19059553895147463010e+00) (11, 5.34358967943498797126e+00) (12, -1.11678702199279307195e+01) (13, 4.81447598155208211779e-01) (14, 6.11134979358009089445e-01) (15, -1.03629091536537487617e-01) (16, 3.82857658965345071245e-01) (17, -9.98304372782623378191e-03) (18, 6.38048324289599344539e-01) (19, -4.23659319274549417411e-02) (20, 2.21045447000260208981e+00) (21, 1.81443179515179542349e+00) (22, -7.69866623272986577708e-02) (23, 5.94254308415414822520e-01) (24, 8.65535754779881427723e-01) (0, -1.18887743256012292647e+01) (1, -1.12300012310146603983e-02) (2, -9.77803338368534585845e-02) (3, -1.55610831459343318395e-01) (4, -1.21943706651508720906e-01) (5, -2.86782600489072669880e-01) (6, -1.24796527221153211173e-01) (7, 5.62044132778262151007e-01) (8, 3.42812233959283130247e+00) (9, 4.23723051960879282252e-01) (10, 2.55515138904788052798e+00) (11, 5.63480424857309869502e-01) (12, 3.53892124462919932526e+00) (13, -1.52754344758113558278e-01) (14, 1.23811101281548707753e+00) (15, 5.83650575898410628461e-01) (16, 2.20610180611782347171e+00) (17, 2.33424613355785848245e-01) (18, -2.81611539692338099308e-04) (19, 3.90972034832233916735e-01) (20, 1.80553174511487335430e-01) (21, -2.35287094615048680835e-01) (22, 6.06093953526190332148e-01) (23, 4.11628844309016195258e-01) (24, -4.49938998570832637824e+00) (25, -2.53146335144414924567e-01) (26, 7.14747083081899492463e-01) (27, 4.77442411829144888746e-02) (28, 4.44033472483269076037e-01) (29, 6.65463719392651587015e-01) (30, 5.88272741677768606916e-02) (31, -2.44102405046284415269e-01) (32, 5.28271609072489701370e-03) (33, 4.99246982980878148406e-02) (34, 7.98581841074241682854e-01) (35, 3.12531153912590620170e-01) 
