FANN_FLO_2.1
num_layers=3
learning_rate=0.700000
connection_rate=1.000000
network_type=0
learning_momentum=0.000000
training_algorithm=2
train_error_function=1
train_stop_function=1
cascade_output_change_fraction=0.010000
quickprop_decay=-0.000100
quickprop_mu=1.750000
rprop_increase_factor=1.200000
rprop_decrease_factor=0.500000
rprop_delta_min=0.000000
rprop_delta_max=50.000000
rprop_delta_zero=0.100000
cascade_output_stagnation_epochs=12
cascade_candidate_change_fraction=0.010000
cascade_candidate_stagnation_epochs=12
cascade_max_out_epochs=150
cascade_min_out_epochs=50
cascade_max_cand_epochs=150
cascade_min_cand_epochs=50
cascade_num_candidate_groups=2
bit_fail_limit=1.00000000000000005551e-01
cascade_candidate_limit=1.00000000000000000000e+03
cascade_weight_multiplier=4.00000000000000022204e-01
cascade_activation_functions_count=10
cascade_activation_functions=3 5 7 8 10 11 14 15 16 17 
cascade_activation_steepnesses_count=4
cascade_activation_steepnesses=2.50000000000000000000e-01 5.00000000000000000000e-01 7.50000000000000000000e-01 1.00000000000000000000e+00 
layer_sizes=15 11 2 
scale_included=0
neurons (num_inputs, activation_function, activation_steepness)=(0, 0, 0.00000000000000000000e+00) (0, 0, 0.00000000000000000000e+00) (0, 0, 0.00000000000000000000e+00) (0, 0, 0.00000000000000000000e+00) (0, 0, 0.00000000000000000000e+00) (0, 0, 0.00000000000000000000e+00) (0, 0, 0.00000000000000000000e+00) (0, 0, 0.00000000000000000000e+00) (0, 0, 0.00000000000000000000e+00) (0, 0, 0.00000000000000000000e+00) (0, 0, 0.00000000000000000000e+00) (0, 0, 0.00000000000000000000e+00) (0, 0, 0.00000000000000000000e+00) (0, 0, 0.00000000000000000000e+00) (0, 0, 0.00000000000000000000e+00) (15, 6, 5.00000000000000000000e-01) (15, 6, 5.00000000000000000000e-01) (15, 6, 5.00000000000000000000e-01) (15, 6, 5.00000000000000000000e-01) (15, 6, 5.00000000000000000000e-01) (15, 6, 5.00000000000000000000e-01) (15, 6, 5.00000000000000000000e-01) (15, 6, 5.00000000000000000000e-01) (15, 6, 5.00000000000000000000e-01) (15, 6, 5.00000000000000000000e-01) (0, 6, 0.00000000000000000000e+00) (11, 6, 5.00000000000000000000e-01) (0, 6, 0.00000000000000000000e+00) 
connections (connected_to_neuron, weight)=(0, -5.07557554917289088792e+00) (1, -2.75117525263988582651e-01) (2, -1.89892338021957512995e-01) (3, -3.26406711145603378732e-01) (4, -2.50756339534484951059e-01) (5, 1.45361960242244947494e+00) (6, 4.06764179430591787945e-01) (7, 7.51597547260049791973e-01) (8, -3.29052540531734216689e-01) (9, 7.94775622682475257896e-01) (10, 3.75709919272008985303e+00) (11, 4.03259565001821473906e-01) (12, 1.22696040233108161210e+00) (13, 4.01116102145998437711e-02) (14, -1.29451591857666725716e+00) (0, -7.65331950839071595283e+00) (1, -1.82201208839838618703e-01) (2, -2.08540709982340449757e-01) (3, -3.11500290701811677341e-01) (4, -3.40016464064543610935e-01) (5, 1.26029394315782106162e+00) (6, 4.62580510564589930667e-01) (7, 9.48982143261387967037e-01) (8, -1.98568673813052182231e-01) (9, 6.94615159232118917210e-01) (10, 4.07105396256844453973e+00) (11, 2.93695957597495616032e-01) (12, 1.42299799118231473649e+00) (13, 8.04664971602307710352e-02) (14, -1.25627022716544822778e+00) (0, 1.17247926564267306304e+01) (1, 4.26368274978643879702e-01) (2, 4.11579289726263342075e-01) (3, 3.72133397749906891239e-01) (4, 2.79834275386577957523e-01) (5, -1.02109917357705182184e+00) (6, -1.28143796816656774240e-01) (7, -6.54076735177327339699e-01) (8, 9.54102947959139413570e+00) (9, -1.33505405673827692858e+00) (10, -5.51363152629978348074e+00) (11, 2.37277572342288456397e+00) (12, -1.73264181018286600455e+00) (13, 6.18263985359989831636e+00) (14, 9.94260567471337508572e-01) (0, -1.96069324174466363964e+00) (1, -2.56280373684159401559e-01) (2, -3.47239252082100990915e-01) (3, -2.00318645588150934245e-01) (4, -1.93641912094346002604e-01) (5, 1.00051915580985562038e+00) (6, -2.26532152298756200848e-01) (7, 9.55340103959939068723e-01) (8, -2.73187016261307258347e-01) (9, 1.06850096341148037560e+00) (10, 2.01599387080491254665e+00) (11, 1.78889149845000650085e-01) (12, 8.88535091510888719313e-01) (13, 7.64575331871989449795e-01) (14, -7.10160215599648259044e-01) (0, -3.14003757012746020916e-02) (1, -9.18032991774776763183e-02) (2, -1.25639321196863995578e-01) (3, -1.45244451154063092257e-01) (4, -1.46557705391238080050e-01) (5, 9.08708883617796003840e-01) (6, 9.95695328918586447520e-02) (7, 2.16311025787199129322e-01) (8, -5.39497915893185187031e-01) (9, 4.27968784005810454207e-01) (10, 1.31527473964737073864e+00) (11, -1.91557547757179674752e-01) (12, 5.16933065940955782658e-01) (13, -6.73646602304343311562e-02) (14, -5.06408594350073792967e-01) (0, -1.11910036928663941813e-01) (1, -6.59614056394982883891e-02) (2, -1.82190544907896517790e-01) (3, -1.83932788674681185759e-01) (4, -1.02876834575979791975e-01) (5, 6.78327896369243732444e-01) (6, -1.38760264421032009086e-01) (7, 2.29501998142748742104e-01) (8, -8.38786347160675460621e-02) (9, 9.47050757370985207828e-02) (10, 5.80762203799282450412e-01) (11, 1.64358697071239379106e+00) (12, -1.00667498446121005812e-02) (13, -8.36325376093669803357e-02) (14, 3.54342582824867871616e-02) (0, -4.15199973561848401093e-01) (1, -1.64544850035491602158e-01) (2, -9.38371488888890270541e-02) (3, -1.29509711702496324581e-02) (4, -3.28026110370785439763e-02) (5, 1.57786441408708300038e+00) (6, -6.32262177072382813153e-03) (7, 2.88750448681944382745e-01) (8, -1.44804488761913013883e-01) (9, 6.06279549871888701063e-01) (10, -2.26708295362308097365e-02) (11, 1.14103736013194345666e+00) (12, -1.51430333462954647139e-01) (13, -1.53648168520709449414e-02) (14, -7.26758248556313574129e-02) (0, 1.17054444373896746612e+01) (1, 3.90583359889036529911e-01) (2, 3.85592782191282623661e-01) (3, 3.80580418995863312137e-01) (4, 4.06616711310392675571e-01) (5, -1.10186862067893964756e+00) (6, -1.00734206035921730615e-01) (7, 6.36851976340154779521e-01) (8, 1.17586096871348608772e+01) (9, -7.04013533061301099991e-01) (10, -5.38331320501215149221e+00) (11, 3.06111696144133427211e+00) (12, -1.44720174251683486588e+00) (13, 3.79976739623891601738e+00) (14, 6.35874269483973186823e-01) (0, 1.16620785192897944427e+01) (1, 3.97020750573536196359e-01) (2, 4.66071591606994850565e-01) (3, 4.80381981364151389169e-01) (4, 3.85319122007747927317e-01) (5, -8.99493221508006479681e-01) (6, -2.04159302756378890908e-01) (7, 1.10364344608706099748e+00) (8, 1.18899507645221955698e+01) (9, -1.06275495411467302276e+00) (10, -5.50358355409748245535e+00) (11, 3.96456339942623392503e+00) (12, -1.85499158651047602042e+00) (13, 3.81967712828265959502e+00) (14, 6.07031581877161774408e-01) (0, -3.98674520477344696001e-01) (1, -1.64488412444441317595e-01) (2, -1.16164922718851620909e-01) (3, -8.48440826400998805712e-03) (4, -1.07958018825936620522e-02) (5, 5.62843382412876125365e-01) (6, -1.57803844118640956840e-01) (7, 1.78940868095904259683e-01) (8, -1.11081978524718544277e-01) (9, 3.02181400023496041229e-02) (10, 5.66634390519653696749e-01) (11, 2.86385451430806092787e+00) (12, 2.45452002373779433475e-02) (13, 3.96788889754642101065e-03) (14, 9.70020341876190184127e-02) (15, 5.91305084250211110408e-01) (16, 5.59119983324961045135e-01) (17, 4.17878915901421343904e-01) (18, 5.67649689662496848008e-01) (19, 4.98721867233245741424e-01) (20, -2.20572410080871833538e-01) (21, -2.40559450131380025972e-01) (22, 4.26532809968231951814e-01) (23, 4.20271908278702532868e-01) (24, -2.44881701146231894883e-01) (25, 3.33950703317865194020e-01) 
