FANN_FLO_2.1
num_layers=3
learning_rate=0.700000
connection_rate=1.000000
network_type=0
learning_momentum=0.000000
training_algorithm=2
train_error_function=1
train_stop_function=1
cascade_output_change_fraction=0.010000
quickprop_decay=-0.000100
quickprop_mu=1.750000
rprop_increase_factor=1.200000
rprop_decrease_factor=0.500000
rprop_delta_min=0.000000
rprop_delta_max=50.000000
rprop_delta_zero=0.100000
cascade_output_stagnation_epochs=12
cascade_candidate_change_fraction=0.010000
cascade_candidate_stagnation_epochs=12
cascade_max_out_epochs=150
cascade_min_out_epochs=50
cascade_max_cand_epochs=150
cascade_min_cand_epochs=50
cascade_num_candidate_groups=2
bit_fail_limit=1.00000000000000005551e-01
cascade_candidate_limit=1.00000000000000000000e+03
cascade_weight_multiplier=4.00000000000000022204e-01
cascade_activation_functions_count=10
cascade_activation_functions=3 5 7 8 10 11 14 15 16 17 
cascade_activation_steepnesses_count=4
cascade_activation_steepnesses=2.50000000000000000000e-01 5.00000000000000000000e-01 7.50000000000000000000e-01 1.00000000000000000000e+00 
layer_sizes=17 11 2 
scale_included=0
neurons (num_inputs, activation_function, activation_steepness)=(0, 0, 0.00000000000000000000e+00) (0, 0, 0.00000000000000000000e+00) (0, 0, 0.00000000000000000000e+00) (0, 0, 0.00000000000000000000e+00) (0, 0, 0.00000000000000000000e+00) (0, 0, 0.00000000000000000000e+00) (0, 0, 0.00000000000000000000e+00) (0, 0, 0.00000000000000000000e+00) (0, 0, 0.00000000000000000000e+00) (0, 0, 0.00000000000000000000e+00) (0, 0, 0.00000000000000000000e+00) (0, 0, 0.00000000000000000000e+00) (0, 0, 0.00000000000000000000e+00) (0, 0, 0.00000000000000000000e+00) (0, 0, 0.00000000000000000000e+00) (0, 0, 0.00000000000000000000e+00) (0, 0, 0.00000000000000000000e+00) (17, 6, 5.00000000000000000000e-01) (17, 6, 5.00000000000000000000e-01) (17, 6, 5.00000000000000000000e-01) (17, 6, 5.00000000000000000000e-01) (17, 6, 5.00000000000000000000e-01) (17, 6, 5.00000000000000000000e-01) (17, 6, 5.00000000000000000000e-01) (17, 6, 5.00000000000000000000e-01) (17, 6, 5.00000000000000000000e-01) (17, 6, 5.00000000000000000000e-01) (0, 6, 0.00000000000000000000e+00) (11, 6, 5.00000000000000000000e-01) (0, 6, 0.00000000000000000000e+00) 
connections (connected_to_neuron, weight)=(0, 3.63245495024376623405e+01) (1, 6.38463607583057646266e-01) (2, 6.15197105858337645046e-01) (3, 6.94830699417602781764e-01) (4, 6.72381951067459349147e-01) (5, -1.74605911768918709015e+00) (6, -9.52789359613401609650e-01) (7, -8.75490127564850162400e+00) (8, -1.10067345099798186148e+00) (9, -1.42390946194761291999e+00) (10, 2.55056657408812337273e-01) (11, -3.82630796922769966795e-01) (12, -7.95352541316453631737e+00) (13, -2.60450090913964293904e+00) (14, -5.16606096892715749291e-01) (15, -5.73416837949717983491e-01) (16, 1.34221584717786757146e+00) (0, 8.70070586536384951160e+01) (1, 1.45764458751973746686e+00) (2, 1.29437766051587277438e+00) (3, 1.44703257656392691999e+00) (4, 1.36529627269801712153e+00) (5, -3.77485155049808129846e+00) (6, -2.85727099845520138288e+00) (7, 2.20328335226100477939e+02) (8, -6.39485573565796894258e+00) (9, 1.82601016572889407463e+00) (10, 4.41998262388129781186e+00) (11, 1.50000000000000000000e+03) (12, -6.16651983461988972834e+00) (13, 1.50000000000000000000e+03) (14, 1.50000000000000000000e+03) (15, 8.77628346159268657445e-01) (16, 6.25984534089321531525e-01) (0, 2.01338267389730880552e+01) (1, 7.43787226971477810622e-01) (2, 7.71545203175634686232e-01) (3, 8.06430881615967098952e-01) (4, 7.74074138846487347365e-01) (5, -1.71266124610949521667e+00) (6, -2.07021033557809674974e+00) (7, -1.63913912669105208408e+01) (8, 5.73278129451334717004e-01) (9, 3.73532559813895326251e-01) (10, 2.90669542085970511458e-01) (11, 2.22428878926370587887e-01) (12, -2.37885733933064047463e+00) (13, 5.12730018983401247823e+00) (14, 3.10396444540067817375e-01) (15, 3.77553327597247800895e-01) (16, 8.44389394010949478897e-01) (0, 5.71951106197575853685e+00) (1, 1.46084710390949445991e-01) (2, 8.51370090559963460519e-02) (3, 2.01760082872295604117e-01) (4, 1.03052876325035472349e-01) (5, -7.84708882891874548449e+00) (6, -1.30831605484663437977e+00) (7, -8.33739895454993629187e+00) (8, -8.65799990797042710255e+02) (9, 1.08328776256559056179e+00) (10, 2.18099978801267813111e+00) (11, 4.81548774326385231603e+00) (12, -6.54624245351119160574e+00) (13, 6.61182948224083189004e-01) (14, 4.89204438621258563824e-01) (15, 2.56789714603921037650e+00) (16, -1.22512149355567256936e-01) (0, 8.68648683909632097766e+01) (1, 6.60601774951836517857e+00) (2, 6.64646783074757507848e+00) (3, 6.59888049563786438512e+00) (4, 6.66275359293839386510e+00) (5, -3.13245644841477188791e+00) (6, 2.18570833780812670000e+01) (7, 2.20328335226100477939e+02) (8, 8.90799990797042710255e+02) (9, 2.10288827653323062705e+00) (10, 1.53518672517798862032e+01) (11, 1.50000000000000000000e+03) (12, 2.79407792180081804290e+00) (13, 1.50000000000000000000e+03) (14, 1.50000000000000000000e+03) (15, 1.50000000000000000000e+03) (16, 3.53945289445507027537e+00) (0, 4.44996916845500223303e+00) (1, 1.03021285683265836908e-01) (2, 2.07320316881290489519e-01) (3, 1.53812340647331291521e-01) (4, 9.46595512334024169476e-02) (5, -7.91258729664929205683e+00) (6, -1.54557837239751338920e+00) (7, -8.33787013988247061036e+00) (8, -8.65799990797042710255e+02) (9, 3.48519925938537911136e+00) (10, 2.14823298065064305362e+00) (11, 2.26882280069007391532e+00) (12, -5.59107838868546114242e+00) (13, 4.36957300750339061590e-01) (14, 3.79596673354465030670e+00) (15, 1.67483917949449745421e+00) (16, 9.23018453512976844166e-01) (0, -3.46564799092634212574e-01) (1, 2.95863285381386884043e-02) (2, 5.86681661196454713736e-03) (3, -9.94073167722632766719e-02) (4, 1.71230643708299296035e-02) (5, 3.68399320315903888723e-01) (6, 7.57286689754560621290e-02) (7, 3.26992623663579728976e-01) (8, 8.90799990797042710255e+02) (9, 1.18403942936640450834e-02) (10, -1.19632269050332057381e-01) (11, -7.69299692298672649349e-02) (12, -1.51321895165935620814e-02) (13, 5.54419513426921140020e-02) (14, -1.33645725080826671682e-01) (15, -5.25246127627274836391e-02) (16, -1.27955942094632735273e-01) (0, 4.63024430887132112389e+01) (1, 6.59227887534047152229e-01) (2, 5.96837992214108492561e-01) (3, 6.27630787335778261848e-01) (4, 6.45502610497618700691e-01) (5, -5.01096521334168487627e-01) (6, -7.54204804918983229278e-01) (7, -9.09113334795836003366e+00) (8, 5.66748430909392308941e-02) (9, -8.02619755652352773190e-01) (10, -1.94377873580839044543e+00) (11, -1.19556175288504884513e+00) (12, 1.36513627576691254362e+00) (13, -2.80314037428454065903e+00) (14, -1.21396476084525328787e+00) (15, -1.22390630966675839630e+00) (16, 9.04647444397403632799e-01) (0, 8.68863354098357092425e+01) (1, 1.44049877399624315366e+00) (2, 1.31861602986277004490e+00) (3, 1.42976019257725206479e+00) (4, 1.40985053503931512253e+00) (5, -3.86887232694871530114e+00) (6, -2.88060624668708920026e+00) (7, 2.20328335226100477939e+02) (8, -3.80637888218119213590e+00) (9, 2.01604185143279002190e+00) (10, -1.30275110216191802870e+00) (11, 1.28136685030537887542e+03) (12, -6.08972792436716403586e+00) (13, 1.50000000000000000000e+03) (14, 1.50000000000000000000e+03) (15, 1.16708923743544588092e+02) (16, 5.97514317626779645209e-01) (0, 3.12928561934087916541e+01) (1, 4.94772471522806137068e-02) (2, 5.47730080818651307584e-02) (3, 5.18942229485033143521e-02) (4, 9.17987428640838765137e-02) (5, -7.27719226949863462472e-01) (6, -5.67662353805197916756e-01) (7, -5.33663799324239285227e+00) (8, 8.90799990797042710255e+02) (9, 7.65221206010104210149e-02) (10, -3.54560937443989254714e-02) (11, 1.22061123822854084020e-01) (12, 1.95333418043534443598e+01) (13, -2.34965044326226601967e+00) (14, 1.72635726757109614349e-01) (15, -9.88876634194870290928e-02) (16, -1.90326913239722089743e-01) (17, -7.25843918541148602763e-01) (18, 4.34510194784064385232e-01) (19, -4.53621262681421999474e-01) (20, -2.44998313958449509542e-01) (21, 4.38475116772424400313e-01) (22, -2.88231316467377818302e-01) (23, 3.60219704221239334085e-01) (24, -7.54298718164299275557e-01) (25, 6.53271697333273282382e-01) (26, 6.64040635238385190675e-01) (27, 3.39569373875469038282e-01) 
