FANN_FLO_2.1
num_layers=3
learning_rate=0.700000
connection_rate=1.000000
network_type=0
learning_momentum=0.000000
training_algorithm=2
train_error_function=1
train_stop_function=1
cascade_output_change_fraction=0.010000
quickprop_decay=-0.000100
quickprop_mu=1.750000
rprop_increase_factor=1.200000
rprop_decrease_factor=0.500000
rprop_delta_min=0.000000
rprop_delta_max=50.000000
rprop_delta_zero=0.100000
cascade_output_stagnation_epochs=12
cascade_candidate_change_fraction=0.010000
cascade_candidate_stagnation_epochs=12
cascade_max_out_epochs=150
cascade_min_out_epochs=50
cascade_max_cand_epochs=150
cascade_min_cand_epochs=50
cascade_num_candidate_groups=2
bit_fail_limit=1.00000000000000005551e-01
cascade_candidate_limit=1.00000000000000000000e+03
cascade_weight_multiplier=4.00000000000000022204e-01
cascade_activation_functions_count=10
cascade_activation_functions=3 5 7 8 10 11 14 15 16 17 
cascade_activation_steepnesses_count=4
cascade_activation_steepnesses=2.50000000000000000000e-01 5.00000000000000000000e-01 7.50000000000000000000e-01 1.00000000000000000000e+00 
layer_sizes=14 4 2 
scale_included=0
neurons (num_inputs, activation_function, activation_steepness)=(0, 0, 0.00000000000000000000e+00) (0, 0, 0.00000000000000000000e+00) (0, 0, 0.00000000000000000000e+00) (0, 0, 0.00000000000000000000e+00) (0, 0, 0.00000000000000000000e+00) (0, 0, 0.00000000000000000000e+00) (0, 0, 0.00000000000000000000e+00) (0, 0, 0.00000000000000000000e+00) (0, 0, 0.00000000000000000000e+00) (0, 0, 0.00000000000000000000e+00) (0, 0, 0.00000000000000000000e+00) (0, 0, 0.00000000000000000000e+00) (0, 0, 0.00000000000000000000e+00) (0, 0, 0.00000000000000000000e+00) (14, 6, 5.00000000000000000000e-01) (14, 6, 5.00000000000000000000e-01) (14, 6, 5.00000000000000000000e-01) (0, 6, 0.00000000000000000000e+00) (4, 4, 5.00000000000000000000e-01) (0, 4, 0.00000000000000000000e+00) 
connections (connected_to_neuron, weight)=(0, -3.30103831791071256063e+00) (1, 2.89612567034324808191e+00) (2, 2.78549503112854424103e+00) (3, -6.23980224860680832144e-01) (4, 7.70966950292750530238e-01) (5, 2.83056585716610209502e+00) (6, 1.62535359232837373078e+00) (7, 7.99558505683347142678e+00) (8, 1.24019225240539854305e+00) (9, 3.36751536719356536764e+00) (10, 1.33859587604711691711e+01) (11, 1.20102272645885999047e+00) (12, 2.23928127197108484125e+00) (13, -1.67540848098776984365e+00) (0, -4.62699087389065122355e-01) (1, 2.40922251060387999644e+01) (2, 2.62233081449966149989e+01) (3, -5.97190935943011158571e+00) (4, -4.70323879233827818469e-02) (5, 7.72227137704101895821e-01) (6, 6.34513351716963924787e+00) (7, -3.81879112594582847962e+00) (8, 5.17588300915961863069e-01) (9, 9.93560018254176363639e-02) (10, -5.18020881602100136121e+00) (11, 4.11624648118712599398e+00) (12, 8.39924135475691668873e-01) (13, -2.15319767318269489342e-01) (0, 2.46971185621941469179e+00) (1, -1.74731237139148687376e+00) (2, -1.16361479010030000047e+00) (3, 3.02151118788500538948e-01) (4, -3.28363022695927098127e+00) (5, -1.77464030303885711426e+00) (6, -3.67379428302899713188e+00) (7, -3.72808887908700647973e-01) (8, -1.69556839735097009125e+00) (9, -2.68260243000233522537e+00) (10, 1.19495281019921217869e+00) (11, -1.96635655500902162274e+00) (12, -1.86132106860397605885e+00) (13, 2.37330999593715974427e+00) (14, 1.90101256104035947203e+01) (15, 4.48841754797339564931e+00) (16, -8.44033175031284059742e+01) (17, -1.51972567749537756931e+00) 
