FANN_FLO_2.1
num_layers=3
learning_rate=0.700000
connection_rate=1.000000
network_type=0
learning_momentum=0.000000
training_algorithm=2
train_error_function=1
train_stop_function=1
cascade_output_change_fraction=0.010000
quickprop_decay=-0.000100
quickprop_mu=1.750000
rprop_increase_factor=1.200000
rprop_decrease_factor=0.500000
rprop_delta_min=0.000000
rprop_delta_max=50.000000
rprop_delta_zero=0.100000
cascade_output_stagnation_epochs=12
cascade_candidate_change_fraction=0.010000
cascade_candidate_stagnation_epochs=12
cascade_max_out_epochs=150
cascade_min_out_epochs=50
cascade_max_cand_epochs=150
cascade_min_cand_epochs=50
cascade_num_candidate_groups=2
bit_fail_limit=1.00000000000000005551e-01
cascade_candidate_limit=1.00000000000000000000e+03
cascade_weight_multiplier=4.00000000000000022204e-01
cascade_activation_functions_count=10
cascade_activation_functions=3 5 7 8 10 11 14 15 16 17 
cascade_activation_steepnesses_count=4
cascade_activation_steepnesses=2.50000000000000000000e-01 5.00000000000000000000e-01 7.50000000000000000000e-01 1.00000000000000000000e+00 
layer_sizes=20 11 2 
scale_included=0
neurons (num_inputs, activation_function, activation_steepness)=(0, 0, 0.00000000000000000000e+00) (0, 0, 0.00000000000000000000e+00) (0, 0, 0.00000000000000000000e+00) (0, 0, 0.00000000000000000000e+00) (0, 0, 0.00000000000000000000e+00) (0, 0, 0.00000000000000000000e+00) (0, 0, 0.00000000000000000000e+00) (0, 0, 0.00000000000000000000e+00) (0, 0, 0.00000000000000000000e+00) (0, 0, 0.00000000000000000000e+00) (0, 0, 0.00000000000000000000e+00) (0, 0, 0.00000000000000000000e+00) (0, 0, 0.00000000000000000000e+00) (0, 0, 0.00000000000000000000e+00) (0, 0, 0.00000000000000000000e+00) (0, 0, 0.00000000000000000000e+00) (0, 0, 0.00000000000000000000e+00) (0, 0, 0.00000000000000000000e+00) (0, 0, 0.00000000000000000000e+00) (0, 0, 0.00000000000000000000e+00) (20, 6, 5.00000000000000000000e-01) (20, 6, 5.00000000000000000000e-01) (20, 6, 5.00000000000000000000e-01) (20, 6, 5.00000000000000000000e-01) (20, 6, 5.00000000000000000000e-01) (20, 6, 5.00000000000000000000e-01) (20, 6, 5.00000000000000000000e-01) (20, 6, 5.00000000000000000000e-01) (20, 6, 5.00000000000000000000e-01) (20, 6, 5.00000000000000000000e-01) (0, 6, 0.00000000000000000000e+00) (11, 6, 5.00000000000000000000e-01) (0, 6, 0.00000000000000000000e+00) 
connections (connected_to_neuron, weight)=(0, -1.72746890845104772438e+00) (1, -1.03803399462598339165e-01) (2, -1.23732018728154688492e-01) (3, 3.80429301748894631297e-03) (4, -1.02263699729341045463e-01) (5, -8.72224994634068911958e-02) (6, 3.04296571295754603170e-01) (7, -1.19617318497898632301e-02) (8, 2.51531980290739465289e+00) (9, 7.13649455813646138580e-01) (10, 1.80072706293779083442e-01) (11, -8.67305347072364440919e+00) (12, 4.81657346743635750297e-01) (13, 6.03496446463534508275e-01) (14, 2.63765502886041902642e+00) (15, 2.91519771678845218688e+00) (16, 5.38827641887464570125e-01) (17, 1.95167136587373030165e-01) (18, 3.08941271623801964885e-02) (19, 3.78211411642904837827e-01) (0, 1.71691773027781415806e+01) (1, 3.08943711243238716690e-01) (2, 2.82882347725000593552e-01) (3, 3.68496574483480721085e-01) (4, 3.82775910220709114640e-01) (5, 1.72079749205537146928e-01) (6, -2.17798889767477799051e-01) (7, -1.08545635730680725684e-01) (8, -7.27288281195159425074e-01) (9, -4.58691278955844938814e-01) (10, -2.72134955390445409940e-01) (11, -8.35721684910352635711e+00) (12, -1.52323383514022275831e-01) (13, 7.00250298425170281114e-01) (14, -1.18535820561769700276e+00) (15, -5.68356844299881758253e-01) (16, -6.62751086239774800379e-02) (17, 1.30925758888685517256e-01) (18, -1.05385601810399475581e-02) (19, 6.03406848778292426161e-01) (0, -2.16243447334913607705e+00) (1, -8.44584045273884392868e-02) (2, -6.51259844132505774650e-03) (3, -6.33715329033954360982e-02) (4, -1.24932774649344421891e-01) (5, 9.94261324833066451045e-02) (6, 2.29541679537247807208e-02) (7, 1.24930981439970181790e-01) (8, 1.43867750907476854572e+00) (9, -9.18986646681562852068e-02) (10, 6.37419920033246711899e-02) (11, -7.60240838191523948808e+00) (12, 2.13968039999983622446e-01) (13, 1.06276470217706653365e+00) (14, 1.62366841532966899031e+00) (15, 1.15596743421503855842e+00) (16, 5.88465034381364215932e-01) (17, 2.99616518031354417406e-01) (18, 2.18395221383532907311e-02) (19, 2.82310106482390243965e-01) (0, 2.00996781321469430992e+00) (1, 5.93095910067258924592e-01) (2, 6.55771341437994315093e-01) (3, 5.51852073783575147736e-01) (4, 4.78880901152787585850e-01) (5, 1.91435845318283845984e+01) (6, 1.35078502507443354297e-01) (7, 5.43586005025561092019e-01) (8, 9.26126093089433499728e-01) (9, 5.42180174458194219511e+00) (10, 3.08902895682387802767e-02) (11, -6.90983483080061411385e+00) (12, 3.68787748344643784293e-01) (13, 4.40302926917384240824e+00) (14, 2.98034210305237223793e+00) (15, -6.78103152771157735579e-01) (16, 1.17645230820963786478e+00) (17, 5.34219129257011871026e-01) (18, 3.10907862467007189977e-01) (19, 6.64933556779071510690e-01) (0, 1.07816816241442481328e+00) (1, 5.60520840842686607353e-01) (2, 4.76657724041901598167e-01) (3, 4.70550833303891136161e-01) (4, 5.14954527873955680839e-01) (5, 1.78418204684967163232e+00) (6, 5.12256541989243974200e-01) (7, 4.19955955931877289444e-01) (8, 1.32682584481634413542e+00) (9, 2.58444940686686774889e-01) (10, 8.44512333677355897521e-01) (11, 5.25142501208220835451e+00) (12, 4.37345983133523685815e-01) (13, -1.82783054734700955990e+00) (14, 3.02946669697107751063e+00) (15, 2.98475970782935906556e+00) (16, 1.60104059483894278770e+00) (17, -3.54882717555538795828e-01) (18, 3.01884260958125483221e-01) (19, -3.30852288325541699088e-01) (0, -1.24599511771561033413e+00) (1, -1.06079820574923197607e-01) (2, -3.23108695761401068514e-02) (3, -6.64436929241854212780e-02) (4, -5.45954965368945221993e-02) (5, 2.21387341121179886949e-02) (6, 2.80785311278524442324e-02) (7, 5.76557503211202679316e-02) (8, 7.10050023327631674164e-01) (9, 2.34677737035629080387e-01) (10, 3.09394543662022181163e-01) (11, -6.39660238607786868492e-01) (12, 5.58567852559635258380e-01) (13, 8.80804699070337870914e-01) (14, 9.31604145397061267353e-01) (15, 1.29934617111879524565e+00) (16, 4.23271744034929772726e-02) (17, 2.11764529692617803347e-01) (18, -4.66634566860828388368e-03) (19, -4.92098447820122908425e-01) (0, 1.03660668841920267091e+00) (1, 4.60746970586704107653e-01) (2, 5.23786243610308566154e-01) (3, 5.51028792374060549797e-01) (4, 4.79405005090164038073e-01) (5, 1.60276841243714018859e+00) (6, 5.77180390946067212177e-01) (7, 3.13885165048393144360e-01) (8, 1.30865057068266188445e+00) (9, 2.57098192652555457283e-01) (10, 9.32923210368697297667e-01) (11, 5.09803063336049433474e+00) (12, 4.70329297537922408345e-01) (13, -1.77820326302947839814e+00) (14, 2.99169266823806889732e+00) (15, 5.40005672486055576798e+00) (16, 1.33981705855234944913e+00) (17, -3.58499421181044219953e-01) (18, 4.66443657387022203586e-01) (19, -1.83811096580609817375e-01) (0, 2.68004289150113343965e+01) (1, 3.19311161142567967453e-01) (2, 2.27103751701096423510e-01) (3, 3.39484606486539219894e-01) (4, 3.14912859898785923995e-01) (5, 8.64609660445475602941e-02) (6, -4.08474618291148783289e-01) (7, -1.62789474995693544956e-01) (8, -9.71605893696644407065e-01) (9, -8.26520800073083150572e-01) (10, -7.89521809311471867154e-01) (11, -9.19352292265718595843e+00) (12, -2.68911401666915905739e-01) (13, 2.32252519232446497099e-01) (14, -1.29959976955320177794e+00) (15, -3.83344145710527106630e-01) (16, -3.89985032363994010840e-01) (17, 8.05672826955030063623e-02) (18, -1.42794895990341119685e-01) (19, 1.67452498663766657927e+00) (0, 1.95220336773134328645e+00) (1, 6.22014466409318234064e-01) (2, 5.76837371770970386287e-01) (3, 5.20633861158721011897e-01) (4, 5.42995866124264758845e-01) (5, 1.55999480944191626364e+00) (6, 1.48713848750195748449e-01) (7, 5.40687392236305464088e-01) (8, 9.45935319078284320149e-01) (9, 4.83766930121375580143e+01) (10, -1.41855351759863999167e-02) (11, -6.18270728961237470145e+00) (12, 4.04636691263330627866e-01) (13, 1.85933616466108486698e+00) (14, 2.40712558572691748271e-01) (15, -8.96669699788009921804e-01) (16, 4.39575773080643550372e-01) (17, 4.97626392416763985160e-01) (18, 4.32018648298910568073e-01) (19, 1.09267098543853385939e-01) (0, -7.91031233518012855122e-01) (1, -7.50341131927318438777e-02) (2, -4.80199619771784214084e-02) (3, -3.71491625549143222873e-02) (4, -1.86195203626329325308e-01) (5, 8.19056968749090480442e-02) (6, 3.25991807342574491102e-01) (7, 1.74974030528959795250e-01) (8, 2.41577295389987973806e+01) (9, 4.53255104469859171346e-01) (10, 1.36111729640458867241e-01) (11, -4.35373514247323534221e+00) (12, 3.11136786667010056817e-01) (13, 1.33098273619668083789e+00) (14, 7.60656264248881885948e+00) (15, 9.04088437215506246503e+00) (16, 7.04454331024647828485e-01) (17, 3.36901105538740752721e-01) (18, 1.82662068800805432733e-01) (19, -1.42713234219329715424e-01) (20, -5.59507941525484109313e-01) (21, -7.05608491518950553534e-01) (22, -4.30454240333359605675e-01) (23, 5.42706590839092672951e-01) (24, -1.56781230106975116856e-01) (25, 3.74172320993034546177e-01) (26, -1.65612254276896991856e-01) (27, -5.31557390747893987459e-01) (28, 5.45943942614262045510e-01) (29, 6.89093506960364199365e-01) (30, 4.48994364173990745392e-01) 
