FANN_FLO_2.1
num_layers=3
learning_rate=0.700000
connection_rate=1.000000
network_type=0
learning_momentum=0.000000
training_algorithm=2
train_error_function=1
train_stop_function=1
cascade_output_change_fraction=0.010000
quickprop_decay=-0.000100
quickprop_mu=1.750000
rprop_increase_factor=1.200000
rprop_decrease_factor=0.500000
rprop_delta_min=0.000000
rprop_delta_max=50.000000
rprop_delta_zero=0.100000
cascade_output_stagnation_epochs=12
cascade_candidate_change_fraction=0.010000
cascade_candidate_stagnation_epochs=12
cascade_max_out_epochs=150
cascade_min_out_epochs=50
cascade_max_cand_epochs=150
cascade_min_cand_epochs=50
cascade_num_candidate_groups=2
bit_fail_limit=1.00000000000000005551e-01
cascade_candidate_limit=1.00000000000000000000e+03
cascade_weight_multiplier=4.00000000000000022204e-01
cascade_activation_functions_count=10
cascade_activation_functions=3 5 7 8 10 11 14 15 16 17 
cascade_activation_steepnesses_count=4
cascade_activation_steepnesses=2.50000000000000000000e-01 5.00000000000000000000e-01 7.50000000000000000000e-01 1.00000000000000000000e+00 
layer_sizes=22 11 2 
scale_included=0
neurons (num_inputs, activation_function, activation_steepness)=(0, 0, 0.00000000000000000000e+00) (0, 0, 0.00000000000000000000e+00) (0, 0, 0.00000000000000000000e+00) (0, 0, 0.00000000000000000000e+00) (0, 0, 0.00000000000000000000e+00) (0, 0, 0.00000000000000000000e+00) (0, 0, 0.00000000000000000000e+00) (0, 0, 0.00000000000000000000e+00) (0, 0, 0.00000000000000000000e+00) (0, 0, 0.00000000000000000000e+00) (0, 0, 0.00000000000000000000e+00) (0, 0, 0.00000000000000000000e+00) (0, 0, 0.00000000000000000000e+00) (0, 0, 0.00000000000000000000e+00) (0, 0, 0.00000000000000000000e+00) (0, 0, 0.00000000000000000000e+00) (0, 0, 0.00000000000000000000e+00) (0, 0, 0.00000000000000000000e+00) (0, 0, 0.00000000000000000000e+00) (0, 0, 0.00000000000000000000e+00) (0, 0, 0.00000000000000000000e+00) (0, 0, 0.00000000000000000000e+00) (22, 6, 5.00000000000000000000e-01) (22, 6, 5.00000000000000000000e-01) (22, 6, 5.00000000000000000000e-01) (22, 6, 5.00000000000000000000e-01) (22, 6, 5.00000000000000000000e-01) (22, 6, 5.00000000000000000000e-01) (22, 6, 5.00000000000000000000e-01) (22, 6, 5.00000000000000000000e-01) (22, 6, 5.00000000000000000000e-01) (22, 6, 5.00000000000000000000e-01) (0, 6, 0.00000000000000000000e+00) (11, 6, 5.00000000000000000000e-01) (0, 6, 0.00000000000000000000e+00) 
connections (connected_to_neuron, weight)=(0, 1.39644793143743495278e+00) (1, 2.12977018332315692906e-01) (2, 1.85218703126741685017e-01) (3, 3.35320923602415665865e-01) (4, 3.18082574879957724612e-01) (5, -1.88380385004331540877e+00) (6, -8.68763933970677193486e-01) (7, -4.83996445287814755498e-02) (8, -9.13367901690851469176e-01) (9, 1.18845233991244497718e-01) (10, 2.23224994394474851589e-01) (11, -4.50339112214482931162e-02) (12, -4.48370324490506355630e+00) (13, -4.57247729723117846135e+00) (14, -3.88530936783332458972e+00) (15, -4.14317780636241650427e+00) (16, -1.15933718525869935978e-01) (17, 2.34668030607792510445e-01) (18, 4.21338085120075769852e-02) (19, 2.50129906489877262832e-01) (20, 6.73862979795397332161e-01) (21, 2.11309655256431638826e-01) (0, 1.43138418441885928445e+00) (1, 2.38700274503065357212e-01) (2, 2.47277092313600788120e-01) (3, 2.18598093962503681187e-01) (4, 1.94166615730358399494e-01) (5, -1.82064395867978467969e+00) (6, -1.04981752903568348323e+00) (7, 1.74736520227425695673e-01) (8, -6.94121464638995044893e-01) (9, 9.47903006518870661079e-02) (10, 2.05433618876629670025e-01) (11, 1.83681317292805276753e-02) (12, -4.39423411405330544000e+00) (13, -4.28099164935085774175e+00) (14, -4.32638081621237269303e+00) (15, -4.07683505766084497424e+00) (16, -5.49741379564941887170e-02) (17, 2.11550263478515104820e-01) (18, 3.15146986903735298879e-02) (19, 2.17942609333095421720e-01) (20, 7.62926974381865075081e-01) (21, 1.58513303861069543288e-01) (0, -2.19144970428933394402e+00) (1, -9.23350932359277287720e-02) (2, -1.07062685704189461400e-01) (3, -1.46812997227865338346e-01) (4, -1.44968337780195355435e-01) (5, 1.88636416203003842718e+00) (6, -2.60860479306256820564e+01) (7, -6.82688596011805537422e-01) (8, 4.73041946834433513214e-01) (9, 1.86865250065838517379e+00) (10, 1.93339157894081431488e-01) (11, -1.02257378144146606758e+01) (12, 3.84331021398995176241e+00) (13, 4.06510504738270483926e+00) (14, 7.53140457624915660162e-01) (15, -8.46568374828627412398e+01) (16, -2.11910046548426791446e+01) (17, -2.70735216566144254458e+00) (18, -1.19618989767192838991e-02) (19, -4.97258676877670779959e-01) (20, 1.87706857898847223609e-01) (21, 8.67932386689268808855e-02) (0, 4.78112139844044126136e+00) (1, 3.00145027633272776235e-01) (2, 3.14906952376925119985e-01) (3, 1.77508478458487134466e-01) (4, 2.33402905459963422308e-01) (5, 2.09971681476786962151e+01) (6, -4.06598604627020332458e+00) (7, 2.10716640666353677291e-01) (8, -1.44469869223237346034e+00) (9, 2.37199955536154138969e+00) (10, -1.10493472707288864498e+00) (11, 3.86492026463447768680e-02) (12, 3.16295229922680776191e-01) (13, 5.23800180532372223752e+01) (14, 7.08063759440235571674e+02) (15, 6.80319656293937441660e+02) (16, -7.76617320228319196751e-01) (17, 2.43246569932264289360e-01) (18, -3.21980262924937199465e-01) (19, 5.99257597350703274941e+00) (20, 8.86208865352461714338e+01) (21, 1.96644060083756511137e-01) (0, 1.44208308866372334478e+01) (1, 6.12007881033129086390e-01) (2, 5.34567075299924976406e-01) (3, 5.54234544264978534756e-01) (4, 4.80532644766277550197e-01) (5, 1.07122756034494468480e+01) (6, -6.65482496507168286293e-01) (7, 2.23078307443856704850e-01) (8, -6.56882626680943659814e-01) (9, 8.22534432087620892560e+00) (10, 3.40582134616272291794e-01) (11, 5.35567628493858971517e-01) (12, -2.51520070543734775015e+00) (13, 5.22151728250420319455e+01) (14, 7.08038339072517828754e+02) (15, 6.80456972986557957483e+02) (16, -1.68148956184895198573e-01) (17, 1.04326296013375885430e+00) (18, 3.04626628722400261129e-01) (19, -4.06494803299434437349e-01) (20, 3.90901906903449329889e+01) (21, 2.78009731734272846904e-01) (0, -2.09739356105844798606e+00) (1, 5.77936076422877337277e-02) (2, 5.40053003331370379270e-02) (3, -1.33674996266727907912e-01) (4, 2.16185354491419956524e-02) (5, 1.23494900945977303941e+00) (6, 3.69010896809769728399e-01) (7, -4.71165181240648933692e-01) (8, 5.50221027262948192416e-02) (9, -1.73109555636927620048e-01) (10, 4.87180587833804731868e-02) (11, 5.07720613597208769718e-01) (12, 1.88735303469778403773e+00) (13, 1.77309793290221984208e+00) (14, 2.27902372246081563745e+00) (15, 2.27355418315611323976e+00) (16, -6.10733991634243664898e-03) (17, -1.23270758714969827508e-01) (18, -2.04678001917097507345e-01) (19, -3.00784948241791250112e-02) (20, 7.01552144190613402586e-01) (21, -1.66598013773772757329e-01) (0, 2.42515845954385245165e+00) (1, 1.60336557900739945515e-01) (2, 2.25982297336889514927e-01) (3, 2.54453208422495191776e-01) (4, 1.96813993280960330967e-01) (5, -2.20937329731815967904e+00) (6, -9.90824119205892417384e-01) (7, 3.82556122372500265194e-02) (8, -8.99573922202424047789e-01) (9, 1.34030153312812455590e-01) (10, 1.53258219042255894315e-01) (11, -9.55239180259145059804e-02) (12, -4.22030969029908931134e+00) (13, -4.20118437530729949003e+00) (14, -3.93576146507524526896e+00) (15, -4.16861190922548985327e+00) (16, -1.42729694477351370940e-01) (17, 6.96548375408385544993e-01) (18, 1.06333195121593920840e-01) (19, 4.20597137186268787978e-01) (20, 7.91820862378538659065e-01) (21, 2.96251057855788757500e-01) (0, 8.81964850548306955602e+00) (1, 3.93799387973493009163e-01) (2, 3.83009013843482404305e-01) (3, 5.17268509727662806341e-01) (4, 4.41664540332501798225e-01) (5, -5.04647558903285275989e+00) (6, -1.79850825332514174804e+00) (7, 2.27785560071615683642e-01) (8, -5.29391059837301281021e+00) (9, -4.17020776723489083881e-01) (10, 4.69178276357928192297e-01) (11, -2.13671663979750792173e-01) (12, 2.47893242109775746584e+00) (13, 3.36740790369163267570e+00) (14, -6.94308523161953328184e+00) (15, -7.01763933336518697104e+00) (16, -4.12527850971414755676e-01) (17, 5.49388539166983491668e-01) (18, -1.25940879929515442415e-01) (19, 7.33781306637874886079e-01) (20, 2.01810194506416053228e-02) (21, 1.00239976552898579776e+00) (0, -2.37831561796594321834e+01) (1, -6.82796816160526620632e-02) (2, -6.21103922655430254474e-02) (3, -5.16841363213925517744e-03) (4, -1.01682139449342776039e-01) (5, 6.00817036506968271681e+00) (6, 2.49175736323809127182e-01) (7, -4.66211241975027446127e-01) (8, -3.84463108384508131521e-03) (9, 1.78665677024379077054e+00) (10, 1.30344273436973256963e+00) (11, 1.34348203217764350370e+00) (12, 1.83204776251836642942e+00) (13, 1.00341937032456129941e+00) (14, 2.74302044629461239111e+00) (15, 2.75250950769050595213e+00) (16, 8.72893417754480038795e-01) (17, 1.39416193712181235576e+00) (18, 7.63633248802430886215e-01) (19, 1.27717040858329311526e+00) (20, 2.65755416805033739536e+00) (21, -1.86793973951686820278e+00) (0, 9.78877065230634446635e-01) (1, 2.88358336131227688259e-01) (2, 2.07915639321458983746e-01) (3, 3.18247480134619065151e-01) (4, 3.60384581427229233608e-01) (5, -4.58688966799618125236e+00) (6, 2.93828122690606008405e+01) (7, 1.78408653900438340933e+00) (8, 6.97534156296584616913e-03) (9, 1.06198646742572261337e-01) (10, 2.95281964542937758189e-01) (11, 3.60002741565118078437e-01) (12, -1.52413482913317954726e+00) (13, 5.23765624590552079098e+01) (14, 7.07986161263338999561e+02) (15, 6.80440071702101704432e+02) (16, 1.23506831990410778643e-01) (17, 4.37228642664835298604e+00) (18, 2.76366050153696168890e-02) (19, -1.05165489997882066753e+00) (20, -3.71864110642949774466e-01) (21, 8.03937464010961722050e-02) (22, -3.24359085393668755692e-01) (23, -3.92060037685157458665e-01) (24, -4.66079388056782895067e-02) (25, 5.35935938616041718241e-01) (26, 4.89425741393809010660e-01) (27, 4.08276752345247073706e-01) (28, -1.77174837600440726604e-01) (29, -7.90013306413699378794e-02) (30, 8.27947765936774993101e-01) (31, 5.93160243965618727557e-01) (32, 3.16652572187168745987e-01) 
