FANN_FLO_2.1
num_layers=3
learning_rate=0.700000
connection_rate=1.000000
network_type=0
learning_momentum=0.000000
training_algorithm=2
train_error_function=1
train_stop_function=1
cascade_output_change_fraction=0.010000
quickprop_decay=-0.000100
quickprop_mu=1.750000
rprop_increase_factor=1.200000
rprop_decrease_factor=0.500000
rprop_delta_min=0.000000
rprop_delta_max=50.000000
rprop_delta_zero=0.100000
cascade_output_stagnation_epochs=12
cascade_candidate_change_fraction=0.010000
cascade_candidate_stagnation_epochs=12
cascade_max_out_epochs=150
cascade_min_out_epochs=50
cascade_max_cand_epochs=150
cascade_min_cand_epochs=50
cascade_num_candidate_groups=2
bit_fail_limit=1.00000000000000005551e-01
cascade_candidate_limit=1.00000000000000000000e+03
cascade_weight_multiplier=4.00000000000000022204e-01
cascade_activation_functions_count=10
cascade_activation_functions=3 5 7 8 10 11 14 15 16 17 
cascade_activation_steepnesses_count=4
cascade_activation_steepnesses=2.50000000000000000000e-01 5.00000000000000000000e-01 7.50000000000000000000e-01 1.00000000000000000000e+00 
layer_sizes=14 11 2 
scale_included=0
neurons (num_inputs, activation_function, activation_steepness)=(0, 0, 0.00000000000000000000e+00) (0, 0, 0.00000000000000000000e+00) (0, 0, 0.00000000000000000000e+00) (0, 0, 0.00000000000000000000e+00) (0, 0, 0.00000000000000000000e+00) (0, 0, 0.00000000000000000000e+00) (0, 0, 0.00000000000000000000e+00) (0, 0, 0.00000000000000000000e+00) (0, 0, 0.00000000000000000000e+00) (0, 0, 0.00000000000000000000e+00) (0, 0, 0.00000000000000000000e+00) (0, 0, 0.00000000000000000000e+00) (0, 0, 0.00000000000000000000e+00) (0, 0, 0.00000000000000000000e+00) (14, 6, 5.00000000000000000000e-01) (14, 6, 5.00000000000000000000e-01) (14, 6, 5.00000000000000000000e-01) (14, 6, 5.00000000000000000000e-01) (14, 6, 5.00000000000000000000e-01) (14, 6, 5.00000000000000000000e-01) (14, 6, 5.00000000000000000000e-01) (14, 6, 5.00000000000000000000e-01) (14, 6, 5.00000000000000000000e-01) (14, 6, 5.00000000000000000000e-01) (0, 6, 0.00000000000000000000e+00) (11, 6, 5.00000000000000000000e-01) (0, 6, 0.00000000000000000000e+00) 
connections (connected_to_neuron, weight)=(0, 1.50000000000000000000e+03) (1, 1.09136605133679354118e+00) (2, 9.74628693064718443217e-01) (3, 1.15911538769867861198e+00) (4, 1.14135058095124208855e+00) (5, -3.13088149160212569910e+00) (6, -1.54396422248550302392e+00) (7, 1.73343845054517431414e+00) (8, -3.59393795801040250026e-01) (9, 6.54721378875335879854e-01) (10, -5.24613165560906580254e+00) (11, -6.16291101652242545583e-01) (12, -1.81928603012693979046e-01) (13, 3.72726637803533100701e-01) (0, 1.28775241730578553501e+01) (1, 1.49771677518457352329e-01) (2, 1.13869564796060682155e-01) (3, 7.47730528956357248793e-02) (4, 1.39922956193059916385e-01) (5, 1.50000000000000000000e+03) (6, 4.96576514969970239655e-01) (7, -8.94728457016731093532e-01) (8, 3.21844840851109481594e-01) (9, 3.50300008722571498687e-01) (10, -4.70983688959217605685e+00) (11, 1.50000000000000000000e+03) (12, 7.36126176763389672431e+00) (13, 2.03833080495982699176e-01) (0, 3.88451239001486747782e+00) (1, 1.42166889712035782178e-01) (2, 2.01031609877765748973e-01) (3, 5.90965072361825938252e-02) (4, 6.97707975952029380018e-02) (5, 3.09540014380170669384e+00) (6, 1.02513417272612294973e+00) (7, -5.02566160717794585544e-01) (8, -1.03141519912022028294e+00) (9, -7.33071646702998735989e-01) (10, -1.31180709854684867111e+01) (11, 3.96048596392396046184e+00) (12, 4.83438178034917420689e+00) (13, -7.52379036398146960885e-02) (0, 1.50000000000000000000e+03) (1, 4.23359896028845561489e+00) (2, 4.30124129141180766567e+00) (3, 4.21002269322483790859e+00) (4, 4.16812955001800311550e+00) (5, -1.02206016284645393455e+01) (6, 1.49581376649315325267e+03) (7, -7.75308873214953475639e+00) (8, -6.50123658494146883235e-01) (9, -3.72366600432473715543e+00) (10, -1.16389917321652678339e+01) (11, 1.50000000000000000000e+03) (12, -5.00361034129484050226e+00) (13, 8.41242555383508006095e-01) (0, 4.23179531578134238146e+00) (1, 4.40953703342086666961e-01) (2, 4.98429970560676505187e-01) (3, 5.16130955634719557068e-01) (4, 5.39129132149822165587e-01) (5, 2.09308151520778595867e+00) (6, 2.91992626359710394368e+00) (7, 1.50000000000000000000e+03) (8, 1.50000000000000000000e+03) (9, 5.25874452879057430188e-01) (10, 1.50000000000000000000e+03) (11, 2.84379250803008787329e+00) (12, 6.36209778129103487032e+00) (13, -1.55925592688068359593e+00) (0, 4.65592616284963245477e+00) (1, 8.31014186927841180808e-02) (2, 1.19197693545536803628e-01) (3, 1.26514506418423516854e-01) (4, 1.05445430466700358629e-02) (5, 1.10018619500334180472e+00) (6, 7.03085196999328365663e-01) (7, 1.50000000000000000000e+03) (8, 7.71496078131615026230e-01) (9, 5.50023254617351908813e-01) (10, 1.50000000000000000000e+03) (11, 2.44990937852072443448e+00) (12, 4.84953404360594753086e+00) (13, -8.74904220941306487447e-01) (0, -2.97268086853495141497e+01) (1, -3.23155688570694932249e-01) (2, -4.87114677654465588752e-01) (3, -3.09288042114930161741e-01) (4, -4.91638625489433989113e-01) (5, 8.68236265013753949482e-01) (6, 7.65228224638244580724e-01) (7, 7.54907790320214489022e-01) (8, -2.45345545004783338605e-01) (9, -3.59237689309263641402e-01) (10, 6.34121907410579677133e+00) (11, 2.00162374324901498612e-01) (12, 4.55624866536282646656e-01) (13, -1.09370198051261224848e+00) (0, -8.59514553750408971666e+00) (1, -5.62235766226558797420e-01) (2, -6.50041994774848030936e-01) (3, -5.44042253071575498957e-01) (4, -6.70260545933753504322e-01) (5, 1.39334818826346285014e+00) (6, 8.58528389157582672020e-01) (7, 2.36133356363090607388e+00) (8, 2.55506712402199298584e-01) (9, 2.63467798027321342680e-01) (10, 1.05517791760008883273e+01) (11, 4.16254072910031858168e-01) (12, 8.98919268992000031204e-01) (13, -9.38275922212059354521e-01) (0, -2.91574422411458407112e+01) (1, -4.28818800996997484543e-01) (2, -5.96983300101023628415e-01) (3, -5.19221463751059486569e-01) (4, -4.49427673172215713659e-01) (5, 2.98032198712608131785e+00) (6, -2.09450888504828208747e-01) (7, 5.60259795569156393569e-01) (8, 2.16867619794752664042e-01) (9, -6.13786061793115567120e-01) (10, 7.08994473070725117481e+00) (11, -1.75214119970440139473e-02) (12, 3.32008624905331395372e-01) (13, -7.78437157902409193611e-01) (0, 4.59107868998408630290e+00) (1, 2.84951085452373020779e-01) (2, 1.88263977174098151579e-01) (3, 2.95563871268565758754e-01) (4, 2.34268779162699947172e-01) (5, -2.14416881628371980284e+00) (6, -2.81476013379815925841e-01) (7, 6.82106770054122613089e+00) (8, -2.83473177088263417200e-01) (9, -6.59876279435839929732e-01) (10, -4.19622709215813838313e+00) (11, -1.74876044997335577946e+00) (12, -1.48401032115749198503e+00) (13, 5.13718710037970427429e-01) (14, 6.51313279784840659659e-01) (15, 9.73160635125873141327e-01) (16, -3.87902554205431654433e-02) (17, 5.81048609470614874084e-01) (18, -1.63567007833787358972e-01) (19, -2.63817176457868562967e-01) (20, 7.56450433272830902176e-01) (21, 7.65115616004027332409e-01) (22, 1.12360631547915423845e+00) (23, 6.44224546820982735262e-01) (24, 2.67289816791627887760e-01) 
