FANN_FLO_2.1
num_layers=3
learning_rate=0.700000
connection_rate=1.000000
network_type=0
learning_momentum=0.000000
training_algorithm=2
train_error_function=1
train_stop_function=1
cascade_output_change_fraction=0.010000
quickprop_decay=-0.000100
quickprop_mu=1.750000
rprop_increase_factor=1.200000
rprop_decrease_factor=0.500000
rprop_delta_min=0.000000
rprop_delta_max=50.000000
rprop_delta_zero=0.100000
cascade_output_stagnation_epochs=12
cascade_candidate_change_fraction=0.010000
cascade_candidate_stagnation_epochs=12
cascade_max_out_epochs=150
cascade_min_out_epochs=50
cascade_max_cand_epochs=150
cascade_min_cand_epochs=50
cascade_num_candidate_groups=2
bit_fail_limit=1.00000000000000005551e-01
cascade_candidate_limit=1.00000000000000000000e+03
cascade_weight_multiplier=4.00000000000000022204e-01
cascade_activation_functions_count=10
cascade_activation_functions=3 5 7 8 10 11 14 15 16 17 
cascade_activation_steepnesses_count=4
cascade_activation_steepnesses=2.50000000000000000000e-01 5.00000000000000000000e-01 7.50000000000000000000e-01 1.00000000000000000000e+00 
layer_sizes=10 4 2 
scale_included=0
neurons (num_inputs, activation_function, activation_steepness)=(0, 0, 0.00000000000000000000e+00) (0, 0, 0.00000000000000000000e+00) (0, 0, 0.00000000000000000000e+00) (0, 0, 0.00000000000000000000e+00) (0, 0, 0.00000000000000000000e+00) (0, 0, 0.00000000000000000000e+00) (0, 0, 0.00000000000000000000e+00) (0, 0, 0.00000000000000000000e+00) (0, 0, 0.00000000000000000000e+00) (0, 0, 0.00000000000000000000e+00) (10, 6, 5.00000000000000000000e-01) (10, 6, 5.00000000000000000000e-01) (10, 6, 5.00000000000000000000e-01) (0, 6, 0.00000000000000000000e+00) (4, 4, 5.00000000000000000000e-01) (0, 4, 0.00000000000000000000e+00) 
connections (connected_to_neuron, weight)=(0, -4.66031627583741447918e-01) (1, 1.26396707694941534683e+00) (2, 7.57973272958078481132e-01) (3, 1.32632558751214912895e+00) (4, 1.55729620288713355158e+00) (5, 1.80995980653224064483e+00) (6, 2.08778041838980993328e-01) (7, 1.91182853549511633240e+00) (8, 2.32484436536488692226e+00) (9, -3.97276910763618373856e-01) (0, 2.36138642685097055463e+00) (1, -1.30942219155479566695e+00) (2, -2.43678938373612563595e+00) (3, -7.89784379351858967233e-01) (4, -1.31027502875981927133e+00) (5, -1.28986918470271327841e+00) (6, 1.42762874179518856055e-01) (7, -7.79470357786981593584e-01) (8, -7.70713269166010905842e-01) (9, 2.13974961821592746247e+00) (0, -5.39448292780160265636e-01) (1, 1.30742631729656233475e+00) (2, 8.33990566171875391532e-01) (3, 1.47136104058478633938e+00) (4, 1.22832902934226195768e+00) (5, 1.64571641388592837529e+00) (6, 3.47131078401060833016e-01) (7, 1.97376495553326147814e+00) (8, 2.25393263006863753262e+00) (9, -3.34335079577402050077e-01) (10, 3.64287867198145098868e-01) (11, -2.55472948867729996891e+02) (12, 4.40215309383022446177e-01) (13, -7.50699838696080812284e-01) 
