FANN_FLO_2.1
num_layers=3
learning_rate=0.700000
connection_rate=1.000000
network_type=0
learning_momentum=0.000000
training_algorithm=2
train_error_function=1
train_stop_function=1
cascade_output_change_fraction=0.010000
quickprop_decay=-0.000100
quickprop_mu=1.750000
rprop_increase_factor=1.200000
rprop_decrease_factor=0.500000
rprop_delta_min=0.000000
rprop_delta_max=50.000000
rprop_delta_zero=0.100000
cascade_output_stagnation_epochs=12
cascade_candidate_change_fraction=0.010000
cascade_candidate_stagnation_epochs=12
cascade_max_out_epochs=150
cascade_min_out_epochs=50
cascade_max_cand_epochs=150
cascade_min_cand_epochs=50
cascade_num_candidate_groups=2
bit_fail_limit=1.00000000000000005551e-01
cascade_candidate_limit=1.00000000000000000000e+03
cascade_weight_multiplier=4.00000000000000022204e-01
cascade_activation_functions_count=10
cascade_activation_functions=3 5 7 8 10 11 14 15 16 17 
cascade_activation_steepnesses_count=4
cascade_activation_steepnesses=2.50000000000000000000e-01 5.00000000000000000000e-01 7.50000000000000000000e-01 1.00000000000000000000e+00 
layer_sizes=17 4 2 
scale_included=0
neurons (num_inputs, activation_function, activation_steepness)=(0, 0, 0.00000000000000000000e+00) (0, 0, 0.00000000000000000000e+00) (0, 0, 0.00000000000000000000e+00) (0, 0, 0.00000000000000000000e+00) (0, 0, 0.00000000000000000000e+00) (0, 0, 0.00000000000000000000e+00) (0, 0, 0.00000000000000000000e+00) (0, 0, 0.00000000000000000000e+00) (0, 0, 0.00000000000000000000e+00) (0, 0, 0.00000000000000000000e+00) (0, 0, 0.00000000000000000000e+00) (0, 0, 0.00000000000000000000e+00) (0, 0, 0.00000000000000000000e+00) (0, 0, 0.00000000000000000000e+00) (0, 0, 0.00000000000000000000e+00) (0, 0, 0.00000000000000000000e+00) (0, 0, 0.00000000000000000000e+00) (17, 6, 5.00000000000000000000e-01) (17, 6, 5.00000000000000000000e-01) (17, 6, 5.00000000000000000000e-01) (0, 6, 0.00000000000000000000e+00) (4, 4, 5.00000000000000000000e-01) (0, 4, 0.00000000000000000000e+00) 
connections (connected_to_neuron, weight)=(0, -1.51395131053181897229e+00) (1, 3.75435395880957700765e-01) (2, 3.90350022634876525629e+00) (3, -7.77128490960577247848e-03) (4, 1.08456510345479997803e-01) (5, 3.63293913592172112992e-01) (6, -1.62573211826234143018e+00) (7, -1.51720973524243363251e+00) (8, -1.08718832977953394625e+00) (9, -7.39525635982992479711e-01) (10, -3.52516415911181962839e-02) (11, -1.46361570467861468181e+00) (12, -1.04902007184312284771e+00) (13, -8.16948205377112546266e-01) (14, -1.66728885004245541701e+00) (15, -2.68477493217312224161e+00) (16, 3.35207404323287383452e-01) (0, -8.12295441442712373714e+00) (1, -9.70182484767842523432e-02) (2, -3.01999113340427483010e+00) (3, 1.92816596313590410405e-01) (4, 9.67737823569637944932e-02) (5, 3.57136626345713192876e+00) (6, -1.84294027737732890593e+00) (7, -1.76432690582657336620e+00) (8, -2.26468538554140152996e+00) (9, -1.93283309168472983153e+00) (10, 2.38986002765576938112e-01) (11, -4.60159773293776830361e-01) (12, -2.36744599820347900732e+00) (13, 1.21509972474848026991e+00) (14, -3.01092195196838785520e+00) (15, -2.05304755103103975244e+00) (16, 6.38827851763683840502e-01) (0, -1.92793228683420592162e+00) (1, -7.62804563213167918789e-01) (2, 1.86668163099408843664e+01) (3, -1.27734317138514574808e+00) (4, -6.53862468410425834442e-01) (5, 2.44515321769505433736e+00) (6, -4.66693750178868549394e-01) (7, -5.04048073987754086112e-01) (8, -3.46929691286340047274e-01) (9, -8.01102715528206221762e-01) (10, -1.95552450074050421236e+00) (11, 2.95734614538473117307e+00) (12, 2.33798380009544404246e+00) (13, 2.21352306224474171259e+00) (14, -6.35185419638354620275e+00) (15, -8.36291173415277633296e+00) (16, 2.08333106519302202475e-01) (17, 2.82671285805604455277e+01) (18, 4.18193173068278838400e+01) (19, 1.05114770285903382785e+01) (20, 2.39081609181934245933e-01) 
