FANN_FLO_2.1
num_layers=3
learning_rate=0.700000
connection_rate=1.000000
network_type=0
learning_momentum=0.000000
training_algorithm=2
train_error_function=1
train_stop_function=1
cascade_output_change_fraction=0.010000
quickprop_decay=-0.000100
quickprop_mu=1.750000
rprop_increase_factor=1.200000
rprop_decrease_factor=0.500000
rprop_delta_min=0.000000
rprop_delta_max=50.000000
rprop_delta_zero=0.100000
cascade_output_stagnation_epochs=12
cascade_candidate_change_fraction=0.010000
cascade_candidate_stagnation_epochs=12
cascade_max_out_epochs=150
cascade_min_out_epochs=50
cascade_max_cand_epochs=150
cascade_min_cand_epochs=50
cascade_num_candidate_groups=2
bit_fail_limit=1.00000000000000005551e-01
cascade_candidate_limit=1.00000000000000000000e+03
cascade_weight_multiplier=4.00000000000000022204e-01
cascade_activation_functions_count=10
cascade_activation_functions=3 5 7 8 10 11 14 15 16 17 
cascade_activation_steepnesses_count=4
cascade_activation_steepnesses=2.50000000000000000000e-01 5.00000000000000000000e-01 7.50000000000000000000e-01 1.00000000000000000000e+00 
layer_sizes=9 4 2 
scale_included=0
neurons (num_inputs, activation_function, activation_steepness)=(0, 0, 0.00000000000000000000e+00) (0, 0, 0.00000000000000000000e+00) (0, 0, 0.00000000000000000000e+00) (0, 0, 0.00000000000000000000e+00) (0, 0, 0.00000000000000000000e+00) (0, 0, 0.00000000000000000000e+00) (0, 0, 0.00000000000000000000e+00) (0, 0, 0.00000000000000000000e+00) (0, 0, 0.00000000000000000000e+00) (9, 6, 5.00000000000000000000e-01) (9, 6, 5.00000000000000000000e-01) (9, 6, 5.00000000000000000000e-01) (0, 6, 0.00000000000000000000e+00) (4, 4, 5.00000000000000000000e-01) (0, 4, 0.00000000000000000000e+00) 
connections (connected_to_neuron, weight)=(0, 7.79553240057878138458e+00) (1, -2.41087218702156924621e+00) (2, -6.39337932055265567577e-01) (3, -1.50190443398125461627e+00) (4, -7.23344926987710490351e+00) (5, 5.94636334772062458143e-01) (6, 1.74128276675909035021e+01) (7, -2.39939536715322487836e+00) (8, 1.39663043452150775758e-01) (0, 1.86522945984875860859e+01) (1, 1.45199999737739562988e+03) (2, -9.81002844253448813561e+00) (3, -1.28068111289902617500e+01) (4, -7.19284713818702070576e-01) (5, -4.54026462942868924699e+00) (6, 1.60152867851632549900e+02) (7, 1.24275075646124122386e+01) (8, 3.47162543411046620179e+00) (0, 2.02404518647752951210e+01) (1, 1.75702008316818591993e+00) (2, 5.58499515288876047236e+00) (3, 3.62048572966296866582e+00) (4, -2.81234567056645001770e+00) (5, 2.15142591547806150132e+00) (6, 8.88366634125280597800e+02) (7, 1.76746391425396720543e+00) (8, -4.81145415002351573008e+00) (9, -2.01861246375413294629e+01) (10, -1.23543764738651056234e+01) (11, 2.44225911457116851011e+01) (12, -2.69777910174320600944e+00) 
