FANN_FLO_2.1
num_layers=3
learning_rate=0.700000
connection_rate=1.000000
network_type=0
learning_momentum=0.000000
training_algorithm=2
train_error_function=1
train_stop_function=1
cascade_output_change_fraction=0.010000
quickprop_decay=-0.000100
quickprop_mu=1.750000
rprop_increase_factor=1.200000
rprop_decrease_factor=0.500000
rprop_delta_min=0.000000
rprop_delta_max=50.000000
rprop_delta_zero=0.100000
cascade_output_stagnation_epochs=12
cascade_candidate_change_fraction=0.010000
cascade_candidate_stagnation_epochs=12
cascade_max_out_epochs=150
cascade_min_out_epochs=50
cascade_max_cand_epochs=150
cascade_min_cand_epochs=50
cascade_num_candidate_groups=2
bit_fail_limit=1.00000000000000005551e-01
cascade_candidate_limit=1.00000000000000000000e+03
cascade_weight_multiplier=4.00000000000000022204e-01
cascade_activation_functions_count=10
cascade_activation_functions=3 5 7 8 10 11 14 15 16 17 
cascade_activation_steepnesses_count=4
cascade_activation_steepnesses=2.50000000000000000000e-01 5.00000000000000000000e-01 7.50000000000000000000e-01 1.00000000000000000000e+00 
layer_sizes=17 11 2 
scale_included=0
neurons (num_inputs, activation_function, activation_steepness)=(0, 0, 0.00000000000000000000e+00) (0, 0, 0.00000000000000000000e+00) (0, 0, 0.00000000000000000000e+00) (0, 0, 0.00000000000000000000e+00) (0, 0, 0.00000000000000000000e+00) (0, 0, 0.00000000000000000000e+00) (0, 0, 0.00000000000000000000e+00) (0, 0, 0.00000000000000000000e+00) (0, 0, 0.00000000000000000000e+00) (0, 0, 0.00000000000000000000e+00) (0, 0, 0.00000000000000000000e+00) (0, 0, 0.00000000000000000000e+00) (0, 0, 0.00000000000000000000e+00) (0, 0, 0.00000000000000000000e+00) (0, 0, 0.00000000000000000000e+00) (0, 0, 0.00000000000000000000e+00) (0, 0, 0.00000000000000000000e+00) (17, 6, 5.00000000000000000000e-01) (17, 6, 5.00000000000000000000e-01) (17, 6, 5.00000000000000000000e-01) (17, 6, 5.00000000000000000000e-01) (17, 6, 5.00000000000000000000e-01) (17, 6, 5.00000000000000000000e-01) (17, 6, 5.00000000000000000000e-01) (17, 6, 5.00000000000000000000e-01) (17, 6, 5.00000000000000000000e-01) (17, 6, 5.00000000000000000000e-01) (0, 6, 0.00000000000000000000e+00) (11, 6, 5.00000000000000000000e-01) (0, 6, 0.00000000000000000000e+00) 
connections (connected_to_neuron, weight)=(0, -1.08561375683422074445e+01) (1, -9.34321283181799300266e-02) (2, -4.23702000459325878179e-02) (3, -2.12485022731651096439e-01) (4, -5.52322863420141307866e-02) (5, 5.02264035643577355650e-01) (6, -3.66512110856721140539e-01) (7, 3.29658090051321961411e-01) (8, 6.22647776438629452223e-01) (9, 3.13245879714523134396e+00) (10, 1.13503846407264824547e-01) (11, 1.06558751643100885209e-01) (12, 2.77410819786972107082e+00) (13, 3.22431090983602208766e+00) (14, 1.92361830326678773240e+00) (15, 4.79818954239607542434e+00) (16, -7.95868585027149744171e-01) (0, 3.77436091213678270861e+00) (1, 7.15208509049226837107e-01) (2, 6.99796774468233184763e-01) (3, 6.19090304753591613718e-01) (4, 5.72886102876474567758e-01) (5, -3.63287660550190816267e+00) (6, 1.73605747092745654747e+00) (7, 7.20067088011016931404e+00) (8, -5.06605954739945407717e-01) (9, -5.87488980028587803872e+00) (10, -6.68792418857885984096e-01) (11, -5.88777745182166634130e-01) (12, -3.83812574126839667343e+00) (13, -4.48607558139464845937e+00) (14, -5.78405098944530315919e+00) (15, -4.15455860491821749036e+00) (16, 3.73138787208734390433e-01) (0, -3.54678522083980141133e+01) (1, -8.32339652085018061323e-02) (2, -2.04939601590604869585e-01) (3, -1.49700531383724300127e-01) (4, -7.72370822930049799604e-02) (5, 1.68047930371249454318e+00) (6, -8.48028828678504154048e-01) (7, 9.53657733929092699121e-01) (8, 1.11933142189710910230e+00) (9, 3.41374044933613385311e+00) (10, -6.49877656153026950214e-01) (11, -5.85797249870717129383e-01) (12, 2.60144724220554346417e+00) (13, 1.73967748960182877482e+00) (14, 1.02268992453788616359e+01) (15, 3.97750024442392779989e+00) (16, -7.99462133402009555994e-01) (0, -4.31367355712179101346e+00) (1, -6.68147005720862025013e-02) (2, -9.36706461592444056263e-02) (3, -1.66175978688789194315e-01) (4, -3.63075532599218334107e-02) (5, 1.21125532081004694263e+00) (6, -6.94270166201221405194e-03) (7, -2.41970828836174906007e-01) (8, 4.89527855479645002124e-01) (9, 2.36560516755810912315e+00) (10, 6.39021349477954525575e-01) (11, 7.90972616004256945388e-01) (12, 2.27539094852753409626e+00) (13, 2.00382256133625524797e+00) (14, 1.64821763800367770969e+00) (15, 2.28113114936800798205e+00) (16, -9.68650011216763195954e-01) (0, -7.98418859524091306668e-01) (1, 8.58650205912371289330e-01) (2, 7.84788968297024269738e-01) (3, 8.75209925951738965111e-01) (4, 8.15441182138700981774e-01) (5, 3.38020882034780922876e-01) (6, -2.81406825260263060429e+00) (7, -3.60139177414346001171e+00) (8, 1.17481409017410420859e+00) (9, 3.93177765559541647633e+00) (10, 7.79093299363366487142e+00) (11, 7.38303045915823563661e+00) (12, -7.37863484687702131382e-01) (13, -2.14710869428484718568e-01) (14, 4.49086314733884872652e+00) (15, 3.85632306357683285469e+00) (16, -1.38231172935836843507e+00) (0, -3.23823553156255083962e+00) (1, -3.59784290656828820154e-02) (2, -1.47652402982497345935e-02) (3, -5.36538139447951256678e-02) (4, -4.24434915647291938212e-02) (5, 4.08313705367972845650e-01) (6, -6.38387259787744770767e-02) (7, -1.42513352318835134769e-01) (8, 5.53390800693995488224e-01) (9, 2.57175498064990160074e+00) (10, 1.85483740986329193046e-01) (11, 3.27849525801711727535e-01) (12, 3.21226843424441588226e+00) (13, 3.46976513685334797543e+00) (14, 2.11523053070863786829e+00) (15, 2.40050319110047283289e+00) (16, -7.84308163088338061719e-01) (0, 9.74566272780674425213e-01) (1, 6.22693945486707089998e-01) (2, 6.43764373679322710053e-01) (3, 6.88813489694757086212e-01) (4, 6.36008110661668291108e-01) (5, 2.76454816237519385158e-01) (6, 4.23904448180410220459e+00) (7, -4.41191421942604655726e+00) (8, 2.08313651101922348019e+00) (9, 3.57039756514549999622e+00) (10, 3.61737865764293875515e+00) (11, 4.87879574978759400494e+00) (12, -1.02574928338318716037e+00) (13, -8.36460016990951515936e-01) (14, 4.71905610748239912056e+00) (15, 3.10775206501235512491e+00) (16, -6.68164097285912306212e-01) (0, 3.95581473010147322000e+00) (1, 3.62278205802737840457e-01) (2, 2.68597376992999903322e-01) (3, 3.94937363913356431766e-01) (4, 3.66640684655009874149e-01) (5, 7.81653628036397152279e-01) (6, -2.58635048731121885979e+00) (7, 1.56473292580791595308e-01) (8, -7.16252947687980451308e-02) (9, -3.86721369758025595997e-02) (10, -5.89913070847289805476e-02) (11, -4.38934806096620611093e-01) (12, 6.90166085610955715168e-01) (13, -4.40949848791444831697e-01) (14, 6.28254104744919050773e-01) (15, 7.83129646248434729827e-01) (16, -4.40362090111268811299e-01) (0, 1.29903859920779596315e+00) (1, 2.21768096126491870423e-01) (2, 2.15176560021812762757e-01) (3, 2.47040219642097796937e-01) (4, 1.11932136155540776223e-01) (5, -5.26105052008652851470e+00) (6, 3.25234249894560267791e+00) (7, 5.45810867660647680566e+00) (8, 1.83241912661095879278e-01) (9, -3.49061393244202289310e+00) (10, -9.28948238423216512971e-03) (11, 3.15684202240695932495e-01) (12, -6.34065890302101586862e-01) (13, -2.16128542522299710305e-01) (14, -1.78224665930735670649e+00) (15, -8.59307760723442726203e-01) (16, 9.33396116690563437679e-01) (0, 1.53024597296457454121e+00) (1, 3.47268009354420537083e-01) (2, 4.19634388555832738010e-01) (3, 3.54724133183308476536e-01) (4, 3.91021566261597508518e-01) (5, 1.78215185414250987250e+00) (6, 4.61058052729415357440e-01) (7, 2.69643726592307686474e+00) (8, -1.82236482089762263925e+00) (9, -6.59395378849139479627e+00) (10, 5.38218123473871123963e+00) (11, 6.74263529081633894435e+00) (12, -2.26785751085315734343e+00) (13, -2.83317100906532859383e+00) (14, -3.79086898991361609390e+00) (15, -3.51356822281121949914e+00) (16, 4.36156672559884051044e-01) (17, 4.30876799691005230031e-01) (18, 6.08451075801460294912e-01) (19, 5.49414541851265258998e-01) (20, 4.35799524951262950978e-01) (21, -1.08928255265032650212e-01) (22, 4.18822199539958084369e-01) (23, -1.26650474493777115415e-01) (24, 4.16704227593762521753e-01) (25, 9.73507004146922406973e-03) (26, 6.69871509024707934010e-01) (27, 3.39821983679744810125e-01) 
