FANN_FLO_2.1
num_layers=3
learning_rate=0.700000
connection_rate=1.000000
network_type=0
learning_momentum=0.000000
training_algorithm=2
train_error_function=1
train_stop_function=1
cascade_output_change_fraction=0.010000
quickprop_decay=-0.000100
quickprop_mu=1.750000
rprop_increase_factor=1.200000
rprop_decrease_factor=0.500000
rprop_delta_min=0.000000
rprop_delta_max=50.000000
rprop_delta_zero=0.100000
cascade_output_stagnation_epochs=12
cascade_candidate_change_fraction=0.010000
cascade_candidate_stagnation_epochs=12
cascade_max_out_epochs=150
cascade_min_out_epochs=50
cascade_max_cand_epochs=150
cascade_min_cand_epochs=50
cascade_num_candidate_groups=2
bit_fail_limit=1.00000000000000005551e-01
cascade_candidate_limit=1.00000000000000000000e+03
cascade_weight_multiplier=4.00000000000000022204e-01
cascade_activation_functions_count=10
cascade_activation_functions=3 5 7 8 10 11 14 15 16 17 
cascade_activation_steepnesses_count=4
cascade_activation_steepnesses=2.50000000000000000000e-01 5.00000000000000000000e-01 7.50000000000000000000e-01 1.00000000000000000000e+00 
layer_sizes=15 11 2 
scale_included=0
neurons (num_inputs, activation_function, activation_steepness)=(0, 0, 0.00000000000000000000e+00) (0, 0, 0.00000000000000000000e+00) (0, 0, 0.00000000000000000000e+00) (0, 0, 0.00000000000000000000e+00) (0, 0, 0.00000000000000000000e+00) (0, 0, 0.00000000000000000000e+00) (0, 0, 0.00000000000000000000e+00) (0, 0, 0.00000000000000000000e+00) (0, 0, 0.00000000000000000000e+00) (0, 0, 0.00000000000000000000e+00) (0, 0, 0.00000000000000000000e+00) (0, 0, 0.00000000000000000000e+00) (0, 0, 0.00000000000000000000e+00) (0, 0, 0.00000000000000000000e+00) (0, 0, 0.00000000000000000000e+00) (15, 6, 5.00000000000000000000e-01) (15, 6, 5.00000000000000000000e-01) (15, 6, 5.00000000000000000000e-01) (15, 6, 5.00000000000000000000e-01) (15, 6, 5.00000000000000000000e-01) (15, 6, 5.00000000000000000000e-01) (15, 6, 5.00000000000000000000e-01) (15, 6, 5.00000000000000000000e-01) (15, 6, 5.00000000000000000000e-01) (15, 6, 5.00000000000000000000e-01) (0, 6, 0.00000000000000000000e+00) (11, 6, 5.00000000000000000000e-01) (0, 6, 0.00000000000000000000e+00) 
connections (connected_to_neuron, weight)=(0, 2.48591450681452563742e+00) (1, 4.37536878384803262776e-01) (2, 3.80520289637301889485e-01) (3, 3.43732355035995029713e-01) (4, 4.06607625879500833577e-01) (5, 1.82070952604618496729e+00) (6, 9.61052167864385048501e-02) (7, 1.27986725450996523534e+01) (8, -4.08743963772698226666e-01) (9, 2.38740917708405928077e-02) (10, 1.96081595763328092596e-01) (11, 9.40273025391430650188e-01) (12, 2.15402420680693096333e-01) (13, -1.78917600553741884539e+00) (14, -2.65171707278229404348e-02) (0, -7.23224796794193713900e-01) (1, -1.80844923951932884387e-01) (2, -1.40510021248170802188e-01) (3, -2.31739417699070304746e-02) (4, -1.60268048295089698962e-01) (5, 7.21628087775137649906e-01) (6, 5.69312032193787564971e-01) (7, -8.22386831249239413921e+00) (8, 1.02783424170755210980e+00) (9, 1.01712692420738881616e-01) (10, 8.56577194904736383130e-01) (11, 3.46839541355387037669e+00) (12, -3.02041138733162988217e+01) (13, 1.02664778281631829948e+00) (14, 2.23436981518514793388e-01) (0, 7.78618473013128920002e-01) (1, 3.17825047825011641756e-01) (2, 3.68124371920260762270e-01) (3, 4.37404444966945027407e-01) (4, 3.98155784760150288637e-01) (5, 2.83465005499935362998e-01) (6, -2.69895955074009097352e-01) (7, 1.27875422158781653081e+01) (8, -4.16629755134030166364e-01) (9, -1.32395767343853137943e-01) (10, 2.25410560413959043524e-01) (11, 4.11951959330835004724e-01) (12, 1.17656606709363442675e+00) (13, -8.67392882719675073488e-01) (14, 6.69119915793325026332e-02) (0, 2.13315210388412779263e-01) (1, 7.24388301026599457089e-01) (2, 7.53322016101853897396e-01) (3, 7.18647569072024872128e-01) (4, 7.16583672565000107113e-01) (5, -9.89111055854129062048e-01) (6, -2.85335810957161095658e-01) (7, -7.40491955254560441091e+00) (8, -2.67146451193347733710e-01) (9, 3.50012826131442800204e-01) (10, 9.07894824328540073211e-01) (11, 6.38182214249106594117e-01) (12, 2.41326038189312219728e+00) (13, 1.02780506883912359228e+00) (14, 5.14478843119762441205e-01) (0, -5.31421053208180094174e+00) (1, -3.43898777315955361811e-01) (2, -5.05262721727233188318e-01) (3, -3.57306469629149636713e-01) (4, -3.49577401230673989740e-01) (5, 2.94044357500890474189e-01) (6, 2.30742451706710954840e-01) (7, 2.46373923400945127327e+00) (8, 1.17544776224316516178e+00) (9, -3.14239895638385863252e-03) (10, 5.90022036965352048021e-01) (11, 1.58365358326291238988e+00) (12, 1.15970796392950603604e+00) (13, 3.57485115251914908896e+00) (14, 9.38600532775720058920e-02) (0, -1.31094748240504754833e+00) (1, -3.11738169281868426896e-01) (2, -2.73674374907402317980e-01) (3, -3.67122760503677814103e-01) (4, -2.69818431227592747668e-01) (5, 1.11377340234317362411e-01) (6, 3.43479440406170954958e-01) (7, 1.68479026761639150145e+00) (8, 1.12647258794695770412e+00) (9, 4.03113407546503155210e-01) (10, 5.43771412958583222341e-01) (11, 1.57484140161132013525e+00) (12, 1.07695524617859161864e+00) (13, 2.72710879373699510708e+00) (14, -1.38486541742483555001e-02) (0, -6.64154708222487344393e-01) (1, -7.59809363394727266261e-02) (2, -6.92249882727613008448e-02) (3, -1.55616802325819952868e-01) (4, -1.17719327262019127223e-01) (5, 2.92838527569623585656e-01) (6, 3.46688451567737310199e-01) (7, 1.41943929426898685087e+00) (8, 1.05741519751974744068e+00) (9, -8.88854604206272547184e-02) (10, 4.63244027384067558195e-01) (11, 2.27030684638746205195e+00) (12, 7.46746697212668508747e-01) (13, 2.03821311771096569387e+00) (14, -5.15722357644055273695e-01) (0, 2.62640393733167498702e-01) (1, 7.52873493709635854820e-01) (2, 6.86480043807101369957e-01) (3, 7.78350634851527112268e-01) (4, 8.30968266704153912805e-01) (5, -1.41068168232796242734e+00) (6, -6.47457340949603443736e-02) (7, -7.84105637373405706114e+00) (8, 3.95768708390743462200e-01) (9, 1.10616465422714371769e+00) (10, 7.66153096979813486023e-01) (11, 4.58020134616824337037e-01) (12, 2.25242168493191385892e+00) (13, 1.01055681829505239477e+00) (14, 5.73834770812499228576e-01) (0, 2.43576262970928913987e+00) (1, 4.31766120590423074788e-01) (2, 4.05056027569030252522e-01) (3, 3.33133680619452976490e-01) (4, 3.33217603959296726490e-01) (5, 1.32119546025438117098e+00) (6, -4.10765036094364210939e-01) (7, 1.28858336763028269445e+01) (8, -4.87500229114933736341e-01) (9, 4.32667386199960118942e-02) (10, 1.05830641731383817694e-01) (11, 1.04134521013292791203e+00) (12, 1.61390710692575878316e-01) (13, -1.05246733875576592432e+00) (14, -2.11478353148438144582e-02) (0, -3.63437503934711414466e-01) (1, -5.30757828556421562549e-02) (2, -8.88091473780992790577e-02) (3, -9.79705749951723381397e-02) (4, -1.56568601628434916906e-01) (5, 6.90138740941937944839e-01) (6, 3.11733140118791302031e-02) (7, -8.10743718053343265240e+00) (8, 9.26664633174169805052e-01) (9, -1.13851373569733155255e-01) (10, 8.98319095050743920972e-01) (11, 2.13326078019690745791e+00) (12, -2.85665336216217724541e+01) (13, 7.19975400164244883072e-01) (14, 9.32479711076868861275e-02) (15, 5.10687386504262708087e-01) (16, -2.45162570944135904671e-01) (17, 4.94657283536046765704e-01) (18, -2.53437554886158933343e-01) (19, 6.04271234120582589888e-01) (20, 5.47855825270866514387e-01) (21, 5.17135316169099801265e-01) (22, -2.61324642648514737786e-01) (23, 5.01118844262212426166e-01) (24, -1.57122604380903835297e-01) (25, 2.99301266429608525677e-01) 
