FANN_FLO_2.1
num_layers=3
learning_rate=0.700000
connection_rate=1.000000
network_type=0
learning_momentum=0.000000
training_algorithm=2
train_error_function=1
train_stop_function=1
cascade_output_change_fraction=0.010000
quickprop_decay=-0.000100
quickprop_mu=1.750000
rprop_increase_factor=1.200000
rprop_decrease_factor=0.500000
rprop_delta_min=0.000000
rprop_delta_max=50.000000
rprop_delta_zero=0.100000
cascade_output_stagnation_epochs=12
cascade_candidate_change_fraction=0.010000
cascade_candidate_stagnation_epochs=12
cascade_max_out_epochs=150
cascade_min_out_epochs=50
cascade_max_cand_epochs=150
cascade_min_cand_epochs=50
cascade_num_candidate_groups=2
bit_fail_limit=1.00000000000000005551e-01
cascade_candidate_limit=1.00000000000000000000e+03
cascade_weight_multiplier=4.00000000000000022204e-01
cascade_activation_functions_count=10
cascade_activation_functions=3 5 7 8 10 11 14 15 16 17 
cascade_activation_steepnesses_count=4
cascade_activation_steepnesses=2.50000000000000000000e-01 5.00000000000000000000e-01 7.50000000000000000000e-01 1.00000000000000000000e+00 
layer_sizes=9 11 2 
scale_included=0
neurons (num_inputs, activation_function, activation_steepness)=(0, 0, 0.00000000000000000000e+00) (0, 0, 0.00000000000000000000e+00) (0, 0, 0.00000000000000000000e+00) (0, 0, 0.00000000000000000000e+00) (0, 0, 0.00000000000000000000e+00) (0, 0, 0.00000000000000000000e+00) (0, 0, 0.00000000000000000000e+00) (0, 0, 0.00000000000000000000e+00) (0, 0, 0.00000000000000000000e+00) (9, 6, 5.00000000000000000000e-01) (9, 6, 5.00000000000000000000e-01) (9, 6, 5.00000000000000000000e-01) (9, 6, 5.00000000000000000000e-01) (9, 6, 5.00000000000000000000e-01) (9, 6, 5.00000000000000000000e-01) (9, 6, 5.00000000000000000000e-01) (9, 6, 5.00000000000000000000e-01) (9, 6, 5.00000000000000000000e-01) (9, 6, 5.00000000000000000000e-01) (0, 6, 0.00000000000000000000e+00) (11, 6, 5.00000000000000000000e-01) (0, 6, 0.00000000000000000000e+00) 
connections (connected_to_neuron, weight)=(0, 3.59252451737347711092e-01) (1, 4.95235214520936939397e-01) (2, 3.84265253831392261663e-01) (3, 4.73859260369783374944e-01) (4, 4.67176909138208362737e-01) (5, 3.98383542637130938502e+00) (6, -4.35946068098735217688e+00) (7, 2.21536857977481654869e-02) (8, 3.40095729759214981947e-02) (0, -8.05207117446114573056e+00) (1, -2.00475570419280990642e-01) (2, -3.38824485102146077953e-01) (3, -2.27469128230064321361e-01) (4, -2.83698078849761892162e-01) (5, 1.78781854464550971073e+00) (6, 1.54485288894073247157e+00) (7, 6.92532791388474899819e-01) (8, -6.61688056766785326346e-01) (0, 7.46198281043240463362e+00) (1, 5.87788179086219497727e-01) (2, 5.78377425240050979660e-01) (3, 6.10662743018638431991e-01) (4, 6.25822871492873855637e-01) (5, -7.36992509896153502602e-01) (6, -2.22751934953100683146e+00) (7, 1.94264835039229244451e+00) (8, 3.25016198053218519082e-01) (0, 1.26941866733390895661e+00) (1, 4.47842186057845426106e-01) (2, 6.05658625924865079426e-01) (3, 4.52756775284091306233e-01) (4, 4.88321272397319150471e-01) (5, 1.65145907816288850523e-01) (6, -1.21415327884593349239e+00) (7, 2.75657509123365118686e-01) (8, 9.00580827345266177186e-02) (0, 7.71641709410724074836e-01) (1, 3.65474184172126126402e-01) (2, 2.98559126572581601256e-01) (3, 2.77441737370463681334e-01) (4, 2.18568948225947662367e-01) (5, -2.39257597563396373630e+00) (6, 2.00272801717887372064e+00) (7, 2.88924190013092940799e-01) (8, 3.33805353753229117064e-01) (0, -1.06858073648512541531e+00) (1, -2.42198570413618169406e-01) (2, -3.55533740265398134905e-01) (3, -3.30489027096061815936e-01) (4, -3.20643103463678469378e-01) (5, 1.65971439551946597923e+00) (6, 1.03082069981666712977e+00) (7, 6.89866824441648512911e-02) (8, -2.16679973792939462029e-01) (0, 3.02794290533354548689e-01) (1, 6.15462962609162889116e-01) (2, 5.94681937318673692339e-01) (3, 5.08089017194142900102e-01) (4, 5.17180781882634721391e-01) (5, -2.05732529939261699070e+00) (6, -2.53122795278207624037e+00) (7, 7.13748740121451265284e-03) (8, -1.96359748897678085267e-02) (0, -6.24762658571231721538e+00) (1, -2.94060847504167666155e-01) (2, -2.26315094871549687960e-01) (3, -2.94817833943395724017e-01) (4, -3.79447935862569918353e-01) (5, 2.05320863699803135560e+00) (6, 9.62231728677535258498e-01) (7, 3.71111554288811762436e-01) (8, -3.42704302265439242348e-01) (0, -1.67693622223772020874e+00) (1, 3.12869610145803056511e-01) (2, 4.28749168172593619897e-01) (3, 3.38152052715535833549e-01) (4, 3.99350711956735215935e-01) (5, 1.42062684651276383008e+00) (6, 7.77550825797705869036e+00) (7, 4.22847666522296938840e-01) (8, 2.04249573246908955326e+00) (0, 7.15313431375798614020e-01) (1, 3.55884824428914725569e-01) (2, 3.86724699769376456526e-01) (3, 2.36440044377206448623e-01) (4, 3.91281906996129691390e-01) (5, -2.35248963174949565769e+00) (6, 2.03121496936450451898e+00) (7, 1.33177499084156936160e-01) (8, 3.10138420574327444701e-01) (9, 1.94084464648863919134e-01) (10, 5.86320481126150649942e-01) (11, 5.46626893779498690407e-01) (12, 1.85171211263400664615e-01) (13, 4.58390585803074179783e-01) (14, 6.52126469339283532101e-01) (15, -1.50276300405668306048e-01) (16, 5.80614410946284964510e-01) (17, -2.88063547935130837008e-01) (18, 5.14048963510078893435e-01) (19, 3.62183827206073283289e-01) 
