FANN_FLO_2.1
num_layers=3
learning_rate=0.700000
connection_rate=1.000000
network_type=0
learning_momentum=0.000000
training_algorithm=2
train_error_function=1
train_stop_function=1
cascade_output_change_fraction=0.010000
quickprop_decay=-0.000100
quickprop_mu=1.750000
rprop_increase_factor=1.200000
rprop_decrease_factor=0.500000
rprop_delta_min=0.000000
rprop_delta_max=50.000000
rprop_delta_zero=0.100000
cascade_output_stagnation_epochs=12
cascade_candidate_change_fraction=0.010000
cascade_candidate_stagnation_epochs=12
cascade_max_out_epochs=150
cascade_min_out_epochs=50
cascade_max_cand_epochs=150
cascade_min_cand_epochs=50
cascade_num_candidate_groups=2
bit_fail_limit=1.00000000000000005551e-01
cascade_candidate_limit=1.00000000000000000000e+03
cascade_weight_multiplier=4.00000000000000022204e-01
cascade_activation_functions_count=10
cascade_activation_functions=3 5 7 8 10 11 14 15 16 17 
cascade_activation_steepnesses_count=4
cascade_activation_steepnesses=2.50000000000000000000e-01 5.00000000000000000000e-01 7.50000000000000000000e-01 1.00000000000000000000e+00 
layer_sizes=9 4 2 
scale_included=0
neurons (num_inputs, activation_function, activation_steepness)=(0, 0, 0.00000000000000000000e+00) (0, 0, 0.00000000000000000000e+00) (0, 0, 0.00000000000000000000e+00) (0, 0, 0.00000000000000000000e+00) (0, 0, 0.00000000000000000000e+00) (0, 0, 0.00000000000000000000e+00) (0, 0, 0.00000000000000000000e+00) (0, 0, 0.00000000000000000000e+00) (0, 0, 0.00000000000000000000e+00) (9, 6, 5.00000000000000000000e-01) (9, 6, 5.00000000000000000000e-01) (9, 6, 5.00000000000000000000e-01) (0, 6, 0.00000000000000000000e+00) (4, 4, 5.00000000000000000000e-01) (0, 4, 0.00000000000000000000e+00) 
connections (connected_to_neuron, weight)=(0, -4.84134870066120770460e-01) (1, 1.70848611360965119133e+00) (2, 2.40115020534431788946e+00) (3, 6.25955019553589453452e-01) (4, 5.97501723654429023336e-02) (5, 1.47482514265743077431e+02) (6, -4.75222520563497285995e-01) (7, -1.11943176946549094453e+00) (8, -9.08721720247271713689e-01) (0, -2.04076758219673609629e-01) (1, 1.77063125892304684683e+00) (2, 3.51178623111732157724e+00) (3, 7.61955637743162883524e-01) (4, 8.35036038865402674425e-01) (5, 1.47214794732597653137e+02) (6, 2.74238766378114562361e-01) (7, -5.85859094761246979033e-01) (8, -1.96697448232957761149e+00) (0, -3.72351186766102459913e-01) (1, 1.66989091139897549709e+00) (2, 3.64356997342593835754e+00) (3, 5.75881555481854046086e-01) (4, 5.47669111378351752828e-02) (5, 1.47514989156094372902e+02) (6, -8.36950973375598872295e-01) (7, -9.17946256886358336047e-01) (8, -9.03610845475199875310e-01) (9, 2.09280539940465821758e+01) (10, 1.18873555691369698906e+01) (11, 7.93265578772146273678e+00) (12, -2.47833643381655033266e+00) 
