FANN_FLO_2.1
num_layers=3
learning_rate=0.700000
connection_rate=1.000000
network_type=0
learning_momentum=0.000000
training_algorithm=2
train_error_function=1
train_stop_function=1
cascade_output_change_fraction=0.010000
quickprop_decay=-0.000100
quickprop_mu=1.750000
rprop_increase_factor=1.200000
rprop_decrease_factor=0.500000
rprop_delta_min=0.000000
rprop_delta_max=50.000000
rprop_delta_zero=0.100000
cascade_output_stagnation_epochs=12
cascade_candidate_change_fraction=0.010000
cascade_candidate_stagnation_epochs=12
cascade_max_out_epochs=150
cascade_min_out_epochs=50
cascade_max_cand_epochs=150
cascade_min_cand_epochs=50
cascade_num_candidate_groups=2
bit_fail_limit=1.00000000000000005551e-01
cascade_candidate_limit=1.00000000000000000000e+03
cascade_weight_multiplier=4.00000000000000022204e-01
cascade_activation_functions_count=10
cascade_activation_functions=3 5 7 8 10 11 14 15 16 17 
cascade_activation_steepnesses_count=4
cascade_activation_steepnesses=2.50000000000000000000e-01 5.00000000000000000000e-01 7.50000000000000000000e-01 1.00000000000000000000e+00 
layer_sizes=11 4 2 
scale_included=0
neurons (num_inputs, activation_function, activation_steepness)=(0, 0, 0.00000000000000000000e+00) (0, 0, 0.00000000000000000000e+00) (0, 0, 0.00000000000000000000e+00) (0, 0, 0.00000000000000000000e+00) (0, 0, 0.00000000000000000000e+00) (0, 0, 0.00000000000000000000e+00) (0, 0, 0.00000000000000000000e+00) (0, 0, 0.00000000000000000000e+00) (0, 0, 0.00000000000000000000e+00) (0, 0, 0.00000000000000000000e+00) (0, 0, 0.00000000000000000000e+00) (11, 6, 5.00000000000000000000e-01) (11, 6, 5.00000000000000000000e-01) (11, 6, 5.00000000000000000000e-01) (0, 6, 0.00000000000000000000e+00) (4, 4, 5.00000000000000000000e-01) (0, 4, 0.00000000000000000000e+00) 
connections (connected_to_neuron, weight)=(0, -8.74492135078101529011e-01) (1, 2.17264938155586273538e+00) (2, 1.30572631027799546111e+00) (3, 1.64077332570286316127e+00) (4, 3.38125385747099960199e+00) (5, 2.03085939469308396355e+00) (6, 3.25057321358757400631e+00) (7, 2.07448026716714384321e+00) (8, 1.61674550080018275544e+00) (9, 4.51077417966663840598e-01) (10, -3.35194906879847653869e+00) (0, -8.03889603761107213176e-02) (1, 5.82651841264213321558e-01) (2, 5.60580647977590218467e-01) (3, -1.03736080796403937199e-01) (4, 1.52240584193058059448e+00) (5, 1.06580585451820564202e+00) (6, 1.33385692451032178418e+00) (7, 4.50441687026534698379e-01) (8, 1.64477469057698644228e+00) (9, 1.73033688007687036503e+00) (10, -1.68542036918641197074e-01) (0, -1.25077751674570580853e-01) (1, 2.22887411120996370428e+00) (2, 1.29380772080522477019e+00) (3, 1.55637334540713734299e+00) (4, 3.35791857943678939691e+00) (5, 2.05616274359197159782e+00) (6, 3.34371440429525756954e+00) (7, 2.10094167843466284040e+00) (8, 2.10639127872842557565e+00) (9, 3.13223128275906703699e-01) (10, -3.34584169004743703368e+00) (11, 1.86346163434810385695e+01) (12, 5.81016507508347657129e-01) (13, 1.86879270506925330153e+01) (14, -6.28526774285624645344e-01) 
