FANN_FLO_2.1
num_layers=3
learning_rate=0.700000
connection_rate=1.000000
network_type=0
learning_momentum=0.000000
training_algorithm=2
train_error_function=1
train_stop_function=1
cascade_output_change_fraction=0.010000
quickprop_decay=-0.000100
quickprop_mu=1.750000
rprop_increase_factor=1.200000
rprop_decrease_factor=0.500000
rprop_delta_min=0.000000
rprop_delta_max=50.000000
rprop_delta_zero=0.100000
cascade_output_stagnation_epochs=12
cascade_candidate_change_fraction=0.010000
cascade_candidate_stagnation_epochs=12
cascade_max_out_epochs=150
cascade_min_out_epochs=50
cascade_max_cand_epochs=150
cascade_min_cand_epochs=50
cascade_num_candidate_groups=2
bit_fail_limit=1.00000000000000005551e-01
cascade_candidate_limit=1.00000000000000000000e+03
cascade_weight_multiplier=4.00000000000000022204e-01
cascade_activation_functions_count=10
cascade_activation_functions=3 5 7 8 10 11 14 15 16 17 
cascade_activation_steepnesses_count=4
cascade_activation_steepnesses=2.50000000000000000000e-01 5.00000000000000000000e-01 7.50000000000000000000e-01 1.00000000000000000000e+00 
layer_sizes=6 4 2 
scale_included=0
neurons (num_inputs, activation_function, activation_steepness)=(0, 0, 0.00000000000000000000e+00) (0, 0, 0.00000000000000000000e+00) (0, 0, 0.00000000000000000000e+00) (0, 0, 0.00000000000000000000e+00) (0, 0, 0.00000000000000000000e+00) (0, 0, 0.00000000000000000000e+00) (6, 6, 5.00000000000000000000e-01) (6, 6, 5.00000000000000000000e-01) (6, 6, 5.00000000000000000000e-01) (0, 6, 0.00000000000000000000e+00) (4, 4, 5.00000000000000000000e-01) (0, 4, 0.00000000000000000000e+00) 
connections (connected_to_neuron, weight)=(0, 5.31922409687195596462e+00) (1, -1.01902354402023620494e+00) (2, 1.13911189498122951136e+01) (3, 1.14048681368373081568e+01) (4, -1.90499252140457393523e+01) (5, -3.00269417658731985199e+00) (0, 1.82800287242309278390e+00) (1, 2.07396428790644371531e+00) (2, 3.53697866154103979230e-01) (3, 3.04402540274999688918e-01) (4, 2.02623917069109760192e+00) (5, -2.33594514345860293503e+00) (0, 2.88229920207100542839e+00) (1, 1.84732351430146679583e+00) (2, -1.95989399768282113179e+00) (3, -1.93864482428716433660e+00) (4, 2.44296639606667254085e+00) (5, -2.03410584374803971031e+00) (6, 8.11014900621045953244e+00) (7, 1.60245391378378805314e+01) (8, 8.99646502947066650790e+00) (9, -2.23138618140846078930e+00) 
