FANN_FLO_2.1
num_layers=3
learning_rate=0.700000
connection_rate=1.000000
network_type=0
learning_momentum=0.000000
training_algorithm=2
train_error_function=1
train_stop_function=1
cascade_output_change_fraction=0.010000
quickprop_decay=-0.000100
quickprop_mu=1.750000
rprop_increase_factor=1.200000
rprop_decrease_factor=0.500000
rprop_delta_min=0.000000
rprop_delta_max=50.000000
rprop_delta_zero=0.100000
cascade_output_stagnation_epochs=12
cascade_candidate_change_fraction=0.010000
cascade_candidate_stagnation_epochs=12
cascade_max_out_epochs=150
cascade_min_out_epochs=50
cascade_max_cand_epochs=150
cascade_min_cand_epochs=50
cascade_num_candidate_groups=2
bit_fail_limit=1.00000000000000005551e-01
cascade_candidate_limit=1.00000000000000000000e+03
cascade_weight_multiplier=4.00000000000000022204e-01
cascade_activation_functions_count=10
cascade_activation_functions=3 5 7 8 10 11 14 15 16 17 
cascade_activation_steepnesses_count=4
cascade_activation_steepnesses=2.50000000000000000000e-01 5.00000000000000000000e-01 7.50000000000000000000e-01 1.00000000000000000000e+00 
layer_sizes=16 4 2 
scale_included=0
neurons (num_inputs, activation_function, activation_steepness)=(0, 0, 0.00000000000000000000e+00) (0, 0, 0.00000000000000000000e+00) (0, 0, 0.00000000000000000000e+00) (0, 0, 0.00000000000000000000e+00) (0, 0, 0.00000000000000000000e+00) (0, 0, 0.00000000000000000000e+00) (0, 0, 0.00000000000000000000e+00) (0, 0, 0.00000000000000000000e+00) (0, 0, 0.00000000000000000000e+00) (0, 0, 0.00000000000000000000e+00) (0, 0, 0.00000000000000000000e+00) (0, 0, 0.00000000000000000000e+00) (0, 0, 0.00000000000000000000e+00) (0, 0, 0.00000000000000000000e+00) (0, 0, 0.00000000000000000000e+00) (0, 0, 0.00000000000000000000e+00) (16, 6, 5.00000000000000000000e-01) (16, 6, 5.00000000000000000000e-01) (16, 6, 5.00000000000000000000e-01) (0, 6, 0.00000000000000000000e+00) (4, 4, 5.00000000000000000000e-01) (0, 4, 0.00000000000000000000e+00) 
connections (connected_to_neuron, weight)=(0, -1.20396993153859046544e+01) (1, 5.07462464435778581873e+00) (2, -7.80704402372116995634e-02) (3, 2.63639615166271319424e+01) (4, -1.38593647219033860862e-01) (5, 3.05619754658159621385e+01) (6, 2.92709519413994811998e-01) (7, 3.48784428148154379556e+00) (8, -9.07666875598389388813e+00) (9, -1.35369336049819888323e+00) (10, -2.72207537275351407757e+00) (11, 3.01309425110072393039e+00) (12, -1.25297720712290061584e+00) (13, -1.54199822473550551827e+00) (14, -4.58697064076559676837e-02) (15, -2.34010983918830284267e+00) (0, 6.07296265927400491513e-01) (1, -2.81533315780495452252e-01) (2, 2.43507296919719062878e-01) (3, 2.97315421538826596404e+00) (4, 2.41123317666153980099e+00) (5, 4.11978363548001738081e+01) (6, 1.85882613471084506829e-01) (7, 9.69225899176053701245e-02) (8, 5.14213603948378006336e-01) (9, 1.38799125777845616669e-01) (10, 3.12126653318003099979e-01) (11, 1.37816141950404230654e-01) (12, 7.73708505848300694824e-03) (13, 2.81878088774374369052e-01) (14, 3.16756312547574123140e-02) (15, 3.49890726978533350700e-01) (0, 6.85338995609138557086e+00) (1, -4.88414710517694494740e+00) (2, -1.02403282242067114605e-01) (3, 3.08078786884738953233e+00) (4, 1.24146745635808763986e+00) (5, 2.95555682525723506515e+00) (6, -5.28473089630003001194e-02) (7, -3.73719442232765985956e-01) (8, 1.97855993629839055359e+00) (9, 1.06821161352441129644e+00) (10, 2.02557658676368657069e+00) (11, -8.73843462113329638719e-01) (12, 5.19325063993426927489e-01) (13, 6.96532712714564516965e-01) (14, 8.08229659425762081426e-01) (15, 2.83760860494711542046e+00) (16, 1.38017043650553077327e+01) (17, -1.73422827673272794691e+00) (18, -2.04433641316577237035e+01) (19, -8.25482277060420099879e-01) 
