FANN_FLO_2.1
num_layers=3
learning_rate=0.700000
connection_rate=1.000000
network_type=0
learning_momentum=0.000000
training_algorithm=2
train_error_function=1
train_stop_function=1
cascade_output_change_fraction=0.010000
quickprop_decay=-0.000100
quickprop_mu=1.750000
rprop_increase_factor=1.200000
rprop_decrease_factor=0.500000
rprop_delta_min=0.000000
rprop_delta_max=50.000000
rprop_delta_zero=0.100000
cascade_output_stagnation_epochs=12
cascade_candidate_change_fraction=0.010000
cascade_candidate_stagnation_epochs=12
cascade_max_out_epochs=150
cascade_min_out_epochs=50
cascade_max_cand_epochs=150
cascade_min_cand_epochs=50
cascade_num_candidate_groups=2
bit_fail_limit=1.00000000000000005551e-01
cascade_candidate_limit=1.00000000000000000000e+03
cascade_weight_multiplier=4.00000000000000022204e-01
cascade_activation_functions_count=10
cascade_activation_functions=3 5 7 8 10 11 14 15 16 17 
cascade_activation_steepnesses_count=4
cascade_activation_steepnesses=2.50000000000000000000e-01 5.00000000000000000000e-01 7.50000000000000000000e-01 1.00000000000000000000e+00 
layer_sizes=20 11 2 
scale_included=0
neurons (num_inputs, activation_function, activation_steepness)=(0, 0, 0.00000000000000000000e+00) (0, 0, 0.00000000000000000000e+00) (0, 0, 0.00000000000000000000e+00) (0, 0, 0.00000000000000000000e+00) (0, 0, 0.00000000000000000000e+00) (0, 0, 0.00000000000000000000e+00) (0, 0, 0.00000000000000000000e+00) (0, 0, 0.00000000000000000000e+00) (0, 0, 0.00000000000000000000e+00) (0, 0, 0.00000000000000000000e+00) (0, 0, 0.00000000000000000000e+00) (0, 0, 0.00000000000000000000e+00) (0, 0, 0.00000000000000000000e+00) (0, 0, 0.00000000000000000000e+00) (0, 0, 0.00000000000000000000e+00) (0, 0, 0.00000000000000000000e+00) (0, 0, 0.00000000000000000000e+00) (0, 0, 0.00000000000000000000e+00) (0, 0, 0.00000000000000000000e+00) (0, 0, 0.00000000000000000000e+00) (20, 6, 5.00000000000000000000e-01) (20, 6, 5.00000000000000000000e-01) (20, 6, 5.00000000000000000000e-01) (20, 6, 5.00000000000000000000e-01) (20, 6, 5.00000000000000000000e-01) (20, 6, 5.00000000000000000000e-01) (20, 6, 5.00000000000000000000e-01) (20, 6, 5.00000000000000000000e-01) (20, 6, 5.00000000000000000000e-01) (20, 6, 5.00000000000000000000e-01) (0, 6, 0.00000000000000000000e+00) (11, 6, 5.00000000000000000000e-01) (0, 6, 0.00000000000000000000e+00) 
connections (connected_to_neuron, weight)=(0, 1.95930242538229606453e+01) (1, 3.89312032063981017238e-01) (2, 4.22587908258219679958e-01) (3, 4.92706886877795180446e-01) (4, 5.38996658673068673728e-01) (5, 4.49678317238160651925e+00) (6, -2.22406386643576459150e+00) (7, 7.05732570522388247269e-01) (8, -1.75297998688510303644e+00) (9, -6.22965891677899952228e-01) (10, -2.29676608416416683234e-01) (11, 2.42437752415835419129e+01) (12, 5.68420472558453376832e-02) (13, 4.35226352923254622418e-01) (14, 1.45353853748087313846e+00) (15, 5.07584623782282129412e+00) (16, 1.38429571885101254658e+00) (17, -1.67005263024283256978e-01) (18, -2.95007622491868959358e+00) (19, 1.62632126365961846015e-02) (0, 1.97798677533642432991e+01) (1, 4.14226853506712566766e-01) (2, 4.83121064709572445306e-01) (3, 5.46157893942742167503e-01) (4, 3.79735429989246975335e-01) (5, 4.49123482743980861898e+00) (6, -2.26228287387723181467e+00) (7, 6.89915002816280154008e-01) (8, -1.48214341437071817076e+00) (9, -2.32255504362843284705e-01) (10, -3.97608041785775870314e-02) (11, 1.23227290173369254944e+01) (12, -2.70513934079692139334e-02) (13, 4.94672821872572554547e-01) (14, 1.51373070859900793472e+00) (15, 5.00771805433874384050e+00) (16, 1.28912452461087689848e+00) (17, -2.94015731986343231696e-01) (18, -3.86280905110221572940e+00) (19, 2.70756816176080938874e-01) (0, -2.76855884804221723527e+01) (1, -1.44446925442079154855e-01) (2, -3.13262426476338950998e-01) (3, -3.07263569156983940012e-01) (4, -3.32094305376866849588e-01) (5, 4.51646452178692303647e+00) (6, 1.68453910621500346778e+00) (7, 1.08523369314304257705e-01) (8, 1.46032534059063490162e+00) (9, 2.49701695585359262353e-01) (10, 1.90869198772780773732e-01) (11, 1.91284862914117448351e-01) (12, -2.66978694757906351298e-02) (13, 9.05929723799612895974e-01) (14, 4.43452190783370225891e-01) (15, 4.81716295774102576388e+00) (16, -1.06102778553255283622e-01) (17, 1.32731984839903671691e+00) (18, 3.78011673097244793595e+00) (19, -1.87545734470098146573e-01) (0, 1.35183264555436544185e+00) (1, 4.22754627187469700367e-01) (2, 4.04836159665802219898e-01) (3, 3.63531303127029636890e-01) (4, 2.94553719927290180713e-01) (5, -5.12465416788523864255e+00) (6, 7.30937572906718990851e+00) (7, -2.98429434031865481458e+00) (8, 4.61987887382795481273e+00) (9, 2.27367592872003698723e-02) (10, 4.45565090353260306877e-01) (11, -1.15350164778570043467e+01) (12, 4.10128559812609205792e-01) (13, 8.48077404017122948865e-02) (14, -4.09587363898173406618e-01) (15, -5.16772247248007854381e+00) (16, -1.00669794791741470941e-01) (17, 1.57123072029079741130e-01) (18, -3.69677570919523335036e+00) (19, -2.64681931076067855635e-01) (0, 1.40878036858540944820e+00) (1, 3.47625668330701520503e-01) (2, 3.26666335745366742671e-01) (3, 3.82884393616231610835e-01) (4, 3.31863152964624097407e-01) (5, -5.28106796562450941934e+00) (6, 6.81950293897526638176e+00) (7, -1.15308215027577071199e-01) (8, 4.45974274682946525417e+00) (9, 3.40636235363322770198e-01) (10, 6.98956792013007421893e-02) (11, -1.07232632182514446839e+01) (12, 2.30164592173952464726e-01) (13, 2.96472531327525212763e-01) (14, -1.72013411243956637620e-01) (15, -5.29643805372652831664e+00) (16, -6.19691694913340127004e-02) (17, 7.18915815958634796257e-02) (18, -3.61075028489360905226e+00) (19, -1.15231476508434155237e-01) (0, 3.15121314976471500469e-01) (1, -4.01701545723834388402e-02) (2, -8.48909384020724577802e-02) (3, -1.04932180643931893815e-01) (4, -5.93513613947787496694e-02) (5, -7.06403605848114901633e-01) (6, 5.49652363155121892468e-01) (7, 7.56479484260075968338e-03) (8, 1.21458517199431725864e+00) (9, 1.53042193296927170332e-01) (10, 3.73242909742865947020e-01) (11, -5.59568837835988208695e+00) (12, 8.88169968937020833100e-03) (13, 3.61356409270440770420e-01) (14, 3.77020589983689313751e-01) (15, 1.28288980654639872547e+00) (16, -3.60893349002655442273e-03) (17, 2.29976063580056566682e-01) (18, -1.56940436870847854767e-01) (19, 1.56505338362447371514e-01) (0, 1.35260040925842695003e+00) (1, 3.40617714594907528003e-01) (2, 3.70505137514180904468e-01) (3, 4.22526857029504543384e-01) (4, 3.16919749747819667895e-01) (5, -5.08868188908419849525e+00) (6, 5.29850530756225968076e+00) (7, 1.24681797533538613054e-03) (8, 4.55415260004945121608e+00) (9, -3.29214612615512033922e-02) (10, 4.18136877542383544881e-01) (11, -8.96790406034353893006e+00) (12, 2.21948613432306651738e-01) (13, 4.95856082441201093114e-02) (14, -2.09111204316418719529e-01) (15, -4.24978489400398018461e+00) (16, -9.58514670668078466731e-02) (17, 5.42074646362916343079e-02) (18, -3.67620474557409382399e+00) (19, -1.99946010281369601636e-01) (0, -8.81989731888805361670e-01) (1, -8.12865369205618693016e-02) (2, -1.72135362792506380059e-01) (3, -1.18904786575331766763e-01) (4, -2.65562409925951925516e-01) (5, 2.58253870668587381942e+00) (6, 2.14004889596219910475e-01) (7, 5.72100886431690436318e-01) (8, 8.00804608514165405797e-02) (9, -2.47401490216181095538e-02) (10, -3.98519490477438897980e-01) (11, 2.55253403667049605374e+00) (12, -1.49773085643507941622e-01) (13, 7.01931374923033118973e-02) (14, 1.40514089672106913531e-02) (15, 4.56382545090855007430e+00) (16, -2.11004315535239572732e-01) (17, -2.97111783126918660436e-01) (18, 3.42508809003783865066e+00) (19, -1.96062814110852967620e-01) (0, -8.17215725283657046241e-01) (1, -1.34169706194264604093e-01) (2, -1.24499642341000735235e-01) (3, -2.57787407426697812163e-01) (4, -7.07841301845142656379e-02) (5, 2.72787267478880579574e+00) (6, 2.18669188092824290370e-01) (7, 5.15209094909187648170e-01) (8, 1.42328601424918071983e-01) (9, -1.50551095013544376788e-02) (10, -3.21608689245577783478e-01) (11, 3.68179444719295778654e+00) (12, -2.42441425253607623080e-01) (13, -7.59857078238683897320e-02) (14, -1.42548100177939621874e-03) (15, 4.87309506268140246732e+00) (16, -5.49078792516536143276e-03) (17, -6.04737544186172495952e-02) (18, 3.42503231499149007888e+00) (19, -1.91236506814100037932e-01) (0, -8.56845672112568235157e-01) (1, -1.05411069858565409341e-01) (2, -1.84961261618628663994e-01) (3, -7.28005342369223429344e-02) (4, -1.21682124603285868325e-01) (5, 2.17770363173710723714e+00) (6, 2.85161437720042487687e-01) (7, 5.77448458698745947792e-01) (8, -1.40305462552702514545e-01) (9, 1.17811404759958493482e-02) (10, -4.37294785496588678253e-01) (11, 2.18195748198714589705e+00) (12, -6.78009709017056982905e-02) (13, 5.66513049260419579434e-02) (14, 1.13589385650048571574e-01) (15, 2.19110598066050998867e+00) (16, 2.03504104282720754693e-01) (17, 7.58489257128173721689e-02) (18, 3.33824662599517507644e+00) (19, -2.73029765714948913224e-01) (20, -1.19166459016542214400e-01) (21, -1.00775997214059637175e-01) (22, 5.46461219663044617256e-01) (23, 4.59697402202298155416e-01) (24, 5.09285382115056028951e-01) (25, -3.94496736769514688703e-01) (26, 4.66290823303868284810e-01) (27, 4.32727129130381193978e-01) (28, 4.80995991199034300667e-01) (29, 4.27470897049525067057e-01) (30, 4.02880356425618535443e-01) 
