FANN_FLO_2.1
num_layers=3
learning_rate=0.700000
connection_rate=1.000000
network_type=0
learning_momentum=0.000000
training_algorithm=2
train_error_function=1
train_stop_function=1
cascade_output_change_fraction=0.010000
quickprop_decay=-0.000100
quickprop_mu=1.750000
rprop_increase_factor=1.200000
rprop_decrease_factor=0.500000
rprop_delta_min=0.000000
rprop_delta_max=50.000000
rprop_delta_zero=0.100000
cascade_output_stagnation_epochs=12
cascade_candidate_change_fraction=0.010000
cascade_candidate_stagnation_epochs=12
cascade_max_out_epochs=150
cascade_min_out_epochs=50
cascade_max_cand_epochs=150
cascade_min_cand_epochs=50
cascade_num_candidate_groups=2
bit_fail_limit=1.00000000000000005551e-01
cascade_candidate_limit=1.00000000000000000000e+03
cascade_weight_multiplier=4.00000000000000022204e-01
cascade_activation_functions_count=10
cascade_activation_functions=3 5 7 8 10 11 14 15 16 17 
cascade_activation_steepnesses_count=4
cascade_activation_steepnesses=2.50000000000000000000e-01 5.00000000000000000000e-01 7.50000000000000000000e-01 1.00000000000000000000e+00 
layer_sizes=11 4 2 
scale_included=0
neurons (num_inputs, activation_function, activation_steepness)=(0, 0, 0.00000000000000000000e+00) (0, 0, 0.00000000000000000000e+00) (0, 0, 0.00000000000000000000e+00) (0, 0, 0.00000000000000000000e+00) (0, 0, 0.00000000000000000000e+00) (0, 0, 0.00000000000000000000e+00) (0, 0, 0.00000000000000000000e+00) (0, 0, 0.00000000000000000000e+00) (0, 0, 0.00000000000000000000e+00) (0, 0, 0.00000000000000000000e+00) (0, 0, 0.00000000000000000000e+00) (11, 6, 5.00000000000000000000e-01) (11, 6, 5.00000000000000000000e-01) (11, 6, 5.00000000000000000000e-01) (0, 6, 0.00000000000000000000e+00) (4, 4, 5.00000000000000000000e-01) (0, 4, 0.00000000000000000000e+00) 
connections (connected_to_neuron, weight)=(0, -3.30441036232063956035e+00) (1, -1.19141677319824029757e-01) (2, 7.77742793430406982591e-03) (3, 2.09230311610861863247e-01) (4, 7.59404271634126093460e+00) (5, 2.86401002788777077512e+02) (6, 4.41403240967334568268e+02) (7, 3.39026435317348751042e+00) (8, 1.00133505615971159841e+02) (9, -7.05369838488676542676e-02) (10, 3.56665824086411620275e-01) (0, 1.68486207149234323843e+00) (1, 2.16426349736051948369e+00) (2, 1.32043429818003343890e+00) (3, 2.11059951722679189912e-01) (4, 1.98046321628487964617e+00) (5, 2.96673567938134619126e+00) (6, 3.07788873531599183053e+00) (7, -7.80684084233329911306e-01) (8, 1.49450553233538618869e+00) (9, 2.09471159168235177006e+00) (10, -3.06917995256333986376e+00) (0, 1.85417324750213596829e+00) (1, 2.18725232477616549076e+00) (2, 8.23252745431468868631e-01) (3, 2.04172211291404698263e-01) (4, 3.12260256613539599613e+00) (5, 2.18384635924332970447e+00) (6, 3.32858179427665135108e+00) (7, -7.66202171924816211046e-01) (8, 2.58572860654858027729e+00) (9, 2.24669828065636245640e+00) (10, -3.23061404116962203048e+00) (11, -1.59743185081773972911e+01) (12, 1.72536787927137176268e+01) (13, 3.18161745026333555586e+01) (14, -1.52354489855503172357e+00) 
