FANN_FLO_2.1
num_layers=3
learning_rate=0.700000
connection_rate=1.000000
network_type=0
learning_momentum=0.000000
training_algorithm=2
train_error_function=1
train_stop_function=1
cascade_output_change_fraction=0.010000
quickprop_decay=-0.000100
quickprop_mu=1.750000
rprop_increase_factor=1.200000
rprop_decrease_factor=0.500000
rprop_delta_min=0.000000
rprop_delta_max=50.000000
rprop_delta_zero=0.100000
cascade_output_stagnation_epochs=12
cascade_candidate_change_fraction=0.010000
cascade_candidate_stagnation_epochs=12
cascade_max_out_epochs=150
cascade_min_out_epochs=50
cascade_max_cand_epochs=150
cascade_min_cand_epochs=50
cascade_num_candidate_groups=2
bit_fail_limit=1.00000000000000005551e-01
cascade_candidate_limit=1.00000000000000000000e+03
cascade_weight_multiplier=4.00000000000000022204e-01
cascade_activation_functions_count=10
cascade_activation_functions=3 5 7 8 10 11 14 15 16 17 
cascade_activation_steepnesses_count=4
cascade_activation_steepnesses=2.50000000000000000000e-01 5.00000000000000000000e-01 7.50000000000000000000e-01 1.00000000000000000000e+00 
layer_sizes=15 11 2 
scale_included=0
neurons (num_inputs, activation_function, activation_steepness)=(0, 0, 0.00000000000000000000e+00) (0, 0, 0.00000000000000000000e+00) (0, 0, 0.00000000000000000000e+00) (0, 0, 0.00000000000000000000e+00) (0, 0, 0.00000000000000000000e+00) (0, 0, 0.00000000000000000000e+00) (0, 0, 0.00000000000000000000e+00) (0, 0, 0.00000000000000000000e+00) (0, 0, 0.00000000000000000000e+00) (0, 0, 0.00000000000000000000e+00) (0, 0, 0.00000000000000000000e+00) (0, 0, 0.00000000000000000000e+00) (0, 0, 0.00000000000000000000e+00) (0, 0, 0.00000000000000000000e+00) (0, 0, 0.00000000000000000000e+00) (15, 6, 5.00000000000000000000e-01) (15, 6, 5.00000000000000000000e-01) (15, 6, 5.00000000000000000000e-01) (15, 6, 5.00000000000000000000e-01) (15, 6, 5.00000000000000000000e-01) (15, 6, 5.00000000000000000000e-01) (15, 6, 5.00000000000000000000e-01) (15, 6, 5.00000000000000000000e-01) (15, 6, 5.00000000000000000000e-01) (15, 6, 5.00000000000000000000e-01) (0, 6, 0.00000000000000000000e+00) (11, 6, 5.00000000000000000000e-01) (0, 6, 0.00000000000000000000e+00) 
connections (connected_to_neuron, weight)=(0, 2.58556652176796664122e+00) (1, 1.06156063897081806569e-01) (2, 4.73128982610192400093e-02) (3, 4.08804693049874545707e-02) (4, 1.07724142891832783131e-01) (5, 1.39621891691461375018e+01) (6, -1.55648393426467568368e+00) (7, -1.25054022278361021137e+00) (8, 2.17055291512975315982e+02) (9, 6.18685133355822425294e-01) (10, 6.86867127773305583105e+02) (11, -1.02354286335394034646e-01) (12, -9.25032482249265042284e-01) (13, 2.53109215846540669403e-01) (14, 4.19755997764545307760e-01) (0, -2.14032912490503490766e-01) (1, 7.22956698351764764920e-02) (2, -7.93528962916469488009e-02) (3, -2.27937061375713574674e-02) (4, -3.24369814282989693544e-02) (5, -2.87850873407751173261e-01) (6, 3.20445628068085519580e-01) (7, 1.97920967533900094004e-01) (8, 2.17077879348764042788e+02) (9, -8.75666000583446429983e-02) (10, 6.86873338174959826574e+02) (11, -2.25688418470308349573e-01) (12, -1.77377306180587279716e-01) (13, 6.50397952933187140090e-02) (14, 1.69253466638368321728e-01) (0, 6.39877158811359514345e+00) (1, 4.58602539601334013852e-01) (2, 5.12674185785063296628e-01) (3, 4.81260615738638319883e-01) (4, 5.83621795626886985531e-01) (5, -7.21356074772687927421e-01) (6, -3.88739592285844448583e+00) (7, -1.51676946046461202933e+00) (8, -1.07334349791979519750e+02) (9, -5.41055879558399066553e-01) (10, -5.33832742931469184100e+00) (11, -2.42714424834910708073e-01) (12, 6.86685302795425722699e-01) (13, -2.25779188697955124354e+00) (14, 5.71231580452425391492e-01) (0, 2.25123336003500496005e+00) (1, 1.15633731205828815813e-01) (2, 1.44426186998255878802e-01) (3, 9.26857790545302928642e-02) (4, 1.79030170162089524721e-01) (5, -1.29910075071130570734e+00) (6, 2.66471304711815681898e+00) (7, 1.72719502750970144156e+00) (8, 2.17003185378381829196e+02) (9, 1.06242404548642921380e-02) (10, 6.86705092673143553839e+02) (11, -2.24168783150598571741e-01) (12, -3.75473713700265165905e-01) (13, 2.41695855120670766158e-01) (14, 7.71246309986924893920e-01) (0, 6.44572739183213538894e+00) (1, 5.61969906520098594349e-01) (2, 4.83443849217146892627e-01) (3, 5.84223472010344413441e-01) (4, 6.32611379455775391101e-01) (5, -2.17241046050743813467e+00) (6, -4.89465096912347963354e+00) (7, -2.18583615101698169880e+00) (8, -1.07380511737888781454e+02) (9, -3.76317605400031940377e+00) (10, -2.75815442901931140440e+00) (11, -5.87392950426116033924e+00) (12, -4.02944626867933308745e-01) (13, -5.53876258833602475029e-01) (14, 3.05552419771079719624e+00) (0, -3.63131909677885778009e-01) (1, 7.32704842393410854529e-02) (2, 6.63151362841141872595e-02) (3, 1.53407746856225515181e-02) (4, -2.26590266520964069008e-02) (5, -7.04970620969047168103e+00) (6, 2.12982013731192271200e-01) (7, 8.63364188090831180533e-02) (8, 7.20225707117065194751e+00) (9, -8.55587555783012682076e-03) (10, 2.50150416489345994719e+00) (11, -6.79012324911619113976e-01) (12, -8.20162902460239595648e-01) (13, 2.16790904151773280994e-02) (14, -9.02429433524370716579e-02) (0, -9.55646303256939694259e-02) (1, 2.44520633897707638515e-02) (2, 7.88370623669550213419e-02) (3, -3.49924088039471614664e-02) (4, -5.26630178608967769449e-02) (5, -6.64138730893836237712e-01) (6, 1.98838262979230073757e-01) (7, -6.78005059690469594896e-03) (8, -3.21491398366555314325e+00) (9, 2.44010025200074670559e-01) (10, -2.36884209854534377726e+00) (11, -9.63664721580825722747e-01) (12, -1.87695162818737715238e-01) (13, 4.31939041428086145658e-01) (14, 4.07404767900442811579e-03) (0, 9.90927414240219267549e-02) (1, 4.15206656705914556316e-02) (2, 5.10558218609868108562e-02) (3, -6.86181455004633567007e-02) (4, 1.07473093355852228337e-01) (5, -3.07990001377492994550e-01) (6, 3.95740646339517554431e-01) (7, 1.86880190565897774668e-01) (8, 2.16990092316636662417e+02) (9, 1.15916369626747076116e-01) (10, 6.86711561103305029974e+02) (11, -2.68140053473398143336e-01) (12, -2.68062517302623315452e-01) (13, 9.97279997061443351791e-03) (14, 1.55922684982382320218e-01) (0, 1.34625029485793383799e+01) (1, 5.08920844103343150699e-01) (2, 6.27034846152312641543e-01) (3, 4.86016068066603856845e-01) (4, 5.33019642735964915836e-01) (5, -4.15385702963893521655e+00) (6, -2.09499883648128459868e+00) (7, -2.77401850843344632835e+00) (8, 1.16865453712992423130e-01) (9, -2.62929101458791247836e+00) (10, 1.22546796507535571408e+00) (11, 2.46796641121145909903e-01) (12, -6.05108975479497956940e+00) (13, -6.92814539592885636488e-01) (14, 1.08117770983678740393e+00) (0, 1.67268754887133086484e+00) (1, 1.68712306900814512645e-01) (2, 7.40671419938358499557e-02) (3, 4.47151177962574683522e-02) (4, 1.80416379257038572703e-01) (5, -3.15404022953874774160e+00) (6, 7.66903157178662753246e-01) (7, 7.96111065982169296973e+00) (8, 5.82667751417063506381e+00) (9, 5.52583922495364898708e+00) (10, -2.58672250112250301513e+00) (11, 5.00466406429748911222e+00) (12, -3.99982502192120729229e-03) (13, 4.17852318286987145513e+00) (14, 1.63386660790311610825e-01) (15, 2.85206167556005862895e-01) (16, 6.81275270332580062949e-01) (17, -1.82523560204557067088e-01) (18, 2.55930042422968295757e-01) (19, -1.88928542465686327700e-01) (20, -3.68965805410636449313e-01) (21, -1.67689338689000932980e-01) (22, 2.51905498049777520908e-01) (23, -6.29252852276084961858e-01) (24, 2.59922054946452318891e-01) (25, 1.75383223749357664012e-01) 
