FANN_FLO_2.1
num_layers=3
learning_rate=0.700000
connection_rate=1.000000
network_type=0
learning_momentum=0.000000
training_algorithm=2
train_error_function=1
train_stop_function=1
cascade_output_change_fraction=0.010000
quickprop_decay=-0.000100
quickprop_mu=1.750000
rprop_increase_factor=1.200000
rprop_decrease_factor=0.500000
rprop_delta_min=0.000000
rprop_delta_max=50.000000
rprop_delta_zero=0.100000
cascade_output_stagnation_epochs=12
cascade_candidate_change_fraction=0.010000
cascade_candidate_stagnation_epochs=12
cascade_max_out_epochs=150
cascade_min_out_epochs=50
cascade_max_cand_epochs=150
cascade_min_cand_epochs=50
cascade_num_candidate_groups=2
bit_fail_limit=1.00000000000000005551e-01
cascade_candidate_limit=1.00000000000000000000e+03
cascade_weight_multiplier=4.00000000000000022204e-01
cascade_activation_functions_count=10
cascade_activation_functions=3 5 7 8 10 11 14 15 16 17 
cascade_activation_steepnesses_count=4
cascade_activation_steepnesses=2.50000000000000000000e-01 5.00000000000000000000e-01 7.50000000000000000000e-01 1.00000000000000000000e+00 
layer_sizes=31 11 2 
scale_included=0
neurons (num_inputs, activation_function, activation_steepness)=(0, 0, 0.00000000000000000000e+00) (0, 0, 0.00000000000000000000e+00) (0, 0, 0.00000000000000000000e+00) (0, 0, 0.00000000000000000000e+00) (0, 0, 0.00000000000000000000e+00) (0, 0, 0.00000000000000000000e+00) (0, 0, 0.00000000000000000000e+00) (0, 0, 0.00000000000000000000e+00) (0, 0, 0.00000000000000000000e+00) (0, 0, 0.00000000000000000000e+00) (0, 0, 0.00000000000000000000e+00) (0, 0, 0.00000000000000000000e+00) (0, 0, 0.00000000000000000000e+00) (0, 0, 0.00000000000000000000e+00) (0, 0, 0.00000000000000000000e+00) (0, 0, 0.00000000000000000000e+00) (0, 0, 0.00000000000000000000e+00) (0, 0, 0.00000000000000000000e+00) (0, 0, 0.00000000000000000000e+00) (0, 0, 0.00000000000000000000e+00) (0, 0, 0.00000000000000000000e+00) (0, 0, 0.00000000000000000000e+00) (0, 0, 0.00000000000000000000e+00) (0, 0, 0.00000000000000000000e+00) (0, 0, 0.00000000000000000000e+00) (0, 0, 0.00000000000000000000e+00) (0, 0, 0.00000000000000000000e+00) (0, 0, 0.00000000000000000000e+00) (0, 0, 0.00000000000000000000e+00) (0, 0, 0.00000000000000000000e+00) (0, 0, 0.00000000000000000000e+00) (31, 6, 5.00000000000000000000e-01) (31, 6, 5.00000000000000000000e-01) (31, 6, 5.00000000000000000000e-01) (31, 6, 5.00000000000000000000e-01) (31, 6, 5.00000000000000000000e-01) (31, 6, 5.00000000000000000000e-01) (31, 6, 5.00000000000000000000e-01) (31, 6, 5.00000000000000000000e-01) (31, 6, 5.00000000000000000000e-01) (31, 6, 5.00000000000000000000e-01) (0, 6, 0.00000000000000000000e+00) (11, 6, 5.00000000000000000000e-01) (0, 6, 0.00000000000000000000e+00) 
connections (connected_to_neuron, weight)=(0, 1.89000808942316673722e+01) (1, 5.74962746644621325309e-01) (2, 6.30816232705717849782e-01) (3, 5.90907071078424994681e-01) (4, 4.78356380308275763724e-01) (5, 7.56983130433859896513e-01) (6, 4.47243636028959201667e+00) (7, 9.47338840966442385927e-01) (8, 1.03131559260854288596e+00) (9, 4.46558807426355741654e+00) (10, -9.20650951173827358787e+00) (11, 4.34257020733311716043e+00) (12, 5.23536412398237782639e+00) (13, 8.45178964270144938986e-01) (14, 3.91781782964701719152e+00) (15, 4.26267503782299783666e+00) (16, 5.39705104914597288968e+00) (17, 3.89133437960472772232e+00) (18, 4.18916409795957012108e+00) (19, 4.01733460814203713340e+00) (20, 3.14539599633793320876e+00) (21, -3.02790968672731142242e-01) (22, 5.32741500021685787658e+00) (23, 5.11732219344126093574e+00) (24, 2.38262960749050600739e+00) (25, -1.87476720832981968989e+00) (26, -2.31752302757820016765e+00) (27, 3.72646366217669822163e+00) (28, 3.51862173363077301858e+00) (29, 4.04482709236307336198e+00) (30, -8.96795383020414504927e+00) (0, 6.27889574018508014319e+01) (1, 4.70350419037228573149e-01) (2, 5.37732516281490546817e-01) (3, 5.30940552108173813295e-01) (4, 4.70667016558533657378e-01) (5, 7.18616912899588178298e-01) (6, 1.11083408944749018055e+00) (7, 8.95650160154866739504e+02) (8, 1.11036651624302237451e+02) (9, -1.02258787152464503123e+00) (10, -1.95371455058684908579e+01) (11, 3.97992317638164422533e+02) (12, -3.07324233832114823706e-01) (13, 1.00573437261645040053e+03) (14, 3.38606623275641425153e+01) (15, 8.83208933877176805005e-01) (16, -2.03182735498863742407e+00) (17, 8.40574423109576973623e-01) (18, -1.85928981813104221565e+00) (19, 3.99803012987060779615e-01) (20, 1.21788102981578341688e-01) (21, -8.33692257078684911820e-02) (22, 3.14327094184147085798e+02) (23, 6.68007544624615867690e-01) (24, 1.05596047441829354874e+00) (25, 2.20405287454566001237e-01) (26, -2.40035611589839409374e-01) (27, 1.31074717519506123153e+00) (28, -1.17149188581990371105e+00) (29, -1.22079849721275035535e+00) (30, 7.62201950054705812398e-01) (0, 6.13114092395955339043e+01) (1, 5.19258754367817654263e-01) (2, 4.55837229306687907737e-01) (3, 5.45250656123147048326e-01) (4, 4.15024058933248118919e-01) (5, 6.78323077303792043580e-01) (6, 1.19776667566070318949e-01) (7, -3.80866911178396050364e-01) (8, -1.05614562875883666315e+00) (9, 4.75572565517062451068e-01) (10, -5.26336325378337921421e+00) (11, 7.11757863818980496262e+01) (12, -1.32315681423438125108e+00) (13, -5.45736573607839559052e-01) (14, 4.76970865366250009743e+01) (15, 1.20423557746258813594e+00) (16, -2.36274452679834795488e-01) (17, 3.62654322538635498496e-01) (18, -1.62440216632937484142e+00) (19, 8.82902483240139757115e-01) (20, -4.46545046456212513242e-01) (21, -1.18611600817753320980e-01) (22, 9.28971080309579533285e-01) (23, 7.42047617445540930170e-01) (24, 9.01255825831423607042e-01) (25, -7.31781102371196090495e-01) (26, -4.68535786688130118094e-02) (27, 1.21535306152027100524e+00) (28, -1.28823307524339858432e+00) (29, -1.11094540190348611830e+00) (30, -3.12120879961096331368e-01) (0, 8.60841959529751221680e+00) (1, 2.48282978645334717616e-01) (2, 3.47451823166383289010e-01) (3, 2.33941654077539890055e-01) (4, 2.99425052813065306623e-01) (5, 3.30900032522376194577e-02) (6, -4.80663118378322540281e-01) (7, 4.44070117004702856478e-03) (8, -9.84274712705662524481e-02) (9, 3.87277950635104950550e-01) (10, -2.18196961573446346350e+00) (11, -4.76712316595454543844e-01) (12, -7.30711354637517129795e-01) (13, -7.32403417460484651436e-01) (14, -4.35240751787875246315e-01) (15, -4.26225452731169518472e-01) (16, -6.74658034484285518140e-01) (17, 4.86619009024162607613e-02) (18, 1.74987347538542670211e-01) (19, 6.69681433117563007507e-01) (20, -4.46163635115228607297e-01) (21, 2.33858083232772018256e-01) (22, 2.92372489765767906711e-01) (23, -1.58450291137950810549e-02) (24, 3.10923683820306107073e-01) (25, 6.00407637516574110848e-01) (26, 3.49829871917568979711e-01) (27, 7.75393532824139808390e-01) (28, -3.79856623219036293460e-01) (29, -4.32821707447628045706e-01) (30, -6.55056425732694402875e-01) (0, 6.29079273026692575854e+01) (1, 2.64419101984627369362e+00) (2, 2.56893757791645560573e+00) (3, 2.52149291397459540676e+00) (4, 2.58135848553307090114e+00) (5, 1.31798864600449121554e+01) (6, 1.49818208202448522570e+03) (7, 7.00780680508821607333e+00) (8, 9.96441625047867205467e+01) (9, 1.48268250555785402867e+03) (10, -1.50500163954996803994e+01) (11, 1.33587348859115763844e+03) (12, 7.27353137620081042769e+02) (13, 4.70779871858349565628e+02) (14, 7.77564768798642234060e+01) (15, 1.41987027125383542625e+03) (16, 1.50000000000000000000e+03) (17, -9.08210115714722832081e+00) (18, 1.49755834777076188402e+03) (19, 8.13081477464672519595e-01) (20, 1.30144269490797410072e+03) (21, 2.52666371637138347239e+01) (22, 1.16751798574108102002e+03) (23, 1.44937121763680102049e+03) (24, -6.44201924661442326681e+00) (25, 1.05690566182547307506e+01) (26, 4.23790911643785683793e+00) (27, 1.90935793603745267433e+01) (28, 4.96515444573520370319e-01) (29, 3.50257116391836476055e+00) (30, 5.95191761149433062883e+00) (0, 3.62019563109399769019e+01) (1, 1.78848936218291648670e-01) (2, 1.45468509751826652332e-01) (3, 1.76496191877395042225e-01) (4, 9.86564895096124355733e-02) (5, -1.71548215526974356937e-01) (6, -1.18587550445888825768e-01) (7, 1.42491013780655206844e-01) (8, -5.68279810699611823144e-02) (9, 1.06660413733095746358e-01) (10, -6.84205078573283387300e+00) (11, -2.10965247365921371170e-01) (12, -9.43180277273224620949e-01) (13, -1.41178164095510094711e-01) (14, -1.32589557651140194094e-01) (15, -2.60211434261276630675e-01) (16, -5.34258772381931534845e-01) (17, -1.67632468870563960950e-02) (18, -4.21355271043658052843e-01) (19, 8.84910141731607646776e-01) (20, -1.41138519973951465092e-01) (21, -5.61788371397035080079e-02) (22, 4.45766106908833781297e-01) (23, 5.95534889210352025302e-01) (24, 1.77207679659186378984e-01) (25, -2.92142090803692078271e-01) (26, -2.68603502137576277686e-01) (27, 8.45119723011158341386e-01) (28, -6.10355577887608080623e-01) (29, -4.50054384929746476018e-01) (30, 1.94675191292358273909e-01) (0, 3.93830857426568714530e+00) (1, 1.94016164853500427956e-01) (2, 2.84808634533809723610e-01) (3, 1.45328095867561540855e-01) (4, 2.31289512231277499810e-01) (5, 2.24139939745741811894e-01) (6, 3.80040055801491513665e-02) (7, 1.48832828132751754380e-01) (8, -7.82103030500498480615e-02) (9, 8.64310337428070979415e-02) (10, -1.04890099034684087798e+01) (11, -1.77229543967691444140e-01) (12, -5.93368442613329882818e-01) (13, -4.13427015759693441965e-02) (14, -8.77680240001033062924e-02) (15, -5.54517043868550524310e-02) (16, -4.44329339547254009712e-01) (17, 5.32605125574513338371e-01) (18, -3.62637193508374700013e-01) (19, 6.03747232094606456343e-01) (20, -1.18383645944235449399e-01) (21, 1.30780353452178060847e-01) (22, 1.29095395751246089233e+00) (23, 3.70270806564559906704e-01) (24, 5.55719189539897073793e-01) (25, -3.31349954332484306074e-02) (26, -2.70066623432779984171e-01) (27, 5.13179531415794754068e-01) (28, -4.60808937324695855331e-01) (29, -5.04872880712722182928e-01) (30, 2.59892811777827859032e-01) (0, 8.00009313265702957096e+01) (1, 1.58242604471932946097e-01) (2, 1.14849834479581566771e-01) (3, 2.49421938099156997870e-01) (4, 2.53954901136648203419e-01) (5, 1.75946952802500861113e-01) (6, 2.27514068965162796765e-01) (7, 3.12748785140207263833e-01) (8, -2.04822020449272806930e-01) (9, 1.73912561058772674460e-01) (10, -1.16648940435961225859e+01) (11, 3.08693443155214519713e-01) (12, -4.14884281948053601496e-01) (13, -9.75121174832761505868e-02) (14, 1.14637818864046822642e-01) (15, 8.64542422379408259658e-01) (16, -4.97424788241480841933e-01) (17, 3.35447251856576922346e-01) (18, 1.92795873476424572956e-01) (19, 8.02299710290848566707e-01) (20, -1.16409668496204633803e-02) (21, 1.49440882872419494865e-01) (22, 4.40239315729552826983e-01) (23, 5.22025566401105534098e-01) (24, 3.42685221386467842031e-01) (25, -4.74420239066078580636e-02) (26, 3.26794836749781325569e-01) (27, 9.57480670456686944192e-01) (28, -3.87475292356581013653e-01) (29, -4.24389474370341079901e-01) (30, 3.16867575666741008167e-01) (0, 6.53291897501540859139e+01) (1, 8.87380269815362804353e-02) (2, -1.61198052118383082509e-02) (3, 1.74208636348430645491e-01) (4, 5.80037040163910999624e-02) (5, -4.58467227497520279922e-01) (6, -6.77093310207637300024e-01) (7, -7.03947545552150000248e-01) (8, -6.26984227880672095878e-01) (9, -4.39058420635566049040e-01) (10, 2.04489417217325630816e+00) (11, -1.35615452874085917756e+00) (12, -1.52716027941695614567e-01) (13, -2.04558873386774142666e-01) (14, -1.31794727787191101598e+00) (15, -1.35506514139014178078e+00) (16, -3.63792293742447314653e-01) (17, -8.84316596002061916515e-01) (18, -2.16599752535396206099e+00) (19, -1.15166622245892957821e+00) (20, -5.03316109110657938785e-01) (21, -5.31402771094707682131e-01) (22, -7.92780800106892447054e-01) (23, -9.22138199181449458308e-01) (24, -8.80556528894831047616e-01) (25, -5.31728754964722119536e-02) (26, -3.14108953431441323412e-02) (27, -1.38247867241148636452e+00) (28, -4.82294630293194304116e-01) (29, -4.79004891966644363865e-01) (30, 4.36002225114040575793e-01) (0, 9.90290987391245214333e-01) (1, 2.92873667132150183878e-01) (2, 3.01589140247594367228e-01) (3, 2.11930611681230895993e-01) (4, 1.76554256629236572262e-01) (5, -2.82888962243136199426e-01) (6, -3.32610810468337958490e-01) (7, -2.52786740112143304415e-01) (8, -4.96935092847699155794e-01) (9, -5.32936056838865690466e-01) (10, -2.23381054716629323664e+00) (11, -1.84275052440126901887e-01) (12, -1.11213481224440813300e+00) (13, 1.91669545811348235320e-01) (14, -1.02118984424825046120e-01) (15, 1.58999742900523821643e-02) (16, -8.10839951624285348863e-01) (17, 3.19745851176475193167e-01) (18, -4.84792256301339985480e-01) (19, -1.49194918041733154412e-01) (20, -5.09762033536509617804e-01) (21, -5.99095644429623708227e-01) (22, 2.28779241141226519218e+00) (23, -3.55861605158412974692e-01) (24, 1.59455357394883673328e-01) (25, -7.42789287051220492586e-01) (26, -8.75899954591908613821e-01) (27, -5.18102373231034696310e-01) (28, -8.16202424749892352374e-01) (29, -1.10895237297643967089e+00) (30, -2.53906341688068859508e-01) (31, 5.22075886170305314415e-01) (32, 5.16697857186915077143e-01) (33, 5.11888691778306426095e-01) (34, 4.22983417126387706286e-01) (35, 4.68288324152553836477e-01) (36, -6.09828893378459691021e-01) (37, -8.24596874537048774023e-01) (38, -8.18416619072814599534e-01) (39, -6.31800637626799388435e-01) (40, 1.08181171031244749425e-01) (41, 3.48534041654055160020e-01) 
