FANN_FLO_2.1
num_layers=3
learning_rate=0.700000
connection_rate=1.000000
network_type=0
learning_momentum=0.000000
training_algorithm=2
train_error_function=1
train_stop_function=1
cascade_output_change_fraction=0.010000
quickprop_decay=-0.000100
quickprop_mu=1.750000
rprop_increase_factor=1.200000
rprop_decrease_factor=0.500000
rprop_delta_min=0.000000
rprop_delta_max=50.000000
rprop_delta_zero=0.100000
cascade_output_stagnation_epochs=12
cascade_candidate_change_fraction=0.010000
cascade_candidate_stagnation_epochs=12
cascade_max_out_epochs=150
cascade_min_out_epochs=50
cascade_max_cand_epochs=150
cascade_min_cand_epochs=50
cascade_num_candidate_groups=2
bit_fail_limit=1.00000000000000005551e-01
cascade_candidate_limit=1.00000000000000000000e+03
cascade_weight_multiplier=4.00000000000000022204e-01
cascade_activation_functions_count=10
cascade_activation_functions=3 5 7 8 10 11 14 15 16 17 
cascade_activation_steepnesses_count=4
cascade_activation_steepnesses=2.50000000000000000000e-01 5.00000000000000000000e-01 7.50000000000000000000e-01 1.00000000000000000000e+00 
layer_sizes=13 11 2 
scale_included=0
neurons (num_inputs, activation_function, activation_steepness)=(0, 0, 0.00000000000000000000e+00) (0, 0, 0.00000000000000000000e+00) (0, 0, 0.00000000000000000000e+00) (0, 0, 0.00000000000000000000e+00) (0, 0, 0.00000000000000000000e+00) (0, 0, 0.00000000000000000000e+00) (0, 0, 0.00000000000000000000e+00) (0, 0, 0.00000000000000000000e+00) (0, 0, 0.00000000000000000000e+00) (0, 0, 0.00000000000000000000e+00) (0, 0, 0.00000000000000000000e+00) (0, 0, 0.00000000000000000000e+00) (0, 0, 0.00000000000000000000e+00) (13, 6, 5.00000000000000000000e-01) (13, 6, 5.00000000000000000000e-01) (13, 6, 5.00000000000000000000e-01) (13, 6, 5.00000000000000000000e-01) (13, 6, 5.00000000000000000000e-01) (13, 6, 5.00000000000000000000e-01) (13, 6, 5.00000000000000000000e-01) (13, 6, 5.00000000000000000000e-01) (13, 6, 5.00000000000000000000e-01) (13, 6, 5.00000000000000000000e-01) (0, 6, 0.00000000000000000000e+00) (11, 6, 5.00000000000000000000e-01) (0, 6, 0.00000000000000000000e+00) 
connections (connected_to_neuron, weight)=(0, 2.61209829464644993635e+00) (1, 7.06499320343616232787e-03) (2, 4.77653170831549289677e-02) (3, 9.34615905292379978153e-02) (4, 9.10838420398581150028e-02) (5, -3.33889705929648528127e+00) (6, 7.35233015217539076502e+00) (7, 2.08269425610471264898e-01) (8, 3.93977932480579307040e+00) (9, 1.02817055330060858065e-03) (10, 6.27429286701738675447e+00) (11, 9.89218891670778930347e+01) (12, 1.24448218695300738545e+00) (0, 6.94290998597259267910e+00) (1, 5.66761930731987773058e-01) (2, 5.50999035386299906847e-01) (3, 5.45100202111458598253e-01) (4, 5.72106366304611979601e-01) (5, -4.36242462876331771326e+00) (6, -2.68926632526316100602e-01) (7, -3.61372752639506841787e-02) (8, -9.48229694033441983247e-02) (9, -5.51782846148654204654e+00) (10, -2.86990048420746335367e+00) (11, -1.71775579953505941333e+00) (12, 3.74824179676963631369e-01) (0, 3.08540823556883081480e+00) (1, 4.18571610676763017356e-01) (2, 3.51760138499257468681e-01) (3, 3.35286480116364804527e-01) (4, 3.73373483049390220145e-01) (5, -1.33995451637794893429e+00) (6, 1.43687229491878927234e+01) (7, 3.54428515583819558898e+00) (8, 3.71036059704075960042e+00) (9, -2.11050170654097568601e+00) (10, 4.11578794758582411362e+00) (11, 4.82299633637194858693e+02) (12, -8.00382249350114927111e-01) (0, -6.88033194927841484922e-02) (1, 1.54911607486233997288e-02) (2, 2.90759205641605549680e-03) (3, -8.39148163972041130632e-03) (4, -1.13133636118747216148e-01) (5, -5.17689684439669894900e-01) (6, 1.20126985748467651760e+00) (7, 2.04716741383114436692e-01) (8, 2.30489696581340247628e-01) (9, 7.66650053249296026259e-01) (10, 2.88008489740018713832e+00) (11, 9.90456314867213905018e+01) (12, 4.91300385740874104301e-02) (0, 7.08882042784805044278e+00) (1, 3.73896472097566490156e-01) (2, 5.12758091033628349287e-01) (3, 4.76352572382619743330e-01) (4, 4.21046290488174324018e-01) (5, -3.28689614873393276540e+00) (6, -3.52854655183479515301e+00) (7, 1.90009692662170326383e-01) (8, -3.31490232758890557285e-01) (9, -7.46183515909802030919e-01) (10, -2.54830409439303551267e+00) (11, -1.60284835225428290428e+00) (12, 5.06473745492752147612e-01) (0, 2.00039733708671008117e+00) (1, 4.39980063217122963071e-01) (2, 4.30924526976783683896e-01) (3, 5.07245178895433412869e-01) (4, 5.50006385522325613735e-01) (5, -3.04731182832337132993e+00) (6, -3.77288086636503061655e+00) (7, 3.37123180785111109525e-01) (8, -2.47887255210570145447e-01) (9, -6.78187222729066618854e-01) (10, -1.90124695879168492674e+00) (11, -2.08719563579633238248e+00) (12, -2.30311711242590011137e-03) (0, 4.59984507138808118576e-01) (1, 3.06950945868805336048e-01) (2, 3.59698702111557411243e-01) (3, 3.56747143432215141345e-01) (4, 3.27548873141125129749e-01) (5, -2.63318029938290809611e+00) (6, -6.51595438840742158249e+00) (7, 5.10479538559517886931e-01) (8, 1.60073750612299980922e+00) (9, -6.30290370514358655463e-01) (10, -2.57540314405513282026e+00) (11, -4.57730803925597751203e+00) (12, 3.66119814281172517578e-01) (0, 3.06359575190050348326e+00) (1, 3.00704221541734373346e-01) (2, 3.75904227907510546380e-01) (3, 2.07158732528539113460e-01) (4, 2.66755606348367257930e-01) (5, -1.29585548349907297982e+00) (6, 1.44394519142915189747e+01) (7, 2.03291685365359819926e+00) (8, 3.20268512472752187037e+00) (9, -3.61771457896747206107e+00) (10, 3.34739942484799568589e+00) (11, 4.82434087671463714742e+02) (12, 4.20359098242325923689e-01) (0, 3.39885845215340820502e+00) (1, 4.06314578809349846722e-01) (2, 4.03705042757599663616e-01) (3, 3.70451190479605452222e-01) (4, 4.18711361445992247265e-01) (5, -2.65126833084014590369e+00) (6, -3.52899179735749335407e+00) (7, 5.83300482803602138304e-01) (8, 3.33243513429887616706e-01) (9, -1.68051686010347478550e+00) (10, -2.70453316085726624962e+00) (11, -2.82600507286780144867e+00) (12, 3.55256628553808406767e-01) (0, 2.98344756909115060850e+00) (1, 3.83292596156450060541e-01) (2, 3.38538761551233025049e-01) (3, 3.08661404366346037165e-01) (4, 3.06422817821355497614e-01) (5, -1.30595090099861543820e+00) (6, 1.43863510750342786793e+01) (7, 2.72593886075985203377e+00) (8, 3.47685076936348869125e+00) (9, -1.99866040790120202963e+00) (10, 4.05018031041884718491e+00) (11, 4.82311718389516101979e+02) (12, -5.40823236681452490515e-01) (13, 3.99121507329810998321e-01) (14, -4.01793411467459726794e-01) (15, 2.74847331380407455814e-01) (16, 1.52288407933435704367e-01) (17, -2.45342076385148155637e-01) (18, -2.58666381800301659055e-01) (19, -2.44025998377926933713e-01) (20, 2.64769623910944107426e-01) (21, -2.45408781433232414670e-01) (22, 2.81092005705396774662e-01) (23, 1.55153727654089385046e-01) 
