FANN_FLO_2.1
num_layers=3
learning_rate=0.700000
connection_rate=1.000000
network_type=0
learning_momentum=0.000000
training_algorithm=2
train_error_function=1
train_stop_function=1
cascade_output_change_fraction=0.010000
quickprop_decay=-0.000100
quickprop_mu=1.750000
rprop_increase_factor=1.200000
rprop_decrease_factor=0.500000
rprop_delta_min=0.000000
rprop_delta_max=50.000000
rprop_delta_zero=0.100000
cascade_output_stagnation_epochs=12
cascade_candidate_change_fraction=0.010000
cascade_candidate_stagnation_epochs=12
cascade_max_out_epochs=150
cascade_min_out_epochs=50
cascade_max_cand_epochs=150
cascade_min_cand_epochs=50
cascade_num_candidate_groups=2
bit_fail_limit=1.00000000000000005551e-01
cascade_candidate_limit=1.00000000000000000000e+03
cascade_weight_multiplier=4.00000000000000022204e-01
cascade_activation_functions_count=10
cascade_activation_functions=3 5 7 8 10 11 14 15 16 17 
cascade_activation_steepnesses_count=4
cascade_activation_steepnesses=2.50000000000000000000e-01 5.00000000000000000000e-01 7.50000000000000000000e-01 1.00000000000000000000e+00 
layer_sizes=18 11 2 
scale_included=0
neurons (num_inputs, activation_function, activation_steepness)=(0, 0, 0.00000000000000000000e+00) (0, 0, 0.00000000000000000000e+00) (0, 0, 0.00000000000000000000e+00) (0, 0, 0.00000000000000000000e+00) (0, 0, 0.00000000000000000000e+00) (0, 0, 0.00000000000000000000e+00) (0, 0, 0.00000000000000000000e+00) (0, 0, 0.00000000000000000000e+00) (0, 0, 0.00000000000000000000e+00) (0, 0, 0.00000000000000000000e+00) (0, 0, 0.00000000000000000000e+00) (0, 0, 0.00000000000000000000e+00) (0, 0, 0.00000000000000000000e+00) (0, 0, 0.00000000000000000000e+00) (0, 0, 0.00000000000000000000e+00) (0, 0, 0.00000000000000000000e+00) (0, 0, 0.00000000000000000000e+00) (0, 0, 0.00000000000000000000e+00) (18, 6, 5.00000000000000000000e-01) (18, 6, 5.00000000000000000000e-01) (18, 6, 5.00000000000000000000e-01) (18, 6, 5.00000000000000000000e-01) (18, 6, 5.00000000000000000000e-01) (18, 6, 5.00000000000000000000e-01) (18, 6, 5.00000000000000000000e-01) (18, 6, 5.00000000000000000000e-01) (18, 6, 5.00000000000000000000e-01) (18, 6, 5.00000000000000000000e-01) (0, 6, 0.00000000000000000000e+00) (11, 6, 5.00000000000000000000e-01) (0, 6, 0.00000000000000000000e+00) 
connections (connected_to_neuron, weight)=(0, 6.14142145537711625636e-01) (1, 2.46911137711438910536e-01) (2, 2.18430440288219174239e-01) (3, 3.48278678368959038192e-01) (4, 2.07818883817825039717e-01) (5, -5.99611547894143726012e+00) (6, -6.83459076492033545946e+00) (7, -2.13631280404529277916e-01) (8, -4.97980555966070215224e-01) (9, -1.43751461335284574927e-01) (10, -2.51255260033226601735e+00) (11, 3.62083292848244808759e-02) (12, -3.27446115717181029936e+00) (13, 4.01391513764889240612e-01) (14, -5.05404553573611026174e-01) (15, 3.80776107757915205365e-01) (16, -4.05884969864105382698e+00) (17, -1.54854957691433030298e-02) (0, 2.80356240890176744429e-01) (1, 3.25046486567887871200e-01) (2, 2.13956586431894024702e-01) (3, 2.32705994855794628950e-01) (4, 2.56042807709607744826e-01) (5, -6.07075275040530826232e+00) (6, -6.81114892868242804980e+00) (7, -2.09723652678754146628e-01) (8, -6.46405457034280761519e-01) (9, -8.78840205627998971583e-02) (10, -3.32775322312990695650e+00) (11, 4.05347175246850155439e-02) (12, -3.24667976751812759062e+00) (13, 3.61277998062897676146e-01) (14, -5.46322024624827151662e-01) (15, 4.41861302107204090284e-01) (16, -4.12819728956644738105e+00) (17, -4.64045856825116009858e-02) (0, -4.74852472498008015833e+00) (1, -2.32958091349484808230e-01) (2, -1.84172173888566381716e-01) (3, -1.83335384280564672732e-01) (4, -1.67426353247048742556e-01) (5, 1.65275470976984517613e+00) (6, 1.41751373824011905889e+00) (7, 6.87651619776223355096e-01) (8, 9.90477635455379812335e-01) (9, 3.83997480193220053213e-01) (10, 2.45891012338204273391e+00) (11, -4.25099642088701323850e-01) (12, 2.45747866386781987913e+00) (13, -5.13361946555981538132e-04) (14, 8.94280164474215433223e-01) (15, -9.92121737053593633071e-01) (16, 2.02845080236704111698e+00) (17, -2.90386568560568880670e-01) (0, 2.70454210660608262984e-01) (1, 2.78887306471786777795e-01) (2, 2.01144625564537438134e-01) (3, 2.42692851593218184014e-01) (4, 2.07661708017311485985e-01) (5, -9.85161981249601659272e+00) (6, -6.80760133473120276904e+00) (7, -4.81780075268582574921e-01) (8, -6.83675631517538295867e-01) (9, -2.90622827874905120815e-01) (10, -1.80196576215252113329e+00) (11, 2.45481949478707994761e-01) (12, -3.26582862391957107207e+00) (13, 3.17678881282727698654e-01) (14, 1.13129062763194260244e-01) (15, 8.41595165000235678754e-01) (16, -5.61999409827371110282e+00) (17, -1.67901591796141669288e-01) (0, -4.87295058696457150660e+00) (1, -1.92174455077531225466e-01) (2, -2.14785581381204015994e-01) (3, -2.08764804453732855105e-01) (4, -2.82694568784119915072e-01) (5, 1.68613135134136693516e+00) (6, 1.43680589608889897058e+00) (7, 5.38113460405800880793e-01) (8, 1.06777519353774086319e+00) (9, 4.17200180510126028555e-01) (10, 2.50393197399778255630e+00) (11, -3.86127301564504699094e-01) (12, 2.40549374036646534947e+00) (13, -1.60648762243604525946e-01) (14, 8.63664894336428567989e-01) (15, -6.73909157770648969965e-01) (16, 2.05012903402359203398e+00) (17, -9.37463884036578987136e-02) (0, 4.64904176375587896430e-01) (1, 3.84781284305968085402e-01) (2, 3.10762843165316382521e-01) (3, 4.43960694644369879835e-01) (4, 3.68082752499499121779e-01) (5, 1.14636024194136947330e+01) (6, 8.61266467710898986354e+00) (7, 4.40925959479415574549e+00) (8, -1.41279739647658431068e+00) (9, -8.82560952694926847961e-01) (10, -1.40826412936720046787e+00) (11, 6.53399090351856337566e-02) (12, 1.09062505765881212483e+02) (13, 8.92168439663102580406e-03) (14, -2.16279779580851316823e-01) (15, 2.64376597688272596542e-01) (16, 1.20843466273401602962e+01) (17, 2.00586282730373988148e-01) (0, 4.07014167981674834795e-01) (1, 5.00721611247333941996e-01) (2, 4.84719433055195270121e-01) (3, 4.61829804048809466899e-01) (4, 4.43404220209392962992e-01) (5, 1.13062547924295753177e+01) (6, 8.58885533725784888759e+00) (7, 6.79388130615928442779e+00) (8, -1.58240529356350312362e+00) (9, -7.12425342674635531104e-01) (10, -4.44590589691875415213e+00) (11, -2.78841948747484358329e-01) (12, 1.09063245638336809407e+02) (13, -1.96873111374396558837e-01) (14, 3.98860636747437602434e-01) (15, 1.82957015833313696440e-01) (16, 1.22185950628374442317e+01) (17, -1.52713030490574774856e-01) (0, 2.43362975738199205367e-01) (1, 2.11992062043580731245e-01) (2, 3.49303267311486809188e-01) (3, 2.94557771992120354110e-01) (4, 2.50626593243512829634e-01) (5, -6.00631989843511249205e+00) (6, -6.87184323577127997851e+00) (7, -1.49036006230807316353e-01) (8, -6.63730254843404754439e-01) (9, -1.76657330521209188223e-01) (10, -2.52155549449539728712e+00) (11, -3.75254475229605949371e-02) (12, -3.12109866045126693734e+00) (13, 3.32044169875908845579e-01) (14, -5.02655281882765536672e-01) (15, 5.21482311635841022657e-01) (16, -5.19333540202555354881e+00) (17, 1.00763923979639791195e-01) (0, -4.91013248964139226160e+00) (1, -1.95736890585305578494e-01) (2, -1.68607925922753698611e-01) (3, -1.92810734660508520388e-01) (4, -1.98373330683591253543e-01) (5, 1.71729216044104116001e+00) (6, 1.61022146496567386542e+00) (7, 6.11877657934163154962e-01) (8, 1.06295600899603859268e+00) (9, 4.20845540979944143789e-01) (10, 2.55984882352156528640e+00) (11, -4.83325332252899364516e-01) (12, 2.75282121671831658816e+00) (13, -2.00725838757867591777e-01) (14, 8.55317249200356122252e-01) (15, -8.36334745934209200513e-01) (16, 1.95424801151067994986e+00) (17, -3.03525890960662014795e-01) (0, 2.61933556871941142230e-01) (1, 5.31481307510965450547e-01) (2, 4.99916341666811092637e-01) (3, 4.33078967545860393784e-01) (4, 5.64107176427477097214e-01) (5, 1.13246009642556995090e+01) (6, 8.65569212650822272792e+00) (7, 4.46302551757896193152e+00) (8, -2.02928785129997724113e+00) (9, -8.98296674172520348556e-01) (10, -2.25901892028282924585e+00) (11, 1.67439013308047113249e-01) (12, 1.09032375260319383870e+02) (13, -1.73101002307924634049e-02) (14, 2.38025474942284848145e-01) (15, 2.80423755035474897568e-01) (16, 1.21260700351451262691e+01) (17, 5.10157550978007981457e-02) (18, -1.11147828917993171660e-01) (19, -8.17781766467223641959e-02) (20, 4.24434663076152296490e-01) (21, -1.45307248616366097016e-01) (22, 4.18440812546958418316e-01) (23, 4.70055776571522421214e-01) (24, 4.80919334029446310375e-01) (25, -1.30858772020829794425e-01) (26, 4.45439824182738752789e-01) (27, 4.65349602436314291332e-01) (28, 3.24520357775468670791e-01) 
