FANN_FLO_2.1
num_layers=3
learning_rate=0.700000
connection_rate=1.000000
network_type=0
learning_momentum=0.000000
training_algorithm=2
train_error_function=1
train_stop_function=1
cascade_output_change_fraction=0.010000
quickprop_decay=-0.000100
quickprop_mu=1.750000
rprop_increase_factor=1.200000
rprop_decrease_factor=0.500000
rprop_delta_min=0.000000
rprop_delta_max=50.000000
rprop_delta_zero=0.100000
cascade_output_stagnation_epochs=12
cascade_candidate_change_fraction=0.010000
cascade_candidate_stagnation_epochs=12
cascade_max_out_epochs=150
cascade_min_out_epochs=50
cascade_max_cand_epochs=150
cascade_min_cand_epochs=50
cascade_num_candidate_groups=2
bit_fail_limit=1.00000000000000005551e-01
cascade_candidate_limit=1.00000000000000000000e+03
cascade_weight_multiplier=4.00000000000000022204e-01
cascade_activation_functions_count=10
cascade_activation_functions=3 5 7 8 10 11 14 15 16 17 
cascade_activation_steepnesses_count=4
cascade_activation_steepnesses=2.50000000000000000000e-01 5.00000000000000000000e-01 7.50000000000000000000e-01 1.00000000000000000000e+00 
layer_sizes=19 11 2 
scale_included=0
neurons (num_inputs, activation_function, activation_steepness)=(0, 0, 0.00000000000000000000e+00) (0, 0, 0.00000000000000000000e+00) (0, 0, 0.00000000000000000000e+00) (0, 0, 0.00000000000000000000e+00) (0, 0, 0.00000000000000000000e+00) (0, 0, 0.00000000000000000000e+00) (0, 0, 0.00000000000000000000e+00) (0, 0, 0.00000000000000000000e+00) (0, 0, 0.00000000000000000000e+00) (0, 0, 0.00000000000000000000e+00) (0, 0, 0.00000000000000000000e+00) (0, 0, 0.00000000000000000000e+00) (0, 0, 0.00000000000000000000e+00) (0, 0, 0.00000000000000000000e+00) (0, 0, 0.00000000000000000000e+00) (0, 0, 0.00000000000000000000e+00) (0, 0, 0.00000000000000000000e+00) (0, 0, 0.00000000000000000000e+00) (0, 0, 0.00000000000000000000e+00) (19, 6, 5.00000000000000000000e-01) (19, 6, 5.00000000000000000000e-01) (19, 6, 5.00000000000000000000e-01) (19, 6, 5.00000000000000000000e-01) (19, 6, 5.00000000000000000000e-01) (19, 6, 5.00000000000000000000e-01) (19, 6, 5.00000000000000000000e-01) (19, 6, 5.00000000000000000000e-01) (19, 6, 5.00000000000000000000e-01) (19, 6, 5.00000000000000000000e-01) (0, 6, 0.00000000000000000000e+00) (11, 6, 5.00000000000000000000e-01) (0, 6, 0.00000000000000000000e+00) 
connections (connected_to_neuron, weight)=(0, 9.42537511328762889207e+00) (1, 9.48732278398460165958e-02) (2, 7.38346806816047446231e-02) (3, 1.30574361150640860796e-01) (4, 3.46375337890571649568e-02) (5, -3.79465602622639375241e+00) (6, 2.35706543018183611871e-01) (7, -3.00850140822330747170e-01) (8, -1.05056081351407565316e-01) (9, 1.72443126061457979725e-01) (10, -8.38590230919079582250e-01) (11, -1.78413387817820634496e+00) (12, -7.31118639262634206766e-01) (13, -5.30317159154250261643e-01) (14, 4.03877114400002013017e-01) (15, -1.14975224142190371457e-01) (16, 8.40128863185727464691e-02) (17, 9.14055059854254441098e-03) (18, 4.61117274643333130424e-01) (0, 1.18213744632829809156e+00) (1, 3.08293929067272265421e-01) (2, 2.24036922422069656458e-01) (3, 3.19371303287166674600e-01) (4, 2.32547407713550674524e-01) (5, -4.67821299187865591307e+00) (6, -2.20305355318050510860e-01) (7, 9.85384421761509976534e+00) (8, 2.48623942849924617349e-01) (9, -2.98458139562162105829e-01) (10, 9.12833562304285628386e+00) (11, -5.20087926555572277465e+00) (12, -1.23341480976956541227e+00) (13, -1.49530905946244163651e+00) (14, -8.79022704083424200050e-02) (15, 1.16895173389219877436e+01) (16, 8.51596071669784127067e-01) (17, -5.86699230752573797076e-01) (18, 5.17131983136914663568e-01) (0, 1.89649748389437640128e+01) (1, 3.83831122825429638112e-01) (2, 5.28199808607385135062e-01) (3, 4.79148695180700023855e-01) (4, 4.03474101732061107839e-01) (5, -2.57673096476210339301e-01) (6, 4.04890123710828719883e-01) (7, -2.15098392958625739269e+00) (8, 4.17382424019163089657e-01) (9, 5.68824492145012738931e-01) (10, -3.43856832253561961465e+00) (11, -8.84684301953974627786e-02) (12, 4.37410961388501462466e+01) (13, 3.77805042477292261083e+01) (14, 3.05266062709817109777e+00) (15, -1.15821371517294946507e+00) (16, 1.70823706941484271260e-01) (17, -2.00645539421915852785e+00) (18, 4.86527571216254395292e-01) (0, -9.16019408327711337492e-01) (1, 6.87672643983639961252e-03) (2, 3.52187648328570260259e-02) (3, -1.03397636869308598428e-01) (4, -5.96253007737370596675e-02) (5, 6.41421931607711659495e-01) (6, 1.59640240293392812743e-02) (7, 2.12011652740808020923e-01) (8, -5.69781130219793596758e-02) (9, -5.56942390177831009312e-02) (10, -1.60212458962592146916e-01) (11, 1.09692155199047514103e+00) (12, 2.00966396880112418977e-01) (13, 1.89015263271294281511e-01) (14, -8.26871835575854752243e-02) (15, 1.27079366994718757911e-02) (16, 2.13716687849052622283e-01) (17, 4.30248048964371410108e-01) (18, -2.16951556788892246930e-01) (0, 2.41921015770639263875e-01) (1, 3.57590475530578794094e-02) (2, 5.84897258729889096829e-02) (3, 2.60104136021091884856e-02) (4, 1.23303816601748703063e-01) (5, -1.18121021328206055045e+00) (6, 1.65847413510722185848e-01) (7, -1.96176028138146885116e-01) (8, 1.23527176748336089962e-01) (9, 1.99979219429607169012e-01) (10, -4.86844323168668824398e-01) (11, -1.97218461944328771196e+00) (12, -3.00674160838351689495e-01) (13, -7.88549742836787831424e-02) (14, 3.30546898826912405323e-01) (15, -1.22148525840053909230e-01) (16, 1.72942106358905528518e-01) (17, 7.89733870377783975236e-02) (18, 4.79921888141565167185e-01) (0, 9.32995499905464376056e-01) (1, 7.67596806855960767102e-03) (2, 9.31763648566798496908e-02) (3, 1.46990865048961354133e-02) (4, 5.67667483863429633839e-02) (5, 2.10926304062085812063e+00) (6, -4.46202667580811729309e-02) (7, -3.84954133992743030568e-01) (8, -3.35580093327557671401e-02) (9, 8.59776232662487621683e-02) (10, -1.66033209225324607239e-01) (11, 1.45610655541419653503e+00) (12, -2.91078315077976601533e-01) (13, -1.26801087705438769726e-01) (14, 1.12070996358522995129e-01) (15, -2.27495085988248274544e-01) (16, -2.06634098312015457299e-02) (17, -3.56450814281409067430e-01) (18, 6.87667630926388773194e-02) (0, 2.73354037674073815367e+01) (1, 4.97109264066591532982e-02) (2, 1.19751286499775969063e-01) (3, 3.13040360739603590323e-02) (4, 3.58891904285326690527e-02) (5, -1.35696276322969233696e+00) (6, 1.68784162417322004812e-02) (7, -2.14743601888419322066e+00) (8, -1.01124380168088501275e-01) (9, 1.13944951876976147132e-01) (10, -1.02667034960094216700e+00) (11, -2.02154592701861801629e+00) (12, -6.04111045245964262129e-01) (13, -9.39094694035263244380e-01) (14, 4.57004257243123213073e-01) (15, -1.19000305897902905472e-01) (16, -1.92737205752199575182e-01) (17, -1.76934166892398131443e-01) (18, 8.01830860355417063268e-01) (0, -1.02654285477672502225e+00) (1, 1.89402148040560616704e-02) (2, 1.17278545224942863483e-03) (3, -1.57644900688287875612e-01) (4, 1.54584988864687900706e-02) (5, 6.31133674455869320141e-01) (6, -3.65609793222072473884e-02) (7, 1.54262780710245989146e-01) (8, 4.17606015549341624826e-02) (9, 6.58158671996986743835e-02) (10, -5.82108210520726407355e-02) (11, 1.17637679727670141361e+00) (12, 7.80000866236954526478e-03) (13, 1.41376057219467776704e-01) (14, 7.62572430654281652185e-02) (15, -1.93044982832318474941e-02) (16, 1.94826509543721382300e-01) (17, 2.51280755144685119529e-01) (18, -7.59353566040701366546e-02) (0, 3.79833534777768875301e+01) (1, 2.85350331239823729046e-01) (2, 2.63900299691085193921e-01) (3, 3.49820715509776503094e-01) (4, 3.89369716071013838299e-01) (5, -4.87344684776716274843e-01) (6, 1.11109407249920258409e-01) (7, -5.74187120199424416711e+00) (8, -2.61464937424673138366e-01) (9, 1.27454488998541476397e-01) (10, -2.30584388251414695858e+00) (11, -1.48493353794647897637e+00) (12, 4.36762656940969762331e+01) (13, 3.76596938582104883153e+01) (14, 2.50331843709557277933e+00) (15, -1.10506867296520039368e-01) (16, -1.10341527705023451089e-01) (17, -1.29035811083602336424e+00) (18, 1.54590517913589775567e+00) (0, 2.59912653214066979857e+00) (1, 2.00807645382266281020e-01) (2, 1.39826051356177594176e-01) (3, 1.14955525310616687995e-01) (4, 1.29353664280753372084e-01) (5, 1.83171614688833717111e+00) (6, 9.36585603165872304654e-02) (7, -2.74303406421641637891e-01) (8, -6.48529086755685740817e-02) (9, -4.37284904286415476715e-01) (10, -3.23693758093025696354e-01) (11, 3.43440116215231450170e+00) (12, -3.21228611092096771884e-01) (13, -4.79900281428316588528e-01) (14, 3.90554083917924899083e-01) (15, -3.10386267875260857263e-01) (16, -1.14518054960974868806e+00) (17, -6.94033419630773917852e-01) (18, 3.44056146274441199129e-01) (19, -4.47136234351404149301e-01) (20, 7.25023766029751937090e-01) (21, -6.86994407068700074781e-03) (22, 5.90068382338098773587e-01) (23, -3.68353704130136239137e-01) (24, 6.97465003837810959553e-01) (25, -4.88118639392686404221e-01) (26, 5.26795469137075089705e-01) (27, -2.27265067537624432248e-01) (28, 4.66272852206821464272e-01) (29, 4.31125471121565129184e-01) 
