FANN_FLO_2.1
num_layers=3
learning_rate=0.700000
connection_rate=1.000000
network_type=0
learning_momentum=0.000000
training_algorithm=2
train_error_function=1
train_stop_function=1
cascade_output_change_fraction=0.010000
quickprop_decay=-0.000100
quickprop_mu=1.750000
rprop_increase_factor=1.200000
rprop_decrease_factor=0.500000
rprop_delta_min=0.000000
rprop_delta_max=50.000000
rprop_delta_zero=0.100000
cascade_output_stagnation_epochs=12
cascade_candidate_change_fraction=0.010000
cascade_candidate_stagnation_epochs=12
cascade_max_out_epochs=150
cascade_min_out_epochs=50
cascade_max_cand_epochs=150
cascade_min_cand_epochs=50
cascade_num_candidate_groups=2
bit_fail_limit=1.00000000000000005551e-01
cascade_candidate_limit=1.00000000000000000000e+03
cascade_weight_multiplier=4.00000000000000022204e-01
cascade_activation_functions_count=10
cascade_activation_functions=3 5 7 8 10 11 14 15 16 17 
cascade_activation_steepnesses_count=4
cascade_activation_steepnesses=2.50000000000000000000e-01 5.00000000000000000000e-01 7.50000000000000000000e-01 1.00000000000000000000e+00 
layer_sizes=9 4 2 
scale_included=0
neurons (num_inputs, activation_function, activation_steepness)=(0, 0, 0.00000000000000000000e+00) (0, 0, 0.00000000000000000000e+00) (0, 0, 0.00000000000000000000e+00) (0, 0, 0.00000000000000000000e+00) (0, 0, 0.00000000000000000000e+00) (0, 0, 0.00000000000000000000e+00) (0, 0, 0.00000000000000000000e+00) (0, 0, 0.00000000000000000000e+00) (0, 0, 0.00000000000000000000e+00) (9, 6, 5.00000000000000000000e-01) (9, 6, 5.00000000000000000000e-01) (9, 6, 5.00000000000000000000e-01) (0, 6, 0.00000000000000000000e+00) (4, 4, 5.00000000000000000000e-01) (0, 4, 0.00000000000000000000e+00) 
connections (connected_to_neuron, weight)=(0, 2.33765596472043890586e+00) (1, -2.15704333625980471112e+00) (2, -1.24388429090594287985e+00) (3, -2.42804667559732223481e+00) (4, 1.00024125394236884645e+00) (5, -1.86662748807566813980e+00) (6, -2.36299707631875177682e+00) (7, -2.01249800771935261068e+00) (8, 2.56092571739775598516e+00) (0, 2.24547026627082724204e+00) (1, -2.04794831417747591473e+00) (2, -1.39115603208755489462e+00) (3, -2.45052952525485778779e+00) (4, 7.49578373808954312452e-01) (5, -1.22900414189963047562e+00) (6, -2.32496528963853021921e+00) (7, -2.28144461209042459515e+00) (8, 2.62226017092091501226e+00) (0, 2.18997474335451025595e+00) (1, -2.15161535732694719769e+00) (2, -1.24390275344466205709e+00) (3, -2.40921609309781814545e+00) (4, 1.11176826332443812184e+00) (5, -1.87817469590800523171e+00) (6, -2.28664489726830622018e+00) (7, -2.05783227980597294149e+00) (8, 2.56971337918860376348e+00) (9, -5.23291032357745944381e+00) (10, -1.05404675510427345841e+01) (11, -5.24145615442329226852e+00) (12, -1.04463316861789690115e+00) 
