FANN_FLO_2.1
num_layers=3
learning_rate=0.700000
connection_rate=1.000000
network_type=0
learning_momentum=0.000000
training_algorithm=2
train_error_function=1
train_stop_function=1
cascade_output_change_fraction=0.010000
quickprop_decay=-0.000100
quickprop_mu=1.750000
rprop_increase_factor=1.200000
rprop_decrease_factor=0.500000
rprop_delta_min=0.000000
rprop_delta_max=50.000000
rprop_delta_zero=0.100000
cascade_output_stagnation_epochs=12
cascade_candidate_change_fraction=0.010000
cascade_candidate_stagnation_epochs=12
cascade_max_out_epochs=150
cascade_min_out_epochs=50
cascade_max_cand_epochs=150
cascade_min_cand_epochs=50
cascade_num_candidate_groups=2
bit_fail_limit=1.00000000000000005551e-01
cascade_candidate_limit=1.00000000000000000000e+03
cascade_weight_multiplier=4.00000000000000022204e-01
cascade_activation_functions_count=10
cascade_activation_functions=3 5 7 8 10 11 14 15 16 17 
cascade_activation_steepnesses_count=4
cascade_activation_steepnesses=2.50000000000000000000e-01 5.00000000000000000000e-01 7.50000000000000000000e-01 1.00000000000000000000e+00 
layer_sizes=12 11 2 
scale_included=0
neurons (num_inputs, activation_function, activation_steepness)=(0, 0, 0.00000000000000000000e+00) (0, 0, 0.00000000000000000000e+00) (0, 0, 0.00000000000000000000e+00) (0, 0, 0.00000000000000000000e+00) (0, 0, 0.00000000000000000000e+00) (0, 0, 0.00000000000000000000e+00) (0, 0, 0.00000000000000000000e+00) (0, 0, 0.00000000000000000000e+00) (0, 0, 0.00000000000000000000e+00) (0, 0, 0.00000000000000000000e+00) (0, 0, 0.00000000000000000000e+00) (0, 0, 0.00000000000000000000e+00) (12, 6, 5.00000000000000000000e-01) (12, 6, 5.00000000000000000000e-01) (12, 6, 5.00000000000000000000e-01) (12, 6, 5.00000000000000000000e-01) (12, 6, 5.00000000000000000000e-01) (12, 6, 5.00000000000000000000e-01) (12, 6, 5.00000000000000000000e-01) (12, 6, 5.00000000000000000000e-01) (12, 6, 5.00000000000000000000e-01) (12, 6, 5.00000000000000000000e-01) (0, 6, 0.00000000000000000000e+00) (11, 6, 5.00000000000000000000e-01) (0, 6, 0.00000000000000000000e+00) 
connections (connected_to_neuron, weight)=(0, -5.48548293158326405461e+00) (1, -2.52703698143694865941e-01) (2, -1.59353295132849598348e-01) (3, -1.88785606786940479696e-01) (4, -2.39467682108614882130e-01) (5, 1.89338184732883263450e+00) (6, 1.13561841822709355676e-01) (7, 1.21421670055122210563e+00) (8, 1.36980200572104160450e+00) (9, 1.25960657199754888502e+00) (10, 2.88634200460239132013e-01) (11, -2.38428960933348949025e-01) (0, 1.24615959806670684173e+00) (1, 6.41456529889992244087e-01) (2, 6.20014690254620082221e-01) (3, 5.60945861433437831245e-01) (4, 6.55496254955223567329e-01) (5, -6.11414488998725325075e+00) (6, 1.50809567970550950644e-01) (7, 7.68086251649513318540e+00) (8, 6.67797222681824287349e+00) (9, 7.92353897662691153414e+00) (10, 5.49607549484883595170e+00) (11, -3.77742698106748875375e-02) (0, -5.61456566348586338933e+00) (1, -2.65037933156226146458e-01) (2, -1.67210602924559498250e-01) (3, -1.96846114263270283162e-01) (4, -1.39898652002547169149e-01) (5, 1.88840601805537033897e+00) (6, 4.83442657828304575562e-02) (7, 9.02126031642154879719e-01) (8, 1.30728261185974781178e+00) (9, 1.24143301894798452345e+00) (10, 2.12070238656326071069e-01) (11, -1.18428065820596034596e-01) (0, 1.38241883350839156464e+00) (1, 6.88955746982983119331e-01) (2, 6.61078580115726954780e-01) (3, 6.32960535977772242866e-01) (4, 6.07558362577847010932e-01) (5, -5.47912086678096699188e+00) (6, -1.43969431229349575929e-01) (7, 8.08152971821411192366e+00) (8, 6.77010958590094169551e+00) (9, 7.84192765997580565340e+00) (10, 5.47849656518613148393e+00) (11, -2.08310693326738682885e-01) (0, 1.02199429709061053728e+01) (1, 3.96833192584352179022e-01) (2, 3.83536350009278936835e-01) (3, 3.61567832556800528021e-01) (4, 3.30102201578454657049e-01) (5, -1.45810534718475892646e+00) (6, -1.92711850291061408125e-02) (7, -1.84930301838582633600e+00) (8, -2.14089049321656377245e+00) (9, -3.04517181227515543185e+00) (10, -2.84077771988765492850e-01) (11, 1.87537977239022268794e-01) (0, -6.06962475703909642988e+00) (1, -2.10999572441313704152e-01) (2, -1.49399423763487720906e-01) (3, -3.11889955565665233372e-01) (4, -3.10570509896014201878e-01) (5, 1.89041478399126816612e+00) (6, 2.10464093066300650392e-01) (7, 8.28645955542360201918e-01) (8, 1.07794331534145482188e+00) (9, 2.20034699089633445368e+00) (10, 2.76299118481540650905e-01) (11, -2.48420260755144450826e-01) (0, -1.07389088908413143919e-01) (1, -5.16534156024667123752e-01) (2, -3.83872805953236750920e-01) (3, -3.60772087097378901799e-01) (4, -4.64876456976147822697e-01) (5, -6.23767263187607934327e+00) (6, 2.84274034414331566722e+00) (7, 1.30554110233264442087e+00) (8, 1.50305109638544265316e+00) (9, -6.01169441083537758885e+00) (10, 1.84145122587685516891e+00) (11, -1.63450094104334586742e-02) (0, 1.05045157375009884371e-01) (1, -2.18321057357336117954e-01) (2, -2.14762168325925900669e-01) (3, -2.18706833519483639927e-01) (4, -1.42807247437978818150e-01) (5, -2.77148592208558186556e+00) (6, 6.87020053943286690412e-01) (7, 6.30050736406673417278e-01) (8, 5.95622812686834812723e-01) (9, -9.04055282442913665797e-01) (10, 8.25994788990855433042e-01) (11, -2.05819923479187927295e-01) (0, -7.90592857003112214898e-01) (1, -1.69958128936052277336e-01) (2, -3.10871987945795069663e-01) (3, -3.15758395350933085410e-01) (4, -2.49646134085416693260e-01) (5, 1.96131918791621018272e+00) (6, 1.06157552777760511020e-01) (7, 7.87204820433889285169e-01) (8, 9.32174058809161820705e-01) (9, 9.46798085576084580417e-01) (10, 2.19939145805283620128e-01) (11, -1.13691217561304361294e-01) (0, 2.58602540128240909745e-01) (1, 7.59598942278699187057e-04) (2, -1.28673489062310353326e-01) (3, -8.45023159368049475715e-02) (4, -4.88199469132434560326e-02) (5, -1.04255563579966303855e+00) (6, 3.78031104179320398551e-01) (7, 1.31991195304347719297e-01) (8, -9.08519593423457672010e-01) (9, -2.32624968357357742033e-01) (10, 3.98816801416399108193e-02) (11, -1.84187866384220882976e-01) (12, 4.20193383889993721247e-01) (13, 5.27190902251875037621e-01) (14, 3.92127307551702553035e-01) (15, 6.25041331657179233261e-01) (16, -5.39482676102216451852e-01) (17, 3.98154797452291542292e-01) (18, -2.37676734581277415703e-01) (19, -1.90417028730929444036e-01) (20, 2.85232723418693989714e-01) (21, 3.59573641860452472563e-03) (22, 4.62029122728979113610e-01) 
