FANN_FLO_2.1
num_layers=3
learning_rate=0.700000
connection_rate=1.000000
network_type=0
learning_momentum=0.000000
training_algorithm=2
train_error_function=1
train_stop_function=1
cascade_output_change_fraction=0.010000
quickprop_decay=-0.000100
quickprop_mu=1.750000
rprop_increase_factor=1.200000
rprop_decrease_factor=0.500000
rprop_delta_min=0.000000
rprop_delta_max=50.000000
rprop_delta_zero=0.100000
cascade_output_stagnation_epochs=12
cascade_candidate_change_fraction=0.010000
cascade_candidate_stagnation_epochs=12
cascade_max_out_epochs=150
cascade_min_out_epochs=50
cascade_max_cand_epochs=150
cascade_min_cand_epochs=50
cascade_num_candidate_groups=2
bit_fail_limit=1.00000000000000005551e-01
cascade_candidate_limit=1.00000000000000000000e+03
cascade_weight_multiplier=4.00000000000000022204e-01
cascade_activation_functions_count=10
cascade_activation_functions=3 5 7 8 10 11 14 15 16 17 
cascade_activation_steepnesses_count=4
cascade_activation_steepnesses=2.50000000000000000000e-01 5.00000000000000000000e-01 7.50000000000000000000e-01 1.00000000000000000000e+00 
layer_sizes=7 4 2 
scale_included=0
neurons (num_inputs, activation_function, activation_steepness)=(0, 0, 0.00000000000000000000e+00) (0, 0, 0.00000000000000000000e+00) (0, 0, 0.00000000000000000000e+00) (0, 0, 0.00000000000000000000e+00) (0, 0, 0.00000000000000000000e+00) (0, 0, 0.00000000000000000000e+00) (0, 0, 0.00000000000000000000e+00) (7, 6, 5.00000000000000000000e-01) (7, 6, 5.00000000000000000000e-01) (7, 6, 5.00000000000000000000e-01) (0, 6, 0.00000000000000000000e+00) (4, 4, 5.00000000000000000000e-01) (0, 4, 0.00000000000000000000e+00) 
connections (connected_to_neuron, weight)=(0, 1.32678668038337455037e+00) (1, 2.04965177635409823154e+00) (2, 3.64421432641101383787e-01) (3, 2.03885164524399753461e+00) (4, 2.04431170265161510358e+00) (5, 1.12406277335504345416e+00) (6, -1.81882033376798402102e+00) (0, 8.27303183724809265698e-01) (1, 8.71027240161584503930e-01) (2, 6.27787136920193722389e-02) (3, 8.49824728363287817956e-01) (4, 7.53420824104083064476e-01) (5, 2.26156297631634445322e-01) (6, -4.03239685620386256737e-01) (0, 1.30642165826051459554e+00) (1, 1.99359555254437958993e+00) (2, 2.74081716117215656858e-01) (3, 2.03569326962315555463e+00) (4, 2.09292133937561031232e+00) (5, 1.07223390466789059161e+00) (6, -1.78639054178104172976e+00) (7, 7.96934457111214555880e+00) (8, 4.01083652510931976121e-01) (9, 7.90930192160462297579e+00) (10, -1.68463742612705003054e+00) 
