FANN_FLO_2.1
num_layers=3
learning_rate=0.700000
connection_rate=1.000000
network_type=0
learning_momentum=0.000000
training_algorithm=2
train_error_function=1
train_stop_function=1
cascade_output_change_fraction=0.010000
quickprop_decay=-0.000100
quickprop_mu=1.750000
rprop_increase_factor=1.200000
rprop_decrease_factor=0.500000
rprop_delta_min=0.000000
rprop_delta_max=50.000000
rprop_delta_zero=0.100000
cascade_output_stagnation_epochs=12
cascade_candidate_change_fraction=0.010000
cascade_candidate_stagnation_epochs=12
cascade_max_out_epochs=150
cascade_min_out_epochs=50
cascade_max_cand_epochs=150
cascade_min_cand_epochs=50
cascade_num_candidate_groups=2
bit_fail_limit=1.00000000000000005551e-01
cascade_candidate_limit=1.00000000000000000000e+03
cascade_weight_multiplier=4.00000000000000022204e-01
cascade_activation_functions_count=10
cascade_activation_functions=3 5 7 8 10 11 14 15 16 17 
cascade_activation_steepnesses_count=4
cascade_activation_steepnesses=2.50000000000000000000e-01 5.00000000000000000000e-01 7.50000000000000000000e-01 1.00000000000000000000e+00 
layer_sizes=7 4 2 
scale_included=0
neurons (num_inputs, activation_function, activation_steepness)=(0, 0, 0.00000000000000000000e+00) (0, 0, 0.00000000000000000000e+00) (0, 0, 0.00000000000000000000e+00) (0, 0, 0.00000000000000000000e+00) (0, 0, 0.00000000000000000000e+00) (0, 0, 0.00000000000000000000e+00) (0, 0, 0.00000000000000000000e+00) (7, 6, 5.00000000000000000000e-01) (7, 6, 5.00000000000000000000e-01) (7, 6, 5.00000000000000000000e-01) (0, 6, 0.00000000000000000000e+00) (4, 4, 5.00000000000000000000e-01) (0, 4, 0.00000000000000000000e+00) 
connections (connected_to_neuron, weight)=(0, 4.00874354840060931338e+00) (1, -3.86956499262268094341e+00) (2, -1.62530114147750071041e+00) (3, -7.48734373540546171988e-01) (4, -5.13789737490031583889e+00) (5, -3.12270471051656972605e+00) (6, 4.07921781168124120143e+00) (0, 4.02707272667272953015e+00) (1, -3.35518837669557834502e+00) (2, -3.39647579022995849130e+00) (3, -2.12513127895129910749e-01) (4, -4.60715901729353660699e+00) (5, -2.47541740371735441428e+00) (6, 4.04879824716432956677e+00) (0, 8.69531778113222575399e-01) (1, -8.11042894762215804683e-01) (2, -1.81337577402543814742e+00) (3, -1.05578020789516571765e-01) (4, -2.58566836664902410803e+00) (5, -9.88969549364371425249e-01) (6, 8.03143416957235567466e-01) (7, -6.70500000187873634871e+00) (8, -4.14841812737482129592e+00) (9, -9.66137678146162359738e-01) (10, -8.81970823479093612995e-01) 
