FANN_FLO_2.1
num_layers=3
learning_rate=0.700000
connection_rate=1.000000
network_type=0
learning_momentum=0.000000
training_algorithm=2
train_error_function=1
train_stop_function=1
cascade_output_change_fraction=0.010000
quickprop_decay=-0.000100
quickprop_mu=1.750000
rprop_increase_factor=1.200000
rprop_decrease_factor=0.500000
rprop_delta_min=0.000000
rprop_delta_max=50.000000
rprop_delta_zero=0.100000
cascade_output_stagnation_epochs=12
cascade_candidate_change_fraction=0.010000
cascade_candidate_stagnation_epochs=12
cascade_max_out_epochs=150
cascade_min_out_epochs=50
cascade_max_cand_epochs=150
cascade_min_cand_epochs=50
cascade_num_candidate_groups=2
bit_fail_limit=1.00000000000000005551e-01
cascade_candidate_limit=1.00000000000000000000e+03
cascade_weight_multiplier=4.00000000000000022204e-01
cascade_activation_functions_count=10
cascade_activation_functions=3 5 7 8 10 11 14 15 16 17 
cascade_activation_steepnesses_count=4
cascade_activation_steepnesses=2.50000000000000000000e-01 5.00000000000000000000e-01 7.50000000000000000000e-01 1.00000000000000000000e+00 
layer_sizes=18 11 2 
scale_included=0
neurons (num_inputs, activation_function, activation_steepness)=(0, 0, 0.00000000000000000000e+00) (0, 0, 0.00000000000000000000e+00) (0, 0, 0.00000000000000000000e+00) (0, 0, 0.00000000000000000000e+00) (0, 0, 0.00000000000000000000e+00) (0, 0, 0.00000000000000000000e+00) (0, 0, 0.00000000000000000000e+00) (0, 0, 0.00000000000000000000e+00) (0, 0, 0.00000000000000000000e+00) (0, 0, 0.00000000000000000000e+00) (0, 0, 0.00000000000000000000e+00) (0, 0, 0.00000000000000000000e+00) (0, 0, 0.00000000000000000000e+00) (0, 0, 0.00000000000000000000e+00) (0, 0, 0.00000000000000000000e+00) (0, 0, 0.00000000000000000000e+00) (0, 0, 0.00000000000000000000e+00) (0, 0, 0.00000000000000000000e+00) (18, 6, 5.00000000000000000000e-01) (18, 6, 5.00000000000000000000e-01) (18, 6, 5.00000000000000000000e-01) (18, 6, 5.00000000000000000000e-01) (18, 6, 5.00000000000000000000e-01) (18, 6, 5.00000000000000000000e-01) (18, 6, 5.00000000000000000000e-01) (18, 6, 5.00000000000000000000e-01) (18, 6, 5.00000000000000000000e-01) (18, 6, 5.00000000000000000000e-01) (0, 6, 0.00000000000000000000e+00) (11, 6, 5.00000000000000000000e-01) (0, 6, 0.00000000000000000000e+00) 
connections (connected_to_neuron, weight)=(0, 6.84869426175868212248e-01) (1, 2.28998799185788554089e-01) (2, 1.21759739081895301815e-01) (3, 9.62401631582140426602e-02) (4, 5.76432909179091096386e-02) (5, -2.30132362365158937845e-01) (6, -7.30725143969988416570e-02) (7, 8.17886004393036003535e+00) (8, -6.15899169632056042722e-01) (9, -6.49578288984602597589e-02) (10, 2.64386293400678518140e+00) (11, -5.06373298288321088689e-02) (12, 9.54469733987623847327e+00) (13, -3.58632310266695925050e-02) (14, -3.44467237500822254237e-01) (15, 8.86855393516462198189e-02) (16, -8.15396533036560788865e-01) (17, 1.76850306867623249807e-02) (0, -1.69585321898962959608e+00) (1, -9.85161888535151103463e-02) (2, 4.20346704189648728844e-02) (3, 5.11645075743070165686e-02) (4, -4.07355430657992262367e-02) (5, 8.84099449195703962490e-02) (6, 2.08350289023214785278e-01) (7, 1.35434660722799971033e+00) (8, 1.10884153167010301999e+00) (9, 2.28827585238818520530e-01) (10, 3.66474356890782781981e-01) (11, 1.20770186355584993598e-01) (12, 1.34525457526767300287e+00) (13, 3.26970106554662798271e-01) (14, 1.52845531088577069045e-01) (15, 1.51551134314796109859e-01) (16, -4.10126067994818002682e-02) (17, 1.48424792444998177032e-01) (0, 1.77184274877719549757e+00) (1, 1.44681153731281680885e-01) (2, 1.54587319033081455055e-01) (3, 1.56838668422634525124e-01) (4, 2.40135943429405612770e-01) (5, 1.88103212394690105791e-01) (6, 6.96589711585632598290e-02) (7, -1.34673242560028394443e+00) (8, -9.66969789038816029958e-01) (9, -1.08781954062206989708e-01) (10, -2.75897669731564210149e-01) (11, -6.30489040723841376312e-01) (12, -1.42855879011597708406e+00) (13, -6.22514050761453843763e-02) (14, -3.92592172679780027078e-01) (15, -2.95203692704839371075e-01) (16, -5.61560247211845414705e-02) (17, 1.81764347692827121783e-01) (0, 1.32640943376831677014e+00) (1, 3.46584038267289229474e-01) (2, 2.64414132962380477032e-01) (3, 4.25030866096173354229e-01) (4, 2.87161385098849419872e-01) (5, -1.66345788871162081346e-01) (6, -1.47942360717328885711e-01) (7, -2.94998836274228359855e+00) (8, -6.43480567481845788791e-01) (9, 1.53893716627784993972e-02) (10, -4.52997515212083534664e-01) (11, 5.78751808916440207975e-02) (12, -2.86185435158410150791e+00) (13, -1.79174261271926593686e-01) (14, 8.11458623920788824080e-02) (15, -4.72753120117370029263e-01) (16, -7.53546315097829877416e-01) (17, 2.81103485099072833431e-02) (0, 1.45676214321069363855e+00) (1, 2.72730420523069561067e-01) (2, 3.59166051440618694368e-01) (3, 3.68034224205396831575e-01) (4, 4.41922220580957592073e-01) (5, -2.73109777604453651811e-01) (6, -1.61835972446473963515e-01) (7, -2.98172712082944180167e+00) (8, -7.50023907270759737642e-01) (9, 9.66054238373466878098e-02) (10, -3.71439295123601631587e-01) (11, 8.29652271186223089217e-02) (12, -3.00741911259689409519e+00) (13, -2.19049343943568897153e-01) (14, 2.34280708591015629505e-02) (15, -4.33537186585847278408e-01) (16, -8.50275325441381513158e-01) (17, 2.38818048100612245754e-01) (0, 2.39833373621509338136e+00) (1, 1.82517234544789713757e-01) (2, 2.30020542006528300183e-01) (3, 2.05172438483273905652e-01) (4, 2.29374427657163065808e-01) (5, -4.17659965167412272624e-01) (6, -8.43485024691557616627e-02) (7, 8.25229783897335167353e+00) (8, -5.12288765796282685727e-01) (9, -1.39864698839491201354e-02) (10, 2.70456870008859517895e+00) (11, -4.21893772603010724920e-02) (12, 9.54769447003180182776e+00) (13, 3.84698388742333530210e-01) (14, -2.96338390468036894099e-01) (15, 7.96536177265088907173e-02) (16, 1.83107730182727546087e+00) (17, -2.65164327741599370469e-02) (0, 2.51421829730675483461e+00) (1, 2.32922639230455863490e-01) (2, 4.77864551341195195611e-02) (3, 2.12482463101114738002e-01) (4, 1.60995874086584556117e-01) (5, -3.16304621110329142741e-01) (6, -4.99172237635588239568e-02) (7, 8.24038571660453911250e+00) (8, -6.50808522292235180906e-01) (9, -7.76083857608144550566e-02) (10, 2.53187250454578194336e+00) (11, -7.74381448448633880055e-02) (12, 9.50799867068106330237e+00) (13, 2.83349008875018293363e-01) (14, -2.17856820581829313532e-01) (15, 1.14755836116019999116e-01) (16, 3.28860113735916725908e-01) (17, 4.33608639120125691213e-02) (0, 1.60258648420798976986e+01) (1, 1.32569567330371784752e-01) (2, 2.06884958811294511483e-01) (3, 2.48497047491561845467e-01) (4, 7.89957205133552109455e-02) (5, 2.29587030816718773440e-01) (6, -7.51315144745675622673e-02) (7, -2.11736083913049988325e+00) (8, -6.86243401124806307045e-01) (9, 3.16589759739071968658e-02) (10, -3.52502429607137734990e-01) (11, -2.64090815723790783842e-01) (12, -1.98774841677270974749e+00) (13, -4.16616712422348711709e-01) (14, -9.53130941131787312592e-02) (15, -5.74124448736190173825e-01) (16, -7.14682620758246178738e-01) (17, 2.14822430989590085204e-01) (0, 1.56649349010124061543e+00) (1, 1.90460873680050296608e-01) (2, 1.55514253215725345436e-01) (3, 2.21839634613926334206e-01) (4, 2.73265113966400574608e-01) (5, 7.70397096657510771500e-02) (6, -2.53212027883663037819e-02) (7, -1.58662114459058645188e+00) (8, -9.97921467791715199880e-01) (9, -1.43971388948185702317e-01) (10, -2.53396886526531861517e-01) (11, -6.86522428504030890473e-01) (12, -1.43807239922728613557e+00) (13, -1.76548139409183735271e-01) (14, -2.78548259004911313852e-01) (15, -3.39943877846402786602e-01) (16, -7.00020562151150854691e-02) (17, 7.63942433799304071451e-02) (0, 1.76889512027911810499e+00) (1, 1.70045426531446663976e-01) (2, 3.07798734350813174565e-01) (3, 1.75354632033718316197e-01) (4, 1.39748035414827553868e-01) (5, 2.23158428741159903241e-02) (6, -1.50156284186853394846e-01) (7, -1.58223056959888341844e+00) (8, -1.03836186326614909881e+00) (9, -9.41933149220779003530e-02) (10, -2.90774959265179322454e-01) (11, -7.55778436175387091644e-01) (12, -1.48002854454364829451e+00) (13, -4.37381753978581422349e-01) (14, -3.42188615068754031778e-01) (15, -2.85546369344396255840e-01) (16, -1.26726470444508104718e-01) (17, 1.54747655829290342577e-01) (18, 4.19607571565891124266e-01) (19, 6.23701909126394227201e-01) (20, -6.53437054204392547829e-02) (21, -3.38032157315832859634e-01) (22, -3.80608317597729450821e-01) (23, 4.40125412547374583738e-01) (24, 4.62599865400577403562e-01) (25, -1.68337723201761713110e-01) (26, -6.21984279202866738312e-02) (27, -2.89596571247614176237e-01) (28, 4.18523739434128128067e-01) 
