FANN_FLO_2.1
num_layers=3
learning_rate=0.700000
connection_rate=1.000000
network_type=0
learning_momentum=0.000000
training_algorithm=2
train_error_function=1
train_stop_function=1
cascade_output_change_fraction=0.010000
quickprop_decay=-0.000100
quickprop_mu=1.750000
rprop_increase_factor=1.200000
rprop_decrease_factor=0.500000
rprop_delta_min=0.000000
rprop_delta_max=50.000000
rprop_delta_zero=0.100000
cascade_output_stagnation_epochs=12
cascade_candidate_change_fraction=0.010000
cascade_candidate_stagnation_epochs=12
cascade_max_out_epochs=150
cascade_min_out_epochs=50
cascade_max_cand_epochs=150
cascade_min_cand_epochs=50
cascade_num_candidate_groups=2
bit_fail_limit=1.00000000000000005551e-01
cascade_candidate_limit=1.00000000000000000000e+03
cascade_weight_multiplier=4.00000000000000022204e-01
cascade_activation_functions_count=10
cascade_activation_functions=3 5 7 8 10 11 14 15 16 17 
cascade_activation_steepnesses_count=4
cascade_activation_steepnesses=2.50000000000000000000e-01 5.00000000000000000000e-01 7.50000000000000000000e-01 1.00000000000000000000e+00 
layer_sizes=13 11 2 
scale_included=0
neurons (num_inputs, activation_function, activation_steepness)=(0, 0, 0.00000000000000000000e+00) (0, 0, 0.00000000000000000000e+00) (0, 0, 0.00000000000000000000e+00) (0, 0, 0.00000000000000000000e+00) (0, 0, 0.00000000000000000000e+00) (0, 0, 0.00000000000000000000e+00) (0, 0, 0.00000000000000000000e+00) (0, 0, 0.00000000000000000000e+00) (0, 0, 0.00000000000000000000e+00) (0, 0, 0.00000000000000000000e+00) (0, 0, 0.00000000000000000000e+00) (0, 0, 0.00000000000000000000e+00) (0, 0, 0.00000000000000000000e+00) (13, 6, 5.00000000000000000000e-01) (13, 6, 5.00000000000000000000e-01) (13, 6, 5.00000000000000000000e-01) (13, 6, 5.00000000000000000000e-01) (13, 6, 5.00000000000000000000e-01) (13, 6, 5.00000000000000000000e-01) (13, 6, 5.00000000000000000000e-01) (13, 6, 5.00000000000000000000e-01) (13, 6, 5.00000000000000000000e-01) (13, 6, 5.00000000000000000000e-01) (0, 6, 0.00000000000000000000e+00) (11, 6, 5.00000000000000000000e-01) (0, 6, 0.00000000000000000000e+00) 
connections (connected_to_neuron, weight)=(0, 6.52404428594718921453e-02) (1, 3.77990181378340048268e-02) (2, 7.89655249633544262244e-03) (3, 7.02508414916013790297e-02) (4, 1.15303347639059347585e-02) (5, 1.04553161332148181195e+00) (6, -3.14143556127632825326e-02) (7, -1.37426959809855138255e-03) (8, -4.21352196795004818597e+00) (9, 2.22845779467520099804e-01) (10, 3.88768000375395494927e-01) (11, 1.59973122557366025376e+02) (12, 7.60110548324592905090e-02) (0, 2.54182896233500033034e+00) (1, 1.44446625076105533703e-01) (2, 3.34570488594343629085e-01) (3, 3.18751967213919018551e-01) (4, 1.77509828172495304210e-01) (5, -6.08858485600235965762e+00) (6, 9.51231079951702618303e+00) (7, 6.86553133977074736549e-02) (8, -5.15352454615152488770e+00) (9, 1.43671163579552310097e+01) (10, 8.54527943319519422971e-01) (11, 7.44433503003797625297e-01) (12, 5.26943423234111918418e-01) (0, 5.13373098914294789807e+00) (1, 9.09611341833538450397e-02) (2, 1.12396216142124596993e-01) (3, 7.94240658277937418286e-03) (4, -6.29465456014205448909e-03) (5, 3.72814265194438609896e-01) (6, 2.70901977949189243233e+00) (7, 6.14365809972618401313e-02) (8, 5.12597415156805027436e+01) (9, -5.54620550663451838957e-01) (10, -1.54989209473087752311e-01) (11, 3.08890639238953657042e-01) (12, 3.28814402338265143744e-01) (0, -2.21288398850243456240e-01) (1, -2.43167409028195516396e-02) (2, -5.46852925147198395961e-02) (3, -1.12281271542691400700e-02) (4, -2.94790950671664636618e-03) (5, 8.37098682079267297773e-01) (6, -5.64369368424348996638e-03) (7, -2.15512361174871255876e-02) (8, 7.70173464131515743247e+02) (9, -1.63687270265905404631e-01) (10, 1.73761786709425158914e-02) (11, -2.61660449319351906539e+00) (12, 1.40907676895060229860e-01) (0, 1.33662146167846174194e+01) (1, 7.68440546937728622551e-03) (2, 1.44645731472451910538e-01) (3, 5.60680809850289951779e-02) (4, 1.67591180228669922592e-01) (5, -1.14305387692002611288e+01) (6, -3.05165526225987226994e+00) (7, 1.41557644571521160093e-02) (8, 8.74312632264061417864e-01) (9, -1.12724173052631404524e+00) (10, -2.36195217734849111091e-01) (11, -3.61175866192724326353e+00) (12, 7.77005020345231001144e-01) (0, -1.61710818995997152037e-01) (1, 8.03963566950773589337e-02) (2, -1.07736845798113392569e-01) (3, -4.45416320047623687239e-03) (4, -3.48021437593484597728e-02) (5, 7.17786485109281557904e-01) (6, -8.35390238356696970823e-03) (7, 2.19148802357480333713e-02) (8, 5.19632592700630624449e+01) (9, -6.30235608856046514159e-02) (10, -2.31823663549190872590e-01) (11, -5.75645660578628870496e-01) (12, 1.99857259877101491041e-02) (0, 3.46705606149280498585e+01) (1, 1.47159376405198050186e-01) (2, 2.26852880083043051407e-01) (3, 1.78788320384938220764e-01) (4, 2.99376339875180141892e-01) (5, 7.49665732450407906740e-01) (6, -1.10746689224677492547e+01) (7, 1.51971233033883573738e-01) (8, -1.00636284240095283393e-01) (9, -1.09585039022866270741e+00) (10, -8.77525858594876639884e-01) (11, -9.45099766304054789146e+00) (12, 2.96630466745959031627e+00) (0, 2.86720496888333720165e+01) (1, 1.31101959609676660401e-01) (2, 2.12902025544334738694e-01) (3, 1.41409524941135733567e-01) (4, 2.65447051489044516526e-01) (5, 2.25525162049558502986e+00) (6, -8.73545534848998705968e+00) (7, -1.82249280185307546698e-02) (8, 2.52764265839998358842e+00) (9, -6.49914805834513331639e-01) (10, -7.01632816897944378010e-02) (11, -5.60131485764457011101e+02) (12, 1.25552506859832035957e+00) (0, 9.16043929095119402461e+00) (1, 7.48332870792059234866e-01) (2, 8.70242943655161305117e-01) (3, 7.57725333462862304934e-01) (4, 7.94770648370890064882e-01) (5, -4.75107438193788844671e+00) (6, -4.81980145097342393967e+00) (7, 3.46520721860953340165e-01) (8, 1.69011603058065151828e+00) (9, -8.36397602294561393066e-01) (10, 1.39976327736958161552e+00) (11, 3.87821902810022822727e-01) (12, 7.95616833581950122500e-01) (0, -1.93629594286247874724e-01) (1, -7.94239092550522510217e-03) (2, -1.33563255139375371139e-02) (3, 6.35129089287733289426e-02) (4, 7.72566522292112561887e-02) (5, 8.03759420070600305586e-01) (6, 1.54957297283569550572e-01) (7, -1.88026998464609941542e-03) (8, 5.19984286032825906432e+01) (9, -7.61700858169818556531e-02) (10, -1.97188425199753158967e-01) (11, -1.28472548079031123613e+00) (12, -1.84500423483474965125e-02) (13, 4.44569302105758235033e-01) (14, 5.11440580784207510234e-01) (15, 1.10450876865880828759e-01) (16, 6.70131281538310141777e-01) (17, -8.17352890857081931797e-02) (18, 3.52300563415060719041e-01) (19, -1.18791122623870107344e-01) (20, -1.85565836130876626875e-01) (21, -5.78068509310223022091e-01) (22, 3.32108532002054868126e-01) (23, 3.57560061826904973525e-01) 
