FANN_FLO_2.1
num_layers=3
learning_rate=0.700000
connection_rate=1.000000
network_type=0
learning_momentum=0.000000
training_algorithm=2
train_error_function=1
train_stop_function=1
cascade_output_change_fraction=0.010000
quickprop_decay=-0.000100
quickprop_mu=1.750000
rprop_increase_factor=1.200000
rprop_decrease_factor=0.500000
rprop_delta_min=0.000000
rprop_delta_max=50.000000
rprop_delta_zero=0.100000
cascade_output_stagnation_epochs=12
cascade_candidate_change_fraction=0.010000
cascade_candidate_stagnation_epochs=12
cascade_max_out_epochs=150
cascade_min_out_epochs=50
cascade_max_cand_epochs=150
cascade_min_cand_epochs=50
cascade_num_candidate_groups=2
bit_fail_limit=1.00000000000000005551e-01
cascade_candidate_limit=1.00000000000000000000e+03
cascade_weight_multiplier=4.00000000000000022204e-01
cascade_activation_functions_count=10
cascade_activation_functions=3 5 7 8 10 11 14 15 16 17 
cascade_activation_steepnesses_count=4
cascade_activation_steepnesses=2.50000000000000000000e-01 5.00000000000000000000e-01 7.50000000000000000000e-01 1.00000000000000000000e+00 
layer_sizes=17 11 2 
scale_included=0
neurons (num_inputs, activation_function, activation_steepness)=(0, 0, 0.00000000000000000000e+00) (0, 0, 0.00000000000000000000e+00) (0, 0, 0.00000000000000000000e+00) (0, 0, 0.00000000000000000000e+00) (0, 0, 0.00000000000000000000e+00) (0, 0, 0.00000000000000000000e+00) (0, 0, 0.00000000000000000000e+00) (0, 0, 0.00000000000000000000e+00) (0, 0, 0.00000000000000000000e+00) (0, 0, 0.00000000000000000000e+00) (0, 0, 0.00000000000000000000e+00) (0, 0, 0.00000000000000000000e+00) (0, 0, 0.00000000000000000000e+00) (0, 0, 0.00000000000000000000e+00) (0, 0, 0.00000000000000000000e+00) (0, 0, 0.00000000000000000000e+00) (0, 0, 0.00000000000000000000e+00) (17, 6, 5.00000000000000000000e-01) (17, 6, 5.00000000000000000000e-01) (17, 6, 5.00000000000000000000e-01) (17, 6, 5.00000000000000000000e-01) (17, 6, 5.00000000000000000000e-01) (17, 6, 5.00000000000000000000e-01) (17, 6, 5.00000000000000000000e-01) (17, 6, 5.00000000000000000000e-01) (17, 6, 5.00000000000000000000e-01) (17, 6, 5.00000000000000000000e-01) (0, 6, 0.00000000000000000000e+00) (11, 6, 5.00000000000000000000e-01) (0, 6, 0.00000000000000000000e+00) 
connections (connected_to_neuron, weight)=(0, 1.41515604007070172621e+00) (1, 3.45457492359898143963e-01) (2, 1.68355820664188610136e-01) (3, 2.56047805734894218244e-01) (4, 2.77097729929707048413e-01) (5, 1.84678129460282036689e+00) (6, 8.24993861723480770287e-01) (7, -1.60406942844873801057e+00) (8, -6.37346575376396629053e+00) (9, 2.89737652388285653160e+02) (10, 1.60911014994661138999e+00) (11, -5.91304156285784254798e-01) (12, 4.05253593979448600848e-01) (13, 2.76189266167790659079e-01) (14, 1.46497809036682680173e+00) (15, 1.40142392578273128345e-01) (16, -2.07513517912173039992e-01) (0, -9.81554410925791742670e+00) (1, -4.93258157554280263213e-01) (2, -4.40299341264378529814e-01) (3, -4.91690324428688985137e-01) (4, -4.23753509107243520049e-01) (5, 4.25733158943112713346e-02) (6, 1.52490218122861648231e-01) (7, 8.94436509475804109037e-01) (8, 3.61133462501686608448e+00) (9, 2.81111834033835794600e+00) (10, 2.19449899186769437076e-01) (11, 1.55589939051965564509e+00) (12, -2.21089787201778270598e-01) (13, 7.65611941443325560996e-01) (14, 2.59444425238745945972e-01) (15, 5.37204760671603276379e-01) (16, -1.33872013563086034171e-01) (0, 2.07378044188012955473e+00) (1, 5.72697829724827300879e-01) (2, 5.20914480359831344458e-01) (3, 6.12884316863098632666e-01) (4, 5.93321774424591552588e-01) (5, 2.17213887007136313700e-01) (6, 1.30259012772065174701e+00) (7, -3.78823898241172074552e-01) (8, 1.90700383645241489106e+00) (9, -8.92911945761370517971e+00) (10, 4.09656777254337023386e-01) (11, -3.44852915082037281280e+00) (12, 2.18476343390691196689e+00) (13, 3.75234029254334966463e-01) (14, 3.08954491363211181110e+00) (15, 5.83267089715179820608e-01) (16, 2.13988618679387920807e+00) (0, 2.17079108618952432153e+00) (1, 5.34813228186079903104e-01) (2, 6.02677605237671776273e-01) (3, 6.24009995844075016080e-01) (4, 6.57047047402569694974e-01) (5, 2.19992584721189238239e-01) (6, 6.57840677044060129219e-01) (7, -3.84792811677108048674e-01) (8, 2.67428244324454356118e+00) (9, -6.03973244865138614301e+00) (10, 3.52486844942674570902e-01) (11, -9.90761472429115830352e-01) (12, 1.01172246219655903587e+00) (13, 3.18242416205647415950e-01) (14, 2.29992955816154731608e+00) (15, 5.71768549328663722164e-01) (16, 2.22700008321901066211e+00) (0, -8.04427091117820292077e-01) (1, -1.40835899702307781878e-01) (2, -2.11712729028460611147e-01) (3, -3.12047902337309723819e-01) (4, -1.76397908321616225802e-01) (5, -4.40224259767908743246e-01) (6, -1.75347154196526022751e-01) (7, 6.31203046849024063114e-01) (8, 5.89519403515747608679e+00) (9, 7.16662159442649882024e-01) (10, -1.94808980110112550665e-01) (11, 4.56464158483096515972e-01) (12, -1.44517103905971999733e-01) (13, -1.94583585731500190164e-02) (14, -1.01545448227655943363e+00) (15, -1.94802933738479649994e-01) (16, -1.61825709565355330133e-01) (0, -2.21362631015349309305e-01) (1, 3.77096600643606408299e-02) (2, -1.61483966001062101414e-02) (3, 1.82159311882467769839e-02) (4, -3.82126199088376550597e-03) (5, -2.24079885471137274511e-01) (6, -2.26410850608122354855e-01) (7, 1.23985694645950506043e+00) (8, 1.93810604114100556217e+02) (9, -3.11220587316095864683e-01) (10, -3.19572608263588520128e-01) (11, -3.61157982434796409610e-01) (12, -6.47261361892875475288e-02) (13, -1.32909275046815544830e-01) (14, -8.99198393569259762925e-02) (15, -2.76611797635376646665e-02) (16, -1.36143977085409179084e-01) (0, 1.30667459565227139784e+00) (1, 2.75527423211357591626e-01) (2, 3.17344782837650829510e-01) (3, 2.73779658564350603100e-01) (4, 3.41139597781918102459e-01) (5, 1.85290442760653206733e+00) (6, 8.41537190485535213647e-01) (7, -1.54322094888995864359e+00) (8, -6.48466210034494849879e+00) (9, 2.89814290814917342232e+02) (10, 1.76870159357894896068e+00) (11, -4.39640346271059967442e-01) (12, 3.61192365346521548908e-01) (13, 1.42892031394154572777e-01) (14, 1.44811221106957033200e+00) (15, 2.47356352990886318999e-01) (16, -6.61643429286790374366e-02) (0, 1.78176780846630955502e+00) (1, 5.85777341510960503079e-01) (2, 5.37601105060288353421e-01) (3, 6.02087794925877495267e-01) (4, 5.28596039052912636258e-01) (5, 2.07289881245237145313e-01) (6, 5.64735699823772252515e-01) (7, -5.33686302110800925291e-01) (8, 2.81097288301726511150e+00) (9, -6.02843267460067355756e+00) (10, 2.12657121115618102936e-01) (11, -8.74542727895286226003e-02) (12, 9.89995915369421553009e-01) (13, 3.07800919237378067805e-01) (14, 2.24506970388059912125e+00) (15, 5.42047762484608952605e-01) (16, 2.31096163709064184033e+00) (0, 3.20339529752778906513e-01) (1, -1.00100653781491036320e-01) (2, 8.60945185879890412251e-02) (3, -1.74307847162063836444e-02) (4, 3.23491892079536200177e-02) (5, -6.57328143754831867307e-02) (6, 2.23852747018528502876e-01) (7, 4.71375163063056171198e-02) (8, -3.75059526099369691110e+01) (9, 4.86712633359953017465e-01) (10, 7.26056509705803709842e-01) (11, 3.48134745983522619905e-01) (12, 9.74363880777023155799e-02) (13, -1.37779148830757897093e-01) (14, 1.77750523171949365020e-02) (15, -9.00480392949052632634e-02) (16, 1.27490687121342927135e-01) (0, 3.57589491060627595598e-01) (1, -1.13564170325997065153e-02) (2, 1.00142844592330422515e-02) (3, 8.12151916896102499255e-02) (4, -1.78082654130483526711e-03) (5, -1.00156151269639989709e-01) (6, -6.69615595990340900512e-02) (7, -1.91396212533861387328e+00) (8, 8.57097968788198771861e-01) (9, -5.52148839328168383744e-01) (10, -4.83169060644430437002e-01) (11, -7.19780453913739348693e-01) (12, 6.32916438007018744560e-02) (13, -5.14454287124836151524e-02) (14, -1.72151171454271278982e-01) (15, -3.00819141927877974074e-02) (16, 1.66537345521547336391e-01) (17, 4.68754654770199785663e-01) (18, 5.16557314891076369001e-01) (19, -1.80834053181302620295e-02) (20, -3.48524071816064262563e-02) (21, 5.53877007308902657989e-01) (22, 4.37208372767519892754e-01) (23, 4.64044591431920061542e-01) (24, -4.09904338959313774282e-02) (25, -6.73237414028460129378e-02) (26, -2.33888212584533017324e-01) (27, 3.18452605504742192188e-01) 
