FANN_FLO_2.1
num_layers=3
learning_rate=0.700000
connection_rate=1.000000
network_type=0
learning_momentum=0.000000
training_algorithm=2
train_error_function=1
train_stop_function=1
cascade_output_change_fraction=0.010000
quickprop_decay=-0.000100
quickprop_mu=1.750000
rprop_increase_factor=1.200000
rprop_decrease_factor=0.500000
rprop_delta_min=0.000000
rprop_delta_max=50.000000
rprop_delta_zero=0.100000
cascade_output_stagnation_epochs=12
cascade_candidate_change_fraction=0.010000
cascade_candidate_stagnation_epochs=12
cascade_max_out_epochs=150
cascade_min_out_epochs=50
cascade_max_cand_epochs=150
cascade_min_cand_epochs=50
cascade_num_candidate_groups=2
bit_fail_limit=1.00000000000000005551e-01
cascade_candidate_limit=1.00000000000000000000e+03
cascade_weight_multiplier=4.00000000000000022204e-01
cascade_activation_functions_count=10
cascade_activation_functions=3 5 7 8 10 11 14 15 16 17 
cascade_activation_steepnesses_count=4
cascade_activation_steepnesses=2.50000000000000000000e-01 5.00000000000000000000e-01 7.50000000000000000000e-01 1.00000000000000000000e+00 
layer_sizes=18 4 2 
scale_included=0
neurons (num_inputs, activation_function, activation_steepness)=(0, 0, 0.00000000000000000000e+00) (0, 0, 0.00000000000000000000e+00) (0, 0, 0.00000000000000000000e+00) (0, 0, 0.00000000000000000000e+00) (0, 0, 0.00000000000000000000e+00) (0, 0, 0.00000000000000000000e+00) (0, 0, 0.00000000000000000000e+00) (0, 0, 0.00000000000000000000e+00) (0, 0, 0.00000000000000000000e+00) (0, 0, 0.00000000000000000000e+00) (0, 0, 0.00000000000000000000e+00) (0, 0, 0.00000000000000000000e+00) (0, 0, 0.00000000000000000000e+00) (0, 0, 0.00000000000000000000e+00) (0, 0, 0.00000000000000000000e+00) (0, 0, 0.00000000000000000000e+00) (0, 0, 0.00000000000000000000e+00) (0, 0, 0.00000000000000000000e+00) (18, 6, 5.00000000000000000000e-01) (18, 6, 5.00000000000000000000e-01) (18, 6, 5.00000000000000000000e-01) (0, 6, 0.00000000000000000000e+00) (4, 4, 5.00000000000000000000e-01) (0, 4, 0.00000000000000000000e+00) 
connections (connected_to_neuron, weight)=(0, 4.27395586160600071679e+00) (1, -3.65008570592238612562e+00) (2, 3.94977522850811837429e+01) (3, -2.08077544811920089884e-01) (4, -1.82289959149569682495e+01) (5, -1.02211571466218464899e+00) (6, 1.01929846179787997329e+00) (7, 1.89489103785295114335e+01) (8, -2.05822663527181610732e+01) (9, -9.14660937448990574161e-01) (10, -2.22741785522956980969e+01) (11, -6.44543257398155304827e+01) (12, -1.31145311477860371241e+01) (13, -1.31113582590294708297e+01) (14, -1.12440436577723623657e+01) (15, -4.19551717309646363674e+01) (16, -4.18586033265820347538e+01) (17, -1.97339863582852825807e+00) (0, 1.38131353253203292830e+00) (1, 2.86858351625812579844e-01) (2, -3.34942153768987838092e+00) (3, -1.20846517119841734278e+00) (4, 2.83814639829822334960e+00) (5, -2.42350738994759895562e+00) (6, 2.14475019051149462523e-01) (7, -3.10673874424335849653e+00) (8, 5.25461581828960966334e+00) (9, 5.90718216084531455579e+00) (10, 4.11120045470198758331e-01) (11, 7.14455688334632732506e+00) (12, 6.79476820555234972687e+00) (13, 6.78820827294806949936e+00) (14, 4.04013266702434226119e+00) (15, 1.10830446544403535825e+01) (16, 1.10379778252109996828e+01) (17, -5.00020447073630913692e-01) (0, 2.33526161725111506939e+02) (1, -6.52749375210811990655e+01) (2, -1.40383531884336076878e+00) (3, -1.19398607692857039453e+00) (4, 1.65720370210539619249e-01) (5, 3.26448260353689212465e+00) (6, 1.35323352984306950475e+01) (7, -2.19481807846366727688e+00) (8, 1.46519999740123739684e+03) (9, -6.99191800245346257725e+02) (10, 1.31617861709406656701e+03) (11, -2.69474033977243543347e+01) (12, -1.02255818956944224851e+02) (13, -1.02255818956944224851e+02) (14, 1.50000000000000000000e+03) (15, 2.12010051131964644355e+02) (16, 2.10791050471389070253e+02) (17, 2.58524591082924226626e+00) (18, 1.13699014198634351658e+01) (19, 1.15008057194825692449e+01) (20, -1.19054015943697422131e+00) (21, -4.53843025806850963733e+00) 
