FANN_FLO_2.1
num_layers=3
learning_rate=0.700000
connection_rate=1.000000
network_type=0
learning_momentum=0.000000
training_algorithm=2
train_error_function=1
train_stop_function=1
cascade_output_change_fraction=0.010000
quickprop_decay=-0.000100
quickprop_mu=1.750000
rprop_increase_factor=1.200000
rprop_decrease_factor=0.500000
rprop_delta_min=0.000000
rprop_delta_max=50.000000
rprop_delta_zero=0.100000
cascade_output_stagnation_epochs=12
cascade_candidate_change_fraction=0.010000
cascade_candidate_stagnation_epochs=12
cascade_max_out_epochs=150
cascade_min_out_epochs=50
cascade_max_cand_epochs=150
cascade_min_cand_epochs=50
cascade_num_candidate_groups=2
bit_fail_limit=1.00000000000000005551e-01
cascade_candidate_limit=1.00000000000000000000e+03
cascade_weight_multiplier=4.00000000000000022204e-01
cascade_activation_functions_count=10
cascade_activation_functions=3 5 7 8 10 11 14 15 16 17 
cascade_activation_steepnesses_count=4
cascade_activation_steepnesses=2.50000000000000000000e-01 5.00000000000000000000e-01 7.50000000000000000000e-01 1.00000000000000000000e+00 
layer_sizes=18 11 2 
scale_included=0
neurons (num_inputs, activation_function, activation_steepness)=(0, 0, 0.00000000000000000000e+00) (0, 0, 0.00000000000000000000e+00) (0, 0, 0.00000000000000000000e+00) (0, 0, 0.00000000000000000000e+00) (0, 0, 0.00000000000000000000e+00) (0, 0, 0.00000000000000000000e+00) (0, 0, 0.00000000000000000000e+00) (0, 0, 0.00000000000000000000e+00) (0, 0, 0.00000000000000000000e+00) (0, 0, 0.00000000000000000000e+00) (0, 0, 0.00000000000000000000e+00) (0, 0, 0.00000000000000000000e+00) (0, 0, 0.00000000000000000000e+00) (0, 0, 0.00000000000000000000e+00) (0, 0, 0.00000000000000000000e+00) (0, 0, 0.00000000000000000000e+00) (0, 0, 0.00000000000000000000e+00) (0, 0, 0.00000000000000000000e+00) (18, 6, 5.00000000000000000000e-01) (18, 6, 5.00000000000000000000e-01) (18, 6, 5.00000000000000000000e-01) (18, 6, 5.00000000000000000000e-01) (18, 6, 5.00000000000000000000e-01) (18, 6, 5.00000000000000000000e-01) (18, 6, 5.00000000000000000000e-01) (18, 6, 5.00000000000000000000e-01) (18, 6, 5.00000000000000000000e-01) (18, 6, 5.00000000000000000000e-01) (0, 6, 0.00000000000000000000e+00) (11, 6, 5.00000000000000000000e-01) (0, 6, 0.00000000000000000000e+00) 
connections (connected_to_neuron, weight)=(0, 2.48247265617236649859e+01) (1, 4.84633470409438771309e-01) (2, 5.09069087439105505410e-01) (3, 5.16913297110126013223e-01) (4, 4.98105859839246434273e-01) (5, -2.52022794710014075292e+00) (6, 4.02819956386714805863e-01) (7, -4.96208321036069133214e+00) (8, -4.71760720594977478459e-01) (9, -6.88633829874614900035e+00) (10, -8.58352742223011278000e-01) (11, 3.69962053253515277262e-01) (12, 1.89924396375320281294e+00) (13, 1.77989481926613568596e+00) (14, -7.53671453872978958088e+00) (15, 1.93407676630771296900e-01) (16, 8.68288104485752554318e-01) (17, 8.33536511256986467622e-01) (0, -3.23660967134024746272e+00) (1, -2.59997350359099377304e-01) (2, -1.21659194314616234123e-01) (3, -1.71795209133761450637e-01) (4, -1.79640439534323737014e-01) (5, 8.04904618217817668935e-01) (6, 1.24184054922126280163e-01) (7, 1.04626568418549936723e+00) (8, 1.53951349056620179212e+00) (9, 1.22321268935565341529e+00) (10, -3.86600830930590388945e-01) (11, 1.65517604584940247747e-01) (12, 1.34930635375815133337e+00) (13, 1.39500184662281467851e+00) (14, 9.26643170259381032672e-01) (15, 5.97398285228659467472e-02) (16, 1.83006607004108645675e-01) (17, -1.90982885045437339455e-01) (0, 3.79414043473745021817e-01) (1, 1.67508300752087696539e-01) (2, 7.81517851955138981301e-02) (3, 1.14569429666443928229e-01) (4, 6.21755461997234096239e-02) (5, -2.47342507432987607219e-01) (6, 3.05360903902010039079e-01) (7, 1.91319350612057768046e+01) (8, 7.93364535093699418944e-01) (9, 1.68617962373540194676e+02) (10, -3.30104105018056870335e-01) (11, 2.14662910849861998663e-01) (12, 5.49318821605840112987e-01) (13, -1.48808520618788464596e-01) (14, 4.23477129957848308361e-01) (15, 5.04782804572116577946e-02) (16, 1.10939098085748047429e-01) (17, -3.12435845272834189501e-01) (0, -6.35789787411429219155e-01) (1, -6.97967197947830519933e-02) (2, -1.38780691867384287086e-01) (3, -6.02274175935119879255e-02) (4, -2.99677189641327293423e-02) (5, 3.91465885634194987741e-01) (6, -8.35165853549416220547e-02) (7, 1.87000136353732226979e+00) (8, 1.55395377007148649540e+00) (9, 1.54542268732046084168e+00) (10, 1.43165082494938172841e-01) (11, 9.33781133122378037559e-02) (12, 8.55051996865690222549e-01) (13, 9.08059851030271314443e-01) (14, 7.02778927332140673778e-02) (15, 2.56694508035004952118e-02) (16, 2.71048609353113256759e-01) (17, -2.00891268168606751399e-01) (0, 4.07106483432893355712e+01) (1, 4.42338348394271940744e-01) (2, 4.44550299113628200054e-01) (3, 4.23068755334255308664e-01) (4, 3.70343082612392515696e-01) (5, -1.93348536696370043586e+00) (6, 2.72884012776602957739e-01) (7, -6.77273041439383494122e+00) (8, -6.97108487503201534885e-01) (9, -7.53024601894702350080e+00) (10, -9.30826080400978805862e-02) (11, -1.10925372531854371516e+00) (12, 1.22838961857896267205e+00) (13, 8.37028394066642311699e-01) (14, -1.22595873159949135811e+01) (15, 7.42364291789051278236e-01) (16, 4.65766862261466352280e-01) (17, 9.65075113258742844913e-01) (0, -3.18938989572312481258e+00) (1, -2.66259816670554094742e-01) (2, -1.29088883483546301711e-01) (3, -1.68654774510996863235e-01) (4, -1.38491262877123905151e-01) (5, 2.83720388300565395934e-01) (6, -3.58546120931608619520e-02) (7, 1.21053112786833261261e+00) (8, 1.42986981417976699582e+00) (9, 1.34502348704459895323e+00) (10, 5.01952726570073590878e-03) (11, 2.11476248241621367363e-01) (12, 1.36180926619010667089e+00) (13, 1.35838505930839970048e+00) (14, 6.27399304152273185053e-01) (15, 1.06475643041620535167e-01) (16, 2.11833161959274457464e-01) (17, -1.72154016179470542580e-01) (0, 2.48732722650155579913e+01) (1, 7.56253863807520021467e-01) (2, 6.53000927652916285382e-01) (3, 6.27472485538324686871e-01) (4, 7.24523569579919923811e-01) (5, -1.26229556511278850905e+00) (6, 9.91092601115672461320e-02) (7, -9.49004484752423138616e+00) (8, -6.37453635261130135969e-03) (9, -1.01304445733965717835e+01) (10, 7.79095261085329116035e-01) (11, 2.93234089269502673503e-01) (12, 1.56420992635117417358e+00) (13, 1.76276863122540561335e+00) (14, -8.21261349872443879860e+00) (15, 6.04616697761517718490e-01) (16, 8.05038975429517189575e-01) (17, 7.97957065386094122061e-01) (0, -6.58817171726260930598e+00) (1, 4.36703826761952240698e-01) (2, 4.35192331201544602148e-01) (3, 5.27324098623505599370e-01) (4, 3.86940788007488933875e-01) (5, 4.78002144300081310835e-01) (6, -6.74572470125531786778e-02) (7, -1.68952024202747779213e+01) (8, 1.25678629645038619778e+00) (9, 1.88924301426106899804e+00) (10, 1.06206754248042556377e+00) (11, 2.08347574828979142936e+00) (12, 2.76855586578798895658e+00) (13, 3.18060357140494165407e+00) (14, 8.63300284606571111112e+00) (15, 4.56241470934102000268e-01) (16, 4.46152989972161184706e-01) (17, 2.50804971886602001696e-01) (0, 3.45985041693894235237e+00) (1, 2.28227800247520623556e-01) (2, 2.65062248823494273076e-01) (3, 2.91930890199989634404e-01) (4, 2.13942623255104241720e-01) (5, -3.56267738234092912197e-01) (6, 1.06338040504259517816e-01) (7, 1.89516806986822174963e+01) (8, -1.10119959345201956502e+00) (9, 1.68536571258798630879e+02) (10, 1.60471453810685527053e+00) (11, 6.10723488048667828565e-01) (12, -2.13350783275786648474e+00) (13, -1.83860266724647414271e+00) (14, 6.91464518880492917674e+00) (15, 2.73178712058950778907e-01) (16, 3.34168546536178279194e-01) (17, -2.28807146066556804653e-01) (0, 2.48650867591485535968e+01) (1, 6.65661376547550309724e-01) (2, 6.63299050760006059235e-01) (3, 7.04731479865049470490e-01) (4, 6.26024403255914796418e-01) (5, -6.45887668967937145226e-02) (6, 4.34842522567532696609e-01) (7, -1.10238715196161294330e+01) (8, 5.76629510889299368159e-01) (9, 1.09894699347340774054e+00) (10, 1.55074266147627470858e+00) (11, -7.90002036612400315718e-01) (12, -3.83028400215540010265e+00) (13, -9.39205881244176143952e-01) (14, -8.93145240991226962990e+00) (15, 8.53213462402288791431e-01) (16, -6.99903570081231718447e-01) (17, 1.47312012916628232162e+00) (18, -7.29291346518277094901e-02) (19, 4.64704213690255107938e-01) (20, 6.00330681984645453397e-01) (21, 4.39490332345454981500e-01) (22, -1.20509881990354450476e-01) (23, 4.83493462129274742534e-01) (24, -6.91997655898240887629e-02) (25, -3.56760517085001407911e-02) (26, 7.36137313039060159348e-01) (27, -1.08578311768164986750e-01) (28, 4.69569402388158030348e-01) 
