FANN_FLO_2.1
num_layers=3
learning_rate=0.700000
connection_rate=1.000000
network_type=0
learning_momentum=0.000000
training_algorithm=2
train_error_function=1
train_stop_function=1
cascade_output_change_fraction=0.010000
quickprop_decay=-0.000100
quickprop_mu=1.750000
rprop_increase_factor=1.200000
rprop_decrease_factor=0.500000
rprop_delta_min=0.000000
rprop_delta_max=50.000000
rprop_delta_zero=0.100000
cascade_output_stagnation_epochs=12
cascade_candidate_change_fraction=0.010000
cascade_candidate_stagnation_epochs=12
cascade_max_out_epochs=150
cascade_min_out_epochs=50
cascade_max_cand_epochs=150
cascade_min_cand_epochs=50
cascade_num_candidate_groups=2
bit_fail_limit=1.00000000000000005551e-01
cascade_candidate_limit=1.00000000000000000000e+03
cascade_weight_multiplier=4.00000000000000022204e-01
cascade_activation_functions_count=10
cascade_activation_functions=3 5 7 8 10 11 14 15 16 17 
cascade_activation_steepnesses_count=4
cascade_activation_steepnesses=2.50000000000000000000e-01 5.00000000000000000000e-01 7.50000000000000000000e-01 1.00000000000000000000e+00 
layer_sizes=23 11 2 
scale_included=0
neurons (num_inputs, activation_function, activation_steepness)=(0, 0, 0.00000000000000000000e+00) (0, 0, 0.00000000000000000000e+00) (0, 0, 0.00000000000000000000e+00) (0, 0, 0.00000000000000000000e+00) (0, 0, 0.00000000000000000000e+00) (0, 0, 0.00000000000000000000e+00) (0, 0, 0.00000000000000000000e+00) (0, 0, 0.00000000000000000000e+00) (0, 0, 0.00000000000000000000e+00) (0, 0, 0.00000000000000000000e+00) (0, 0, 0.00000000000000000000e+00) (0, 0, 0.00000000000000000000e+00) (0, 0, 0.00000000000000000000e+00) (0, 0, 0.00000000000000000000e+00) (0, 0, 0.00000000000000000000e+00) (0, 0, 0.00000000000000000000e+00) (0, 0, 0.00000000000000000000e+00) (0, 0, 0.00000000000000000000e+00) (0, 0, 0.00000000000000000000e+00) (0, 0, 0.00000000000000000000e+00) (0, 0, 0.00000000000000000000e+00) (0, 0, 0.00000000000000000000e+00) (0, 0, 0.00000000000000000000e+00) (23, 6, 5.00000000000000000000e-01) (23, 6, 5.00000000000000000000e-01) (23, 6, 5.00000000000000000000e-01) (23, 6, 5.00000000000000000000e-01) (23, 6, 5.00000000000000000000e-01) (23, 6, 5.00000000000000000000e-01) (23, 6, 5.00000000000000000000e-01) (23, 6, 5.00000000000000000000e-01) (23, 6, 5.00000000000000000000e-01) (23, 6, 5.00000000000000000000e-01) (0, 6, 0.00000000000000000000e+00) (11, 6, 5.00000000000000000000e-01) (0, 6, 0.00000000000000000000e+00) 
connections (connected_to_neuron, weight)=(0, -2.24506598435513071710e-01) (1, -2.87283338920706239616e-02) (2, -3.50903921143644603742e-02) (3, 1.84175468666917148408e-02) (4, -7.95414798276060791560e-02) (5, 3.42856310667046179641e-02) (6, -2.47577253872979900773e-02) (7, 1.28159865900627090163e+00) (8, -9.42057028520115522952e+02) (9, 3.25606560291929400530e-02) (10, 1.46320955221250804945e-02) (11, -2.86920084181676408874e-02) (12, 4.91001666877327117011e-02) (13, 2.16524587980671895382e-01) (14, 2.09026117196264876741e-01) (15, 1.37269202148444902090e-01) (16, 2.35448577735413416834e-01) (17, -1.02658992882233290889e-01) (18, -1.30790806556127875426e-01) (19, -2.19032689670802555026e-01) (20, 8.13814560562021838130e-01) (21, 7.77104166748433855538e-01) (22, 4.23630276602303124101e-02) (0, -1.20665796565060601253e+00) (1, -1.53362597817729845451e-01) (2, -5.69210234230269340738e-02) (3, -1.10992826068948599594e-01) (4, 9.96073753182994715838e-03) (5, -3.52263891947786136893e-02) (6, 6.65188315297494114908e-02) (7, 1.25407918333760215468e+00) (8, -9.41971163268395571322e+02) (9, -7.13147399423934708063e-02) (10, 1.34497016308318360911e-02) (11, -1.74530083529268409404e-01) (12, 9.70848009975775888547e-02) (13, -4.50898864420645056894e-02) (14, 4.29888101741757400198e-01) (15, 6.32569167792447067944e-02) (16, 2.71628291516725559052e-02) (17, 4.15841359193830362173e-02) (18, -3.12903623041164313801e-01) (19, -1.22293552648764985991e-01) (20, 8.00555136340801665185e-01) (21, 8.03190517258072667062e-01) (22, -4.66460006034140131637e-02) (0, -9.03803966876324110791e-02) (1, -1.65237495767377146061e-01) (2, -1.43098304139874704655e-01) (3, -2.13937880563042942539e-01) (4, -1.54884377586148508366e-01) (5, 2.15746287083515730920e-01) (6, 4.81210068626931442015e-01) (7, 1.00402612902227250657e+00) (8, 1.11536456232844560787e+00) (9, 3.52866222553219310853e-01) (10, 4.15648117097262737030e-01) (11, 1.67831307264691032000e-01) (12, 3.05848311077493273391e-01) (13, 5.50666574469784730894e-01) (14, 9.25963049686595707222e-01) (15, 4.78308188155607327818e-01) (16, 4.23962665538320404579e-01) (17, 5.88266142994960244961e-02) (18, -2.27044759866203621490e-01) (19, -9.51066140017157723996e-02) (20, 1.26490696934133595164e+00) (21, 1.37370224550026809318e+00) (22, -2.09000014725764710066e-01) (0, -1.00368505777014704883e+00) (1, -2.72845881183779948032e-01) (2, -3.75719042618907372866e-01) (3, -2.42808150251544313525e-01) (4, -3.23949987192786614809e-01) (5, 2.82232771105115576304e-01) (6, -4.13107510314344519853e-02) (7, 1.86925934531038229203e+00) (8, 2.70975092002342421438e+00) (9, 3.28392060326415713423e-01) (10, 2.07478738181399530172e-01) (11, 2.48408552510628100052e-01) (12, 8.13428574562540585013e-01) (13, 2.02026089466816272111e-01) (14, 1.14968788586085640668e-01) (15, -2.08243594889203631482e-01) (16, 4.52167304861972152441e-01) (17, 4.54623906582584891289e-01) (18, -1.78663889570371187121e-01) (19, -1.04547532894492686828e-01) (20, 7.98422989714507647108e-01) (21, 7.04845516645105418796e-01) (22, -1.73520099916454506594e-01) (0, -5.34233956694360578865e-01) (1, 3.17837531218969571167e-01) (2, 3.64653053234064328247e-01) (3, 2.54983718047582907928e-01) (4, 3.53337781975710141236e-01) (5, 1.13090899074960793413e+00) (6, 9.29148816388456061377e-02) (7, 1.11897929128511885999e+00) (8, 9.46681408133748846012e+02) (9, 7.27426903239092759179e-01) (10, 1.04488074189107271739e-01) (11, 1.01635575811130363100e+00) (12, 7.63340699995720073368e-01) (13, 1.50322894367298898199e-01) (14, 9.26003900887591981927e+01) (15, 7.47436110754461857653e+00) (16, 2.11408984925089029616e+01) (17, 4.09648309037161126867e+01) (18, 1.07091260353253714399e+00) (19, 1.26337790621886347786e+00) (20, 2.14302890980212629168e-01) (21, 1.92208123642052280955e-01) (22, 3.08262818502283819644e-01) (0, 6.72452966471051127861e-01) (1, 7.78235399358781498869e-01) (2, 7.49662392967256230314e-01) (3, 7.54243419700177830656e-01) (4, 8.45960424476178585174e-01) (5, -3.59349236918375836147e-01) (6, -3.33738693508863315529e-01) (7, -5.38536024200456209243e-01) (8, -6.49671004414853203723e-02) (9, -9.86471076007199521030e-01) (10, -8.13080381401409146847e-01) (11, -8.12372244456549097436e-01) (12, -2.37184359262030908244e-01) (13, 4.19601704166020827991e-01) (14, -9.31189771544293165562e-01) (15, -1.27531133605955249166e+00) (16, -1.92777226460530815011e+00) (17, -2.91528740536030417374e+00) (18, -8.53240002145162074187e-02) (19, 4.71795016265528943666e-01) (20, 1.21158134561958424902e-01) (21, -1.85624586748769471178e-01) (22, 1.43125207250207009402e+00) (0, 6.13655118869560145534e-01) (1, 7.32615591221364659269e-01) (2, 7.48960630231412571867e-01) (3, 8.43861998253377376678e-01) (4, 8.47850904994519649627e-01) (5, -1.46325226152295573279e+00) (6, -1.66962516528399107507e-01) (7, -5.17875035213964052261e-01) (8, 8.00275104116309199398e-02) (9, -8.63195088203263516391e-01) (10, -6.96707714148391943354e-01) (11, -7.94055722215910364525e-01) (12, -2.01975367641926639717e-01) (13, 5.63341546044434093865e-01) (14, -9.38504304539517164585e-01) (15, -1.05265888320011868906e+00) (16, -1.99781492692782935983e+00) (17, -2.98263747255858069352e+00) (18, -1.10090292533326405966e+00) (19, 4.60673840082305274812e-01) (20, 4.59724482120896227322e-02) (21, -6.23839631545113348920e-02) (22, 1.31602989967356687195e+00) (0, -1.46651982298756533574e+00) (1, -1.37606271060975782206e-01) (2, -4.19410248127305707033e-02) (3, -2.37279389825189208907e-02) (4, -7.80209083881700515839e-02) (5, -8.54386110383484193020e-02) (6, 5.88371786261925738826e-02) (7, 1.23450671300044967360e+00) (8, -9.42015119048961310000e+02) (9, 3.93377243651615443598e-02) (10, -2.71719389116619400304e-02) (11, -2.20498269256951678896e-02) (12, 1.61543151072190055428e-01) (13, 5.83534753767259162238e-02) (14, 3.77898501679387210928e-01) (15, -2.94609878182761318610e-02) (16, 1.21405776601167289530e-01) (17, 1.27685998336919903640e-01) (18, -3.18614112312794905968e-01) (19, -2.46550319981318738494e-01) (20, 7.60963200270779238643e-01) (21, 9.47009108048106007516e-01) (22, -4.06990484512571720765e-02) (0, -1.48215895673895770024e+00) (1, -6.73864562836015701386e-02) (2, -1.40430659505399457743e-01) (3, -1.00224648120673942575e-01) (4, -1.89222697940194840849e-02) (5, -6.14856513095419568438e-02) (6, -7.73026468502187053683e-03) (7, 1.27342646732679320998e+00) (8, -9.41991160589464811892e+02) (9, -2.95488810523530150837e-03) (10, 6.51281134188383542538e-02) (11, -2.02218992060125002386e-01) (12, 2.25806621543095359383e-01) (13, -5.47495269330732850510e-02) (14, 1.99071893163158625262e-01) (15, -6.24677341401926877751e-02) (16, 1.19256505398091211534e-01) (17, 1.08333621875890837027e-01) (18, -3.99466323610793982990e-01) (19, -2.35114788901549603972e-01) (20, 8.01099816947825060787e-01) (21, 7.65534318071032338082e-01) (22, -7.00091929353003489256e-02) (0, 7.15083553795429649469e-01) (1, 8.59476811924453243385e-01) (2, 8.63269123920674785744e-01) (3, 9.67064197847123385721e-01) (4, 8.84115952738996013771e-01) (5, -1.33886980871626271039e+00) (6, -1.04447779737346491125e+00) (7, -1.36777608255004756721e+00) (8, -1.05963814381192400482e+00) (9, -1.46313333235379494646e+00) (10, 1.99386243671365454011e-01) (11, -9.15487378700521325925e-01) (12, -1.16678826609534769254e+00) (13, 4.48996580377902465564e-01) (14, -1.70592109599282149013e+00) (15, -1.22762862234233027792e+00) (16, -1.96238696170404014474e+00) (17, -2.88913840066250493521e+00) (18, 1.28246260273118112272e-01) (19, 5.66697413613529543674e-01) (20, -7.93052246968048157871e-02) (21, -1.93220315831592381883e-01) (22, 2.16105638044986125834e+00) (23, -3.92548772495362519042e-01) (24, -2.97943314901206568468e-01) (25, 8.10640551433706169071e-01) (26, 6.10270689117154208070e-01) (27, 4.65643844145252894240e-01) (28, -1.81892739707253614512e-01) (29, -2.15334164077065737253e-01) (30, -3.77439586809489802111e-01) (31, -3.01939105819984787704e-01) (32, -1.56089367443345283792e-01) (33, 4.11473636216332427917e-01) 
