FANN_FLO_2.1
num_layers=3
learning_rate=0.700000
connection_rate=1.000000
network_type=0
learning_momentum=0.000000
training_algorithm=2
train_error_function=1
train_stop_function=1
cascade_output_change_fraction=0.010000
quickprop_decay=-0.000100
quickprop_mu=1.750000
rprop_increase_factor=1.200000
rprop_decrease_factor=0.500000
rprop_delta_min=0.000000
rprop_delta_max=50.000000
rprop_delta_zero=0.100000
cascade_output_stagnation_epochs=12
cascade_candidate_change_fraction=0.010000
cascade_candidate_stagnation_epochs=12
cascade_max_out_epochs=150
cascade_min_out_epochs=50
cascade_max_cand_epochs=150
cascade_min_cand_epochs=50
cascade_num_candidate_groups=2
bit_fail_limit=1.00000000000000005551e-01
cascade_candidate_limit=1.00000000000000000000e+03
cascade_weight_multiplier=4.00000000000000022204e-01
cascade_activation_functions_count=10
cascade_activation_functions=3 5 7 8 10 11 14 15 16 17 
cascade_activation_steepnesses_count=4
cascade_activation_steepnesses=2.50000000000000000000e-01 5.00000000000000000000e-01 7.50000000000000000000e-01 1.00000000000000000000e+00 
layer_sizes=6 11 2 
scale_included=0
neurons (num_inputs, activation_function, activation_steepness)=(0, 0, 0.00000000000000000000e+00) (0, 0, 0.00000000000000000000e+00) (0, 0, 0.00000000000000000000e+00) (0, 0, 0.00000000000000000000e+00) (0, 0, 0.00000000000000000000e+00) (0, 0, 0.00000000000000000000e+00) (6, 6, 5.00000000000000000000e-01) (6, 6, 5.00000000000000000000e-01) (6, 6, 5.00000000000000000000e-01) (6, 6, 5.00000000000000000000e-01) (6, 6, 5.00000000000000000000e-01) (6, 6, 5.00000000000000000000e-01) (6, 6, 5.00000000000000000000e-01) (6, 6, 5.00000000000000000000e-01) (6, 6, 5.00000000000000000000e-01) (6, 6, 5.00000000000000000000e-01) (0, 6, 0.00000000000000000000e+00) (11, 6, 5.00000000000000000000e-01) (0, 6, 0.00000000000000000000e+00) 
connections (connected_to_neuron, weight)=(0, -7.80747327208519692476e-02) (1, -1.35415980517864298349e-01) (2, -2.35776397585869545992e-02) (3, -2.05308744609355997568e-01) (4, -1.71327153146267008310e-01) (5, 6.17686788737774605806e-02) (0, 1.22137011885643076425e-01) (1, -8.39825513958931679781e-02) (2, -1.02229284048080515390e-01) (3, -6.76786991953850503023e-02) (4, -8.89653506875038857515e-02) (5, 1.05269947946071695810e-01) (0, 1.62799084484577250009e-01) (1, 2.55000385642052407320e-02) (2, 2.02853927314281534677e-01) (3, 9.02928429841995949801e-02) (4, 1.96695098578929972177e-01) (5, -5.76606038212776894625e-02) (0, 6.56690466403961892183e-02) (1, 8.71012005209923501070e-02) (2, 7.67468641698361153658e-02) (3, 1.85412073433399271494e-01) (4, 1.18637869060039591318e-01) (5, -1.30498068332672190195e-01) (0, -1.53789656162262033945e-01) (1, 4.67290151119232888277e-02) (2, 7.04163815081120247896e-02) (3, 7.24790523946285958345e-02) (4, 1.54859149754047464853e-01) (5, -3.23490443825722451265e-02) (0, -1.00691618323326181894e-01) (1, -1.43215591013431620127e-01) (2, -1.47765012383461069589e-01) (3, -1.04269267916679453378e-01) (4, -1.28524327576160501962e-01) (5, 1.40907863080501627451e-01) (0, 1.77499422729015421396e-01) (1, -2.63873282074928994234e-02) (2, -1.63074700087308954721e-01) (3, -1.44729869365692209726e-01) (4, -7.40660223364830727633e-02) (5, 2.07959974110126566416e-01) (0, 1.80540094077587198740e-01) (1, -1.31266938447952341562e-01) (2, -2.65399906039238686617e-02) (3, -7.66059997677803750094e-02) (4, -6.09741154313088173922e-02) (5, 1.90155113041400980478e-01) (0, 1.25733414590358805185e-01) (1, -2.15305069386959146982e-01) (2, -1.82743715047836374765e-01) (3, -5.75197282433510537203e-02) (4, -4.98930010199547524508e-02) (5, 1.55894169509410929209e-01) (0, 7.19822104275227303560e-02) (1, 5.63173609972000832613e-02) (2, 1.82623172104358744150e-01) (3, 1.22398594319820475107e-01) (4, 1.08796412050724100595e-01) (5, -1.22517706751823496347e-01) (6, -1.29950458109378885752e-01) (7, 2.81047987937927956636e-02) (8, -4.57332822680474038179e-02) (9, -5.77154698967934365328e-02) (10, -9.61644667387009377535e-02) (11, -1.54257612228393625742e-01) (12, 1.03192398250103067880e-01) (13, 1.01334961056709360605e-01) (14, -1.60644931644201349741e-01) (15, -7.98823031783104653414e-02) (16, -6.33948984742165322359e-02) 
